{"learner":{"attributes":{"best_iteration":"99","best_ntree_limit":"100","scikit_learn":"{\"n_estimators\": 100, \"objective\": \"reg:absoluteerror\", \"max_depth\": null, \"max_leaves\": null, \"max_bin\": null, \"grow_policy\": null, \"learning_rate\": null, \"verbosity\": null, \"booster\": null, \"tree_method\": null, \"gamma\": null, \"min_child_weight\": null, \"max_delta_step\": null, \"subsample\": null, \"sampling_method\": null, \"colsample_bytree\": null, \"colsample_bylevel\": null, \"colsample_bynode\": null, \"reg_alpha\": null, \"reg_lambda\": null, \"scale_pos_weight\": null, \"base_score\": null, \"missing\": NaN, \"num_parallel_tree\": null, \"random_state\": null, \"n_jobs\": null, \"monotone_constraints\": null, \"interaction_constraints\": null, \"importance_type\": null, \"gpu_id\": null, \"validate_parameters\": null, \"predictor\": null, \"enable_categorical\": false, \"feature_types\": null, \"max_cat_to_onehot\": null, \"max_cat_threshold\": null, \"eval_metric\": null, \"early_stopping_rounds\": null, \"callbacks\": null, \"kwargs\": {\"seed\": 1337}, \"_estimator_type\": \"regressor\"}"},"feature_names":[],"feature_types":[],"gradient_booster":{"model":{"gbtree_model_param":{"num_parallel_tree":"1","num_trees":"100","size_leaf_vector":"0"},"tree_info":[0,0,0,0,0,0,0,0,0,0,0,0,0,0,0,0,0,0,0,0,0,0,0,0,0,0,0,0,0,0,0,0,0,0,0,0,0,0,0,0,0,0,0,0,0,0,0,0,0,0,0,0,0,0,0,0,0,0,0,0,0,0,0,0,0,0,0,0,0,0,0,0,0,0,0,0,0,0,0,0,0,0,0,0,0,0,0,0,0,0,0,0,0,0,0,0,0,0,0,0],"trees":[{"base_weights":[-3.496358E-1,-6.1538464E-1,8.791209E-2,-7.270408E-1,-4.009662E-1,-2.4666667E-1,3.2093024E-1,-8.47561E-1,-6.375546E-1,-5.341615E-1,6.382979E-2,-4.516129E-1,8.62069E-2,9.6E-2,6.2637365E-1,-8.5276073E-1,-0E0,-6.759259E-1,-0E0,-4.6376812E-1,-9.166667E-1,4.642857E-1,-5E-1,-3.28125E-1,-7E-1,-4.1666666E-1,2.1276596E-1,4E-1,-1.0526316E-1,6.5909094E-1,-2.5E-1,-8.580247E-1,-0E0,-6.195652E-1,-9.69697E-1,-7.692308E-2,5E-1,-5.436893E-1,-2.2222222E-1,-9.5652175E-1,-0E0,5.714286E-1,1.25E-1,-1.25E-1,-6.923077E-1,-8.888889E-1,-2.3214285E-1,-7.5E-1,-0E0,2E-1,-7.5E-1,5E-1,6.25E-2,-2.5E-1,4.4680852E-1,-7.5E-1,-6.849315E-2,7.818182E-1,4.4117647E-1,-0E0,-5E-1,-4.2857143E-1,-8.717949E-1,-5.135135E-1,-7.702703E-1,-5E-1,-0E0,-4.556962E-1,-8E-1,6.666667E-2,-4.090909E-1,-0E0,6.315789E-1,5E-1,-0E0,-5E-1,-0E0,-0E0,-8.181818E-1,5E-1,-2.8301886E-1,-3.3333334E-1,-8.2608694E-1,-0E0,5E-1,-0E0,-8.5714287E-1,6.1538464E-1,-0E0,-1.3333334E-1,2.2222222E-1,-5E-1,-0E0,-3.3333334E-1,4.888889E-1,-6E-1,-2.8985508E-2,4.1666666E-1,8.636364E-1,1.1111111E-1,5.3846157E-1],"categories":[],"categories_nodes":[],"categories_segments":[],"categories_sizes":[],"default_left":[1,1,1,1,1,1,1,1,1,1,1,1,1,1,1,1,0,1,1,1,1,1,1,1,1,1,1,1,1,1,1,1,0,1,0,1,0,1,1,0,0,1,1,1,1,0,1,1,0,1,1,1,1,1,1,0,1,1,1,0,0,0,0,0,0,0,0,0,0,0,0,0,0,0,0,0,0,0,0,0,0,0,0,0,0,0,0,0,0,0,0,0,0,0,0,0,0,0,0,0,0],"id":0,"left_children":[1,3,5,7,9,11,13,15,17,19,21,23,25,27,29,31,-1,33,35,37,39,41,43,45,47,49,51,53,55,57,59,61,-1,63,-1,65,-1,67,69,-1,-1,71,73,75,77,-1,79,81,-1,83,85,87,89,91,93,-1,95,97,99,-1,-1,-1,-1,-1,-1,-1,-1,-1,-1,-1,-1,-1,-1,-1,-1,-1,-1,-1,-1,-1,-1,-1,-1,-1,-1,-1,-1,-1,-1,-1,-1,-1,-1,-1,-1,-1,-1,-1,-1,-1,-1],"loss_changes":[1.1179709E2,1.4025299E1,2.8457666E1,3.687317E0,1.2849186E1,1.0272108E1,1.4711111E1,7.227707E-1,5.6022186E0,3.909935E0,1.0844225E1,2.6228848E0,3.7799582E0,7.690105E0,2.7739754E0,7.3168945E-1,0E0,2.9755478E0,5.769231E-1,2.5432205E0,8.76812E-1,9.464288E-1,1.3557692E0,3.2383432E0,1.0500002E0,2.6166666E0,1.9973404E0,1.6329784E0,1.7503606E0,2.0085602E0,2.5E-1,5.843811E-1,0E0,2.5452423E0,0E0,4.2307693E-1,0E0,1.9584618E0,1.970707E0,0E0,0E0,7.218046E-1,3.75E-1,3.75E-1,1.1328673E0,0E0,2.227426E0,6.1231804E-1,0E0,3E-1,6.428571E-1,9.230771E-1,1.0305556E0,2.5E-1,1.7059097E0,0E0,1.5155052E0,1.283329E0,1.0319257E0,0E0,0E0,0E0,0E0,0E0,0E0,0E0,0E0,0E0,0E0,0E0,0E0,0E0,0E0,0E0,0E0,0E0,0E0,0E0,0E0,0E0,0E0,0E0,0E0,0E0,0E0,0E0,0E0,0E0,0E0,0E0,0E0,0E0,0E0,0E0,0E0,0E0,0E0,0E0,0E0,0E0,0E0],"parents":[2147483647,0,0,1,1,2,2,3,3,4,4,5,5,6,6,7,7,8,8,9,9,10,10,11,11,12,12,13,13,14,14,15,15,17,17,18,18,19,19,20,20,21,21,22,22,23,23,24,24,25,25,26,26,27,27,28,28,29,29,30,30,31,31,33,33,35,35,37,37,38,38,41,41,42,42,43,43,44,44,46,46,47,47,49,49,50,50,51,51,52,52,53,53,54,54,56,56,57,57,58,58],"right_children":[2,4,6,8,10,12,14,16,18,20,22,24,26,28,30,32,-1,34,36,38,40,42,44,46,48,50,52,54,56,58,60,62,-1,64,-1,66,-1,68,70,-1,-1,72,74,76,78,-1,80,82,-1,84,86,88,90,92,94,-1,96,98,100,-1,-1,-1,-1,-1,-1,-1,-1,-1,-1,-1,-1,-1,-1,-1,-1,-1,-1,-1,-1,-1,-1,-1,-1,-1,-1,-1,-1,-1,-1,-1,-1,-1,-1,-1,-1,-1,-1,-1,-1,-1,-1],"split_conditions":[1.0525E1,9.85E0,6.45E-1,5.75E-1,7.25E-1,1.165E1,1.145E1,9.25E0,1.085E1,7.9E1,4.75E1,6.5999997E-1,5.7499997E-2,3.9499998E-1,1.295E1,3.56E0,-0E0,9.85E1,1.465E1,6.35E-1,1.015E1,1.5E1,3.2E0,5.85E-2,5.15E0,5.05E-1,1.5E1,2.7499998E-1,2.935E0,1.55E1,1.445E1,1.05E1,-0E0,5.85E-1,-2.909091E-1,4.25E-1,1.5E-1,6.55E-1,6.65E-1,-2.8695655E-1,-0E0,2.45E-1,1.55E0,9.9660003E-1,3.05E-1,-2.6666668E-1,6.25E-2,6.3500004E0,-0E0,6.2E-1,5.75E0,1.12E-1,2.85E1,6.25E0,2E-1,-2.2500001E-1,5.65E-2,6.85E-1,7.25E-1,-0E0,-1.5E-1,-1.2857144E-1,-2.6153848E-1,-1.5405406E-1,-2.310811E-1,-1.5E-1,-0E0,-1.3670887E-1,-2.4000001E-1,2.0000001E-2,-1.22727275E-1,-0E0,1.8947369E-1,1.5E-1,-0E0,-1.5E-1,-0E0,-0E0,-2.4545455E-1,1.5E-1,-8.490566E-2,-1.0000001E-1,-2.4782608E-1,-0E0,1.5E-1,-0E0,-2.5714287E-1,1.846154E-1,-0E0,-4.0000003E-2,6.666667E-2,-1.5E-1,-0E0,-1.0000001E-1,1.4666668E-1,-1.8E-1,-8.695653E-3,1.25E-1,2.5909093E-1,3.3333335E-2,1.6153848E-1],"split_indices":[10,10,9,9,9,10,10,3,0,6,6,1,4,1,0,8,0,6,0,9,0,5,8,4,3,1,6,2,8,5,0,6,0,1,0,2,0,1,9,0,0,1,3,7,1,0,4,0,0,2,0,4,6,0,1,0,4,9,9,0,0,0,0,0,0,0,0,0,0,0,0,0,0,0,0,0,0,0,0,0,0,0,0,0,0,0,0,0,0,0,0,0,0,0,0,0,0,0,0,0,0],"split_type":[0,0,0,0,0,0,0,0,0,0,0,0,0,0,0,0,0,0,0,0,0,0,0,0,0,0,0,0,0,0,0,0,0,0,0,0,0,0,0,0,0,0,0,0,0,0,0,0,0,0,0,0,0,0,0,0,0,0,0,0,0,0,0,0,0,0,0,0,0,0,0,0,0,0,0,0,0,0,0,0,0,0,0,0,0,0,0,0,0,0,0,0,0,0,0,0,0,0,0,0,0],"sum_hessian":[9.6E2,5.97E2,3.63E2,3.91E2,2.06E2,1.49E2,2.14E2,1.63E2,2.28E2,1.6E2,4.6E1,9.2E1,5.7E1,1.24E2,9E1,1.62E2,1E0,2.15E2,1.3E1,1.37E2,2.3E1,2.7E1,1.9E1,6.3E1,2.9E1,1.1E1,4.6E1,4.9E1,7.5E1,8.7E1,3E0,1.61E2,1E0,1.83E2,3.2E1,1.2E1,1E0,1.02E2,3.5E1,2.2E1,1E0,2E1,7E0,7E0,1.2E1,8E0,5.5E1,2.7E1,2E0,4E0,7E0,1.5E1,3.1E1,3E0,4.6E1,3E0,7.2E1,5.4E1,3.3E1,2E0,1E0,6E0,1.55E2,1.1E2,7.3E1,1E0,1.1E1,7.8E1,2.4E1,1.4E1,2.1E1,2E0,1.8E1,1E0,6E0,1E0,6E0,2E0,1E1,3E0,5.2E1,5E0,2.2E1,3E0,1E0,1E0,6E0,1.2E1,3E0,1.4E1,1.7E1,1E0,2E0,2E0,4.4E1,4E0,6.8E1,1.1E1,4.3E1,8E0,2.5E1],"tree_param":{"num_deleted":"0","num_feature":"11","num_nodes":"101","size_leaf_vector":"0"}},{"base_weights":[-1.7793965E-1,-4.257603E-1,1.662531E-1,-3.1463414E-1,-7.266667E-1,-2.5490198E-1,3.07947E-1,-2.3333333E-1,-8.8235295E-1,-0E0,-7.6760566E-1,2.0833334E-2,-4.909091E-1,3.9163497E-1,-2.5E-1,-3.4E-1,9.009009E-3,-2.5E-1,-9.166667E-1,-8E-1,8E-1,-7.8417265E-1,-0E0,-8.333333E-1,1.3953489E-1,-6.511628E-1,7.692308E-2,5.882353E-2,5.0510204E-1,2.631579E-1,-6.818182E-1,-6.8604654E-1,-1.5757576E-1,-6.25E-1,1.14583336E-1,-6.666667E-1,5E-1,-3.3333334E-1,-9.767442E-1,-9.074074E-1,-6.976744E-1,-5E-1,3.3333334E-1,5E-1,-1.6666667E-1,1.6666667E-1,-7.631579E-1,-8E-1,5.555556E-1,2.6923078E-1,-5.882353E-1,6.066667E-1,1.7021276E-1,-7.692308E-2,8.5714287E-1,-9.411765E-1,1.6666667E-1,-7.763158E-1,-0E0,-2.4793388E-2,-5.1111114E-1,2E-1,-9.166667E-1,-5.3333335E-2,6.818182E-1,3.3333334E-1,-7.5E-1,-9.4E-1,-4E-1,-7.176471E-1,5E-1,5E-1,-0E0,-2E-1,6.875E-1,-5.833333E-1,2.3076923E-1,7.5E-1,-6.666667E-1,5E-1,-8.108108E-1,-0E0,8.333333E-1,5E-1,-8.888889E-1,7.5E-1,-9.285714E-1,4.6875E-1,8.363636E-1,-5.7142857E-2,7.692308E-1,2E-1,-7.5E-1,7.5E-1,-6.666667E-1],"categories":[],"categories_nodes":[],"categories_segments":[],"categories_sizes":[],"default_left":[1,1,1,1,1,1,1,1,1,1,1,1,1,1,1,1,1,1,1,0,0,1,1,0,1,1,1,1,1,1,1,1,1,1,1,0,0,1,0,1,1,0,1,1,1,1,1,0,1,1,1,1,1,1,0,0,1,0,0,0,0,0,0,0,0,0,0,0,0,0,0,0,0,0,0,0,0,0,0,0,0,0,0,0,0,0,0,0,0,0,0,0,0,0,0],"id":1,"left_children":[1,3,5,7,9,11,13,15,17,19,21,23,25,27,29,31,33,35,37,-1,-1,39,41,-1,43,45,47,49,51,53,55,57,59,61,63,-1,-1,65,-1,67,69,-1,71,73,75,77,79,-1,81,83,85,87,89,91,-1,-1,93,-1,-1,-1,-1,-1,-1,-1,-1,-1,-1,-1,-1,-1,-1,-1,-1,-1,-1,-1,-1,-1,-1,-1,-1,-1,-1,-1,-1,-1,-1,-1,-1,-1,-1,-1,-1,-1,-1],"loss_changes":[8.204223E1,1.8463524E1,2.4127567E1,1.8718079E1,4.462349E0,6.6479273E0,1.4199329E1,9.309008E0,8.7744904E-1,6.4E0,1.805809E0,4.9830422E0,5.0549355E0,9.901993E0,9.043062E0,1.5673716E1,7.5014076E0,1.5833334E0,1.3565903E0,0E0,0E0,8.486023E-1,8.333334E-1,0E0,4.8294573E0,4.065687E0,5.9008546E0,9.416289E0,6.5632668E0,3.9039905E0,4.9982176E0,5.325886E0,7.7329655E0,4.033333E0,9.180189E0,0E0,0E0,1.9166665E0,0E0,5.1703644E-1,2.4160042E0,0E0,1.6666666E-1,2.7624998E0,4.108975E0,3.4166667E0,2.6927452E0,0E0,1.3888888E0,1.434188E1,8.439075E0,4.3598137E0,6.4448915E0,2.573077E0,0E0,0E0,3.4166667E0,0E0,0E0,0E0,0E0,0E0,0E0,0E0,0E0,0E0,0E0,0E0,0E0,0E0,0E0,0E0,0E0,0E0,0E0,0E0,0E0,0E0,0E0,0E0,0E0,0E0,0E0,0E0,0E0,0E0,0E0,0E0,0E0,0E0,0E0,0E0,0E0,0E0,0E0],"parents":[2147483647,0,0,1,1,2,2,3,3,4,4,5,5,6,6,7,7,8,8,9,9,10,10,11,11,12,12,13,13,14,14,15,15,16,16,17,17,18,18,21,21,22,22,24,24,25,25,26,26,27,27,28,28,29,29,30,30,31,31,32,32,33,33,34,34,37,37,39,39,40,40,42,42,43,43,44,44,45,45,46,46,48,48,49,49,50,50,51,51,52,52,53,53,56,56],"right_children":[2,4,6,8,10,12,14,16,18,20,22,24,26,28,30,32,34,36,38,-1,-1,40,42,-1,44,46,48,50,52,54,56,58,60,62,64,-1,-1,66,-1,68,70,-1,72,74,76,78,80,-1,82,84,86,88,90,92,-1,-1,94,-1,-1,-1,-1,-1,-1,-1,-1,-1,-1,-1,-1,-1,-1,-1,-1,-1,-1,-1,-1,-1,-1,-1,-1,-1,-1,-1,-1,-1,-1,-1,-1,-1,-1,-1,-1,-1,-1],"split_conditions":[1.045E1,6.525E-1,5.85E-1,9.85E1,9.15E0,3.3649998E0,6.95E1,9.85E0,6.7E-2,8.15E0,1.0125E0,4.8000002E-1,2E1,2.025E0,2.25E0,5.75E-1,1.6500001E0,7.55E0,3.085E0,-2.4000001E-1,2.4000001E-1,5.3499997E-1,6.8E0,-2.5E-1,9.9562E-1,4.7E-1,5.3499997E-1,1.95E1,9.05E-2,8.15E-1,1.025E1,9.75E0,9.85E-2,4.2000002E-1,5.95E-1,-2.0000002E-1,1.5E-1,2.85E-1,-2.9302326E-1,4.75E0,4.1E1,-1.5E-1,9.25E0,6.05E-2,3E0,7.1499996E0,1.5E0,-2.4000001E-1,9.9431E-1,4.7E-1,1.095E1,4.85E-1,7.45E-1,7.6E-2,2.5714287E-1,-2.8235295E-1,1.21E1,-2.3289475E-1,-0E0,-7.4380166E-3,-1.5333335E-1,6.0000002E-2,-2.75E-1,-1.6E-2,2.0454547E-1,1.0000001E-1,-2.2500001E-1,-2.82E-1,-1.20000005E-1,-2.1529414E-1,1.5E-1,1.5E-1,-0E0,-6.0000002E-2,2.0625001E-1,-1.75E-1,6.923077E-2,2.2500001E-1,-2.0000002E-1,1.5E-1,-2.4324325E-1,-0E0,2.5E-1,1.5E-1,-2.6666668E-1,2.2500001E-1,-2.7857143E-1,1.40625E-1,2.509091E-1,-1.7142858E-2,2.3076925E-1,6.0000002E-2,-2.2500001E-1,2.2500001E-1,-2.0000002E-1],"split_indices":[10,1,9,6,10,8,6,10,4,0,1,9,5,3,3,9,3,0,8,0,0,9,0,0,7,9,9,5,4,9,0,10,4,1,1,0,0,2,0,3,5,0,0,4,3,0,3,0,7,2,10,1,9,4,0,0,0,0,0,0,0,0,0,0,0,0,0,0,0,0,0,0,0,0,0,0,0,0,0,0,0,0,0,0,0,0,0,0,0,0,0,0,0,0,0],"split_type":[0,0,0,0,0,0,0,0,0,0,0,0,0,0,0,0,0,0,0,0,0,0,0,0,0,0,0,0,0,0,0,0,0,0,0,0,0,0,0,0,0,0,0,0,0,0,0,0,0,0,0,0,0,0,0,0,0,0,0,0,0,0,0,0,0,0,0,0,0,0,0,0,0,0,0,0,0,0,0,0,0,0,0,0,0,0,0,0,0,0,0,0,0,0,0],"sum_hessian":[9.6E2,5.58E2,4.02E2,4.09E2,1.49E2,1.01E2,3.01E2,3.59E2,5E1,8E0,1.41E2,4.7E1,5.4E1,2.62E2,3.9E1,2.49E2,1.1E2,3E0,4.7E1,4E0,4E0,1.38E2,3E0,5E0,4.2E1,4.2E1,1.2E1,6.7E1,1.95E2,1.8E1,2.1E1,8.5E1,1.64E2,1.5E1,9.5E1,2E0,1E0,5E0,4.2E1,5.3E1,8.5E1,1E0,2E0,1.9E1,2.3E1,5E0,3.7E1,4E0,8E0,5.1E1,1.6E1,1.49E2,4.6E1,1.2E1,6E0,1.6E1,5E0,7.5E1,1E1,1.2E2,4.4E1,4E0,1.1E1,7.4E1,2.1E1,2E0,3E0,4.9E1,4E0,8.4E1,1E0,1E0,1E0,4E0,1.5E1,1.1E1,1.2E1,3E0,2E0,1E0,3.6E1,3E0,5E0,4.3E1,8E0,3E0,1.3E1,9.5E1,5.4E1,3.4E1,1.2E1,9E0,3E0,3E0,2E0],"tree_param":{"num_deleted":"0","num_feature":"11","num_nodes":"95","size_leaf_vector":"0"}},{"base_weights":[-3.1425598E-1,2.8350514E-1,-4.6484375E-1,-5.0632913E-2,5.086207E-1,-5.4761904E-1,1.1340206E-1,-2.3214285E-1,3.75E-1,5.980392E-1,-1.3333334E-1,-4.0384614E-1,-7.152104E-1,-2.6666668E-1,7.105263E-1,2.857143E-1,-5.277778E-1,7.5E-1,-0E0,6.3E-1,-6.666667E-1,5.714286E-1,-6.666667E-1,-3.4862384E-1,-8.684211E-1,-9.2783505E-1,-6.150235E-1,3.125E-1,-4.6666667E-1,3.125E-1,9.5652175E-1,7.692308E-1,-4.4444445E-1,4E-1,-6.5625E-1,-0E0,9E-1,5.714286E-1,-5.714286E-1,4.5614034E-1,8.4090906E-1,-5E-1,8.333333E-1,-8.75E-1,5E-1,-2.2535211E-1,-5.7391304E-1,5E-1,-9.189189E-1,-9.479167E-1,5E-1,-8.727273E-1,-5.220126E-1,-1E-1,8.5714287E-1,-7.027027E-1,5.555556E-1,-1E-1,8.5714287E-1,-5E-1,9.166667E-1,2.5E-1,-8.333333E-1,-5E-1,7.5E-1,2.5E-1,-7.586207E-1,5E-1,-5E-1,-0E0,8E-1,-8.333333E-1,5E-1,9.52381E-2,6.486486E-1,9.25E-1,-0E0,-4.7435898E-1,-8.0882356E-2,8.3333336E-2,-6.442308E-1,-0E0,-9.714286E-1,-9.074074E-1,5E-1,8.695652E-2,-6.20438E-1,-5.714286E-1,7.5E-1,-7.5E-1,5E-1,-3.3333334E-1,8.5714287E-1,-8.333333E-1,8E-1],"categories":[],"categories_nodes":[],"categories_segments":[],"categories_sizes":[],"default_left":[1,1,1,1,1,1,1,1,1,1,1,1,1,1,1,1,1,1,1,1,0,1,1,1,1,1,1,1,1,1,0,1,1,1,1,1,0,1,1,1,1,0,0,0,0,1,1,0,1,0,0,1,1,1,0,1,1,1,0,0,0,0,0,0,0,0,0,0,0,0,0,0,0,0,0,0,0,0,0,0,0,0,0,0,0,0,0,0,0,0,0,0,0,0,0],"id":2,"left_children":[1,3,5,7,9,11,13,15,17,19,21,23,25,27,29,31,33,35,37,39,-1,41,43,45,47,49,51,53,55,57,-1,59,61,63,65,67,-1,69,71,73,75,-1,-1,-1,-1,77,79,-1,81,-1,-1,83,85,87,-1,89,91,93,-1,-1,-1,-1,-1,-1,-1,-1,-1,-1,-1,-1,-1,-1,-1,-1,-1,-1,-1,-1,-1,-1,-1,-1,-1,-1,-1,-1,-1,-1,-1,-1,-1,-1,-1,-1,-1],"loss_changes":[8.66367E1,1.4618369E1,3.6822006E1,6.1903253E0,6.7384377E0,1.5903076E1,2.2203453E1,8.724207E0,3.375E0,4.542938E0,6.0190473E0,9.035633E0,6.0117493E0,7.0958333E0,3.4217682E0,7.7557993E0,4.5534725E0,1.3500004E0,4.571429E0,3.283287E0,0E0,2.3809521E0,2.625E0,8.952045E0,3.08535E0,3.2552567E0,4.6498795E0,3.680357E0,1.1248046E1,3.680357E0,0E0,2.8910255E0,2.6388888E0,1.95E0,3.1584053E0,1E0,0E0,9.1428566E-1,2.3809521E0,3.8983955E0,3.1113625E0,0E0,0E0,0E0,0E0,7.6240873E0,5.3685303E0,0E0,1.7853279E0,0E0,0E0,3.0720558E0,9.584091E0,4.4357142E0,0E0,2.4797306E0,2.698413E0,7.266667E0,0E0,0E0,0E0,0E0,0E0,0E0,0E0,0E0,0E0,0E0,0E0,0E0,0E0,0E0,0E0,0E0,0E0,0E0,0E0,0E0,0E0,0E0,0E0,0E0,0E0,0E0,0E0,0E0,0E0,0E0,0E0,0E0,0E0,0E0,0E0,0E0,0E0],"parents":[2147483647,0,0,1,1,2,2,3,3,4,4,5,5,6,6,7,7,8,8,9,9,10,10,11,11,12,12,13,13,14,14,15,15,16,16,17,17,18,18,19,19,21,21,22,22,23,23,24,24,25,25,26,26,27,27,28,28,29,29,31,31,32,32,33,33,34,34,35,35,37,37,38,38,39,39,40,40,45,45,46,46,48,48,51,51,52,52,53,53,55,55,56,56,57,57],"right_children":[2,4,6,8,10,12,14,16,18,20,22,24,26,28,30,32,34,36,38,40,-1,42,44,46,48,50,52,54,56,58,-1,60,62,64,66,68,-1,70,72,74,76,-1,-1,-1,-1,78,80,-1,82,-1,-1,84,86,88,-1,90,92,94,-1,-1,-1,-1,-1,-1,-1,-1,-1,-1,-1,-1,-1,-1,-1,-1,-1,-1,-1,-1,-1,-1,-1,-1,-1,-1,-1,-1,-1,-1,-1,-1,-1,-1,-1,-1,-1],"split_conditions":[3.75E-1,6.75E-1,1.145E1,1.155E1,5.75E-1,5.95E-1,6.85E-1,3.1950002E0,6.75E-2,1.075E2,3.15E-1,9.9E1,5.3499997E-1,1.55E1,4.65E-1,2.35E1,2.2E-1,6.65E0,5.95E-1,1.115E1,-2.0000002E-1,7.2E0,9.9960005E-1,1.045E1,6.7499995E-2,9.3E0,2.45E1,5.5E0,5.55E1,3.335E0,2.8695655E-1,6E-2,3.15E-1,6.45E0,2.25E-1,6.15E0,2.7E-1,3.4E-1,4.4E0,4.15E-1,1.04E1,-1.5E-1,2.5E-1,-2.6250002E-1,1.5E-1,5.85E-1,3.9499998E-1,1.5E-1,1.1E-1,-2.84375E-1,1.5E-1,5.2E-1,8.5E0,6.25E-1,2.5714287E-1,3.15E1,1.8E0,5.15E-1,2.5714287E-1,-1.5E-1,2.75E-1,7.5E-2,-2.5E-1,-1.5E-1,2.2500001E-1,7.5E-2,-2.2758621E-1,1.5E-1,-1.5E-1,-0E0,2.4000001E-1,-2.5E-1,1.5E-1,2.857143E-2,1.9459459E-1,2.775E-1,-0E0,-1.423077E-1,-2.4264708E-2,2.5000002E-2,-1.9326924E-1,-0E0,-2.914286E-1,-2.7222222E-1,1.5E-1,2.6086958E-2,-1.861314E-1,-1.7142859E-1,2.2500001E-1,-2.2500001E-1,1.5E-1,-1.0000001E-1,2.5714287E-1,-2.5E-1,2.4000001E-1],"split_indices":[1,9,10,10,2,1,9,8,4,6,1,6,9,6,1,6,2,0,9,10,0,0,7,10,4,3,6,5,6,8,0,4,1,0,1,0,0,1,3,2,0,0,0,0,0,9,1,0,2,0,0,2,5,9,0,5,3,2,0,0,0,0,0,0,0,0,0,0,0,0,0,0,0,0,0,0,0,0,0,0,0,0,0,0,0,0,0,0,0,0,0,0,0,0,0],"split_type":[0,0,0,0,0,0,0,0,0,0,0,0,0,0,0,0,0,0,0,0,0,0,0,0,0,0,0,0,0,0,0,0,0,0,0,0,0,0,0,0,0,0,0,0,0,0,0,0,0,0,0,0,0,0,0,0,0,0,0,0,0,0,0,0,0,0,0,0,0,0,0,0,0,0,0,0,0,0,0,0,0,0,0,0,0,0,0,0,0,0,0,0,0,0,0],"sum_hessian":[9.6E2,1.93E2,7.67E2,7.8E1,1.15E2,6.71E2,9.6E1,5.5E1,2.3E1,1.01E2,1.4E1,3.63E2,3.08E2,5.9E1,3.7E1,2E1,3.5E1,1.1E1,1.2E1,9.9E1,2E0,6E0,8E0,3.26E2,3.7E1,9.6E1,2.12E2,1.5E1,4.4E1,1.5E1,2.2E1,1.2E1,8E0,4E0,3.1E1,2E0,9E0,6E0,6E0,5.6E1,4.3E1,1E0,5E0,7E0,1E0,2.12E2,1.14E2,1E0,3.6E1,9.5E1,1E0,5.4E1,1.58E2,9E0,6E0,3.6E1,8E0,9E0,6E0,1E0,1.1E1,3E0,5E0,1E0,3E0,3E0,2.8E1,1E0,1E0,2E0,4E0,5E0,1E0,2E1,3.6E1,3.9E1,4E0,7.7E1,1.35E2,1.1E1,1.03E2,2E0,3.4E1,5.3E1,1E0,2.2E1,1.36E2,6E0,3E0,3.5E1,1E0,2E0,6E0,5E0,4E0],"tree_param":{"num_deleted":"0","num_feature":"11","num_nodes":"95","size_leaf_vector":"0"}},{"base_weights":[-2.0187305E-1,-4.7297296E-1,1.1486486E-1,-7.150838E-1,-3.4411764E-1,1.5529412E-1,-7.5E-1,1.6666667E-1,-7.413793E-1,-2.0600858E-1,-6.388889E-1,3.3333335E-2,3.653846E-1,-0E0,-9.375E-1,-6.666667E-1,7.5E-1,-7.514451E-1,5E-1,-3.2894738E-2,-5.243902E-1,6.666667E-1,-6.698113E-1,9.876543E-2,-5.3571427E-1,-1.0810811E-1,5.083333E-1,6.666667E-1,-6.666667E-1,-8.645833E-1,-6.025641E-1,5.2238807E-2,-6.315789E-1,-6.025641E-1,8E-1,-8.863636E-1,-5.0793654E-1,-3.255814E-1,1.8905473E-1,-0E0,-8.333333E-1,3.1578946E-1,-5.263158E-1,-5.714286E-1,5.701754E-1,-0E0,-8.8297874E-1,-3E-1,-7.755102E-1,-3.243243E-1,1.9387755E-1,-9.3333334E-1,4E-1,-6.7142856E-1,-0E0,-9.302326E-1,5E-1,1.5384616E-1,-6.666667E-1,-6.5384614E-1,1.6666667E-1,3.974359E-1,5.645161E-2,-8.333333E-1,8.333333E-1,-2.5E-1,-9.3333334E-1,5.625E-1,-7.5E-1,1.6666667E-1,-7.8571427E-1,5E-1,-8.333333E-1,7.1910113E-1,3.846154E-2],"categories":[],"categories_nodes":[],"categories_segments":[],"categories_sizes":[],"default_left":[1,1,1,1,1,1,1,1,1,1,1,1,1,1,0,0,0,1,0,1,1,0,1,1,1,1,1,0,0,1,1,1,1,1,0,1,1,1,1,1,1,1,1,1,1,0,0,0,0,0,0,0,0,0,0,0,0,0,0,0,0,0,0,0,0,0,0,0,0,0,0,0,0,0,0],"id":3,"left_children":[1,3,5,7,9,11,13,15,17,19,21,23,25,27,-1,-1,-1,29,-1,31,33,-1,35,37,39,41,43,-1,-1,45,47,49,51,53,-1,55,57,59,61,63,65,67,69,71,73,-1,-1,-1,-1,-1,-1,-1,-1,-1,-1,-1,-1,-1,-1,-1,-1,-1,-1,-1,-1,-1,-1,-1,-1,-1,-1,-1,-1,-1,-1],"loss_changes":[8.257312E1,1.5914101E1,1.5641304E1,4.2738724E0,1.370998E1,1.0877511E1,2.8125E0,3.4166667E0,2.5499268E0,1.2824842E1,4.8066025E0,1.0106084E1,1.0613842E1,2.6666667E0,0E0,0E0,0E0,2.3930664E0,0E0,7.7801456E0,8.971733E0,0E0,3.2655487E0,9.371849E0,4.464286E0,6.725462E0,8.338785E0,0E0,0E0,1.5268173E0,3.848875E0,7.2098937E0,6.2877192E0,3.2366295E0,0E0,3.141121E0,6.7203884E0,7.0572457E0,5.5315948E0,8.333333E0,8.166666E-1,5.417763E0,3.5463667E0,2.3809521E0,8.999527E0,0E0,0E0,0E0,0E0,0E0,0E0,0E0,0E0,0E0,0E0,0E0,0E0,0E0,0E0,0E0,0E0,0E0,0E0,0E0,0E0,0E0,0E0,0E0,0E0,0E0,0E0,0E0,0E0,0E0,0E0],"parents":[2147483647,0,0,1,1,2,2,3,3,4,4,5,5,6,6,7,7,8,8,9,9,10,10,11,11,12,12,13,13,17,17,19,19,20,20,22,22,23,23,24,24,25,25,26,26,29,29,30,30,31,31,32,32,33,33,35,35,36,36,37,37,38,38,39,39,40,40,41,41,42,42,43,43,44,44],"right_children":[2,4,6,8,10,12,14,16,18,20,22,24,26,28,-1,-1,-1,30,-1,32,34,-1,36,38,40,42,44,-1,-1,46,48,50,52,54,-1,56,58,60,62,64,66,68,70,72,74,-1,-1,-1,-1,-1,-1,-1,-1,-1,-1,-1,-1,-1,-1,-1,-1,-1,-1,-1,-1,-1,-1,-1,-1,-1,-1,-1,-1,-1,-1],"split_conditions":[1.025E1,5.55E-1,8.575E-1,1.05E1,6.45E1,1.145E1,4.65E-1,1.25E-1,9.3E0,6.05E-1,6.5E0,3.85E0,6.55E0,7.1E0,-2.8125E-1,-2.0000002E-1,2.2500001E-1,9.55E0,1.5E-1,5.55E-1,1.0549999E1,2.0000002E-1,9.45E0,5.75E-1,3.2999998E-1,9E-2,8.5E0,2.0000002E-1,-2.0000002E-1,2.25E-1,3.225E0,9.96695E-1,9.85E0,6.15E1,2.4000001E-1,1.46E1,2.05E0,1.25E1,7.55E0,5.15E0,6.75E-2,6.3500004E0,9.9300003E-1,7.4E0,4.5E1,-0E0,-2.6489362E-1,-9E-2,-2.3265307E-1,-9.7297296E-2,5.8163267E-2,-2.8E-1,1.20000005E-1,-2.0142858E-1,-0E0,-2.7906978E-1,1.5E-1,4.615385E-2,-2.0000002E-1,-1.9615385E-1,5.0000004E-2,1.1923078E-1,1.6935484E-2,-2.5E-1,2.5E-1,-7.5E-2,-2.8E-1,1.6875E-1,-2.2500001E-1,5.0000004E-2,-2.3571429E-1,1.5E-1,-2.5E-1,2.1573035E-1,1.1538463E-2],"split_indices":[10,9,1,6,6,10,9,2,3,1,5,3,0,0,0,0,0,10,0,2,0,0,10,9,2,2,6,0,0,1,8,7,10,6,0,3,3,5,0,3,4,0,7,0,6,0,0,0,0,0,0,0,0,0,0,0,0,0,0,0,0,0,0,0,0,0,0,0,0,0,0,0,0,0,0],"split_type":[0,0,0,0,0,0,0,0,0,0,0,0,0,0,0,0,0,0,0,0,0,0,0,0,0,0,0,0,0,0,0,0,0,0,0,0,0,0,0,0,0,0,0,0,0,0,0,0,0,0,0,0,0,0,0,0,0,0,0,0,0,0,0,0,0,0,0,0,0,0,0,0,0,0,0],"sum_hessian":[9.6E2,5.17E2,4.43E2,1.78E2,3.39E2,4.24E2,1.9E1,5E0,1.73E2,2.32E2,1.07E2,2.69E2,1.55E2,4E0,1.5E1,2E0,3E0,1.72E2,1E0,1.51E2,8.1E1,2E0,1.05E2,2.42E2,2.7E1,3.6E1,1.19E2,2E0,2E0,9.5E1,7.7E1,1.33E2,1.8E1,7.7E1,4E0,4.3E1,6.2E1,4.2E1,2E2,1E1,1.7E1,1.8E1,1.8E1,6E0,1.13E2,2E0,9.3E1,2.9E1,4.8E1,3.6E1,9.7E1,1.4E1,4E0,6.9E1,8E0,4.2E1,1E0,1.2E1,5E1,2.5E1,1.7E1,7.7E1,1.23E2,5E0,5E0,3E0,1.4E1,1.5E1,3E0,5E0,1.3E1,1E0,5E0,8.8E1,2.5E1],"tree_param":{"num_deleted":"0","num_feature":"11","num_nodes":"75","size_leaf_vector":"0"}},{"base_weights":[-6.867846E-2,-1.2317073E-1,2.4647887E-1,-5.543478E-1,-6.85871E-2,-1.3888889E-2,5.070422E-1,-7.631579E-1,-4E-1,-1.24615386E-1,3.875E-1,5E-1,-2.3529412E-1,6.6E-1,1.3636364E-1,-8.5714287E-1,2.5E-1,5.714286E-1,-5.3061223E-1,-7.620818E-2,-3.539823E-1,-2.5E-1,5.9016395E-1,7.368421E-1,-7.5E-1,-9.5E-1,2.1875E-1,9.117647E-1,1.1764706E-1,-7.5E-1,3.1578946E-1,5E-1,-9.117647E-1,6.666667E-1,-5E-1,-5E-1,8.333333E-1,-6.2222224E-1,4E-1,-1.5860215E-1,1.0778443E-1,-3.9215688E-2,-6.031746E-1,1.8181819E-1,-7E-1,9.69697E-1,1.3793103E-1,2.857143E-1,9.230769E-1,-2.1428572E-1,5.263158E-1,9.655172E-1,5E-1,-6.25E-1,7E-1,7E-1,-1E-1,-5E-1,-9.655172E-1,-0E0,-7.1794873E-1,-5E-1,7.5E-1,-2.9910713E-1,5.3691275E-2,-7E-1,1.5822785E-1,-2.1428572E-1,7E-1,6.666667E-1,-6.557377E-1,8E-1,-2.857143E-1,-8.888889E-1,5E-1,5.625E-1,-3.5714287E-1,8E-1,-6.666667E-1,-5.4545456E-1,7.5E-1,7.8571427E-1,-1.6666667E-1,-5E-1,8E-1,5E-1,-8.5714287E-1,-0E0,8.75E-1,8.888889E-1,-5E-1,6.666667E-1,-3.75E-1],"categories":[],"categories_nodes":[],"categories_segments":[],"categories_sizes":[],"default_left":[1,1,1,1,1,1,1,1,1,1,1,1,1,1,1,1,1,1,1,1,1,1,1,1,0,0,1,1,1,0,1,0,1,0,0,0,0,1,1,1,1,1,1,1,1,0,1,1,0,1,1,0,1,1,1,1,1,0,0,0,0,0,0,0,0,0,0,0,0,0,0,0,0,0,0,0,0,0,0,0,0,0,0,0,0,0,0,0,0,0,0,0,0],"id":4,"left_children":[1,3,5,7,9,11,13,15,17,19,21,23,25,27,29,31,33,35,37,39,41,43,45,47,-1,-1,49,51,53,-1,55,-1,57,-1,-1,-1,-1,59,61,63,65,67,69,71,73,-1,75,77,-1,79,81,-1,83,85,87,89,91,-1,-1,-1,-1,-1,-1,-1,-1,-1,-1,-1,-1,-1,-1,-1,-1,-1,-1,-1,-1,-1,-1,-1,-1,-1,-1,-1,-1,-1,-1,-1,-1,-1,-1,-1,-1],"loss_changes":[1.6534227E1,1.9260853E1,9.64065E0,2.6598396E0,1.867699E1,8.30964E0,3.9355698E0,3.8327065E0,7.2816324E0,7.1899805E0,1.0483401E1,7.065789E0,1.6757719E1,6.7199993E0,3.7356458E0,3.0504208E0,1.5833334E0,2.3809521E0,4.426303E0,8.173111E0,8.839775E0,4.0136366E0,1.0336126E1,1.3325624E0,0E0,0E0,4.374765E0,2.697773E-1,7.7897053E0,0E0,3.1052632E0,0E0,2.697773E-1,0E0,0E0,0E0,0E0,2.6803417E0,1.95E0,1.1112183E1,6.915576E0,6.7501397E0,4.642206E0,3.407792E0,2.711111E0,0E0,6.29649E0,3.9619048E0,0E0,4.87987E0,3.5463667E0,0E0,2.2E0,2.517857E0,1.2249999E0,2.711111E0,2.3583336E0,0E0,0E0,0E0,0E0,0E0,0E0,0E0,0E0,0E0,0E0,0E0,0E0,0E0,0E0,0E0,0E0,0E0,0E0,0E0,0E0,0E0,0E0,0E0,0E0,0E0,0E0,0E0,0E0,0E0,0E0,0E0,0E0,0E0,0E0,0E0,0E0],"parents":[2147483647,0,0,1,1,2,2,3,3,4,4,5,5,6,6,7,7,8,8,9,9,10,10,11,11,12,12,13,13,14,14,15,15,16,16,17,17,18,18,19,19,20,20,21,21,22,22,23,23,26,26,27,27,28,28,30,30,32,32,37,37,38,38,39,39,40,40,41,41,42,42,43,43,44,44,46,46,47,47,49,49,50,50,52,52,53,53,54,54,55,55,56,56],"right_children":[2,4,6,8,10,12,14,16,18,20,22,24,26,28,30,32,34,36,38,40,42,44,46,48,-1,-1,50,52,54,-1,56,-1,58,-1,-1,-1,-1,60,62,64,66,68,70,72,74,-1,76,78,-1,80,82,-1,84,86,88,90,92,-1,-1,-1,-1,-1,-1,-1,-1,-1,-1,-1,-1,-1,-1,-1,-1,-1,-1,-1,-1,-1,-1,-1,-1,-1,-1,-1,-1,-1,-1,-1,-1,-1,-1,-1,-1],"split_conditions":[1.155E1,6.75E0,6.65E-1,9.95165E-1,9.3E1,1.55E1,1.85E1,3.35E-1,6.35E-2,9.75E-2,2.05E0,1.29E1,2.65E1,9.65E0,7.25E-1,9.9315E-1,6.45E0,6.2E0,1.115E1,8.2499996E-2,3.65E1,5.9000003E-1,6.15E-1,8.35E0,-2.2500001E-1,-2.85E-1,2.25E0,5.15E-1,2.9250002E0,-2.2500001E-1,5.8E1,1.5E-1,4.9E-1,2.0000002E-1,-1.5E-1,-1.5E-1,2.5E-1,5.25E-1,9.8000005E-2,6.45E-1,1.45E1,1E1,7E0,8.5999995E-2,8.5E0,2.909091E-1,5.7000005E-1,7.35E0,2.769231E-1,7.6000005E-2,6.25E-1,2.8965518E-1,5.3E-1,1.25E1,1.01E1,3.65E1,1.19E1,-1.5E-1,-2.8965518E-1,-0E0,-2.1538463E-1,-1.5E-1,2.2500001E-1,-8.973214E-2,1.6107384E-2,-2.1000001E-1,4.7468357E-2,-6.428572E-2,2.1000001E-1,2.0000002E-1,-1.9672132E-1,2.4000001E-1,-8.5714296E-2,-2.6666668E-1,1.5E-1,1.6875E-1,-1.07142866E-1,2.4000001E-1,-2.0000002E-1,-1.6363637E-1,2.2500001E-1,2.3571429E-1,-5.0000004E-2,-1.5E-1,2.4000001E-1,1.5E-1,-2.5714287E-1,-0E0,2.6250002E-1,2.6666668E-1,-1.5E-1,2.0000002E-1,-1.12500004E-1],"split_indices":[10,0,9,7,6,6,5,2,4,4,3,10,6,0,9,7,0,0,10,4,6,1,9,0,0,0,3,1,3,0,6,0,1,0,0,0,0,9,4,9,6,5,5,4,0,0,1,0,0,4,9,0,1,6,0,5,10,0,0,0,0,0,0,0,0,0,0,0,0,0,0,0,0,0,0,0,0,0,0,0,0,0,0,0,0,0,0,0,0,0,0,0,0],"split_type":[0,0,0,0,0,0,0,0,0,0,0,0,0,0,0,0,0,0,0,0,0,0,0,0,0,0,0,0,0,0,0,0,0,0,0,0,0,0,0,0,0,0,0,0,0,0,0,0,0,0,0,0,0,0,0,0,0,0,0,0,0,0,0,0,0,0,0,0,0,0,0,0,0,0,0,0,0,0,0,0,0,0,0,0,0,0,0,0,0,0,0,0,0],"sum_hessian":[9.6E2,8.19E2,1.41E2,9.1E1,7.28E2,7.1E1,7E1,3.7E1,5.4E1,6.49E2,7.9E1,2.1E1,5E1,4.9E1,2.1E1,3.4E1,3E0,6E0,4.8E1,5.37E2,1.12E2,1.9E1,6E1,1.8E1,3E0,1.9E1,3.1E1,3.3E1,1.6E1,3E0,1.8E1,1E0,3.3E1,2E0,1E0,1E0,5E0,4.4E1,4E0,3.71E2,1.66E2,5E1,6.2E1,1E1,9E0,3.2E1,2.8E1,6E0,1.2E1,1.3E1,1.8E1,2.8E1,5E0,7E0,9E0,9E0,9E0,5E0,2.8E1,6E0,3.8E1,1E0,3E0,2.23E2,1.48E2,9E0,1.57E2,4.1E1,9E0,2E0,6E1,4E0,6E0,8E0,1E0,1.5E1,1.3E1,4E0,2E0,1E1,3E0,1.3E1,5E0,1E0,4E0,1E0,6E0,2E0,7E0,8E0,1E0,2E0,7E0],"tree_param":{"num_deleted":"0","num_feature":"11","num_nodes":"93","size_leaf_vector":"0"}},{"base_weights":[-9.365244E-2,-6.7759566E-2,-5.9574467E-1,-1.20051086E-1,2.4060151E-1,1.25E-1,-7.25E-1,-7.681564E-2,-5.735294E-1,8E-1,1.10091746E-1,-4E-1,7.5E-1,-2.1428572E-1,-9.62963E-1,1.4184397E-1,-1.3020833E-1,-7.413793E-1,3.6363637E-1,-5E-1,8.75E-1,-1.875E-1,3.3870968E-1,-7.5E-1,5E-1,5E-1,-6.666667E-1,-3.0555555E-1,2.9245284E-1,-9.2929296E-2,-3.5365853E-1,-2.777778E-1,-9.268293E-1,-1.6666667E-1,8.333333E-1,9.5E-1,4E-1,-4.516129E-1,2.777778E-1,5.75E-1,-8.695652E-2,8E-1,-5E-1,-8.75E-1,5E-1,-0E0,-7.8571427E-1,5.357143E-2,5.4901963E-1,-1.57754E-1,1.0655738E-1,-7.1428575E-2,-6.3414633E-1,6.25E-1,-9.0909094E-1,-9.74359E-1,-0E0,6.666667E-1,-7.5E-1,7.5E-1,-5E-1,3E-1,-7.7272725E-1,-2.2222222E-1,7E-1,6.5789473E-1,-6.666667E-1,1.875E-1,-6.25E-1],"categories":[],"categories_nodes":[],"categories_segments":[],"categories_sizes":[],"default_left":[1,1,1,1,1,1,1,1,1,1,1,1,0,1,0,1,1,1,1,0,1,1,1,0,0,1,1,1,1,1,1,1,1,1,0,0,1,1,1,1,1,0,0,0,0,0,0,0,0,0,0,0,0,0,0,0,0,0,0,0,0,0,0,0,0,0,0,0,0],"id":5,"left_children":[1,3,5,7,9,11,13,15,17,19,21,23,-1,25,-1,27,29,31,33,-1,35,37,39,-1,-1,41,43,45,47,49,51,53,55,57,-1,-1,59,61,63,65,67,-1,-1,-1,-1,-1,-1,-1,-1,-1,-1,-1,-1,-1,-1,-1,-1,-1,-1,-1,-1,-1,-1,-1,-1,-1,-1,-1,-1],"loss_changes":[1.2453222E1,1.4782958E1,4.4691486E0,1.5307704E1,9.621852E0,2.925E0,4.654894E0,8.377645E0,1.09662075E1,2.875E0,7.4793024E0,1.95E0,0E0,4.857143E0,0E0,9.590269E0,4.7652206E0,4.7290916E0,2.8787875E0,0E0,4.7499847E-1,6.0239697E0,6.2860103E0,0E0,0E0,2.2E0,2.625E0,5.2817464E0,6.467225E0,6.4179854E0,6.4459915E0,1.0827021E1,1.8061295E0,3.4166667E0,0E0,0E0,1.95E0,7.713783E0,3.955556E0,4.555702E0,3.513587E0,0E0,0E0,0E0,0E0,0E0,0E0,0E0,0E0,0E0,0E0,0E0,0E0,0E0,0E0,0E0,0E0,0E0,0E0,0E0,0E0,0E0,0E0,0E0,0E0,0E0,0E0,0E0,0E0],"parents":[2147483647,0,0,1,1,2,2,3,3,4,4,5,5,6,6,7,7,8,8,9,9,10,10,11,11,13,13,15,15,16,16,17,17,18,18,20,20,21,21,22,22,25,25,26,26,27,27,28,28,29,29,30,30,31,31,32,32,33,33,36,36,37,37,38,38,39,39,40,40],"right_children":[2,4,6,8,10,12,14,16,18,20,22,24,-1,26,-1,28,30,32,34,-1,36,38,40,-1,-1,42,44,46,48,50,52,54,56,58,-1,-1,60,62,64,66,68,-1,-1,-1,-1,-1,-1,-1,-1,-1,-1,-1,-1,-1,-1,-1,-1,-1,-1,-1,-1,-1,-1,-1,-1,-1,-1,-1,-1],"split_conditions":[3.565E0,6.925E-1,4.45E-1,9.95E1,9.35E0,4.075E-1,5.95E-1,6.65E-2,1.005E-1,9E0,2.15E0,6.3E0,2.2500001E-1,2E-2,-2.888889E-1,5.55E-2,7.95E-1,3.2150002E0,6.15E-1,-1.5E-1,3.335E0,1.15E1,9.97625E-1,-2.2500001E-1,1.5E-1,1E0,6.6000004E0,3.8E-1,4.15E-1,6.85E-1,4.05E-1,9.9645E-1,9.9877E-1,2.85E-1,2.5E-1,2.85E-1,8.2000005E-1,5.5E0,1.14999995E-1,5.35E0,8.1E-1,2.4000001E-1,-1.5E-1,-2.6250002E-1,1.5E-1,-0E0,-2.3571429E-1,1.607143E-2,1.647059E-1,-4.7326203E-2,3.1967215E-2,-2.1428574E-2,-1.9024391E-1,1.875E-1,-2.7272728E-1,-2.923077E-1,-0E0,2.0000002E-1,-2.2500001E-1,2.2500001E-1,-1.5E-1,9E-2,-2.3181818E-1,-6.666667E-2,2.1000001E-1,1.9736843E-1,-2.0000002E-1,5.6250002E-2,-1.875E-1],"split_indices":[8,1,1,6,10,1,9,4,4,6,3,0,0,2,0,4,9,8,1,0,8,5,7,0,0,1,0,2,1,9,1,7,7,2,0,0,1,5,2,3,1,0,0,0,0,0,0,0,0,0,0,0,0,0,0,0,0,0,0,0,0,0,0,0,0,0,0,0,0],"split_type":[0,0,0,0,0,0,0,0,0,0,0,0,0,0,0,0,0,0,0,0,0,0,0,0,0,0,0,0,0,0,0,0,0,0,0,0,0,0,0,0,0,0,0,0,0,0,0,0,0,0,0,0,0,0,0,0,0,0,0,0,0,0,0,0,0,0,0,0,0],"sum_hessian":[9.6E2,9.14E2,4.6E1,7.82E2,1.32E2,7E0,3.9E1,7.15E2,6.7E1,2.4E1,1.08E2,4E0,3E0,1.3E1,2.6E1,1.4E2,5.75E2,5.7E1,1E1,1E0,2.3E1,4.7E1,6.1E1,3E0,1E0,5E0,8E0,3.5E1,1.05E2,4.94E2,8.1E1,1.7E1,4E1,5E0,5E0,1.9E1,4E0,3E1,1.7E1,3.9E1,2.2E1,4E0,1E0,7E0,1E0,2.2E1,1.3E1,5.5E1,5E1,3.73E2,1.21E2,4.1E1,4E1,7E0,1E1,3.8E1,2E0,2E0,3E0,3E0,1E0,9E0,2.1E1,8E0,9E0,3.7E1,2E0,1.5E1,7E0],"tree_param":{"num_deleted":"0","num_feature":"11","num_nodes":"69","size_leaf_vector":"0"}},{"base_weights":[3.1217482E-2,-9.060022E-3,4.8101267E-1,-7.058824E-1,4.61361E-3,7.924528E-1,-1.4814815E-1,-2.857143E-1,-9.0909094E-1,9.375E-2,-1.056701E-1,-2.5E-1,8.6E-1,4.1666666E-1,-5.625E-1,5E-1,-5E-1,4.235294E-2,4.8214287E-1,-4.878049E-1,-6.0344826E-2,5E-1,-6.666667E-1,-0E0,9.347826E-1,8.888889E-1,-7.5E-1,-0E0,-9E-1,-8E-1,5E-1,2.4096385E-2,7.2727275E-1,6.7391306E-1,-3.6363637E-1,-8.148148E-1,1.3333334E-1,2.7450982E-1,-1.1744966E-1,6.666667E-1,-6.666667E-1,9.7727275E-1,-0E0,-6.666667E-1,4E-1,-6.4285713E-1,4.7263682E-2,-5E-1,9E-1,9.117647E-1,-0E0,2.5E-1,-6.25E-1,-0E0,-8.8E-1,-2.2222222E-1,5.714286E-1,5.833333E-1,-4.375E-1,-4.5081966E-2,-4.3636364E-1,-5E-1,5E-1,-5E-1,7.5E-1],"categories":[],"categories_nodes":[],"categories_segments":[],"categories_sizes":[],"default_left":[1,1,1,1,1,1,1,1,0,1,1,1,1,1,1,0,1,1,1,1,1,0,0,1,1,0,0,1,0,0,0,1,1,1,1,1,1,1,1,0,0,0,1,0,1,0,0,0,0,0,0,0,0,0,0,0,0,0,0,0,0,0,0,0,0],"id":6,"left_children":[1,3,5,7,9,11,13,15,-1,17,19,21,23,25,27,-1,29,31,33,35,37,-1,-1,39,41,-1,-1,43,-1,-1,-1,45,47,49,51,53,55,57,59,-1,-1,-1,61,-1,63,-1,-1,-1,-1,-1,-1,-1,-1,-1,-1,-1,-1,-1,-1,-1,-1,-1,-1,-1,-1],"loss_changes":[1.7414434E1,8.416563E0,1.5597134E1,1.1917486E0,8.532769E0,3.9469795E0,6.5532403E0,1.4285715E0,0E0,9.5614605E0,6.690865E0,1.5833334E0,3.2156525E0,7.2777777E0,3.0375004E0,0E0,2.2E0,5.296793E0,9.327992E0,8.436495E0,6.686634E0,0E0,0E0,2.6666667E0,1.827076E0,0E0,0E0,2.1333334E0,0E0,0E0,0E0,6.44276E0,2.7818184E0,7.3734016E0,1.9204545E0,1.4340744E0,2.4634922E0,1.1469362E1,6.8578906E0,0E0,0E0,0E0,1E0,0E0,1.95E0,0E0,0E0,0E0,0E0,0E0,0E0,0E0,0E0,0E0,0E0,0E0,0E0,0E0,0E0,0E0,0E0,0E0,0E0,0E0,0E0],"parents":[2147483647,0,0,1,1,2,2,3,3,4,4,5,5,6,6,7,7,9,9,10,10,11,11,12,12,13,13,14,14,16,16,17,17,18,18,19,19,20,20,23,23,24,24,27,27,31,31,32,32,33,33,34,34,35,35,36,36,37,37,38,38,42,42,44,44],"right_children":[2,4,6,8,10,12,14,16,-1,18,20,22,24,26,28,-1,30,32,34,36,38,-1,-1,40,42,-1,-1,44,-1,-1,-1,46,48,50,52,54,56,58,60,-1,-1,-1,62,-1,64,-1,-1,-1,-1,-1,-1,-1,-1,-1,-1,-1,-1,-1,-1,-1,-1,-1,-1,-1,-1],"split_conditions":[9.95E1,8.5E0,6.15E-1,7.5E0,9.9698E-1,1.1E-1,5.5999994E-1,3.65E-1,-2.7272728E-1,9.9672997E-1,9.97125E-1,2E0,3.5000002E-1,9.05E0,1.135E2,1.5E-1,1.11E-1,1.295E1,9.75E-2,3.65E-1,1.95E0,1.5E-1,-2.0000002E-1,3.05E-1,9.9947E-1,2.6666668E-1,-2.2500001E-1,6.425E-1,-2.7E-1,-2.4000001E-1,1.5E-1,9.9337995E-1,5E-3,2.35E0,7.45E0,6.75E0,8.8E-2,7.75E-1,9.75E-2,2.0000002E-1,-2.0000002E-1,2.9318184E-1,1E1,-2.0000002E-1,2.05E0,-1.9285715E-1,1.4179105E-2,-1.5E-1,2.7E-1,2.735294E-1,-0E0,7.5E-2,-1.875E-1,-0E0,-2.64E-1,-6.666667E-2,1.7142859E-1,1.75E-1,-1.3125001E-1,-1.352459E-2,-1.309091E-1,-1.5E-1,1.5E-1,-1.5E-1,2.2500001E-1],"split_indices":[6,6,1,6,7,2,9,1,0,7,7,3,1,0,6,0,4,10,4,2,3,0,0,1,7,0,0,1,0,0,0,7,2,3,0,0,4,9,4,0,0,0,0,0,3,0,0,0,0,0,0,0,0,0,0,0,0,0,0,0,0,0,0,0,0],"split_type":[0,0,0,0,0,0,0,0,0,0,0,0,0,0,0,0,0,0,0,0,0,0,0,0,0,0,0,0,0,0,0,0,0,0,0,0,0,0,0,0,0,0,0,0,0,0,0,0,0,0,0,0,0,0,0,0,0,0,0,0,0,0,0,0,0],"sum_hessian":[9.6E2,8.82E2,7.8E1,1.6E1,8.66E2,5.2E1,2.6E1,6E0,1E1,4.79E2,3.87E2,3E0,4.9E1,1.1E1,1.5E1,1E0,5E0,4.24E2,5.5E1,4E1,3.47E2,1E0,2E0,4E0,4.5E1,8E0,3E0,6E0,9E0,4E0,1E0,4.14E2,1E1,4.5E1,1E1,2.6E1,1.4E1,5E1,2.97E2,2E0,2E0,4.3E1,2E0,2E0,4E0,1.3E1,4.01E2,1E0,9E0,3.3E1,1.2E1,3E0,7E0,2E0,2.4E1,8E0,6E0,3.5E1,1.5E1,2.43E2,5.4E1,1E0,1E0,1E0,3E0],"tree_param":{"num_deleted":"0","num_feature":"11","num_nodes":"65","size_leaf_vector":"0"}},{"base_weights":[-4.7866806E-2,-4.6674446E-3,-4E-1,-2.1505376E-2,6.666667E-1,-7.8846157E-1,-1.8518519E-2,-7.174888E-2,1.7751479E-1,-5E-1,7.5E-1,2.5E-1,-8.5714287E-1,-5.714286E-1,3.2352942E-1,2.6744187E-1,-1.2157534E-1,-4.375E-1,2.4025974E-1,8.4210527E-1,-5E-1,-5E-1,6.666667E-1,-1.25E-1,-9.7619045E-1,-9.375E-1,5E-1,-3.6363637E-1,6.25E-1,4.1791046E-1,-2.5E-1,-6.2111802E-2,-4.019608E-1,-7.5E-1,4E-1,6.5E-1,1.7777778E-1,-0E0,9.411765E-1,-7.5E-1,4E-1,-5E-1,8E-1,4E-1,-8.5714287E-1,-2.5E-1,7.619048E-1,5.084746E-1,-2.2222222E-1,-6.1538464E-1,3.75E-1,-8.639309E-2,4.7619048E-1,-2.5974026E-1,-8.076923E-1,-8.888889E-1,-2.5E-1,7.5E-1,-5E-1,9.230769E-1,1.25E-1,3.8333333E-1,1.3157895E-2,5E-1,-5E-1,-5E-1,7.5E-1,7.5E-1,-5E-1,-6.666667E-1,5E-1,8.5E-1,-5E-1],"categories":[],"categories_nodes":[],"categories_segments":[],"categories_sizes":[],"default_left":[1,1,1,1,1,1,1,1,1,0,1,1,1,1,1,1,1,1,1,1,0,0,0,1,0,0,1,1,1,1,1,1,1,1,1,1,1,1,0,0,1,0,0,1,0,1,1,0,0,0,0,0,0,0,0,0,0,0,0,0,0,0,0,0,0,0,0,0,0,0,0,0,0],"id":7,"left_children":[1,3,5,7,9,11,13,15,17,-1,19,21,23,25,27,29,31,33,35,37,-1,-1,-1,39,-1,-1,41,43,45,47,49,51,53,55,57,59,61,63,-1,-1,65,-1,-1,67,-1,69,71,-1,-1,-1,-1,-1,-1,-1,-1,-1,-1,-1,-1,-1,-1,-1,-1,-1,-1,-1,-1,-1,-1,-1,-1,-1,-1],"loss_changes":[1.4616796E1,9.701759E0,1.55454445E1,8.382294E0,2.416667E0,3.9230766E0,1.0397448E1,1.13390665E1,6.6266665E0,0E0,2.7236843E0,1.5833334E0,4.1488113E0,8.705357E0,7.2707224E0,6.8003297E0,9.711897E0,4.4875E0,3.827057E0,1.5851393E0,0E0,0E0,0E0,2.925E0,0E0,0E0,2.2E0,4.488312E0,3.0654764E0,3.9971895E0,4.798077E0,6.3542743E0,5.675951E0,6.1111116E-1,1.95E0,2.7519236E0,4.5631576E0,1E0,0E0,0E0,1.95E0,0E0,0E0,1.95E0,0E0,1.5833334E0,2.7595234E0,0E0,0E0,0E0,0E0,0E0,0E0,0E0,0E0,0E0,0E0,0E0,0E0,0E0,0E0,0E0,0E0,0E0,0E0,0E0,0E0,0E0,0E0,0E0,0E0,0E0,0E0],"parents":[2147483647,0,0,1,1,2,2,3,3,4,4,5,5,6,6,7,7,8,8,10,10,11,11,12,12,13,13,14,14,15,15,16,16,17,17,18,18,19,19,23,23,26,26,27,27,28,28,29,29,30,30,31,31,32,32,33,33,34,34,35,35,36,36,37,37,40,40,43,43,45,45,46,46],"right_children":[2,4,6,8,10,12,14,16,18,-1,20,22,24,26,28,30,32,34,36,38,-1,-1,-1,40,-1,-1,42,44,46,48,50,52,54,56,58,60,62,64,-1,-1,66,-1,-1,68,-1,70,72,-1,-1,-1,-1,-1,-1,-1,-1,-1,-1,-1,-1,-1,-1,-1,-1,-1,-1,-1,-1,-1,-1,-1,-1,-1,-1],"split_conditions":[8.95E1,6.65E-1,5.95E-1,5.65E1,2.65E-1,3.2E-1,5.3499997E-1,9.94725E-1,1.725E0,-1.5E-1,8.8E-1,6.5E0,9.85E1,7.6E-1,9.7E1,3.55E1,3.4250002E0,7.4E0,6.5E-2,5.5E0,-1.5E-1,-1.5E-1,2.0000002E-1,2.4000001E-1,-2.9285714E-1,-2.8125E-1,1.2E-1,6.8E-1,7.4E-2,4.1E-1,1.8E1,5.3E0,2.45E0,7.15E0,8.3E0,3.54E0,2.05E1,9.45E0,2.8235295E-1,-2.2500001E-1,3.9999998E-1,-1.5E-1,2.4000001E-1,8.25E0,-2.5714287E-1,7.1E0,9.95E0,1.5254238E-1,-6.666667E-2,-1.846154E-1,1.12500004E-1,-2.5917927E-2,1.4285715E-1,-7.792208E-2,-2.423077E-1,-2.6666668E-1,-7.5E-2,2.2500001E-1,-1.5E-1,2.769231E-1,3.75E-2,1.15E-1,3.947369E-3,1.5E-1,-1.5E-1,-1.5E-1,2.2500001E-1,2.2500001E-1,-1.5E-1,-2.0000002E-1,1.5E-1,2.5500003E-1,-1.5E-1],"split_indices":[6,2,1,6,1,1,9,7,3,0,2,0,6,1,6,6,8,0,2,5,0,0,0,2,0,0,2,1,4,2,5,3,3,0,0,8,5,0,0,0,1,0,0,0,0,0,0,0,0,0,0,0,0,0,0,0,0,0,0,0,0,0,0,0,0,0,0,0,0,0,0,0,0],"split_type":[0,0,0,0,0,0,0,0,0,0,0,0,0,0,0,0,0,0,0,0,0,0,0,0,0,0,0,0,0,0,0,0,0,0,0,0,0,0,0,0,0,0,0,0,0,0,0,0,0,0,0,0,0,0,0,0,0,0,0,0,0,0,0,0,0,0,0,0,0,0,0,0,0],"sum_hessian":[9.6E2,8.56E2,1.04E2,8.36E2,2E1,5.1E1,5.3E1,6.68E2,1.68E2,1E0,1.9E1,3E0,4.8E1,2E1,3.3E1,8.5E1,5.83E2,1.5E1,1.53E2,1.8E1,1E0,1E0,2E0,7E0,4.1E1,1.5E1,5E0,1E1,2.3E1,6.6E1,1.9E1,4.82E2,1.01E2,1.1E1,4E0,1.9E1,1.34E2,2E0,1.6E1,3E0,4E0,1E0,4E0,4E0,6E0,3E0,2E1,5.8E1,8E0,1.2E1,7E0,4.62E2,2E1,7.6E1,2.5E1,8E0,3E0,3E0,1E0,1.2E1,7E0,5.9E1,7.5E1,1E0,1E0,1E0,3E0,3E0,1E0,2E0,1E0,1.9E1,1E0],"tree_param":{"num_deleted":"0","num_feature":"11","num_nodes":"73","size_leaf_vector":"0"}},{"base_weights":[3.1217482E-2,-1.8583043E-2,4.5544556E-1,-1.7125382E-1,7.476635E-2,7.4242425E-1,-8.3333336E-2,-3.208556E-2,-3.5460994E-1,3.6511157E-2,5.116279E-1,8.5E-1,-2.857143E-1,7.8571427E-1,-6.086956E-1,6.1349694E-2,-6.4E-1,-3.9215688E-2,-5.2747256E-1,1.196319E-1,-1.25E-1,1.5E-1,7.916667E-1,-0E0,9.1071427E-1,6.666667E-1,-8E-1,-5E-1,9.230769E-1,6.666667E-1,-7.619048E-1,5.1282054E-1,-8E-2,-8.4210527E-1,-0E0,-1.8604651E-1,6.666667E-1,1.25E-1,-5.833333E-1,-6.666667E-1,1.5705128E-1,-2.5688073E-1,1.1666667E-1,6.666667E-1,-2.5E-1,8.695652E-1,-5E-1,6.666667E-1,-6.666667E-1,9.433962E-1,2.5E-1,-9.444444E-1,2.5E-1,-1E-1,7E-1,1.4457831E-1,-5.116279E-1,-9.411765E-1,-0E0,6.666667E-1,-4E-1,-3.611111E-1,6.25E-1,-0E0,8.5714287E-1,-7.5E-1,8E-1,-4.852941E-1,-9.411765E-1,5E-1,-7.8571427E-1,-0E0,3.0246913E-1,-3.0476192E-1,8E-1,6.875E-1,-8.888889E-2,8.75E-1,-5E-1,7.5E-1,-6.666667E-1,4E-1,9.4736844E-1,9.791667E-1,5E-1,6.666667E-1,-5E-1,6.666667E-1,-5E-1],"categories":[],"categories_nodes":[],"categories_segments":[],"categories_sizes":[],"default_left":[1,1,1,1,1,1,1,1,1,1,1,1,1,1,1,1,1,1,1,1,1,1,1,1,1,0,0,0,0,0,1,1,1,1,1,1,1,1,1,1,1,1,1,1,1,1,0,0,0,1,1,0,1,0,0,0,0,0,0,0,0,0,0,0,0,0,0,0,0,0,0,0,0,0,0,0,0,0,0,0,0,0,0,0,0,0,0,0,0],"id":8,"left_children":[1,3,5,7,9,11,13,15,17,19,21,23,25,27,29,31,33,35,37,39,41,43,45,47,49,-1,-1,-1,-1,-1,51,53,55,57,59,61,63,65,67,69,71,73,75,77,79,81,-1,-1,-1,83,85,-1,87,-1,-1,-1,-1,-1,-1,-1,-1,-1,-1,-1,-1,-1,-1,-1,-1,-1,-1,-1,-1,-1,-1,-1,-1,-1,-1,-1,-1,-1,-1,-1,-1,-1,-1,-1,-1],"loss_changes":[2.0311298E1,1.2283539E1,1.5678293E1,8.332796E0,8.92236E0,7.5426407E0,1.6914597E1,1.0660983E1,7.6666164E0,6.6334434E0,4.235853E0,3.0964317E0,3.9619048E0,2.9340658E0,5.0020704E0,1.0442914E1,3.2336845E0,5.4099402E0,3.3896523E0,9.696535E0,5.384327E0,4.3E0,2.849637E0,2.6666667E0,9.7338104E-1,0E0,0E0,0E0,0E0,0E0,4.115079E0,4.5435896E0,1.2190753E1,1.5851393E0,2.1333334E0,6.331073E0,1.1428571E0,5.325E0,2.4901943E0,2.476191E0,7.125475E0,5.759721E0,7.101389E0,2.625E0,5.5E0,4.613266E-1,0E0,0E0,0E0,3.510208E-1,1.5833334E0,0E0,1.5833334E0,0E0,0E0,0E0,0E0,0E0,0E0,0E0,0E0,0E0,0E0,0E0,0E0,0E0,0E0,0E0,0E0,0E0,0E0,0E0,0E0,0E0,0E0,0E0,0E0,0E0,0E0,0E0,0E0,0E0,0E0,0E0,0E0,0E0,0E0,0E0,0E0],"parents":[2147483647,0,0,1,1,2,2,3,3,4,4,5,5,6,6,7,7,8,8,9,9,10,10,11,11,12,12,13,13,14,14,15,15,16,16,17,17,18,18,19,19,20,20,21,21,22,22,23,23,24,24,30,30,31,31,32,32,33,33,34,34,35,35,36,36,37,37,38,38,39,39,40,40,41,41,42,42,43,43,44,44,45,45,49,49,50,50,52,52],"right_children":[2,4,6,8,10,12,14,16,18,20,22,24,26,28,30,32,34,36,38,40,42,44,46,48,50,-1,-1,-1,-1,-1,52,54,56,58,60,62,64,66,68,70,72,74,76,78,80,82,-1,-1,-1,84,86,-1,88,-1,-1,-1,-1,-1,-1,-1,-1,-1,-1,-1,-1,-1,-1,-1,-1,-1,-1,-1,-1,-1,-1,-1,-1,-1,-1,-1,-1,-1,-1,-1,-1,-1,-1,-1,-1],"split_conditions":[9.05E1,9.85E0,6.55E-1,6.15E-1,8.65E-1,1.445E2,5.25E-1,7.5E-1,3.05E1,3.9499998E-1,3.2649999E0,1.4E1,7.8E0,3.4E-1,1.05E1,7.5E0,5.55E-1,6.4E-1,3.75E-1,3.165E0,5.25E-1,3.19E0,7.125E-1,2.9E-1,3.4850001E0,2.0000002E-1,-2.4000001E-1,-1.5E-1,2.769231E-1,2.0000002E-1,8.1E-1,1.75E0,8.25E0,1.09500006E-1,4.4999998E-2,8.65E-1,1E-2,2.4000001E-1,3.475E0,4E0,7.65E-2,3.525E0,9.9689996E-1,5E-1,1.085E1,6.1499996E0,-1.5E-1,2.0000002E-1,-2.0000002E-1,1.05000004E-1,6.05E0,-2.8333333E-1,9.175E-1,-3.0000001E-2,2.1000001E-1,4.3373495E-2,-1.5348838E-1,-2.8235295E-1,-0E0,2.0000002E-1,-1.20000005E-1,-1.08333334E-1,1.875E-1,-0E0,2.5714287E-1,-2.2500001E-1,2.4000001E-1,-1.4558823E-1,-2.8235295E-1,1.5E-1,-2.3571429E-1,-0E0,9.074074E-2,-9.142858E-2,2.4000001E-1,2.0625001E-1,-2.666667E-2,2.6250002E-1,-1.5E-1,2.2500001E-1,-2.0000002E-1,1.20000005E-1,2.8421053E-1,2.9375002E-1,1.5E-1,2.0000002E-1,-1.5E-1,2.0000002E-1,-1.5E-1],"split_indices":[6,10,9,9,9,6,1,1,6,2,8,5,0,1,5,5,9,1,1,8,2,8,1,2,8,0,0,0,0,0,1,3,0,4,2,9,2,2,8,5,4,8,7,1,10,0,0,0,0,4,0,0,1,0,0,0,0,0,0,0,0,0,0,0,0,0,0,0,0,0,0,0,0,0,0,0,0,0,0,0,0,0,0,0,0,0,0,0,0],"split_type":[0,0,0,0,0,0,0,0,0,0,0,0,0,0,0,0,0,0,0,0,0,0,0,0,0,0,0,0,0,0,0,0,0,0,0,0,0,0,0,0,0,0,0,0,0,0,0,0,0,0,0,0,0,0,0,0,0,0,0,0,0,0,0,0,0,0,0,0,0,0,0,0,0,0,0,0,0,0,0,0,0,0,0,0,0,0,0,0,0],"sum_hessian":[9.6E2,8.6E2,1E2,3.26E2,5.34E2,6.5E1,3.5E1,1.86E2,1.4E2,4.92E2,4.2E1,5.9E1,6E0,1.3E1,2.2E1,1.62E2,2.4E1,5E1,9E1,3.25E2,1.67E2,1.9E1,2.3E1,4E0,5.5E1,2E0,4E0,1E0,1.2E1,2E0,2E1,3.8E1,1.24E2,1.8E1,6E0,4.2E1,8E0,7E0,8.3E1,1.4E1,3.11E2,1.08E2,5.9E1,8E0,1.1E1,2.2E1,1E0,2E0,2E0,5.2E1,3E0,1.7E1,3E0,9E0,2.9E1,8.2E1,4.2E1,1.6E1,2E0,2E0,4E0,3.5E1,7E0,2E0,6E0,3E0,4E0,6.7E1,1.6E1,1E0,1.3E1,1.5E2,1.61E2,1.04E2,4E0,1.5E1,4.4E1,7E0,1E0,3E0,8E0,4E0,1.8E1,4.7E1,5E0,2E0,1E0,2E0,1E0],"tree_param":{"num_deleted":"0","num_feature":"11","num_nodes":"89","size_leaf_vector":"0"}},{"base_weights":[-7.700312E-2,-3.2520324E-2,-4.5544556E-1,1.0431655E-1,-9.760274E-2,-6.111111E-1,7.5E-1,2.0091324E-1,-2.5E-1,-2.0783132E-1,4.743083E-2,-9.423077E-1,-1.5384616E-1,-0E0,9E-1,5.1666665E-1,8.125E-2,-3.888889E-1,8.5714287E-1,5.833333E-1,-2.3676012E-1,6.086956E-1,-8.658009E-3,-9.8039216E-1,5E-1,-8.125E-1,2.9166666E-1,5E-1,-5E-1,-4E-1,5.8928573E-1,-3.5897437E-1,2.2131148E-1,-5.945946E-1,5.5555556E-2,7.2727275E-1,-5E-1,-3.7671232E-1,-1.1931818E-1,7.5E-1,-2.5E-1,2.232143E-2,-8.75E-1,5E-1,-9.3333334E-1,6.111111E-1,-5.714286E-1,-7.5E-1,5E-1,6.481481E-1,-6.666667E-1,-5.8064514E-1,4.4444445E-1,1.0309278E-1,6.5384614E-1,-7.5E-1,-1E-1,-8E-1,3.5714287E-1,9E-1,-5E-1,-5E-1,-0E0,-3.8333333E-1,1.7094018E-2,2.857143E-1,9.285714E-1,-6.666667E-1,5E-1,-1.8604651E-2,9E-1,8.125E-1,-6.666667E-1,5E-1,-8.333333E-1],"categories":[],"categories_nodes":[],"categories_segments":[],"categories_sizes":[],"default_left":[1,1,1,1,1,1,1,1,1,1,1,1,1,1,0,1,1,1,0,1,1,1,1,0,0,1,1,0,0,1,1,1,1,1,1,1,0,1,1,1,1,1,0,0,0,1,1,0,0,0,0,0,0,0,0,0,0,0,0,0,0,0,0,0,0,0,0,0,0,0,0,0,0,0,0],"id":9,"left_children":[1,3,5,7,9,11,13,15,17,19,21,23,25,27,-1,29,31,33,-1,35,37,39,41,-1,-1,43,45,-1,-1,47,49,51,53,55,57,59,-1,61,63,65,67,69,-1,-1,-1,71,73,-1,-1,-1,-1,-1,-1,-1,-1,-1,-1,-1,-1,-1,-1,-1,-1,-1,-1,-1,-1,-1,-1,-1,-1,-1,-1,-1,-1],"loss_changes":[1.6162832E1,7.677967E0,1.9410616E1,9.565002E0,9.346175E0,1.3485043E1,1.3500004E0,8.232734E0,9.559525E0,7.736741E0,7.969885E0,3.346531E0,1.168109E1,1E0,0E0,4.229761E0,9.944801E0,4.9699697E0,0E0,2.2348485E0,5.2310905E0,2.978261E0,6.219291E0,0E0,0E0,3.0041666E0,6.9662695E0,0E0,0E0,1.95E0,4.57209E0,7.203749E0,6.1709027E0,2.768919E0,4.930159E0,2.7818184E0,0E0,6.7808228E0,6.345173E0,1.3928566E0,1.5833334E0,8.062812E0,0E0,0E0,0E0,5.1736107E0,2.3809521E0,0E0,0E0,0E0,0E0,0E0,0E0,0E0,0E0,0E0,0E0,0E0,0E0,0E0,0E0,0E0,0E0,0E0,0E0,0E0,0E0,0E0,0E0,0E0,0E0,0E0,0E0,0E0,0E0],"parents":[2147483647,0,0,1,1,2,2,3,3,4,4,5,5,6,6,7,7,8,8,9,9,10,10,11,11,12,12,13,13,15,15,16,16,17,17,19,19,20,20,21,21,22,22,25,25,26,26,29,29,30,30,31,31,32,32,33,33,34,34,35,35,37,37,38,38,39,39,40,40,41,41,45,45,46,46],"right_children":[2,4,6,8,10,12,14,16,18,20,22,24,26,28,-1,30,32,34,-1,36,38,40,42,-1,-1,44,46,-1,-1,48,50,52,54,56,58,60,-1,62,64,66,68,70,-1,-1,-1,72,74,-1,-1,-1,-1,-1,-1,-1,-1,-1,-1,-1,-1,-1,-1,-1,-1,-1,-1,-1,-1,-1,-1,-1,-1,-1,-1,-1,-1],"split_conditions":[9.05E1,3.2350001E0,1.445E2,9.9919E-1,9.9672997E-1,6.15E-1,4.55E-1,5.65E-1,5.4750004E0,5.55E0,9.96895E-1,1.45E-1,5.25E-1,8.35E0,2.7E-1,3.5E-2,2.65E-1,1.255E1,2.5714287E-1,8.8E-1,3.3649998E0,6.65E-1,8.4749997E-1,-2.9411766E-1,1.5E-1,3.5E-1,8.75E0,1.5E-1,-1.5E-1,9.9591E-1,3.225E0,9.9772E-1,4.85E-1,1.0549999E1,2.935E0,8.75E1,-1.5E-1,6.25E-1,1.05E1,1.8499999E0,8.9E0,3.56E0,-2.6250002E-1,1.5E-1,-2.8E-1,3.8E-1,5.5E-1,-2.2500001E-1,1.5E-1,1.9444445E-1,-2.0000002E-1,-1.7419355E-1,1.3333334E-1,3.0927835E-2,1.9615385E-1,-2.2500001E-1,-3.0000001E-2,-2.4000001E-1,1.07142866E-1,2.7E-1,-1.5E-1,-1.5E-1,-0E0,-1.15E-1,5.1282058E-3,8.5714296E-2,2.7857143E-1,-2.0000002E-1,1.5E-1,-5.5813957E-3,2.7E-1,2.4375E-1,-2.0000002E-1,1.5E-1,-2.5E-1],"split_indices":[6,8,6,7,7,9,1,9,3,0,7,4,1,0,0,2,2,0,0,1,8,9,1,0,0,1,0,0,0,7,8,7,1,10,8,6,0,1,5,3,0,8,0,0,0,2,1,0,0,0,0,0,0,0,0,0,0,0,0,0,0,0,0,0,0,0,0,0,0,0,0,0,0,0,0],"split_type":[0,0,0,0,0,0,0,0,0,0,0,0,0,0,0,0,0,0,0,0,0,0,0,0,0,0,0,0,0,0,0,0,0,0,0,0,0,0,0,0,0,0,0,0,0,0,0,0,0,0,0,0,0,0,0,0,0,0,0,0,0,0,0,0,0,0,0,0,0,0,0,0,0,0,0],"sum_hessian":[9.6E2,8.6E2,1E2,2.77E2,5.83E2,8.9E1,1.1E1,2.18E2,5.9E1,3.31E2,2.52E2,5.1E1,3.8E1,2E0,9E0,5.9E1,1.59E2,5.3E1,6E0,1.1E1,3.2E2,2.2E1,2.3E2,5E1,1E0,1.5E1,2.3E1,1E0,1E0,4E0,5.5E1,3.8E1,1.21E2,3.6E1,1.7E1,1E1,1E0,1.45E2,1.75E2,1.9E1,3E0,2.23E2,7E0,1E0,1.4E1,1.7E1,6E0,3E0,1E0,5.3E1,2E0,3E1,8E0,9.6E1,2.5E1,2.7E1,9E0,4E0,1.3E1,9E0,1E0,1.09E2,3.6E1,5.9E1,1.16E2,6E0,1.3E1,2E0,1E0,2.14E2,9E0,1.5E1,2E0,1E0,5E0],"tree_param":{"num_deleted":"0","num_feature":"11","num_nodes":"75","size_leaf_vector":"0"}},{"base_weights":[4.578564E-2,-4.7789724E-3,3.84E-1,-7.058824E-1,9.744215E-3,5.1754385E-1,-9.166667E-1,5E-1,-8.125E-1,2.9752067E-1,-3.994294E-2,7.692308E-1,1.8E-1,-2.5E-1,-9.230769E-1,3.6607143E-1,-5E-1,-8.333333E-1,-1.9005848E-2,2.1428572E-1,9.0384614E-1,7.307692E-1,-4E-1,5E-1,-6.666667E-1,1.3559322E-1,6.111111E-1,-8.5714287E-1,2.5E-1,-9.411765E-1,5E-1,-2.3239437E-1,3.683241E-2,-7.5E-1,5.4545456E-1,9.791667E-1,-0E0,-2.5E-1,8.695652E-1,-8.333333E-1,6.25E-1,3.5897437E-1,-2.857143E-1,7.111111E-1,1E-1,6.666667E-1,-5E-1,-5.9615386E-1,-2.1978023E-2,1.5805471E-1,-1.4883721E-1,8.75E-1,-2.5E-1,6.666667E-1,-6.666667E-1,5E-1,-6.666667E-1,-5E-1,9.5454544E-1,-9.3333334E-1,-2.5E-1,8.5714287E-1,-5E-1],"categories":[],"categories_nodes":[],"categories_segments":[],"categories_sizes":[],"default_left":[1,1,1,1,1,1,0,0,1,1,1,1,1,1,0,1,1,1,1,1,1,1,1,0,0,1,1,0,1,0,0,1,1,0,1,0,1,1,1,1,1,0,0,0,0,0,0,0,0,0,0,0,0,0,0,0,0,0,0,0,0,0,0],"id":10,"left_children":[1,3,5,7,9,11,-1,-1,13,15,17,19,21,23,-1,25,27,29,31,33,35,37,39,-1,-1,41,43,-1,45,-1,-1,47,49,-1,51,-1,53,55,57,59,61,-1,-1,-1,-1,-1,-1,-1,-1,-1,-1,-1,-1,-1,-1,-1,-1,-1,-1,-1,-1,-1,-1],"loss_changes":[1.6436546E1,8.529427E0,2.218642E1,2.5919113E0,1.1751193E1,9.546452E0,0E0,0E0,7.644234E-1,6.7981844E0,1.1628674E1,4.6620865E0,1.6264614E1,1.5833334E0,0E0,6.242483E0,2.892857E0,3.0588236E0,8.1585865E0,4.87987E0,3.540062E0,3.756689E0,1.1625E1,0E0,0E0,5.655181E0,2.6888905E0,0E0,1.5833334E0,0E0,0E0,1.0855713E1,1.22449875E1,0E0,3.1022727E0,0E0,2.6666667E0,1.5833334E0,3.15415E0,8.166666E-1,2.517857E0,0E0,0E0,0E0,0E0,0E0,0E0,0E0,0E0,0E0,0E0,0E0,0E0,0E0,0E0,0E0,0E0,0E0,0E0,0E0,0E0,0E0,0E0],"parents":[2147483647,0,0,1,1,2,2,3,3,4,4,5,5,8,8,9,9,10,10,11,11,12,12,13,13,15,15,16,16,17,17,18,18,19,19,20,20,21,21,22,22,25,25,26,26,28,28,31,31,32,32,34,34,36,36,37,37,38,38,39,39,40,40],"right_children":[2,4,6,8,10,12,-1,-1,14,16,18,20,22,24,-1,26,28,30,32,34,36,38,40,-1,-1,42,44,-1,46,-1,-1,48,50,-1,52,-1,54,56,58,60,62,-1,-1,-1,-1,-1,-1,-1,-1,-1,-1,-1,-1,-1,-1,-1,-1,-1,-1,-1,-1,-1,-1],"split_conditions":[8.65E1,8.5E0,1.445E2,9.9283004E-1,1.55E1,6.15E-1,-2.75E-1,1.5E-1,3.5000002E-1,8.375E-1,4.5499998E-1,9.05E1,5.65E-1,9.85E0,-2.769231E-1,2.15E0,7.8500004E0,9.984E-1,3.185E0,4.7499996E-1,1.05000004E-1,3.85E-1,1.115E-1,1.5E-1,-2.0000002E-1,9.9669504E-1,1.225E1,-2.5714287E-1,8.549999E0,-2.8235295E-1,1.5E-1,6.15E-1,3.3850002E0,-2.2500001E-1,3.505E0,2.9375002E-1,6.95E0,2.45E-1,9.5E0,9.049999E0,3.2849998E0,1.07692316E-1,-8.5714296E-2,2.1333335E-1,3.0000001E-2,2.0000002E-1,-1.5E-1,-1.7884617E-1,-6.593407E-3,4.7416415E-2,-4.4651166E-2,2.6250002E-1,-7.5E-2,2.0000002E-1,-2.0000002E-1,1.5E-1,-2.0000002E-1,-1.5E-1,2.8636363E-1,-2.8E-1,-7.5E-2,2.5714287E-1,-1.5E-1],"split_indices":[6,6,6,7,6,9,0,0,1,1,9,6,1,0,0,3,0,7,8,1,4,1,4,0,0,7,10,0,0,0,0,9,8,0,8,0,0,1,5,0,8,0,0,0,0,0,0,0,0,0,0,0,0,0,0,0,0,0,0,0,0,0,0],"split_type":[0,0,0,0,0,0,0,0,0,0,0,0,0,0,0,0,0,0,0,0,0,0,0,0,0,0,0,0,0,0,0,0,0,0,0,0,0,0,0,0,0,0,0,0,0,0,0,0,0,0,0,0,0,0,0,0,0,0,0,0,0,0,0],"sum_hessian":[9.6E2,8.36E2,1.24E2,1.6E1,8.2E2,1.13E2,1.1E1,1E0,1.5E1,1.2E2,7E2,6.4E1,4.9E1,3E0,1.2E1,1.11E2,9E0,1.7E1,6.83E2,1.3E1,5.1E1,2.5E1,2.4E1,1E0,2E0,5.8E1,5.3E1,6E0,3E0,1.6E1,1E0,1.41E2,5.42E2,3E0,1E1,4.7E1,4E0,3E0,2.2E1,1.7E1,7E0,3.8E1,2E1,4.4E1,9E0,2E0,1E0,5.1E1,9E1,3.28E2,2.14E2,7E0,3E0,2E0,2E0,1E0,2E0,1E0,2.1E1,1.4E1,3E0,6E0,1E0],"tree_param":{"num_deleted":"0","num_feature":"11","num_nodes":"63","size_leaf_vector":"0"}},{"base_weights":[-2.289282E-2,3.6809817E-2,-3.537415E-1,4.708798E-2,-8.888889E-1,-4.632353E-1,9.166667E-1,7.058824E-1,3.2869786E-2,-6.666667E-1,-1.6071428E-1,-2.5E-1,9.285714E-1,6.438356E-2,-3.3870968E-1,-2.4E-1,-8.4210527E-1,-3.5555556E-1,5.833333E-1,5E-1,-6.666667E-1,2.1145375E-1,-1.984127E-3,-5.833333E-1,-0E0,-6.111111E-1,6.25E-1,-9.347826E-1,-4.1666666E-1,5E-2,-6.5384614E-1,7.2727275E-1,-5E-1,7.352941E-1,1.185567E-1,-2.5641027E-1,7.4742265E-2,7.5E-1,-7.2727275E-1,5E-1,-5E-1,-8.125E-1,6.666667E-1,8.5714287E-1,-5E-1,-0E0,-9.7727275E-1,-8.888889E-1,7.5E-1,-8.333333E-1,4E-1,-9.166667E-1,-4E-1,8.888889E-1,-0E0],"categories":[],"categories_nodes":[],"categories_segments":[],"categories_sizes":[],"default_left":[1,1,1,1,0,1,0,1,1,1,1,1,0,1,1,1,1,1,1,0,0,1,1,1,1,1,1,1,1,1,1,1,0,0,0,0,0,0,0,0,0,0,0,0,0,0,0,0,0,0,0,0,0,0,0],"id":11,"left_children":[1,3,5,7,-1,9,-1,11,13,15,17,19,-1,21,23,25,27,29,31,-1,-1,33,35,37,39,41,43,45,47,49,51,53,-1,-1,-1,-1,-1,-1,-1,-1,-1,-1,-1,-1,-1,-1,-1,-1,-1,-1,-1,-1,-1,-1,-1],"loss_changes":[1.899521E1,7.79616E0,2.0872597E1,7.5358596E0,0E0,8.262608E0,0E0,3.8508396E0,9.284316E0,5.8610497E0,8.325794E0,1.5833334E0,0E0,7.125736E0,5.137097E0,8.407223E0,1.857933E0,5.476496E0,2.2348485E0,0E0,0E0,1.0959378E1,9.857848E0,7.454546E0,7E0,5.1736107E0,2.517857E0,1.827076E0,7.2777777E0,6.5166664E0,1.3679485E0,1.2929292E0,0E0,0E0,0E0,0E0,0E0,0E0,0E0,0E0,0E0,0E0,0E0,0E0,0E0,0E0,0E0,0E0,0E0,0E0,0E0,0E0,0E0,0E0,0E0],"parents":[2147483647,0,0,1,1,2,2,3,3,5,5,7,7,8,8,9,9,10,10,11,11,13,13,14,14,15,15,16,16,17,17,18,18,21,21,22,22,23,23,24,24,25,25,26,26,27,27,28,28,29,29,30,30,31,31],"right_children":[2,4,6,8,-1,10,-1,12,14,16,18,20,-1,22,24,26,28,30,32,-1,-1,34,36,38,40,42,44,46,48,50,52,54,-1,-1,-1,-1,-1,-1,-1,-1,-1,-1,-1,-1,-1,-1,-1,-1,-1,-1,-1,-1,-1,-1,-1],"split_conditions":[8.15E1,1.0125E0,1.445E2,8.5E0,-2.6666668E-1,6.025E-1,2.75E-1,7.4E0,5.65E-1,9.1E1,3.35E1,3.75E-1,2.7857143E-1,3.255E0,1.125E1,2.75E1,5.95E-1,8.45E-2,8.15E0,1.5E-1,-2.0000002E-1,1.85E-1,7.5E0,7.75E0,3.6E1,9.95E0,9.35E0,3.2E-1,6.1E-1,5.55E-1,3.205E0,2.85E-1,-1.5E-1,2.2058824E-1,3.556701E-2,-7.692309E-2,2.242268E-2,2.2500001E-1,-2.1818183E-1,1.5E-1,-1.5E-1,-2.4375E-1,2.0000002E-1,2.5714287E-1,-1.5E-1,-0E0,-2.9318184E-1,-2.6666668E-1,2.2500001E-1,-2.5E-1,1.20000005E-1,-2.75E-1,-1.20000005E-1,2.6666668E-1,-0E0],"split_indices":[6,1,6,6,0,1,0,0,2,6,5,1,0,8,0,5,1,4,0,0,0,2,5,0,6,0,0,1,9,9,8,2,0,0,0,0,0,0,0,0,0,0,0,0,0,0,0,0,0,0,0,0,0,0,0],"split_type":[0,0,0,0,0,0,0,0,0,0,0,0,0,0,0,0,0,0,0,0,0,0,0,0,0,0,0,0,0,0,0,0,0,0,0,0,0,0,0,0,0,0,0,0,0,0,0,0,0,0,0,0,0,0,0],"sum_hessian":[9.6E2,8.14E2,1.46E2,8.06E2,8E0,1.35E2,1.1E1,1.6E1,7.9E2,8E1,5.5E1,3E0,1.3E1,7.29E2,6.1E1,2.4E1,5.6E1,4.4E1,1.1E1,1E0,2E0,2.26E2,5.03E2,3.5E1,2.6E1,1.7E1,7E0,4.5E1,1.1E1,1.9E1,2.5E1,1E1,1E0,3.3E1,1.93E2,1.16E2,3.87E2,3E0,3.2E1,1.3E1,1.3E1,1.5E1,2E0,6E0,1E0,2E0,4.3E1,8E0,3E0,5E0,1.4E1,1.1E1,1.4E1,8E0,2E0],"tree_param":{"num_deleted":"0","num_feature":"11","num_nodes":"55","size_leaf_vector":"0"}},{"base_weights":[-2.0811656E-3,-5.0984938E-2,4.2424244E-1,-7.096774E-1,-2.6410565E-2,6.0227275E-1,-9.166667E-1,4E-1,-8.888889E-1,-3.6452007E-2,7.2727275E-1,9.347826E-1,2.3255815E-1,7.5E-1,-5E-1,5E-1,-9.6153843E-1,6.127451E-2,-1.3221154E-1,-5E-1,9E-1,-5E-1,9.777778E-1,3.5897437E-1,-8E-1,1.5248227E-1,-1.4173229E-1,-2.617801E-1,-2.2123894E-2,4.5454547E-2,7.222222E-1,1.7454545E-1,-6.25E-1,-3.857143E-1,1.5517241E-1,-3.3939394E-1,2.2222222E-1,5.3333336E-1,-6.1320756E-2,4E-1,-6.25E-1,9.3333334E-1,-2.5E-1],"categories":[],"categories_nodes":[],"categories_segments":[],"categories_sizes":[],"default_left":[1,1,1,1,1,1,0,1,1,1,1,1,1,0,0,0,0,1,1,0,0,0,0,1,0,1,1,1,1,1,1,0,0,0,0,0,0,0,0,0,0,0,0],"id":12,"left_children":[1,3,5,7,9,11,-1,13,15,17,19,21,23,-1,-1,-1,-1,25,27,-1,-1,-1,-1,29,-1,31,33,35,37,39,41,-1,-1,-1,-1,-1,-1,-1,-1,-1,-1,-1,-1],"loss_changes":[2.0057358E1,1.3950598E1,2.4185606E1,6.5204296E0,6.33071E0,1.0600779E1,0E0,1.95E0,3.2051277E0,7.709937E0,2.7818184E0,3.3265686E0,5.9000597E0,0E0,0E0,0E0,0E0,7.576056E0,5.9279904E0,0E0,0E0,0E0,0E0,4.4087033E0,0E0,4.946444E0,9.259657E0,7.25039E0,4.953217E0,5.4795456E0,3.9277773E0,0E0,0E0,0E0,0E0,0E0,0E0,0E0,0E0,0E0,0E0,0E0,0E0],"parents":[2147483647,0,0,1,1,2,2,3,3,4,4,5,5,7,7,8,8,9,9,10,10,11,11,12,12,17,17,18,18,23,23,25,25,26,26,27,27,28,28,29,29,30,30],"right_children":[2,4,6,8,10,12,-1,14,16,18,20,22,24,-1,-1,-1,-1,26,28,-1,-1,-1,-1,30,-1,32,34,36,38,40,42,-1,-1,-1,-1,-1,-1,-1,-1,-1,-1,-1,-1],"split_conditions":[9.15E1,9.5E0,1.445E2,5.55E-2,1.0018001E0,5.95E-1,-2.75E-1,1.025E1,2.9000002E-1,7.95E0,1E1,2.5E-1,4.3E1,2.2500001E-1,-1.5E-1,1.5E-1,-2.8846154E-1,1.85E1,3.85E-1,-1.5E-1,2.7E-1,-1.5E-1,2.9333335E-1,9.9665E-1,-2.4000001E-1,9.925E-1,7.1499996E0,3.3649998E0,5.85E-2,9.9621E-1,9.9926E-1,5.2363638E-2,-1.875E-1,-1.1571429E-1,4.6551723E-2,-1.0181819E-1,6.666667E-2,1.6000001E-1,-1.8396227E-2,1.20000005E-1,-1.875E-1,2.8E-1,-7.5E-2],"split_indices":[6,6,6,4,7,1,0,0,1,0,0,1,5,0,0,0,0,5,2,0,0,0,0,7,0,1,0,8,4,7,7,0,0,0,0,0,0,0,0,0,0,0,0],"split_type":[0,0,0,0,0,0,0,0,0,0,0,0,0,0,0,0,0,0,0,0,0,0,0,0,0,0,0,0,0,0,0,0,0,0,0,0,0,0,0,0,0,0,0],"sum_hessian":[9.6E2,8.62E2,9.8E1,3E1,8.32E2,8.7E1,1.1E1,4E0,2.6E1,8.22E2,1E1,4.5E1,4.2E1,3E0,1E0,1E0,2.5E1,4.07E2,4.15E2,1E0,9E0,1E0,4.4E1,3.8E1,4E0,2.81E2,1.26E2,1.9E2,2.25E2,2.1E1,1.7E1,2.74E2,7E0,6.9E1,5.7E1,1.64E2,2.6E1,1.4E1,2.11E2,1.4E1,7E0,1.4E1,3E0],"tree_param":{"num_deleted":"0","num_feature":"11","num_nodes":"43","size_leaf_vector":"0"}},{"base_weights":[-2.9136317E-2,1.8539976E-2,-4.4444445E-1,8.235294E-1,2.361275E-3,-6.25E-1,9.166667E-1,9.375E-1,-5E-1,-1.3592233E-1,8.163265E-2,-9.782609E-1,-2.3255815E-1,1.764706E-2,-3.2142857E-1,-5.625E-1,1.0114504E-1,-4.1666666E-1,6.25E-1,6.875E-1,-5.1612902E-2,-1.2048193E-1,-6.034483E-1,-0E0,-9E-1,6.116208E-3,2.5757575E-1,-7.368421E-1,-5.5555556E-2,-5E-1,8.5714287E-1,1.6666667E-1,9.0909094E-1,-2.5316456E-1,1.5584415E-1,-3.4042552E-1,1.6216215E-1,-9.166667E-1,-8.695652E-2,-4E-1,6.666667E-1,-5.4237287E-2,5.4545456E-1,4.055944E-1,-1.25E-1,5E-1,-8.333333E-1,-8.333333E-1,3.0769232E-1],"categories":[],"categories_nodes":[],"categories_segments":[],"categories_sizes":[],"default_left":[1,1,1,1,1,1,0,0,0,1,1,0,1,1,1,1,1,1,1,1,1,1,1,1,0,1,1,1,1,0,0,0,0,0,0,0,0,0,0,0,0,0,0,0,0,0,0,0,0],"id":13,"left_children":[1,3,5,7,9,11,-1,-1,-1,13,15,-1,17,19,21,23,25,27,29,31,33,35,37,39,-1,41,43,45,47,-1,-1,-1,-1,-1,-1,-1,-1,-1,-1,-1,-1,-1,-1,-1,-1,-1,-1,-1,-1],"loss_changes":[1.9036379E1,1.1237494E1,2.4902777E1,3.0330887E0,9.295852E0,1.1972321E1,0E0,0E0,0E0,8.808489E0,6.8313503E0,0E0,7.0494184E0,7.922462E0,7.8612223E0,3.0375004E0,7.7879095E0,4.1213446E0,2.517857E0,1.695076E0,6.520518E0,5.214962E0,9.303225E0,2.1333334E0,0E0,1.0673746E1,1.1263111E1,2.6842108E0,5.3418803E0,0E0,0E0,0E0,0E0,0E0,0E0,0E0,0E0,0E0,0E0,0E0,0E0,0E0,0E0,0E0,0E0,0E0,0E0,0E0,0E0],"parents":[2147483647,0,0,1,1,2,2,3,3,4,4,5,5,9,9,10,10,12,12,13,13,14,14,15,15,16,16,17,17,18,18,19,19,20,20,21,21,22,22,23,23,25,25,26,26,27,27,28,28],"right_children":[2,4,6,8,10,12,-1,-1,-1,14,16,-1,18,20,22,24,26,28,30,32,34,36,38,40,-1,42,44,46,48,-1,-1,-1,-1,-1,-1,-1,-1,-1,-1,-1,-1,-1,-1,-1,-1,-1,-1,-1,-1],"split_conditions":[9.15E1,8.5E0,1.445E2,3.4E0,7.45E-2,5.95E-1,2.75E-1,2.8125E-1,-1.5E-1,2.125E0,3.005E0,-2.9347828E-1,3.35E1,3.1550002E0,9.96825E-1,9E0,8.65E0,7.75E0,6.15E-1,1.8499999E0,3.375E0,2.8E-1,1.01E1,1.375E1,-2.7E-1,1.125E1,1.075E1,4.85E0,3.14E0,-1.5E-1,2.5714287E-1,5.0000004E-2,2.7272728E-1,-7.594937E-2,4.6753246E-2,-1.02127664E-1,4.8648648E-2,-2.75E-1,-2.6086958E-2,-1.20000005E-1,2.0000002E-1,-1.6271187E-2,1.6363637E-1,1.2167833E-1,-3.75E-2,1.5E-1,-2.5E-1,-2.5E-1,9.23077E-2],"split_indices":[6,6,6,8,4,1,0,0,0,3,8,0,5,8,7,5,0,0,1,3,8,2,0,0,0,10,0,0,8,0,0,0,0,0,0,0,0,0,0,0,0,0,0,0,0,0,0,0,0],"split_type":[0,0,0,0,0,0,0,0,0,0,0,0,0,0,0,0,0,0,0,0,0,0,0,0,0,0,0,0,0,0,0,0,0,0,0,0,0,0,0,0,0,0,0,0,0,0,0,0,0],"sum_hessian":[9.6E2,8.62E2,9.8E1,1.6E1,8.46E2,8.7E1,1.1E1,1.5E1,1E0,3.08E2,5.38E2,4.5E1,4.2E1,1.69E2,1.39E2,1.5E1,5.23E2,3.5E1,7E0,1.5E1,1.54E2,8.2E1,5.7E1,6E0,9E0,3.26E2,1.97E2,1.8E1,1.7E1,1E0,6E0,5E0,1E1,7.8E1,7.6E1,4.6E1,3.6E1,3.5E1,2.2E1,4E0,2E0,2.94E2,3.2E1,1.42E2,5.5E1,1E0,1.7E1,5E0,1.2E1],"tree_param":{"num_deleted":"0","num_feature":"11","num_nodes":"49","size_leaf_vector":"0"}},{"base_weights":[6.243496E-3,-5.9925094E-2,3.3540374E-1,-9.411765E-1,-4.076433E-2,4.3333334E-1,-9.166667E-1,-1.8396847E-2,-7.2E-1,5.298507E-1,-3.529412E-1,7.8571427E-1,-3.342246E-2,2.5E-1,-8.636364E-1,5.826772E-1,-3.75E-1,-6.1538464E-1,4E-1,-5E-1,9.230769E-1,-6.3675836E-2,3.275862E-1,-5E-1,6.666667E-1,-9.5E-1,-0E0,6.6964287E-1,-6.25E-2,6.666667E-1,-8.333333E-1,6.666667E-1,-9.0909094E-1,-5E-1,7.5E-1,-3.7950664E-3,-2.5454545E-1,9.166667E-1,1.7021276E-1,5E-1,-5E-1,3.7209302E-1,8.428571E-1,-5.4545456E-1,8.333333E-1],"categories":[],"categories_nodes":[],"categories_segments":[],"categories_sizes":[],"default_left":[1,1,1,0,1,1,0,1,1,1,1,1,1,1,1,1,1,1,1,0,0,1,1,0,0,0,1,1,1,0,0,0,0,0,0,0,0,0,0,0,0,0,0,0,0],"id":14,"left_children":[1,3,5,-1,7,9,-1,11,13,15,17,19,21,23,25,27,29,31,33,-1,-1,35,37,-1,-1,-1,39,41,43,-1,-1,-1,-1,-1,-1,-1,-1,-1,-1,-1,-1,-1,-1,-1,-1],"loss_changes":[2.0950745E1,1.34868765E1,2.0138199E1,0E0,1.1913097E1,1.1570387E1,0E0,9.220863E0,3.69909E0,6.623707E0,3.6054301E0,2.9340658E0,8.190312E0,1.5833334E0,1.6409092E0,7.1676025E0,4.375E0,5.501165E0,1.95E0,0E0,0E0,7.896763E0,5.220897E0,0E0,0E0,0E0,1E0,5.458847E0,7.376894E0,0E0,0E0,0E0,0E0,0E0,0E0,0E0,0E0,0E0,0E0,0E0,0E0,0E0,0E0,0E0,0E0],"parents":[2147483647,0,0,1,1,2,2,4,4,5,5,7,7,8,8,9,9,10,10,11,11,12,12,13,13,14,14,15,15,16,16,17,17,18,18,21,21,22,22,26,26,27,27,28,28],"right_children":[2,4,6,-1,8,10,-1,12,14,16,18,20,22,24,26,28,30,32,34,-1,-1,36,38,-1,-1,-1,40,42,44,-1,-1,-1,-1,-1,-1,-1,-1,-1,-1,-1,-1,-1,-1,-1,-1],"split_conditions":[7.725E1,8.5E0,1.445E2,-2.8235295E-1,3.5949998E0,7.725E-1,-2.75E-1,2.99E0,4.25E-1,1.23E1,1.015E0,8.75E0,7.675E-1,3.875E-1,2.85E0,1.105E-1,1.65E1,8.55E1,6.5E-2,-1.5E-1,2.769231E-1,6.025E-1,9.55E0,-1.5E-1,2.0000002E-1,-2.85E-1,7.25E0,9.15E1,7.8499997E-1,2.0000002E-1,-2.5E-1,2.0000002E-1,-2.7272728E-1,-1.5E-1,2.2500001E-1,-1.13852E-3,-7.636364E-2,2.75E-1,5.1063832E-2,1.5E-1,-1.5E-1,1.11627914E-1,2.5285715E-1,-1.6363637E-1,2.5E-1],"split_indices":[6,6,6,0,8,1,0,8,1,10,1,10,1,1,3,4,5,6,2,0,0,1,10,0,0,0,0,6,9,0,0,0,0,0,0,0,0,0,0,0,0,0,0,0,0],"split_type":[0,0,0,0,0,0,0,0,0,0,0,0,0,0,0,0,0,0,0,0,0,0,0,0,0,0,0,0,0,0,0,0,0,0,0,0,0,0,0,0,0,0,0,0,0],"sum_hessian":[9.6E2,8E2,1.6E2,1.6E1,7.84E2,1.49E2,1.1E1,7.6E2,2.4E1,1.33E2,1.6E1,1.3E1,7.47E2,3E0,2.1E1,1.26E2,7E0,1.2E1,4E0,1E0,1.2E1,6.9E2,5.7E1,1E0,2E0,1.9E1,2E0,1.11E2,1.5E1,2E0,5E0,2E0,1E1,1E0,3E0,5.26E2,1.64E2,1.1E1,4.6E1,1E0,1E0,4.2E1,6.9E1,1E1,5E0],"tree_param":{"num_deleted":"0","num_feature":"11","num_nodes":"45","size_leaf_vector":"0"}},{"base_weights":[1.6649324E-2,6.9524914E-2,-4.4444445E-1,-4.6153846E-1,9.4545454E-2,-6.25E-1,9.166667E-1,-9.230769E-1,-2.2222222E-1,8.235294E-1,7.911001E-2,-7.195122E-1,5.714286E-1,-0E0,-6.666667E-1,9.375E-1,-5E-1,1.8701299E-1,-1.8823529E-2,-7.848101E-1,7.5E-1,-5E-1,8.333333E-1,-3.5714287E-1,8.333333E-1,-8.75E-1,5E-1,2.3738873E-1,-1.632653E-1,-8.192091E-2,2.9166666E-1,-8.076923E-1,5E-1,1.6666667E-1,-6.666667E-1,1.9543974E-1,6.451613E-1,-5.882353E-1,6.0606062E-2,-2.7966103E-1,1.6877636E-2,8.333333E-1,1.0909091E-1,-8.852459E-1,-5E-1],"categories":[],"categories_nodes":[],"categories_segments":[],"categories_sizes":[],"default_left":[1,1,1,1,1,1,0,0,1,1,1,1,1,1,1,0,0,1,1,1,0,0,0,1,0,0,0,1,1,1,1,1,0,0,0,0,0,0,0,0,0,0,0,0,0],"id":15,"left_children":[1,3,5,7,9,11,-1,-1,13,15,17,19,21,23,25,-1,-1,27,29,31,-1,-1,-1,33,-1,-1,-1,35,37,39,41,43,-1,-1,-1,-1,-1,-1,-1,-1,-1,-1,-1,-1,-1],"loss_changes":[2.346066E1,1.1510742E1,2.4902777E1,4.102564E0,9.217907E0,1.0361931E1,0E0,0E0,2.6666665E0,3.0330887E0,8.552483E0,8.457008E0,2.3809521E0,5.9523807E0,2.625E0,0E0,0E0,6.832285E0,8.350118E0,2.7263908E0,0E0,0E0,0E0,2.3809524E0,0E0,0E0,0E0,5.6385117E0,4.6974425E0,6.9206176E0,7.029546E0,1.418663E0,0E0,0E0,0E0,0E0,0E0,0E0,0E0,0E0,0E0,0E0,0E0,0E0,0E0],"parents":[2147483647,0,0,1,1,2,2,3,3,4,4,5,5,8,8,9,9,10,10,11,11,12,12,13,13,14,14,17,17,18,18,19,19,23,23,27,27,28,28,29,29,30,30,31,31],"right_children":[2,4,6,8,10,12,-1,-1,14,16,18,20,22,24,26,-1,-1,28,30,32,-1,-1,-1,34,-1,-1,-1,36,38,40,42,44,-1,-1,-1,-1,-1,-1,-1,-1,-1,-1,-1,-1,-1],"split_conditions":[9.15E1,3.0549998E0,1.445E2,6.55E-1,8.5E0,7.7750003E-1,2.75E-1,-2.769231E-1,1.085E1,3.4E0,2.35E-1,1.215E1,5.2E0,1.1450001E1,6.6499996E-1,2.8125E-1,-1.5E-1,7.875E-1,8.15E-1,1.415E1,2.2500001E-1,-1.5E-1,2.5E-1,9E0,2.5E-1,-2.6250002E-1,1.5E-1,1.025E-1,9.85E0,3.75E-1,6.4500004E-2,7.05E-1,1.5E-1,5.0000004E-2,-2.0000002E-1,5.8631923E-2,1.935484E-1,-1.7647061E-1,1.818182E-2,-8.389831E-2,5.063291E-3,2.5E-1,3.2727275E-2,-2.655738E-1,-1.5E-1],"split_indices":[6,8,6,9,6,1,0,0,10,8,2,10,0,0,1,0,0,1,9,3,0,0,0,0,0,0,0,4,10,1,4,9,0,0,0,0,0,0,0,0,0,0,0,0,0],"split_type":[0,0,0,0,0,0,0,0,0,0,0,0,0,0,0,0,0,0,0,0,0,0,0,0,0,0,0,0,0,0,0,0,0,0,0,0,0,0,0,0,0,0,0,0,0],"sum_hessian":[9.6E2,8.62E2,9.8E1,3.8E1,8.24E2,8.7E1,1.1E1,1.2E1,2.6E1,1.6E1,8.08E2,8.1E1,6E0,1.8E1,8E0,1.5E1,1E0,3.84E2,4.24E2,7.8E1,3E0,1E0,5E0,1.3E1,5E0,7E0,1E0,3.36E2,4.8E1,3.53E2,7.1E1,7.7E1,1E0,5E0,8E0,3.06E2,3E1,1.6E1,3.2E1,1.17E2,2.36E2,1.7E1,5.4E1,6E1,1.7E1],"tree_param":{"num_deleted":"0","num_feature":"11","num_nodes":"45","size_leaf_vector":"0"}},{"base_weights":[-2.0811656E-3,-5.8616646E-2,4.4036698E-1,-9.411765E-1,-4.0621266E-2,6.020408E-1,-9.166667E-1,-1.7708333E-1,3.0909091E-2,6.7021275E-1,-8E-1,-2.1532847E-1,5.3333336E-1,9.0277776E-2,-1.8487395E-1,-7.5E-1,7.2527474E-1,-4.1E-1,-1.0285714E-1,-5E-1,6.4285713E-1,3.8202247E-1,1.4534884E-2,-5.9574467E-1,8.219178E-2,2.1428572E-1,8.076923E-1,-4.5360824E-1,7.5E-1,-1.3529412E-1,8.333333E-1,7.5E-1,-0E0,4.2352942E-1,-4E-1,-5.782313E-2,4.3137255E-1,4E-1,-6.976744E-1,-5E-2,6.4285713E-1,-3.75E-1,8.5714287E-1,8.3116883E-1,-5E-1],"categories":[],"categories_nodes":[],"categories_segments":[],"categories_sizes":[],"default_left":[1,1,1,0,1,1,0,1,1,1,0,1,1,1,1,0,1,1,1,0,1,1,1,1,1,1,1,0,0,0,0,0,0,0,0,0,0,0,0,0,0,0,0,0,0],"id":16,"left_children":[1,3,5,-1,7,9,-1,11,13,15,-1,17,19,21,23,-1,25,27,29,-1,31,33,35,37,39,41,43,-1,-1,-1,-1,-1,-1,-1,-1,-1,-1,-1,-1,-1,-1,-1,-1,-1,-1],"loss_changes":[2.4064285E1,1.3509115E1,2.4466125E1,0E0,8.175581E0,9.902996E0,0E0,7.9397964E0,7.062606E0,7.8947296E0,0E0,5.9570484E0,2.0190473E0,9.540606E0,1.3106775E1,0E0,3.65934E0,5.3987637E0,5.4270024E0,0E0,9.6428585E-1,3.0582943E0,1.0400515E1,5.0493813E0,5.4425635E0,5.625E0,2.8101883E0,0E0,0E0,0E0,0E0,0E0,0E0,0E0,0E0,0E0,0E0,0E0,0E0,0E0,0E0,0E0,0E0,0E0,0E0],"parents":[2147483647,0,0,1,1,2,2,4,4,5,5,7,7,8,8,9,9,11,11,12,12,13,13,14,14,16,16,17,17,18,18,20,20,21,21,22,22,23,23,24,24,25,25,26,26],"right_children":[2,4,6,-1,8,10,-1,12,14,16,-1,18,20,22,24,-1,26,28,30,-1,32,34,36,38,40,42,44,-1,-1,-1,-1,-1,-1,-1,-1,-1,-1,-1,-1,-1,-1,-1,-1,-1,-1],"split_conditions":[8.85E1,8.5E0,1.445E2,-2.8235295E-1,1.55E-1,1.215E1,-2.75E-1,3.6399999E0,7.8499997E-1,2.935E0,-2.4000001E-1,5.95E-1,3.9999998E-1,7.05E-2,4.15E-1,-2.2500001E-1,5.15E-1,4.05E0,3.9E1,-1.5E-1,8.275E-1,8.0999994E-1,7.35E-1,4.5E0,5.55E1,8.4E-2,2.4200001E-1,-1.3608249E-1,2.2500001E-1,-4.0588237E-2,2.5E-1,2.2500001E-1,-0E0,1.2705883E-1,-1.20000005E-1,-1.734694E-2,1.2941177E-1,1.20000005E-1,-2.0930232E-1,-1.5000001E-2,1.9285715E-1,-1.12500004E-1,2.5714287E-1,2.4935065E-1,-1.5E-1],"split_indices":[6,6,6,0,2,10,0,8,9,8,0,1,1,4,2,0,9,3,5,0,1,1,9,5,6,4,4,0,0,0,0,0,0,0,0,0,0,0,0,0,0,0,0,0,0],"split_type":[0,0,0,0,0,0,0,0,0,0,0,0,0,0,0,0,0,0,0,0,0,0,0,0,0,0,0,0,0,0,0,0,0,0,0,0,0,0,0,0,0,0,0,0,0],"sum_hessian":[9.6E2,8.52E2,1.08E2,1.6E1,8.36E2,9.7E1,1.1E1,2.87E2,5.49E2,9.3E1,4E0,2.73E2,1.4E1,4.31E2,1.18E2,3E0,9E1,9.9E1,1.74E2,1E0,1.3E1,8.8E1,3.43E2,4.6E1,7.2E1,1.3E1,7.7E1,9.6E1,3E0,1.69E2,5E0,1.1E1,2E0,8.4E1,4E0,2.93E2,5E1,4E0,4.2E1,5.9E1,1.3E1,7E0,6E0,7.6E1,1E0],"tree_param":{"num_deleted":"0","num_feature":"11","num_nodes":"45","size_leaf_vector":"0"}},{"base_weights":[-2.7055152E-2,3.4441806E-2,-4.5833334E-1,1.2972973E-1,-1.4930555E-1,-6.055046E-1,9.166667E-1,1.5427509E-1,-6.111111E-1,9.0909094E-1,-1.9064748E-1,4.4444445E-1,-6.930693E-1,1.995842E-1,-2.2413793E-1,-9.3333334E-1,7.5E-1,-3.190184E-1,-8.62069E-3,8.333333E-1,-2.5E-1,7.5E-1,-7.4489796E-1,1.778742E-1,6.666667E-1,-4.5652175E-1,6.1538464E-1,-2.0833334E-2,-4.3965518E-1,9E-2,-5.882353E-1,5E-1,-6.666667E-1,-7.8125E-1,6.666667E-1,1.5730338E-1,7.058824E-1,-6.666667E-1,8.4210527E-1,4E-1,-8.4375E-1,9E-1,-2.5E-1,3.4615386E-1,-4.347826E-1,-5.520833E-1,9.52381E-2,-2.1875E-1,2.3188406E-1,6.666667E-1,-8E-1,-1.8181819E-1,-8.488372E-1],"categories":[],"categories_nodes":[],"categories_segments":[],"categories_sizes":[],"default_left":[1,1,1,1,1,1,0,1,1,0,1,1,1,1,1,0,0,1,1,0,1,0,1,1,1,1,1,1,1,1,1,0,0,1,0,0,0,0,0,0,0,0,0,0,0,0,0,0,0,0,0,0,0],"id":17,"left_children":[1,3,5,7,9,11,-1,13,15,-1,17,19,21,23,25,-1,-1,27,29,-1,31,-1,33,35,37,39,41,43,45,47,49,-1,-1,51,-1,-1,-1,-1,-1,-1,-1,-1,-1,-1,-1,-1,-1,-1,-1,-1,-1,-1,-1],"loss_changes":[2.5503712E1,1.4761867E1,2.48383E1,1.0186513E1,1.2775085E1,1.0329327E1,0E0,9.269045E0,8.594444E0,0E0,6.4932613E0,2.6388888E0,8.112701E0,4.758932E0,1.1596241E1,0E0,0E0,5.85429E0,6.683732E0,0E0,1.5833334E0,0E0,5.54953E0,4.896142E0,5.4736843E0,1.5594293E1,3.4269233E0,7.442377E0,7.0284786E0,4.431395E0,5.0509806E0,0E0,0E0,3.7350006E0,0E0,0E0,0E0,0E0,0E0,0E0,0E0,0E0,0E0,0E0,0E0,0E0,0E0,0E0,0E0,0E0,0E0,0E0,0E0],"parents":[2147483647,0,0,1,1,2,2,3,3,4,4,5,5,7,7,8,8,10,10,11,11,12,12,13,13,14,14,17,17,18,18,20,20,22,22,23,23,24,24,25,25,26,26,27,27,28,28,29,29,30,30,33,33],"right_children":[2,4,6,8,10,12,-1,14,16,-1,18,20,22,24,26,-1,-1,28,30,-1,32,-1,34,36,38,40,42,44,46,48,50,-1,-1,52,-1,-1,-1,-1,-1,-1,-1,-1,-1,-1,-1,-1,-1,-1,-1,-1,-1,-1,-1],"split_conditions":[8.75E1,3.75E-1,1.445E2,3.6149998E0,8.5E0,9.9457E-1,2.75E-1,2.95E0,2.1E1,2.7272728E-1,2.45E0,3.67E0,2.935E0,8.95E-1,9.299999E0,-2.8E-1,2.2500001E-1,3.145E0,1.275E1,2.5E-1,4.85E0,2.2500001E-1,2.25E-1,3.5749998E0,5.45E-2,7.45E-2,1.005E1,9.5E0,2.05E1,9.97275E-1,2.2E1,1.5E-1,-2.0000002E-1,5.05E-1,2.0000002E-1,4.7191016E-2,2.1176472E-1,-2.0000002E-1,2.526316E-1,1.20000005E-1,-2.53125E-1,2.7E-1,-7.5E-2,1.0384616E-1,-1.3043478E-1,-1.65625E-1,2.857143E-2,-6.5625004E-2,6.956522E-2,2.0000002E-1,-2.4000001E-1,-5.454546E-2,-2.5465116E-1],"split_indices":[6,2,6,8,6,7,0,3,5,0,3,8,8,9,0,0,0,8,0,0,0,0,4,8,4,4,0,5,5,7,6,0,0,9,0,0,0,0,0,0,0,0,0,0,0,0,0,0,0,0,0,0,0],"split_type":[0,0,0,0,0,0,0,0,0,0,0,0,0,0,0,0,0,0,0,0,0,0,0,0,0,0,0,0,0,0,0,0,0,0,0,0,0,0,0,0,0,0,0,0,0,0,0,0,0,0,0,0,0],"sum_hessian":[9.6E2,8.41E2,1.19E2,5.54E2,2.87E2,1.08E2,1.1E1,5.37E2,1.7E1,1E1,2.77E2,8E0,1E2,4.8E2,5.7E1,1.4E1,3E0,1.62E2,1.15E2,5E0,3E0,3E0,9.7E1,4.6E2,2E1,4.5E1,1.2E1,4.7E1,1.15E2,9.9E1,1.6E1,1E0,2E0,9.5E1,2E0,4.44E2,1.6E1,2E0,1.8E1,1.4E1,3.1E1,9E0,3E0,2.5E1,2.2E1,9.5E1,2E1,3.1E1,6.8E1,2E0,1.4E1,1E1,8.5E1],"tree_param":{"num_deleted":"0","num_feature":"11","num_nodes":"53","size_leaf_vector":"0"}},{"base_weights":[4.3704476E-2,-1.7814728E-2,4.75E-1,-1.2984496E-1,1.590214E-1,6.238532E-1,-9.166667E-1,3.1111112E-1,-1.7161018E-1,-9.0909094E-1,1.955836E-1,7.4444443E-1,5E-2,4.473684E-1,-3.75E-1,-2.9959515E-1,-3.0973451E-2,3.6567163E-1,7.065217E-2,-2.857143E-1,8.214286E-1,-5.4545456E-1,7E-1,5.9375E-1,-2.857143E-1,-8.333333E-1,6.666667E-1,-6.2857145E-1,-2.4413146E-1,1.3013698E-1,-3.2098764E-1,4.3220338E-1,-1.1764706E-1,-0E0,8.125E-1,6.666667E-1,-8E-1,8.831169E-1,1.25E-1,-7E-1,5E-1,-5E-1,8.888889E-1,6.896552E-1,-2.5E-1,-8E-1,6.666667E-1,-7.2727275E-1,6.666667E-1,-1.12068966E-1,-3.9795917E-1,2.7884614E-1,-2.3255815E-1,-2.2535211E-1,-9.0909094E-1,1.5384616E-1,5.625E-1,-6.666667E-1,4.4444445E-1,8.75E-1,-4.3209877E-2,-5E-1,9.3333334E-1,4E-1,9.84127E-1,-4E-1,7.5E-1,5E-1,-8.888889E-1],"categories":[],"categories_nodes":[],"categories_segments":[],"categories_sizes":[],"default_left":[1,1,1,1,1,1,0,1,1,0,1,1,1,1,1,1,1,1,1,1,1,1,1,1,1,0,0,1,1,1,1,1,1,1,1,0,0,1,1,1,0,0,0,0,0,0,0,0,0,0,0,0,0,0,0,0,0,0,0,0,0,0,0,0,0,0,0,0,0],"id":18,"left_children":[1,3,5,7,9,11,-1,13,15,-1,17,19,21,23,25,27,29,31,33,35,37,39,41,43,45,-1,-1,47,49,51,53,55,57,59,61,-1,-1,63,65,67,-1,-1,-1,-1,-1,-1,-1,-1,-1,-1,-1,-1,-1,-1,-1,-1,-1,-1,-1,-1,-1,-1,-1,-1,-1,-1,-1,-1,-1],"loss_changes":[2.5506634E1,1.6701506E1,2.5430351E1,9.556367E0,1.2947977E1,7.5057564E0,0E0,4.374707E0,8.48643E0,0E0,6.710205E0,7.372223E0,8.122727E0,4.247415E0,4.375E0,4.353367E0,1.0601468E1,4.3597584E0,9.644022E0,3.9619048E0,3.4983788E0,2.1272728E0,2.711111E0,2.7618532E0,3.9619048E0,0E0,0E0,4.9593086E0,4.282469E0,7.939517E0,4.3508635E0,4.193203E0,5.5424833E0,6.4274693E0,3.0041666E0,0E0,0E0,3.363926E0,2.925E0,2.711111E0,0E0,0E0,0E0,0E0,0E0,0E0,0E0,0E0,0E0,0E0,0E0,0E0,0E0,0E0,0E0,0E0,0E0,0E0,0E0,0E0,0E0,0E0,0E0,0E0,0E0,0E0,0E0,0E0,0E0],"parents":[2147483647,0,0,1,1,2,2,3,3,4,4,5,5,7,7,8,8,10,10,11,11,12,12,13,13,14,14,15,15,16,16,17,17,18,18,19,19,20,20,21,21,22,22,23,23,24,24,27,27,28,28,29,29,30,30,31,31,32,32,33,33,34,34,37,37,38,38,39,39],"right_children":[2,4,6,8,10,12,-1,14,16,-1,18,20,22,24,26,28,30,32,34,36,38,40,42,44,46,-1,-1,48,50,52,54,56,58,60,62,-1,-1,64,66,68,-1,-1,-1,-1,-1,-1,-1,-1,-1,-1,-1,-1,-1,-1,-1,-1,-1,-1,-1,-1,-1,-1,-1,-1,-1,-1,-1,-1,-1],"split_conditions":[8.75E1,3.35E-1,1.445E2,5.85E-2,8.5E0,7.75E-1,-2.75E-1,2.45E0,2.15E0,-2.7272728E-1,3.65E-1,4.85E-1,9.9722505E-1,2.15E1,7.6E0,1.5E-2,9.97395E-1,1.125E1,1.265E1,8.3000004E-2,8.175E-1,9.549999E0,6.95E-2,8.55E0,1.75E0,-2.5E-1,2.0000002E-1,7.9500003E0,1.85E-1,1.105E1,7.8E1,9.95505E-1,2.35E1,4.75E-1,3.9499998E-1,2.0000002E-1,-2.4000001E-1,9.15E1,3.85E-1,4E-1,1.5E-1,-1.5E-1,2.6666668E-1,2.0689656E-1,-7.5E-2,-2.4000001E-1,2.0000002E-1,-2.1818183E-1,2.0000002E-1,-3.3620693E-2,-1.1938775E-1,8.3653845E-2,-6.9767445E-2,-6.760564E-2,-2.7272728E-1,4.615385E-2,1.6875E-1,-2.0000002E-1,1.3333334E-1,2.6250002E-1,-1.2962963E-2,-1.5E-1,2.8E-1,1.20000005E-1,2.952381E-1,-1.20000005E-1,2.2500001E-1,1.5E-1,-2.6666668E-1],"split_indices":[6,2,6,4,6,9,0,3,3,0,1,9,7,5,0,2,7,0,0,4,1,0,4,0,3,0,0,0,2,10,6,7,6,9,1,0,0,6,2,1,0,0,0,0,0,0,0,0,0,0,0,0,0,0,0,0,0,0,0,0,0,0,0,0,0,0,0,0,0],"split_type":[0,0,0,0,0,0,0,0,0,0,0,0,0,0,0,0,0,0,0,0,0,0,0,0,0,0,0,0,0,0,0,0,0,0,0,0,0,0,0,0,0,0,0,0,0,0,0,0,0,0,0,0,0,0,0,0,0,0,0,0,0,0,0,0,0,0,0,0,0],"sum_hessian":[9.6E2,8.41E2,1.19E2,5.15E2,3.26E2,1.08E2,1.1E1,4.4E1,4.71E2,1E1,3.16E2,8.9E1,1.9E1,3.7E1,7E0,2.46E2,2.25E2,1.33E2,1.83E2,6E0,8.3E1,1E1,9E0,3.1E1,6E0,5E0,2E0,3.4E1,2.12E2,1.45E2,8E1,1.17E2,1.6E1,1.68E2,1.5E1,2E0,4E0,7.6E1,7E0,9E0,1E0,1E0,8E0,2.8E1,3E0,4E0,2E0,3.2E1,2E0,1.15E2,9.7E1,1.03E2,4.2E1,7E1,1E1,3.8E1,7.9E1,8E0,8E0,7E0,1.61E2,1E0,1.4E1,1.4E1,6.2E1,4E0,3E0,1E0,8E0],"tree_param":{"num_deleted":"0","num_feature":"11","num_nodes":"69","size_leaf_vector":"0"}},{"base_weights":[-2.4973985E-2,3.033839E-2,-4.7619048E-1,1.9195047E-1,-6.728972E-2,-6.4893615E-1,9.166667E-1,9.45946E-2,4.019608E-1,4.7477745E-2,-2.6130652E-1,7.5E-1,-7.032967E-1,4.5652175E-1,-0E0,-8.333333E-1,4.742268E-1,-2.7450982E-1,1.0452962E-1,-3E-1,5E-1,-8.6764705E-1,-2.0833333E-1,-2.857143E-1,5.75E-1,2.6595744E-1,-2.9761904E-1,-6.666667E-1,5.0526315E-1,3.6363637E-1,-4.390244E-1,-8.5714287E-1,1.2811388E-1,-3.3152175E-1,5.714286E-1,-6.666667E-1,8.75E-1,-8.955224E-1,5E-1,4.4444445E-1,-5.625E-1,-7.5E-1,2.5E-1,-4E-1,6.944444E-1,6.779661E-2,5.833333E-1,-3.4567901E-1,7.5E-1,5.494506E-1,-4E-1,6.666667E-1,-6.666667E-1,-5.405405E-1,4E-1,2.3684211E-1,-9.7826086E-2,9.52381E-2,-3.8414633E-1,8.333333E-1,-5E-1,5E-1,-9.2424244E-1,6.25E-1,-5E-1,6.666667E-1,-7.8571427E-1],"categories":[],"categories_nodes":[],"categories_segments":[],"categories_sizes":[],"default_left":[1,1,1,1,1,1,0,1,1,1,1,0,1,1,1,0,1,1,1,1,1,1,1,1,1,1,1,0,1,1,1,0,1,1,1,0,0,1,0,1,1,0,0,0,0,0,0,0,0,0,0,0,0,0,0,0,0,0,0,0,0,0,0,0,0,0,0],"id":19,"left_children":[1,3,5,7,9,11,-1,13,15,17,19,-1,21,23,25,-1,27,29,31,33,35,37,39,41,43,45,47,-1,49,51,53,-1,55,57,59,-1,-1,61,-1,63,65,-1,-1,-1,-1,-1,-1,-1,-1,-1,-1,-1,-1,-1,-1,-1,-1,-1,-1,-1,-1,-1,-1,-1,-1,-1,-1],"loss_changes":[2.3998947E1,1.353456E1,2.5858913E1,6.5659504E0,1.1925153E1,7.6758842E0,0E0,7.6004705E0,9.500706E0,6.219382E0,6.012061E0,0E0,7.221855E0,4.2094717E0,1.4089413E1,0E0,3.771534E0,5.513848E0,6.6190686E0,5.4085407E0,4.9583335E0,3.040165E0,5.798611E0,1.9285715E0,4.9361095E0,5.8722506E0,4.488536E0,0E0,4.0198936E0,3.878788E0,3.708372E0,0E0,6.9262304E0,4.168869E0,2.3809521E0,0E0,0E0,3.1474457E0,0E0,1.8472222E0,4.9136906E0,0E0,0E0,0E0,0E0,0E0,0E0,0E0,0E0,0E0,0E0,0E0,0E0,0E0,0E0,0E0,0E0,0E0,0E0,0E0,0E0,0E0,0E0,0E0,0E0,0E0,0E0],"parents":[2147483647,0,0,1,1,2,2,3,3,4,4,5,5,7,7,8,8,9,9,10,10,12,12,13,13,14,14,16,16,17,17,18,18,19,19,20,20,21,21,22,22,23,23,24,24,25,25,26,26,28,28,29,29,30,30,32,32,33,33,34,34,37,37,39,39,40,40],"right_children":[2,4,6,8,10,12,-1,14,16,18,20,-1,22,24,26,-1,28,30,32,34,36,38,40,42,44,46,48,-1,50,52,54,-1,56,58,60,-1,-1,62,-1,64,66,-1,-1,-1,-1,-1,-1,-1,-1,-1,-1,-1,-1,-1,-1,-1,-1,-1,-1,-1,-1,-1,-1,-1,-1,-1,-1],"split_conditions":[8.95E1,7.55E0,1.445E2,6.45E-1,7.05E-1,2.935E0,2.75E-1,9.9470997E-1,1.25E1,1.8499999E0,7.175E-1,2.2500001E-1,6.575E-1,4.85E-2,1.005E1,-2.5E-1,1.55E0,1.45E0,2.65E-1,1.255E1,9.9651E-1,2.4200001E-1,2.4E1,5.1E1,3.315E0,4.95E1,1.225E1,-2.0000002E-1,4.7E-1,9.9722E-1,4.45E-1,-2.5714287E-1,4.65E1,9.35E0,4.5000002E-1,-2.0000002E-1,2.6250002E-1,4.35E-2,1.5E-1,9.175E-1,6.85E-2,-2.2500001E-1,7.5E-2,-1.20000005E-1,2.0833333E-1,2.0338984E-2,1.75E-1,-1.0370371E-1,2.2500001E-1,1.6483518E-1,-1.20000005E-1,2.0000002E-1,-2.0000002E-1,-1.6216215E-1,1.20000005E-1,7.105263E-2,-2.9347828E-2,2.857143E-2,-1.15243904E-1,2.5E-1,-1.5E-1,1.5E-1,-2.7727273E-1,1.875E-1,-1.5E-1,2.0000002E-1,-2.3571429E-1],"split_indices":[6,0,6,9,9,8,0,7,6,3,1,0,1,4,10,0,3,3,1,10,7,4,5,6,8,6,10,0,2,7,2,0,6,10,1,0,0,4,0,1,4,0,0,0,0,0,0,0,0,0,0,0,0,0,0,0,0,0,0,0,0,0,0,0,0,0,0],"split_type":[0,0,0,0,0,0,0,0,0,0,0,0,0,0,0,0,0,0,0,0,0,0,0,0,0,0,0,0,0,0,0,0,0,0,0,0,0,0,0,0,0,0,0,0,0,0,0,0,0,0,0,0,0,0,0,0,0,0,0,0,0,0,0,0,0,0,0],"sum_hessian":[9.6E2,8.56E2,1.04E2,3.22E2,5.34E2,9.3E1,1.1E1,2.21E2,1.01E2,3.36E2,1.98E2,3E0,9E1,4.5E1,1.76E2,5E0,9.6E1,5E1,2.86E2,1.89E2,9E0,6.7E1,2.3E1,6E0,3.9E1,9.3E1,8.3E1,2E0,9.4E1,1E1,4E1,6E0,2.8E2,1.83E2,6E0,2E0,7E0,6.6E1,1E0,8E0,1.5E1,3E0,3E0,4E0,3.5E1,5.8E1,3.5E1,8E1,3E0,9E1,4E0,8E0,2E0,3.6E1,4E0,1.89E2,9.1E1,2E1,1.63E2,5E0,1E0,1E0,6.5E1,7E0,1E0,2E0,1.3E1],"tree_param":{"num_deleted":"0","num_feature":"11","num_nodes":"67","size_leaf_vector":"0"}},{"base_weights":[2.0811655E-2,-3.7079953E-2,5.252525E-1,-2.1666667E-1,5.851064E-2,7.1590906E-1,-9.166667E-1,-2.4742268E-1,7E-1,1.0364683E-1,-4.7727272E-1,9.2424244E-1,8.695652E-2,-3.5532996E-1,-2.1052632E-2,-5E-1,8.888889E-1,2.770083E-2,2.7329192E-1,-5.641026E-1,1.6666667E-1,-5E-1,9.5384616E-1,6.1538464E-1,-5.4545456E-1,-4.1764706E-1,3.5714287E-2,1.5384616E-1,-3.8709676E-1,-4.827586E-1,7.2072074E-2,-8.333333E-1,3.1410256E-1,-1.1764706E-1,-8.695652E-1,7.5E-1,-6.666667E-1,-0E0,9.84127E-1,-2.5E-1,9E-1,-7E-1,5E-1,-2.9166666E-1,-7.058824E-1,3.888889E-1,-5.4545456E-1,8.888889E-1,3.508772E-2,-5.3571427E-1,7.5E-1,6.666667E-1,-5.925926E-1,4.037267E-2,9.166667E-1,3.897059E-1,-1.904762E-1,-4.1666666E-1,5E-1,-9.5238096E-1,-0E0,-5E-1,5E-1,-6.666667E-1,5E-1,-8.888889E-1,5E-1],"categories":[],"categories_nodes":[],"categories_segments":[],"categories_sizes":[],"default_left":[1,1,1,1,1,1,0,1,1,1,1,1,1,1,1,0,0,1,1,1,1,0,1,1,1,1,1,1,1,1,1,0,1,1,1,0,0,1,0,1,0,1,0,0,0,0,0,0,0,0,0,0,0,0,0,0,0,0,0,0,0,0,0,0,0,0,0],"id":20,"left_children":[1,3,5,7,9,11,-1,13,15,17,19,21,23,25,27,-1,-1,29,31,33,35,-1,37,39,41,43,45,47,49,51,53,-1,55,57,59,-1,-1,61,-1,63,-1,65,-1,-1,-1,-1,-1,-1,-1,-1,-1,-1,-1,-1,-1,-1,-1,-1,-1,-1,-1,-1,-1,-1,-1,-1,-1],"loss_changes":[2.8083456E1,1.4827626E1,2.7872473E1,8.631099E0,1.3688805E1,1.1450428E1,0E0,7.100769E0,2.711111E0,6.704924E0,2.5541964E0,3.259674E0,8.021892E0,4.8155594E0,6.1415176E0,0E0,0E0,8.211343E0,7.5328465E0,5.216342E0,3.4166667E0,0E0,1.8774109E0,3.4269233E0,2.1272728E0,5.9671574E0,5.959235E0,5.642825E0,5.640553E0,4.056194E0,8.8784485E0,0E0,6.0252914E0,3.3480392E0,1.6563148E0,0E0,0E0,1E0,0E0,1.5833334E0,0E0,2.711111E0,0E0,0E0,0E0,0E0,0E0,0E0,0E0,0E0,0E0,0E0,0E0,0E0,0E0,0E0,0E0,0E0,0E0,0E0,0E0,0E0,0E0,0E0,0E0,0E0,0E0],"parents":[2147483647,0,0,1,1,2,2,3,3,4,4,5,5,7,7,8,8,9,9,10,10,11,11,12,12,13,13,14,14,17,17,18,18,19,19,20,20,22,22,23,23,24,24,25,25,26,26,27,27,28,28,29,29,30,30,32,32,33,33,34,34,37,37,39,39,41,41],"right_children":[2,4,6,8,10,12,-1,14,16,18,20,22,24,26,28,-1,-1,30,32,34,36,-1,38,40,42,44,46,48,50,52,54,-1,56,58,60,-1,-1,62,-1,64,-1,66,-1,-1,-1,-1,-1,-1,-1,-1,-1,-1,-1,-1,-1,-1,-1,-1,-1,-1,-1,-1,-1,-1,-1,-1,-1],"split_conditions":[9.15E1,7.45E0,1.445E2,1.445E-1,1.000075E0,6.575E-1,-2.75E-1,2.25E0,6.05E0,7.25E-1,3.315E0,4.35E-2,2.2E-1,2.85E-1,9.96575E-1,-1.5E-1,2.6666668E-1,3.105E0,9.15E0,4.65E-1,2.25E1,-1.5E-1,2.935E0,3.18E0,3.45E1,6.55E-1,4.125E-1,1.75E1,7.6E-1,3.25E-1,6.45E-1,-2.5E-1,3.3649998E0,4.25E1,1.125E-1,2.2500001E-1,-2.0000002E-1,2.85E-1,2.952381E-1,8.85E0,2.7E-1,1.375E2,1.5E-1,-8.75E-2,-2.1176472E-1,1.16666675E-1,-1.6363637E-1,2.6666668E-1,1.0526316E-2,-1.6071428E-1,2.2500001E-1,2.0000002E-1,-1.7777778E-1,1.2111802E-2,2.75E-1,1.1691178E-1,-5.714286E-2,-1.25E-1,1.5E-1,-2.857143E-1,-0E0,-1.5E-1,1.5E-1,-2.0000002E-1,1.5E-1,-2.6666668E-1,1.5E-1],"split_indices":[6,0,6,4,7,1,0,3,0,9,8,4,2,2,7,0,0,8,10,1,5,0,8,8,5,9,1,6,9,1,2,0,8,6,4,0,0,2,0,0,0,6,0,0,0,0,0,0,0,0,0,0,0,0,0,0,0,0,0,0,0,0,0,0,0,0,0],"split_type":[0,0,0,0,0,0,0,0,0,0,0,0,0,0,0,0,0,0,0,0,0,0,0,0,0,0,0,0,0,0,0,0,0,0,0,0,0,0,0,0,0,0,0,0,0,0,0,0,0,0,0,0,0,0,0,0,0,0,0,0,0,0,0,0,0,0,0],"sum_hessian":[9.6E2,8.62E2,9.8E1,2.99E2,5.63E2,8.7E1,1.1E1,2.9E2,9E0,5.2E2,4.3E1,6.5E1,2.2E1,1.96E2,9.4E1,1E0,8E0,3.6E2,1.6E2,3.8E1,5E0,1E0,6.4E1,1.2E1,1E1,1.69E2,2.7E1,6.4E1,3E1,2.8E1,3.32E2,5E0,1.55E2,1.6E1,2.2E1,3E0,2E0,2E0,6.2E1,3E0,9E0,9E0,1E0,1.19E2,5E1,1.7E1,1E1,8E0,5.6E1,2.7E1,3E0,2E0,2.6E1,3.21E2,1.1E1,1.35E2,2E1,1.1E1,5E0,2E1,2E0,1E0,1E0,2E0,1E0,8E0,1E0],"tree_param":{"num_deleted":"0","num_feature":"11","num_nodes":"67","size_leaf_vector":"0"}},{"base_weights":[-3.9542142E-2,1.6260162E-2,-5.148515E-1,2.7317074E-1,-6.392694E-2,-7E-1,9.166667E-1,-2.2E-1,4.2948717E-1,-1.0613599E-1,4E-1,-7.586207E-1,7.5E-1,-9.166667E-1,-0E0,7.1428575E-2,5.565217E-1,-2.3404256E-2,-3.955224E-1,5.208333E-1,-3.75E-1,4E-1,-8.192771E-1,1.9354838E-1,-6.666667E-1,-3.529412E-1,3.4615386E-1,2.5E-1,6.4772725E-1,3.02267E-2,-3.108108E-1,-4.4354838E-1,1.8181819E-1,6.25E-2,7.2727275E-1,-8E-1,2.5E-1,-5E-1,7.5E-1,-9.2424244E-1,-3.888889E-1,5.5E-1,-4.1666666E-1,5E-1,-8.75E-1,-5.833333E-1,1.6666667E-1,7.058824E-1,-3E-1,-8.333333E-1,5.217391E-1,8.035714E-1,3.6363637E-1,-1.690141E-2,4.1860464E-1,-6.511628E-1,1.5625E-1,-8E-2,-5.3E-1,8E-1,-2.857143E-1,7.5E-1,-1.5384616E-1,8.333333E-1,-2.5E-1,6.666667E-1,-5E-1,-9.5384616E-1,5E-1,-5.625E-1,6.666667E-1],"categories":[],"categories_nodes":[],"categories_segments":[],"categories_sizes":[],"default_left":[1,1,1,1,1,1,0,1,1,1,1,1,0,0,1,1,1,1,1,1,1,1,1,1,1,1,1,1,1,1,1,1,1,1,1,0,1,0,0,1,1,0,0,0,0,0,0,0,0,0,0,0,0,0,0,0,0,0,0,0,0,0,0,0,0,0,0,0,0,0,0],"id":21,"left_children":[1,3,5,7,9,11,-1,13,15,17,19,21,-1,-1,23,25,27,29,31,33,35,37,39,41,43,45,47,49,51,53,55,57,59,61,63,-1,65,-1,-1,67,69,-1,-1,-1,-1,-1,-1,-1,-1,-1,-1,-1,-1,-1,-1,-1,-1,-1,-1,-1,-1,-1,-1,-1,-1,-1,-1,-1,-1,-1,-1],"loss_changes":[2.5497318E1,1.775485E1,2.7411053E1,1.589808E1,1.2907771E1,8.218967E0,0E0,7.663333E0,7.056036E0,1.4427429E1,5.345833E0,6.4418755E0,0E0,0E0,5.16129E0,5.018746E0,3.0530663E0,7.2539225E0,3.7961102E0,4.496213E0,2.325E0,1.95E0,3.3901672E0,6.972043E0,2.625E0,2.1323528E0,6.2552037E0,8.677536E0,3.6038933E0,7.2735715E0,1.1865158E1,3.8548393E0,3.407792E0,2.4951923E0,3.628788E0,0E0,1.5833334E0,0E0,0E0,3.259674E0,3.6736112E0,0E0,0E0,0E0,0E0,0E0,0E0,0E0,0E0,0E0,0E0,0E0,0E0,0E0,0E0,0E0,0E0,0E0,0E0,0E0,0E0,0E0,0E0,0E0,0E0,0E0,0E0,0E0,0E0,0E0,0E0],"parents":[2147483647,0,0,1,1,2,2,3,3,4,4,5,5,7,7,8,8,9,9,10,10,11,11,14,14,15,15,16,16,17,17,18,18,19,19,20,20,21,21,22,22,23,23,24,24,25,25,26,26,27,27,28,28,29,29,30,30,31,31,32,32,33,33,34,34,36,36,39,39,40,40],"right_children":[2,4,6,8,10,12,-1,14,16,18,20,22,-1,-1,24,26,28,30,32,34,36,38,40,42,44,46,48,50,52,54,56,58,60,62,64,-1,66,-1,-1,68,70,-1,-1,-1,-1,-1,-1,-1,-1,-1,-1,-1,-1,-1,-1,-1,-1,-1,-1,-1,-1,-1,-1,-1,-1,-1,-1,-1,-1,-1,-1],"split_conditions":[9.05E1,8.5E-2,1.445E2,7.5E0,9.9962497E-1,8.6749995E-1,2.75E-1,5.7E-2,6.6499996E0,4.65E-1,1.0349999E-1,4.85E-1,2.2500001E-1,-2.75E-1,8.85E-2,1.55E1,3.315E0,6.675E-1,2.65E1,2.45E0,1.0549999E1,6.45E0,7.75E-1,3.5E-2,1.8499999E0,6.7499995E-2,2.15E0,1.5E-2,2.4999999E-2,6.075E-1,1.25E1,3.065E0,7.8E-2,1.15E1,6.7E-1,-2.4000001E-1,1.115E1,-1.5E-1,2.2500001E-1,6.25E-1,1.335E2,1.65E-1,-1.25E-1,1.5E-1,-2.6250002E-1,-1.75E-1,5.0000004E-2,2.1176472E-1,-9E-2,-2.5E-1,1.5652174E-1,2.4107143E-1,1.0909092E-1,-5.070423E-3,1.255814E-1,-1.9534884E-1,4.6875E-2,-2.4E-2,-1.59E-1,2.4000001E-1,-8.5714296E-2,2.2500001E-1,-4.615385E-2,2.5E-1,-7.5E-2,2.0000002E-1,-1.5E-1,-2.8615385E-1,1.5E-1,-1.6875E-1,2.0000002E-1],"split_indices":[6,2,6,5,7,1,0,4,0,2,4,9,0,0,4,5,8,1,5,3,0,0,9,2,3,4,3,2,2,1,5,8,4,0,2,0,0,0,0,2,6,0,0,0,0,0,0,0,0,0,0,0,0,0,0,0,0,0,0,0,0,0,0,0,0,0,0,0,0,0,0],"split_type":[0,0,0,0,0,0,0,0,0,0,0,0,0,0,0,0,0,0,0,0,0,0,0,0,0,0,0,0,0,0,0,0,0,0,0,0,0,0,0,0,0,0,0,0,0,0,0,0,0,0,0,0,0,0,0,0,0,0,0,0,0,0,0,0,0,0,0,0,0,0,0],"sum_hessian":[9.6E2,8.6E2,1E2,2.04E2,6.56E2,8.9E1,1.1E1,4.9E1,1.55E2,6.02E2,5.4E1,8.6E1,3E0,1.1E1,3.8E1,4.1E1,1.14E2,4.69E2,1.33E2,4.7E1,7E0,4E0,8.2E1,3E1,8E0,1.6E1,2.5E1,2.7E1,8.7E1,3.96E2,7.3E1,1.23E2,1E1,1.5E1,3.2E1,4E0,3E0,1E0,3E0,6.5E1,1.7E1,1.9E1,1.1E1,1E0,7E0,1.1E1,5E0,1.6E1,9E0,5E0,2.2E1,5.5E1,3.2E1,3.54E2,4.2E1,4.2E1,3.1E1,2.4E1,9.9E1,4E0,6E0,3E0,1.2E1,2.9E1,3E0,2E0,1E0,6.4E1,1E0,1.5E1,2E0],"tree_param":{"num_deleted":"0","num_feature":"11","num_nodes":"71","size_leaf_vector":"0"}},{"base_weights":[2.9136317E-2,-2.5551684E-2,4.950495E-1,-2.7419356E-1,4.2899407E-2,6.7777777E-1,-9.166667E-1,3.181818E-1,-3.5151514E-1,1.938326E-1,-3.3333335E-2,7.5581396E-1,-8E-1,7.058824E-1,-8.333333E-1,-4.391892E-1,3.888889E-1,4.875E-1,3.3783782E-2,-1.1890244E-1,1.9512194E-1,-8E-1,8.414634E-1,8.125E-1,-5E-1,-4.6896553E-1,7.5E-1,7.692308E-1,-5E-1,-3E-1,5.915493E-1,-6.716418E-2,9.3333334E-1,-2.0425531E-1,9.5744684E-2,2.857143E-1,-3.1578946E-1,9.8571426E-1,-0E0,-0E0,9.285714E-1,-4.8951048E-1,6.666667E-1,9.166667E-1,-5E-1,-8E-1,5E-1,7.5E-1,-8.5714287E-1,-4E-1,6.567164E-1,-4.0384614E-1,1.4457831E-1,-2.631579E-2,-3.6885247E-1,-8E-1,1.4444445E-1,3.3898305E-2,5.9574467E-1,2.857143E-1,-6.1538464E-1,6.25E-1,-8.333333E-1],"categories":[],"categories_nodes":[],"categories_segments":[],"categories_sizes":[],"default_left":[1,1,1,1,1,1,0,1,1,1,1,1,0,1,0,1,1,1,1,1,1,0,1,1,0,1,0,1,1,1,1,1,0,1,1,1,1,0,1,0,0,0,0,0,0,0,0,0,0,0,0,0,0,0,0,0,0,0,0,0,0,0,0],"id":22,"left_children":[1,3,5,7,9,11,-1,13,15,17,19,21,-1,23,-1,25,27,29,31,33,35,-1,37,39,-1,41,-1,43,45,47,49,51,-1,53,55,57,59,-1,61,-1,-1,-1,-1,-1,-1,-1,-1,-1,-1,-1,-1,-1,-1,-1,-1,-1,-1,-1,-1,-1,-1,-1,-1],"loss_changes":[2.4498796E1,1.4665816E1,2.66753E1,8.63128E0,7.784551E0,1.0983463E1,0E0,1.0409982E1,1.0881641E1,1.0652785E1,8.820122E0,1.2133068E1,0E0,2.5919113E0,0E0,5.5923595E0,6.470085E0,6.7325687E0,1.3502226E1,6.0287623E0,5.783239E0,0E0,9.953308E0,1.5089283E0,0E0,3.7094116E0,0E0,2.8910255E0,2.2E0,6.492857E0,4.8504524E0,9.611231E0,0E0,6.8730516E0,4.216076E0,8.177219E0,3.599769E0,0E0,7.2916665E0,0E0,0E0,0E0,0E0,0E0,0E0,0E0,0E0,0E0,0E0,0E0,0E0,0E0,0E0,0E0,0E0,0E0,0E0,0E0,0E0,0E0,0E0,0E0,0E0],"parents":[2147483647,0,0,1,1,2,2,3,3,4,4,5,5,7,7,8,8,9,9,10,10,11,11,13,13,15,15,16,16,17,17,18,18,19,19,20,20,22,22,23,23,25,25,27,27,28,28,29,29,30,30,31,31,33,33,34,34,35,35,36,36,38,38],"right_children":[2,4,6,8,10,12,-1,14,16,18,20,22,-1,24,-1,26,28,30,32,34,36,-1,38,40,-1,42,-1,44,46,48,50,52,-1,54,56,58,60,-1,62,-1,-1,-1,-1,-1,-1,-1,-1,-1,-1,-1,-1,-1,-1,-1,-1,-1,-1,-1,-1,-1,-1,-1,-1],"split_conditions":[9.05E1,7.5E-2,1.445E2,5.7499997E-2,8.5E0,8.275E-1,-2.75E-1,1.65E1,2.8000002E0,2.05E0,4.25E-1,4.85E-1,-2.4000001E-1,3.45E0,-2.5E-1,1.5599999E-1,4.2E0,5.6500003E-2,6.75E-1,9.9722004E-1,2.75E1,-2.4000001E-1,9.3E-1,5.3500004E0,-1.5E-1,4.4E1,2.2500001E-1,8.675E-1,7.1499996E0,4.45E-2,6.25E0,9.35E0,2.8E-1,4.95E-1,2.65E1,1.055E1,3.245E0,2.957143E-1,3.1E-1,-0E0,2.7857143E-1,-1.4685315E-1,2.0000002E-1,2.75E-1,-1.5E-1,-2.4000001E-1,1.5E-1,2.2500001E-1,-2.5714287E-1,-1.20000005E-1,1.9701493E-1,-1.2115385E-1,4.3373495E-2,-7.894738E-3,-1.1065575E-1,-2.4000001E-1,4.3333337E-2,1.0169492E-2,1.7872341E-1,8.5714296E-2,-1.846154E-1,1.875E-1,-2.5E-1],"split_indices":[6,2,6,4,5,1,0,5,3,3,2,9,0,3,0,4,3,4,1,7,5,0,9,0,0,5,0,1,0,4,0,0,0,1,6,10,8,0,2,0,0,0,0,0,0,0,0,0,0,0,0,0,0,0,0,0,0,0,0,0,0,0,0],"split_type":[0,0,0,0,0,0,0,0,0,0,0,0,0,0,0,0,0,0,0,0,0,0,0,0,0,0,0,0,0,0,0,0,0,0,0,0,0,0,0,0,0,0,0,0,0,0,0,0,0,0,0,0,0,0,0,0,0,0,0,0,0,0,0],"sum_hessian":[9.6E2,8.6E2,1E2,1.85E2,6.75E2,8.9E1,1.1E1,2.1E1,1.64E2,2.26E2,4.49E2,8.5E1,4E0,1.6E1,5E0,1.47E2,1.7E1,7.9E1,1.47E2,3.27E2,1.22E2,4E0,8.1E1,1.5E1,1E0,1.44E2,3E0,1.2E1,5E0,9E0,7E1,1.33E2,1.4E1,2.34E2,9.3E1,1.04E2,1.8E1,6.9E1,1.2E1,2E0,1.3E1,1.42E2,2E0,1.1E1,1E0,4E0,1E0,3E0,6E0,4E0,6.6E1,5.1E1,8.2E1,1.13E2,1.21E2,4E0,8.9E1,5.8E1,4.6E1,6E0,1.2E1,7E0,5E0],"tree_param":{"num_deleted":"0","num_feature":"11","num_nodes":"63","size_leaf_vector":"0"}},{"base_weights":[-4.3704476E-2,1.1389522E-3,-5.119048E-1,6.025641E-2,-4.6464646E-1,-5.9210527E-1,2.2222222E-1,-9E-1,7.2632946E-2,-6.4772725E-1,9.166667E-1,-3.243243E-1,-8.25E-1,-1.6666667E-1,7.5E-1,3.4285715E-1,2.9985007E-2,-7.2619045E-1,8E-1,-6.666667E-1,1.1764706E-1,5E-1,-8.717949E-1,6.666667E-1,-7.5E-1,1.875E-1,8.076923E-1,2.7722773E-1,-1.4109347E-2,8E-1,-8.125E-1,-8.333333E-1,2.5E-1,-2.5E-1,8.333333E-1,-0E0,-9.189189E-1,-8.163265E-2,5.9375E-1,-5E-1,8.8E-1,4E-1,-3.529412E-1,5.217391E-1,-3.6697246E-2,-9.5384616E-1,-1.875E-1,-9.375E-1,-0E0,-5E-1,6.666667E-1,-6.25E-1,4E-1,-5E-1,5E-1],"categories":[],"categories_nodes":[],"categories_segments":[],"categories_sizes":[],"default_left":[1,1,1,1,1,1,1,0,1,1,0,1,1,1,0,1,1,1,0,1,1,0,1,0,0,1,1,1,1,0,1,1,1,1,0,1,0,0,0,0,0,0,0,0,0,0,0,0,0,0,0,0,0,0,0],"id":23,"left_children":[1,3,5,7,9,11,13,-1,15,17,-1,19,21,23,-1,25,27,29,-1,31,33,-1,35,-1,-1,37,39,41,43,-1,45,47,49,51,-1,53,-1,-1,-1,-1,-1,-1,-1,-1,-1,-1,-1,-1,-1,-1,-1,-1,-1,-1,-1],"loss_changes":[2.0177456E1,2.4204649E1,5.077276E0,9.335394E0,2.563005E1,4.4721546E0,1.9722223E0,0E0,8.875113E0,1.0577164E1,0E0,5.6767354E0,2.9160252E0,3.4166667E0,0E0,7.431181E0,7.2755513E0,1.1714882E1,0E0,3.416667E0,4.681372E0,0E0,1.6022186E0,0E0,0E0,8.79528E0,2.8984623E0,7.9552712E0,6.8819394E0,0E0,6.888462E0,1.5625E0,1.5833334E0,3.175E0,0E0,1E0,0E0,0E0,0E0,0E0,0E0,0E0,0E0,0E0,0E0,0E0,0E0,0E0,0E0,0E0,0E0,0E0,0E0,0E0,0E0],"parents":[2147483647,0,0,1,1,2,2,3,3,4,4,5,5,6,6,8,8,9,9,11,11,12,12,13,13,15,15,16,16,17,17,19,19,20,20,22,22,25,25,26,26,27,27,28,28,30,30,31,31,32,32,33,33,35,35],"right_children":[2,4,6,8,10,12,14,-1,16,18,-1,20,22,24,-1,26,28,30,-1,32,34,-1,36,-1,-1,38,40,42,44,-1,46,48,50,52,-1,54,-1,-1,-1,-1,-1,-1,-1,-1,-1,-1,-1,-1,-1,-1,-1,-1,-1,-1,-1],"split_conditions":[1.095E1,9.05E1,8.6E-1,4.35E-2,1.445E2,2.525E0,1.155E1,-2.7E-1,6.6499996E0,8.275E-1,2.75E-1,2.25E1,1.5E1,3.05E-1,2.2500001E-1,9.9587E-1,4.5E-2,4.85E-1,2.4000001E-1,3.205E0,6.85E-1,1.5E-1,4.85E-1,2.0000002E-1,-2.2500001E-1,1.65E1,6.1499996E0,2.55E0,5.6500003E-2,2.4000001E-1,7.75E-1,1.0002999E0,1.13E1,2.1750002E0,2.5E-1,1.145E1,-2.7567568E-1,-2.4489796E-2,1.7812501E-1,-1.5E-1,2.64E-1,1.20000005E-1,-1.0588236E-1,1.5652174E-1,-1.1009174E-2,-2.8615385E-1,-5.6250002E-2,-2.8125E-1,-0E0,-1.5E-1,2.0000002E-1,-1.875E-1,1.20000005E-1,-1.5E-1,1.5E-1],"split_indices":[0,6,9,4,6,3,0,0,0,1,0,6,6,1,0,7,2,9,0,8,9,0,2,0,0,5,0,3,4,0,9,7,0,3,0,0,0,0,0,0,0,0,0,0,0,0,0,0,0,0,0,0,0,0,0],"split_type":[0,0,0,0,0,0,0,0,0,0,0,0,0,0,0,0,0,0,0,0,0,0,0,0,0,0,0,0,0,0,0,0,0,0,0,0,0,0,0,0,0,0,0,0,0,0,0,0,0,0,0,0,0,0,0],"sum_hessian":[9.6E2,8.77E2,8.3E1,7.79E2,9.8E1,7.5E1,8E0,9E0,7.7E2,8.7E1,1.1E1,3.6E1,3.9E1,5E0,3E0,1.04E2,6.66E2,8.3E1,4E0,2E1,1.6E1,1E0,3.8E1,2E0,3E0,7.9E1,2.5E1,1E2,5.66E2,4E0,7.9E1,1.7E1,3E0,1.1E1,5E0,2E0,3.6E1,4.8E1,3.1E1,1E0,2.4E1,8.4E1,1.6E1,2.2E1,5.44E2,6.4E1,1.5E1,1.5E1,2E0,1E0,2E0,7E0,4E0,1E0,1E0],"tree_param":{"num_deleted":"0","num_feature":"11","num_nodes":"55","size_leaf_vector":"0"}},{"base_weights":[2.289282E-2,-5.1898733E-2,3.6627907E-1,-1.07801415E-1,4.0697673E-1,5.203252E-1,-2E-2,-3.607595E-1,-3.4671534E-2,6.197183E-1,-5.625E-1,2.96875E-1,7.5E-1,4.2105263E-1,-2.8125E-1,7.5E-1,-3.8709676E-1,-2.7192983E-1,2.7586207E-2,7.164179E-1,-8E-1,1.6666667E-1,-9.0909094E-1,9.166667E-1,1.509434E-1,8.0701756E-1,-2.5E-1,-7.5E-1,6.875E-1,1.875E-1,-7.058824E-1,-6.8292683E-1,-2.7826086E-1,-6.349207E-2,-5.192308E-1,-3.3994336E-2,2.8915662E-1,-7.5E-1,7.96875E-1,-6.666667E-1,7.5E-1,5.625E-1,-2.631579E-2,2.2222222E-1,8.979592E-1,-6.666667E-1,5E-1,-5E-1,8E-1,8.5714287E-1,-3E-1,5E-1,-8.125E-1,2.857143E-1,-8.5714287E-1,-3.125E-1,7.5E-1,-5.4545456E-1,3.773585E-2,-9.52381E-2,-7.8125E-1,6.116208E-3,-5.185185E-1,3.5443038E-1,-8E-1,9.4545454E-1,-1E-1,1.25E-1,8.888889E-1,3.5E-1,-4.2105263E-1,8E-1,-4E-1,2.5E-1,9.347826E-1,9.285714E-1,-5E-1,-8.5714287E-1,7.5E-1,-9.230769E-1,-2.5E-1],"categories":[],"categories_nodes":[],"categories_segments":[],"categories_sizes":[],"default_left":[1,1,1,1,1,1,1,1,1,1,1,1,1,1,1,0,1,1,1,1,0,1,0,0,1,1,1,0,1,1,1,1,1,1,1,1,1,0,1,0,0,1,1,1,1,0,0,0,1,0,1,0,1,0,0,0,0,0,0,0,0,0,0,0,0,0,0,0,0,0,0,0,0,0,0,0,0,0,0,0,0],"id":24,"left_children":[1,3,5,7,9,11,13,15,17,19,21,23,25,27,29,-1,31,33,35,37,-1,39,-1,-1,41,43,45,-1,47,49,51,53,55,57,59,61,63,-1,65,-1,-1,67,69,71,73,-1,-1,-1,75,-1,77,-1,79,-1,-1,-1,-1,-1,-1,-1,-1,-1,-1,-1,-1,-1,-1,-1,-1,-1,-1,-1,-1,-1,-1,-1,-1,-1,-1,-1,-1],"loss_changes":[2.4699787E1,2.0309246E1,1.0245232E1,1.3029142E1,1.8085918E1,6.089813E0,5.879671E0,4.9125156E0,8.1021E0,1.0320457E1,4.195076E0,5.650255E0,3.6228065E0,6.444079E0,6.5018387E0,0E0,4.8004913E0,5.8433743E0,7.0166564E0,8.502563E0,0E0,3.4166667E0,0E0,0E0,3.8812685E0,2.8318405E0,1.5833334E0,0E0,2.5375004E0,5.480357E0,2.5919113E0,7.163761E0,4.2831526E0,3.0942307E0,5.7024946E0,6.8635597E0,6.184291E0,0E0,8.623009E0,0E0,0E0,2.1736112E0,5.7921057E0,3.5555556E0,9.354477E-1,0E0,0E0,0E0,2.971428E0,0E0,6.492857E0,0E0,7.644234E-1,0E0,0E0,0E0,0E0,0E0,0E0,0E0,0E0,0E0,0E0,0E0,0E0,0E0,0E0,0E0,0E0,0E0,0E0,0E0,0E0,0E0,0E0,0E0,0E0,0E0,0E0,0E0,0E0],"parents":[2147483647,0,0,1,1,2,2,3,3,4,4,5,5,6,6,7,7,8,8,9,9,10,10,11,11,12,12,13,13,14,14,16,16,17,17,18,18,19,19,21,21,24,24,25,25,26,26,28,28,29,29,30,30,31,31,32,32,33,33,34,34,35,35,36,36,38,38,41,41,42,42,43,43,44,44,48,48,50,50,52,52],"right_children":[2,4,6,8,10,12,14,16,18,20,22,24,26,28,30,-1,32,34,36,38,-1,40,-1,-1,42,44,46,-1,48,50,52,54,56,58,60,62,64,-1,66,-1,-1,68,70,72,74,-1,-1,-1,76,-1,78,-1,80,-1,-1,-1,-1,-1,-1,-1,-1,-1,-1,-1,-1,-1,-1,-1,-1,-1,-1,-1,-1,-1,-1,-1,-1,-1,-1,-1,-1],"split_conditions":[4.85E-1,9.05E1,3.2350001E0,5.5E-2,1.32E2,2.45E0,5.05E-1,4.25E-2,6.5E0,8.275E-1,8.2E-2,1.45E1,7.025E0,7.4E-2,9.799999E0,2.2500001E-1,6.75E-2,4.95E-1,6.475E-1,4.85E-1,-2.4000001E-1,7.85E-2,-2.7272728E-1,2.75E-1,6.25E-1,9.65E0,4.3E-1,-2.2500001E-1,7.45E0,6.3E-1,5.8E-2,9.9291E-1,3.665E0,9.5E0,1.95E-1,3.5349998E0,5.3E0,-2.2500001E-1,7.8999996E-1,-2.0000002E-1,2.2500001E-1,1.1E1,1.01E1,4.4E-1,1.5E1,-2.0000002E-1,1.5E-1,-1.5E-1,6.275E-1,2.5714287E-1,1.15E1,1.5E-1,6.05E-1,8.5714296E-2,-2.5714287E-1,-9.375E-2,2.2500001E-1,-1.6363637E-1,1.1320755E-2,-2.857143E-2,-2.3437501E-1,1.8348625E-3,-1.5555556E-1,1.0632912E-1,-2.4000001E-1,2.8363636E-1,-3.0000001E-2,3.75E-2,2.6666668E-1,1.05000004E-1,-1.263158E-1,2.4000001E-1,-1.20000005E-1,7.5E-2,2.804348E-1,2.7857143E-1,-1.5E-1,-2.5714287E-1,2.2500001E-1,-2.769231E-1,-7.5E-2],"split_indices":[2,6,8,2,6,3,2,4,5,1,4,6,3,4,0,0,4,1,1,9,0,4,0,0,9,10,1,0,0,9,4,7,8,6,2,8,3,0,9,0,0,5,0,1,6,0,0,0,1,0,10,0,2,0,0,0,0,0,0,0,0,0,0,0,0,0,0,0,0,0,0,0,0,0,0,0,0,0,0,0,0],"split_type":[0,0,0,0,0,0,0,0,0,0,0,0,0,0,0,0,0,0,0,0,0,0,0,0,0,0,0,0,0,0,0,0,0,0,0,0,0,0,0,0,0,0,0,0,0,0,0,0,0,0,0,0,0,0,0,0,0,0,0,0,0,0,0,0,0,0,0,0,0,0,0,0,0,0,0,0,0,0,0,0,0],"sum_hessian":[9.6E2,7.89E2,1.71E2,7.04E2,8.5E1,1.22E2,4.9E1,1.57E2,5.47E2,7E1,1.5E1,6.3E1,5.9E1,1.8E1,3.1E1,3E0,1.54E2,1.13E2,4.34E2,6.6E1,4E0,5E0,1E1,1.1E1,5.2E1,5.6E1,3E0,3E0,1.5E1,1.5E1,1.6E1,4E1,1.14E2,6.2E1,5.1E1,3.52E2,8.2E1,3E0,6.3E1,2E0,3E0,1.5E1,3.7E1,8E0,4.8E1,2E0,1E0,1E0,1.4E1,6E0,9E0,1E0,1.5E1,6E0,3.4E1,1.11E2,3E0,1E1,5.2E1,2E1,3.1E1,3.26E2,2.6E1,7.8E1,4E0,5.4E1,9E0,7E0,8E0,1.9E1,1.8E1,4E0,4E0,3E0,4.5E1,1.3E1,1E0,6E0,3E0,1.2E1,3E0],"tree_param":{"num_deleted":"0","num_feature":"11","num_nodes":"81","size_leaf_vector":"0"}},{"base_weights":[-2.4973985E-2,8.057554E-2,-2.9962546E-1,1.273585E-1,-4.1666666E-1,-1.1320755E-1,-5.6880736E-1,-6.4257026E-2,2.5E-1,8.333333E-1,-5.4545456E-1,-1.6666667E-1,7E-1,8E-1,-6.2857145E-1,1.5957446E-1,-1.9871795E-1,3.8918918E-1,1.2254902E-1,-9.69697E-1,8.695652E-2,-1.8018018E-2,-5.75E-1,8.888889E-1,-5E-1,-3.5416666E-1,-8.448276E-1,2.6923078E-1,-3.529412E-1,-5.4347825E-1,-5.4054055E-2,5.420561E-1,1.7721519E-1,-5.4545456E-1,1.5979381E-1,-6.25E-1,4.375E-1,5.8252428E-2,-8.888889E-1,-7.941176E-1,5.714286E-1,-9.230769E-1,-1.388889E-1,-2.2222222E-1,-9.4E-1,3.6619717E-1,-6.25E-1,-8.75E-1,1E-1,-7.3170733E-1,8.333333E-1,3.7037036E-1,-1.882353E-1,5.714286E-1,-6.666667E-1,-4E-1,3.0769232E-1,5E-1,-7E-1,5.5263156E-1,6.369427E-2,5E-1,-8.5714287E-1,7.692308E-1,-7.5E-1,8.75E-1,-1.0416667E-2,6.666667E-1,-9.0625E-1,8.333333E-1,-5E-1,-2.8125E-1,8E-1,4E-1,-8E-1,-5.714286E-1,-9.7727275E-1],"categories":[],"categories_nodes":[],"categories_segments":[],"categories_sizes":[],"default_left":[1,1,1,1,1,1,1,1,1,0,1,1,1,0,1,1,1,1,1,0,1,1,1,0,0,1,1,1,1,1,1,1,1,1,1,1,1,1,0,1,1,0,1,1,1,0,0,0,0,0,0,0,0,0,0,0,0,0,0,0,0,0,0,0,0,0,0,0,0,0,0,0,0,0,0,0,0],"id":25,"left_children":[1,3,5,7,9,11,13,15,17,-1,19,21,23,-1,25,27,29,31,33,-1,35,37,39,-1,-1,41,43,45,47,49,51,53,55,57,59,61,63,65,-1,67,69,-1,71,73,75,-1,-1,-1,-1,-1,-1,-1,-1,-1,-1,-1,-1,-1,-1,-1,-1,-1,-1,-1,-1,-1,-1,-1,-1,-1,-1,-1,-1,-1,-1,-1,-1],"loss_changes":[2.7882893E1,1.6220474E1,1.3333754E1,1.4962074E1,1.0113635E1,7.0289307E0,9.419659E0,7.5257607E0,6.835346E0,0E0,1.4840582E1,9.09437E0,2.711111E0,0E0,5.931671E0,5.3778763E0,7.751025E0,5.8986435E0,5.16261E0,0E0,6.013587E0,7.4245896E0,1.0501892E1,0E0,0E0,5.7505345E0,3.22789E0,6.9922805E0,4.1073527E0,1.2530929E1,6.3911443E0,4.1797924E0,6.072834E0,2.1272728E0,7.2885976E0,2.517857E0,6.8798075E0,5.785902E0,0E0,6.1734066E0,2.3809521E0,0E0,5.036805E0,3.5555556E0,1.2844086E-1,0E0,0E0,0E0,0E0,0E0,0E0,0E0,0E0,0E0,0E0,0E0,0E0,0E0,0E0,0E0,0E0,0E0,0E0,0E0,0E0,0E0,0E0,0E0,0E0,0E0,0E0,0E0,0E0,0E0,0E0,0E0,0E0],"parents":[2147483647,0,0,1,1,2,2,3,3,4,4,5,5,6,6,7,7,8,8,10,10,11,11,12,12,14,14,15,15,16,16,17,17,18,18,20,20,21,21,22,22,25,25,26,26,27,27,28,28,29,29,30,30,31,31,32,32,33,33,34,34,35,35,36,36,37,37,39,39,40,40,42,42,43,43,44,44],"right_children":[2,4,6,8,10,12,14,16,18,-1,20,22,24,-1,26,28,30,32,34,-1,36,38,40,-1,-1,42,44,46,48,50,52,54,56,58,60,62,64,66,-1,68,70,-1,72,74,76,-1,-1,-1,-1,-1,-1,-1,-1,-1,-1,-1,-1,-1,-1,-1,-1,-1,-1,-1,-1,-1,-1,-1,-1,-1,-1,-1,-1,-1,-1,-1,-1],"split_conditions":[9.9771E-1,9.05E1,4.75E-1,4.725E-1,5.15E-2,8.75E-1,8.55E0,2.35E1,7.75E-2,2.5E-1,8.55E-2,8E1,1.06E1,2.4000001E-1,4.05E-1,5.25E-1,3.245E0,3.65E1,3.5E0,-2.909091E-1,1.95E-1,1.075E1,8.5E-1,2.6666668E-1,-1.5E-1,5.05E-1,9.15E0,1.265E1,4.5E0,9.97345E-1,3.3049998E0,5E-1,4.15E1,4.85E-1,2.05E1,7.2E0,5.05E-1,3.085E0,-2.6666668E-1,3.9999998E-1,1E0,-2.769231E-1,9.05E-1,4.95E-1,5.65E-1,1.0985915E-1,-1.875E-1,-2.6250002E-1,3.0000001E-2,-2.1951221E-1,2.5E-1,1.1111111E-1,-5.647059E-2,1.7142859E-1,-2.0000002E-1,-1.20000005E-1,9.23077E-2,1.5E-1,-2.1000001E-1,1.6578947E-1,1.910828E-2,1.5E-1,-2.5714287E-1,2.3076925E-1,-2.2500001E-1,2.6250002E-1,-3.1250003E-3,2.0000002E-1,-2.7187502E-1,2.5E-1,-1.5E-1,-8.4375E-2,2.4000001E-1,1.20000005E-1,-2.4000001E-1,-1.7142859E-1,-2.9318184E-1],"split_indices":[7,6,2,1,4,9,0,6,4,0,4,6,0,0,1,2,8,6,5,0,2,10,1,0,0,2,10,10,5,7,8,2,6,1,6,0,2,8,0,1,1,0,9,1,9,0,0,0,0,0,0,0,0,0,0,0,0,0,0,0,0,0,0,0,0,0,0,0,0,0,0,0,0,0,0,0,0],"split_type":[0,0,0,0,0,0,0,0,0,0,0,0,0,0,0,0,0,0,0,0,0,0,0,0,0,0,0,0,0,0,0,0,0,0,0,0,0,0,0,0,0,0,0,0,0,0,0,0,0,0,0,0,0,0,0,0,0,0,0,0,0,0,0,0,0,0,0,0,0,0,0,0,0,0,0,0,0],"sum_hessian":[9.6E2,6.94E2,2.66E2,6.35E2,5.9E1,1.58E2,1.08E2,2.48E2,3.87E2,5E0,5.4E1,1.49E2,9E0,4E0,1.04E2,9.3E1,1.55E2,1.84E2,2.03E2,3.2E1,2.2E1,1.1E2,3.9E1,8E0,1E0,4.7E1,5.7E1,7.7E1,1.6E1,4.5E1,1.1E2,1.06E2,7.8E1,1E1,1.93E2,7E0,1.5E1,1.02E2,8E0,3.3E1,6E0,1.2E1,3.5E1,8E0,4.9E1,7E1,7E0,7E0,9E0,4E1,5E0,2.6E1,8.4E1,1.04E2,2E0,1.4E1,6.4E1,1E0,9E0,3.7E1,1.56E2,1E0,6E0,1.2E1,3E0,7E0,9.5E1,2E0,3.1E1,5E0,1E0,3.1E1,4E0,4E0,4E0,6E0,4.3E1],"tree_param":{"num_deleted":"0","num_feature":"11","num_nodes":"77","size_leaf_vector":"0"}},{"base_weights":[2.4973985E-2,-3.325688E-2,5.888889E-1,-1.4928058E-1,1.70347E-1,-5E-1,6.5882355E-1,-2.3342176E-1,2.7777778E-2,2.4295774E-1,-4.4117647E-1,5E-1,-8E-1,7.1428575E-2,7.638889E-1,-2.586207E-2,-3.244275E-1,1.1333334E-1,-3.8709676E-1,-5.3333336E-1,2.851852E-1,-9.444444E-1,1.1764706E-1,-7.5E-1,3.6363637E-1,4.848485E-1,9.75E-1,-6.666667E-1,2.7777778E-2,-4.2021278E-1,-8E-2,4.0816328E-1,-2.9411765E-2,-6.818182E-1,3E-1,-9.0909094E-1,4E-1,1.5934066E-1,5.3932583E-1,5E-1,-3.75E-1,-4E-1,8.5714287E-1,6.785714E-1,-5E-1,-8.75E-1,5E-1,-2.25E-1,1.7391305E-1,-2.992126E-1,-6.6129035E-1,4.5833334E-1,-3.2692307E-1,-2.5E-1,6.052632E-1,2.1052632E-1,-3.2608697E-1,-1.25E-1,-9.3333334E-1,8.333333E-1,-4E-1,7.5E-1,-5E-1,-2.8947368E-1,2.7586207E-1,7.432432E-1,-4.375E-1,-5E-1,6.666667E-1,2.5E-1,-8E-1,5E-1,-7.5E-1,8E-1,-2.5E-1,5E-1,-8E-1],"categories":[],"categories_nodes":[],"categories_segments":[],"categories_sizes":[],"default_left":[1,1,1,1,1,1,1,1,1,1,1,0,0,1,1,1,1,1,1,1,1,0,1,0,1,1,0,1,1,1,1,1,1,1,1,0,1,1,1,1,1,1,0,1,1,0,0,0,0,0,0,0,0,0,0,0,0,0,0,0,0,0,0,0,0,0,0,0,0,0,0,0,0,0,0,0,0],"id":26,"left_children":[1,3,5,7,9,11,13,15,17,19,21,-1,-1,23,25,27,29,31,33,35,37,-1,39,-1,41,43,-1,45,47,49,51,53,55,57,59,-1,61,63,65,67,69,71,-1,73,75,-1,-1,-1,-1,-1,-1,-1,-1,-1,-1,-1,-1,-1,-1,-1,-1,-1,-1,-1,-1,-1,-1,-1,-1,-1,-1,-1,-1,-1,-1,-1,-1],"loss_changes":[3.1576185E1,2.0624577E1,7.183008E0,8.289717E0,1.4182993E1,2.2E0,5.1912003E0,7.112808E0,6.432939E0,9.461842E0,9.6732025E0,0E0,0E0,3.633117E0,3.7686882E0,4.0057473E0,6.1004715E0,6.3248334E0,6.4821115E0,5.6242423E0,8.549259E0,0E0,3.389706E0,0E0,4.488312E0,6.6352816E0,0E0,2.625E0,4.028623E0,5.286175E0,1.011936E1,6.5077877E0,7.329385E0,2.9643936E0,4.0666666E0,0E0,1.95E0,9.597815E0,1.805324E1,2E0,2.325E0,1.95E0,0E0,3.3571424E0,2.2E0,0E0,0E0,0E0,0E0,0E0,0E0,0E0,0E0,0E0,0E0,0E0,0E0,0E0,0E0,0E0,0E0,0E0,0E0,0E0,0E0,0E0,0E0,0E0,0E0,0E0,0E0,0E0,0E0,0E0,0E0,0E0,0E0],"parents":[2147483647,0,0,1,1,2,2,3,3,4,4,5,5,6,6,7,7,8,8,9,9,10,10,13,13,14,14,15,15,16,16,17,17,18,18,19,19,20,20,22,22,24,24,25,25,27,27,28,28,29,29,30,30,31,31,32,32,33,33,34,34,36,36,37,37,38,38,39,39,40,40,41,41,43,43,44,44],"right_children":[2,4,6,8,10,12,14,16,18,20,22,-1,-1,24,26,28,30,32,34,36,38,-1,40,-1,42,44,-1,46,48,50,52,54,56,58,60,-1,62,64,66,68,70,72,-1,74,76,-1,-1,-1,-1,-1,-1,-1,-1,-1,-1,-1,-1,-1,-1,-1,-1,-1,-1,-1,-1,-1,-1,-1,-1,-1,-1,-1,-1,-1,-1,-1,-1],"split_conditions":[1.085E1,5.05E1,1.65E0,8.35E-2,7.725E-1,4.45E-1,9.45E0,6.5E0,7.1500003E-1,5.2500002E-2,2.45E1,1.5E-1,-2.4000001E-1,9.9909997E-1,3.85E-1,1.55E0,3.415E0,9.96475E-1,9E-1,2.35E0,8.95E1,-2.8333333E-1,8.9E1,-2.2500001E-1,5.8500004E-1,1.265E1,2.9250002E-1,1.005E1,4.15E-1,5.475E-1,3.455E0,9.9504E-1,9.85E-2,9.85E0,3.425E0,-2.7272728E-1,7.15E0,1.14999995E-1,8.4000003E-1,4.4E-1,8.5E-1,5.3499997E-1,2.5714287E-1,3.7E0,5.55E-1,-2.6250002E-1,1.5E-1,-6.75E-2,5.2173916E-2,-8.976378E-2,-1.9838712E-1,1.375E-1,-9.8076925E-2,-7.5E-2,1.8157896E-1,6.31579E-2,-9.782609E-2,-3.75E-2,-2.8E-1,2.5E-1,-1.20000005E-1,2.2500001E-1,-1.5E-1,-8.6842105E-2,8.275862E-2,2.2297297E-1,-1.3125001E-1,-1.5E-1,2.0000002E-1,7.5E-2,-2.4000001E-1,1.5E-1,-2.2500001E-1,2.4000001E-1,-7.5E-2,1.5E-1,-2.4000001E-1],"split_indices":[0,6,3,4,1,2,10,5,1,4,5,0,