{"learner":{"attributes":{"best_iteration":"99","best_ntree_limit":"100","scikit_learn":"{\"n_estimators\": 100, \"objective\": \"reg:absoluteerror\", \"max_depth\": null, \"max_leaves\": null, \"max_bin\": null, \"grow_policy\": null, \"learning_rate\": null, \"verbosity\": null, \"booster\": null, \"tree_method\": null, \"gamma\": null, \"min_child_weight\": null, \"max_delta_step\": null, \"subsample\": null, \"sampling_method\": null, \"colsample_bytree\": null, \"colsample_bylevel\": null, \"colsample_bynode\": null, \"reg_alpha\": null, \"reg_lambda\": null, \"scale_pos_weight\": null, \"base_score\": null, \"missing\": NaN, \"num_parallel_tree\": null, \"random_state\": null, \"n_jobs\": null, \"monotone_constraints\": null, \"interaction_constraints\": null, \"importance_type\": null, \"gpu_id\": null, \"validate_parameters\": null, \"predictor\": null, \"enable_categorical\": false, \"feature_types\": null, \"max_cat_to_onehot\": null, \"max_cat_threshold\": null, \"eval_metric\": null, \"early_stopping_rounds\": null, \"callbacks\": null, \"kwargs\": {\"seed\": 1337}, \"_estimator_type\": \"regressor\"}"},"feature_names":[],"feature_types":[],"gradient_booster":{"model":{"gbtree_model_param":{"num_parallel_tree":"1","num_trees":"100","size_leaf_vector":"0"},"tree_info":[0,0,0,0,0,0,0,0,0,0,0,0,0,0,0,0,0,0,0,0,0,0,0,0,0,0,0,0,0,0,0,0,0,0,0,0,0,0,0,0,0,0,0,0,0,0,0,0,0,0,0,0,0,0,0,0,0,0,0,0,0,0,0,0,0,0,0,0,0,0,0,0,0,0,0,0,0,0,0,0,0,0,0,0,0,0,0,0,0,0,0,0,0,0,0,0,0,0,0,0],"trees":[{"base_weights":[-1.3022782E-1,-3.6262572E-1,2.867996E-1,-7.2931275E-2,-5.37808E-1,-4.107143E-1,3.256513E-1,-1.3584906E-1,1.0869565E-1,-6.437247E-1,-3.569794E-1,-5.3488374E-1,-0E0,1.8604651E-1,4.7412008E-1,-2.5468165E-1,-1.5151516E-2,3.272727E-1,-2.1333334E-1,-5.224719E-1,-7.53886E-1,-5.511364E-1,-2.2519083E-1,-2.9166666E-1,-8E-1,-7.5E-1,2.7272728E-1,-5.714286E-1,2.0675944E-1,-3.2258064E-2,5.0772625E-1,-4.923077E-1,-1.773399E-1,1.5957446E-1,-1.1111111E-1,1.754386E-2,6.481481E-1,-1.3636364E-1,-7E-1,-6.085106E-1,-3.52459E-1,-7.617801E-1,-0E0,-6E-1,-5.882353E-2,-1.2631579E-1,-4.7945204E-1,-5.4545456E-1,-7.1428575E-2,-2.5E-1,-8.8235295E-1,6.666667E-1,1.1111111E-1,-1.4285715E-1,-8.75E-1,-1.904762E-2,2.6566416E-1,-1.3636364E-1,2E-1,5.6497175E-1,3E-1,-3.409091E-1,-7.7272725E-1,-4.5652175E-1,-9.4936706E-2,-6.25E-1,2.2988506E-1,-7.926829E-2,-7.5E-1,-2E-1,2.5E-1,8.717949E-1,6.25E-2,-5.3333336E-1,-1.923077E-2,-0E0,-8.75E-1,-1.4285715E-1,-6.351351E-1,-7.692308E-2,-6.551724E-1,-7.815126E-1,-4.6153846E-1,-4.1509435E-1,-6.851852E-1,-5E-1,7.1428575E-2,-2.3913044E-1,1.6981132E-1,-3.8E-1,-6.666667E-1,-6E-1,-0E0,5E-1,-2.7272728E-1,-6.666667E-1,5E-1,-9.375E-1,-0E0,-0E0,5E-1,-0E0,-5E-1,8.235294E-2,-4.2857143E-1,2.0634921E-1,4.8235294E-1,-3E-1,-0E0,-0E0,4E-1,3.814433E-1,6.3178295E-1,-4.347826E-2,3.974359E-1],"categories":[],"categories_nodes":[],"categories_segments":[],"categories_sizes":[],"default_left":[1,1,1,1,1,1,1,1,1,1,1,1,1,1,1,1,1,1,1,1,1,1,1,1,1,0,1,1,1,1,1,1,1,1,1,1,1,1,1,1,1,1,0,1,1,1,1,1,1,1,1,0,1,1,0,1,1,1,1,1,1,0,0,0,0,0,0,0,0,0,0,0,0,0,0,0,0,0,0,0,0,0,0,0,0,0,0,0,0,0,0,0,0,0,0,0,0,0,0,0,0,0,0,0,0,0,0,0,0,0,0,0,0,0,0],"id":0,"left_children":[1,3,5,7,9,11,13,15,17,19,21,23,25,27,29,31,33,35,37,39,41,43,45,47,49,-1,51,53,55,57,59,61,63,65,67,69,71,73,75,77,79,81,-1,83,85,87,89,91,93,95,97,-1,99,101,-1,103,105,107,109,111,113,-1,-1,-1,-1,-1,-1,-1,-1,-1,-1,-1,-1,-1,-1,-1,-1,-1,-1,-1,-1,-1,-1,-1,-1,-1,-1,-1,-1,-1,-1,-1,-1,-1,-1,-1,-1,-1,-1,-1,-1,-1,-1,-1,-1,-1,-1,-1,-1,-1,-1,-1,-1,-1,-1],"loss_changes":[2.8513486E2,9.582626E1,2.866961E1,8.162619E0,2.2312988E1,2.855897E0,2.0597298E1,7.597826E0,1.3021239E1,9.503937E0,1.1057705E1,2.539342E0,3.0681818E0,8.2139435E0,8.235794E0,4.8197308E0,4.4441223E0,1.092091E1,2.7139392E0,4.992981E0,2.2971802E0,4.198593E0,6.526141E0,1.302489E0,6.8529415E-1,0E0,6.262627E-1,1.6964283E0,6.6955147E0,7.768328E-1,5.217308E0,2.4961538E0,4.626771E0,5.3290844E0,3.4193769E0,2.9324563E0,7.018341E0,3.058625E0,1.2249999E0,2.8227463E0,1.0125428E1,1.9024811E0,0E0,2.2357826E0,1.012605E0,6.388027E0,1.1058445E0,3.2727265E-1,1.7467532E0,1.5833334E0,8.2720566E-1,0E0,3.888889E-1,3.5714287E-1,0E0,4.3955183E0,5.0287704E0,4.9090907E-1,4E-1,4.099678E0,3.3639908E0,0E0,0E0,0E0,0E0,0E0,0E0,0E0,0E0,0E0,0E0,0E0,0E0,0E0,0E0,0E0,0E0,0E0,0E0,0E0,0E0,0E0,0E0,0E0,0E0,0E0,0E0,0E0,0E0,0E0,0E0,0E0,0E0,0E0,0E0,0E0,0E0,0E0,0E0,0E0,0E0,0E0,0E0,0E0,0E0,0E0,0E0,0E0,0E0,0E0,0E0,0E0,0E0,0E0,0E0],"parents":[2147483647,0,0,1,1,2,2,3,3,4,4,5,5,6,6,7,7,8,8,9,9,10,10,11,11,12,12,13,13,14,14,15,15,16,16,17,17,18,18,19,19,20,20,21,21,22,22,23,23,24,24,26,26,27,27,28,28,29,29,30,30,31,31,32,32,33,33,34,34,35,35,36,36,37,37,38,38,39,39,40,40,41,41,43,43,44,44,45,45,46,46,47,47,48,48,49,49,50,50,52,52,53,53,55,55,56,56,57,57,58,58,59,59,60,60],"right_children":[2,4,6,8,10,12,14,16,18,20,22,24,26,28,30,32,34,36,38,40,42,44,46,48,50,-1,52,54,56,58,60,62,64,66,68,70,72,74,76,78,80,82,-1,84,86,88,90,92,94,96,98,-1,100,102,-1,104,106,108,110,112,114,-1,-1,-1,-1,-1,-1,-1,-1,-1,-1,-1,-1,-1,-1,-1,-1,-1,-1,-1,-1,-1,-1,-1,-1,-1,-1,-1,-1,-1,-1,-1,-1,-1,-1,-1,-1,-1,-1,-1,-1,-1,-1,-1,-1,-1,-1,-1,-1,-1,-1,-1,-1,-1,-1],"split_conditions":[1.085E1,2.375E-1,1.05E1,1.235E1,9.85E0,1.255E1,1.185E1,1.005E1,2.025E-1,3.025E-1,2.65E1,3.05E-1,2.25E-2,9.75E-1,2.975E0,2.35E1,3.9499998E-2,4.95E-2,1.77E1,1.235E1,1.00144E0,6.35E-1,1.725E2,3.4500003E-2,1.11E1,-2.2500001E-1,2.6E-1,3.75E-2,3.0549998E0,5.8E-1,3.9499998E-2,9.9450004E-1,9.25E0,1.35E1,1.11E1,4.9E-1,3.165E0,4.05E-1,6.7E0,2.97E0,1.4924999E1,9.75E0,-0E0,3.85E-2,1.3E0,3.2849998E0,4.9999997E-2,2.9500002E-1,6.75E0,3.23E0,4.95E-2,2.0000002E-1,8.2E0,8.25E0,-2.6250002E-1,9.9366E-1,5.75E-1,9.9024E-1,2.85E-1,2.45E1,3.125E0,-1.02272734E-1,-2.3181818E-1,-1.3695653E-1,-2.8481012E-2,-1.875E-1,6.896552E-2,-2.378049E-2,-2.2500001E-1,-6.0000002E-2,7.5E-2,2.6153848E-1,1.875E-2,-1.6000001E-1,-5.7692314E-3,-0E0,-2.6250002E-1,-4.2857148E-2,-1.9054054E-1,-2.3076925E-2,-1.9655173E-1,-2.344538E-1,-1.3846155E-1,-1.2452831E-1,-2.0555557E-1,-1.5E-1,2.1428574E-2,-7.173914E-2,5.09434E-2,-1.14E-1,-2.0000002E-1,-1.8E-1,-0E0,1.5E-1,-8.1818186E-2,-2.0000002E-1,1.5E-1,-2.8125E-1,-0E0,-0E0,1.5E-1,-0E0,-1.5E-1,2.4705885E-2,-1.2857144E-1,6.1904766E-2,1.4470589E-1,-9E-2,-0E0,-0E0,1.20000005E-1,1.1443299E-1,1.8953489E-1,-1.3043479E-2,1.1923078E-1],"split_indices":[10,1,5,3,10,10,10,10,1,1,5,1,4,3,8,5,4,4,3,3,7,9,6,4,10,0,2,4,8,9,4,7,10,5,3,9,8,9,0,8,3,10,0,4,3,8,4,1,0,8,4,0,0,0,0,7,9,7,1,5,8,0,0,0,0,0,0,0,0,0,0,0,0,0,0,0,0,0,0,0,0,0,0,0,0,0,0,0,0,0,0,0,0,0,0,0,0,0,0,0,0,0,0,0,0,0,0,0,0,0,0,0,0,0,0],"split_type":[0,0,0,0,0,0,0,0,0,0,0,0,0,0,0,0,0,0,0,0,0,0,0,0,0,0,0,0,0,0,0,0,0,0,0,0,0,0,0,0,0,0,0,0,0,0,0,0,0,0,0,0,0,0,0,0,0,0,0,0,0,0,0,0,0,0,0,0,0,0,0,0,0,0,0,0,0,0,0,0,0,0,0,0,0,0,0,0,0,0,0,0,0,0,0,0,0,0,0,0,0,0,0,0,0,0,0,0,0,0,0,0,0,0,0],"sum_hessian":[2.94E3,1.888E3,1.052E3,7.12E2,1.176E3,5.5E1,9.97E2,5.29E2,1.83E2,7.4E2,4.36E2,4.2E1,1.3E1,5.15E2,4.82E2,2.66E2,2.63E2,1.09E2,7.4E1,3.55E2,3.85E2,1.75E2,2.61E2,2.3E1,1.9E1,3E0,1E1,1.3E1,5.02E2,3E1,4.52E2,6.4E1,2.02E2,9.3E1,1.7E2,5.6E1,5.3E1,6.5E1,9E0,2.34E2,1.21E2,3.81E2,4E0,1.59E2,1.6E1,1.89E2,7.2E1,1E1,1.3E1,3E0,1.6E1,2E0,8E0,6E0,7E0,1.04E2,3.98E2,2.1E1,9E0,3.53E2,9.9E1,4.3E1,2.1E1,4.5E1,1.57E2,7E0,8.6E1,1.63E2,7E0,2.9E1,2.7E1,3.8E1,1.5E1,1.4E1,5.1E1,2E0,7E0,1.3E1,2.21E2,6.4E1,5.7E1,3.56E2,2.5E1,5.2E1,1.07E2,3E0,1.3E1,1.37E2,5.2E1,4.9E1,2.3E1,9E0,1E0,3E0,1E1,2E0,1E0,1.5E1,1E0,7E0,1E0,5E0,1E0,8.4E1,2E1,3.14E2,8.4E1,9E0,1.2E1,5E0,4E0,9.6E1,2.57E2,2.2E1,7.7E1],"tree_param":{"num_deleted":"0","num_feature":"11","num_nodes":"115","size_leaf_vector":"0"}},{"base_weights":[-5.882353E-2,3.2483757E-2,-2.5292242E-1,1.2725903E-1,-1.5430267E-1,-4.3362832E-1,2.1212122E-1,2.6928473E-1,-3.733766E-2,-2.2071308E-1,3.0232558E-1,-5.75E-1,-2.7272728E-1,-2.5641027E-1,4.064171E-1,-4.8214287E-1,3.3282673E-1,-8.445946E-3,-7.2E-1,-2.920168E-1,7.8947365E-2,1.4516129E-1,6.8E-1,-4.1304347E-1,-6.7264575E-1,-3.7010676E-1,4.3589744E-1,3.181818E-1,-4.7368422E-1,4.6551725E-1,-3.5714287E-1,-5.8E-1,2.857143E-1,3.6220473E-1,-4.5833334E-1,-3.3707866E-1,4.9603175E-2,2.5E-1,-8.636364E-1,-2.2650602E-1,-7.258065E-1,-2.5757575E-1,5.3061223E-1,-0E0,6.4285713E-1,-3.3333334E-1,7.826087E-1,-6.3461536E-1,-2.7586207E-1,6.666667E-1,-6.877828E-1,-7.457627E-1,-2.690583E-1,5.555556E-1,-7.5E-1,8.181818E-1,-1.6666667E-1,-5.263158E-2,-6.666667E-1,2.4657534E-1,6.1764705E-1,-6.666667E-1,1.6666667E-1,-9.5652175E-1,-2.5E-1,8E-1,-6.666667E-1,3.8325283E-1,-5.3333336E-1,1.8181819E-1,-9.285714E-1,6.666667E-1,-4.4444445E-1,-4.0384614E-1,1.0154525E-1,-5E-1,6.666667E-1,5E-1,-9.5238096E-1,-2.762431E-1,1.1111111E-1,-9.25E-1,-3.478261E-1,-3.8333333E-1,8.5714287E-1,9.4736844E-1,2.580645E-1,4.7619048E-1,-3.448276E-1,9.0909094E-1,-2.5E-1,-5E-1,-0E0,8.636364E-1,-5E-1,-7.173913E-1,-0E0,7.5E-1,-3.2142857E-1,-7.5956285E-1,-3.3333334E-1,2.5E-1,-8.035714E-1,-6.5789473E-1,-1.8817204E-1,6.4705884E-1,-6.666667E-1,9E-1,-0E0,-8E-1,2.5E-1,6.666667E-1,-3.5714287E-1,-7.5E-1,2.5E-1,4.7916666E-1,-1.923077E-1,-4.2857143E-1,6.875E-1,5E-1,-8.75E-1,7.5E-1,-6.666667E-1],"categories":[],"categories_nodes":[],"categories_segments":[],"categories_sizes":[],"default_left":[1,1,1,1,1,1,1,1,1,1,1,1,1,1,1,1,1,1,1,1,1,1,1,1,1,1,1,1,1,1,1,1,1,1,1,1,1,1,1,1,1,1,1,1,1,1,1,1,1,0,1,1,1,1,0,1,1,1,1,1,1,1,1,0,0,0,0,0,0,0,0,0,0,0,0,0,0,0,0,0,0,0,0,0,0,0,0,0,0,0,0,0,0,0,0,0,0,0,0,0,0,0,0,0,0,0,0,0,0,0,0,0,0,0,0,0,0,0,0,0,0,0,0],"id":1,"left_children":[1,3,5,7,9,11,13,15,17,19,21,23,25,27,29,31,33,35,37,39,41,43,45,47,49,51,53,55,57,59,61,63,65,67,69,71,73,75,77,79,81,83,85,87,89,91,93,95,97,-1,99,101,103,105,-1,107,109,111,113,115,117,119,121,-1,-1,-1,-1,-1,-1,-1,-1,-1,-1,-1,-1,-1,-1,-1,-1,-1,-1,-1,-1,-1,-1,-1,-1,-1,-1,-1,-1,-1,-1,-1,-1,-1,-1,-1,-1,-1,-1,-1,-1,-1,-1,-1,-1,-1,-1,-1,-1,-1,-1,-1,-1,-1,-1,-1,-1,-1,-1,-1,-1],"loss_changes":[5.213051E1,3.544281E1,7.916997E1,3.1054651E1,2.0505688E1,1.5265549E1,2.413712E1,3.4204258E1,1.2143463E1,1.2608162E1,5.005987E0,5.4153366E0,2.2174088E1,9.888541E0,8.60491E0,4.3735704E0,1.5459686E1,1.131021E1,3.69909E0,1.3362522E1,1.746418E1,4.4792624E0,2.8602896E0,4.01952E0,4.9794617E0,1.0465954E1,5.9508543E0,5.469697E0,4.596492E0,5.643223E0,2.3809524E0,5.9734783E0,3.9619048E0,1.2173759E1,7.393398E0,9.88764E0,1.1911772E1,1.5833334E0,3.1385288E0,6.9994087E0,4.3463173E0,9.580736E0,5.321229E0,8.21018E0,3.5551949E0,1.6666666E-1,2.822133E0,2.7316055E0,4.307882E0,0E0,5.369583E0,3.5971527E0,6.8898926E0,4.4575167E0,0E0,7.363639E-1,3.3666668E0,4.3997498E0,3.166666E0,7.544015E0,7.748947E0,2.625E0,3.4166667E0,0E0,0E0,0E0,0E0,0E0,0E0,0E0,0E0,0E0,0E0,0E0,0E0,0E0,0E0,0E0,0E0,0E0,0E0,0E0,0E0,0E0,0E0,0E0,0E0,0E0,0E0,0E0,0E0,0E0,0E0,0E0,0E0,0E0,0E0,0E0,0E0,0E0,0E0,0E0,0E0,0E0,0E0,0E0,0E0,0E0,0E0,0E0,0E0,0E0,0E0,0E0,0E0,0E0,0E0,0E0,0E0,0E0,0E0,0E0,0E0],"parents":[2147483647,0,0,1,1,2,2,3,3,4,4,5,5,6,6,7,7,8,8,9,9,10,10,11,11,12,12,13,13,14,14,15,15,16,16,17,17,18,18,19,19,20,20,21,21,22,22,23,23,24,24,25,25,26,26,27,27,28,28,29,29,30,30,31,31,32,32,33,33,34,34,35,35,36,36,37,37,38,38,39,39,40,40,41,41,42,42,43,43,44,44,45,45,46,46,47,47,48,48,50,50,51,51,52,52,53,53,55,55,56,56,57,57,58,58,59,59,60,60,61,61,62,62],"right_children":[2,4,6,8,10,12,14,16,18,20,22,24,26,28,30,32,34,36,38,40,42,44,46,48,50,52,54,56,58,60,62,64,66,68,70,72,74,76,78,80,82,84,86,88,90,92,94,96,98,-1,100,102,104,106,-1,108,110,112,114,116,118,120,122,-1,-1,-1,-1,-1,-1,-1,-1,-1,-1,-1,-1,-1,-1,-1,-1,-1,-1,-1,-1,-1,-1,-1,-1,-1,-1,-1,-1,-1,-1,-1,-1,-1,-1,-1,-1,-1,-1,-1,-1,-1,-1,-1,-1,-1,-1,-1,-1,-1,-1,-1,-1,-1,-1,-1,-1,-1,-1,-1,-1],"split_conditions":[3.075E-1,1.085E1,1.175E1,2.375E-1,1.255E1,9.75E0,2.15E1,3.35E-2,1.7825E1,5.85E-1,2.85E-1,6.6499996E0,1.075E1,9.89585E-1,1.57E2,6.65E-1,6.6499996E-1,2.35E-1,6.25E0,1.545E2,3.225E0,1.245E2,1.95E1,5.2E0,9.92985E-1,1.45E1,4.4E-1,3.75E-1,4.2000002E-1,3.15E0,9.9277496E-1,1.45E0,1.85E-1,9.1E0,8.85E0,3.5499997E-2,1.75E1,6.05E0,3.9499998E-2,9.93165E-1,3.5000002E-1,6.25E1,1.95E-1,9.95E1,5.65E0,6.55E0,7.55E0,3.3649998E0,5.7E0,2.0000002E-1,5.75E-1,5.1E0,5.95E0,3.45E0,-2.2500001E-1,4.1500002E-1,3.9999998E-1,9.9059E-1,7.75E-1,3.15E-1,8.75E1,5.9E0,1.0225E1,-2.8695655E-1,-7.5E-2,2.4000001E-1,-2.0000002E-1,1.14975855E-1,-1.6000001E-1,5.454546E-2,-2.7857143E-1,2.0000002E-1,-1.3333334E-1,-1.2115385E-1,3.0463576E-2,-1.5E-1,2.0000002E-1,1.5E-1,-2.857143E-1,-8.287293E-2,3.3333335E-2,-2.775E-1,-1.0434783E-1,-1.15E-1,2.5714287E-1,2.8421053E-1,7.7419356E-2,1.4285715E-1,-1.0344828E-1,2.7272728E-1,-7.5E-2,-1.5E-1,-0E0,2.5909093E-1,-1.5E-1,-2.152174E-1,-0E0,2.2500001E-1,-9.642857E-2,-2.2786887E-1,-1.0000001E-1,7.5E-2,-2.4107143E-1,-1.9736843E-1,-5.6451615E-2,1.9411767E-1,-2.0000002E-1,2.7E-1,-0E0,-2.4000001E-1,7.5E-2,2.0000002E-1,-1.07142866E-1,-2.2500001E-1,7.5E-2,1.4375E-1,-5.769231E-2,-1.2857144E-1,2.0625001E-1,1.5E-1,-2.6250002E-1,2.2500001E-1,-2.0000002E-1],"split_indices":[1,10,10,1,10,10,5,4,3,9,1,0,3,7,6,9,2,2,0,6,8,6,5,3,7,5,2,1,9,3,7,3,1,0,3,4,5,0,4,7,2,5,1,6,3,0,0,8,3,0,9,0,0,8,0,2,1,7,9,2,6,0,3,0,0,0,0,0,0,0,0,0,0,0,0,0,0,0,0,0,0,0,0,0,0,0,0,0,0,0,0,0,0,0,0,0,0,0,0,0,0,0,0,0,0,0,0,0,0,0,0,0,0,0,0,0,0,0,0,0,0,0,0],"split_type":[0,0,0,0,0,0,0,0,0,0,0,0,0,0,0,0,0,0,0,0,0,0,0,0,0,0,0,0,0,0,0,0,0,0,0,0,0,0,0,0,0,0,0,0,0,0,0,0,0,0,0,0,0,0,0,0,0,0,0,0,0,0,0,0,0,0,0,0,0,0,0,0,0,0,0,0,0,0,0,0,0,0,0,0,0,0,0,0,0,0,0,0,0,0,0,0,0,0,0,0,0,0,0,0,0,0,0,0,0,0,0,0,0,0,0,0,0,0,0,0,0,0,0],"sum_hessian":[2.94E3,2E3,9.4E2,1.327E3,6.73E2,6.77E2,2.63E2,7.12E2,6.15E2,5.88E2,8.5E1,3.59E2,3.18E2,7.7E1,1.86E2,5.5E1,6.57E2,5.91E2,2.4E1,4.75E2,1.13E2,6.1E1,2.4E1,1.37E2,2.22E2,2.8E2,3.8E1,2.1E1,5.6E1,1.73E2,1.3E1,4.9E1,6E0,6.34E2,2.3E1,8.8E1,5.03E2,3E0,2.1E1,4.14E2,6.1E1,6.5E1,4.8E1,4.8E1,1.3E1,2E0,2.2E1,5.1E1,8.6E1,2E0,2.2E2,5.8E1,2.22E2,3.5E1,3E0,1E1,1.1E1,1.8E1,3.8E1,7.2E1,1.01E2,8E0,5E0,2.2E1,2.7E1,4E0,2E0,6.2E2,1.4E1,1E1,1.3E1,8E0,8E1,5.1E1,4.52E2,1E0,2E0,1E0,2E1,3.61E2,5.3E1,3.9E1,2.2E1,5.9E1,6E0,1.8E1,3E1,2E1,2.8E1,1E1,3E0,1E0,1E0,2.1E1,1E0,4.5E1,6E0,3E0,8.3E1,1.82E2,3.8E1,3E0,5.5E1,3.7E1,1.85E2,3.3E1,2E0,9E0,1E0,4E0,7E0,5E0,1.3E1,3.5E1,3E0,4.7E1,2.5E1,6E0,9.5E1,1E0,7E0,3E0,2E0],"tree_param":{"num_deleted":"0","num_feature":"11","num_nodes":"123","size_leaf_vector":"0"}},{"base_weights":[-9.452567E-2,-3.6821705E-1,3.40669E-1,-4.4147682E-1,-1.928839E-1,-3.3870968E-1,3.7953487E-1,-6.552632E-1,-3.5011184E-1,-4.3032786E-1,6.8728523E-3,-1.632653E-1,-9.285714E-1,4.2691904E-1,1.6E-2,-7.626459E-1,-4.2741936E-1,-1.4070351E-1,-4.0948275E-1,5.106383E-1,-6.515151E-1,-3.4210527E-1,2.3033708E-1,-2.7272728E-1,6.666667E-1,3.0196938E-1,5.4141414E-1,4.5238096E-1,-2.0238096E-1,-9.230769E-1,-6.706587E-1,-7.8571427E-1,-2.4096386E-1,7.692308E-1,-3.6024845E-1,-4.400607E-1,1.3157895E-1,-6.666667E-1,5.777778E-1,-7.202381E-1,-2.580645E-1,-8.695652E-1,-2.0652173E-1,3.6805555E-1,-3.4285715E-1,-4.5454547E-1,2.5E-1,8E-1,-0E0,3.3409092E-1,-5E-1,5.617284E-1,-5E-1,5.641026E-1,-7.5E-1,4.375E-1,-3.478261E-1,5E-1,-9.444444E-1,-7.151899E-1,1E-1,2.857143E-1,-9.722222E-1,-6.25E-1,1.1363637E-1,-0E0,9.677419E-1,-4.7482014E-1,3.478261E-1,-2.7238807E-1,-5.535714E-1,5E-1,-6.1538464E-1,7.8125E-1,7.1428575E-2,-8.114754E-1,-4.680851E-1,4.5454547E-2,-9E-1,-9.5454544E-1,5E-1,-5.3061223E-1,1.590909E-1,-8.888889E-1,4.4852942E-1,-6.25E-1,2.5E-1,1.6666667E-1,-5.714286E-1,8.5714287E-1,-5E-1,4.319728E-1,1.3605443E-1,-9.285714E-1,8E-1,2.9885057E-1,6.175E-1,2.5E-1,-8.5714287E-1,7.352941E-1,-5E-1,-0E0,8.75E-1,-4.8333332E-1,5E-1],"categories":[],"categories_nodes":[],"categories_segments":[],"categories_sizes":[],"default_left":[1,1,1,1,1,1,1,1,1,1,1,1,0,1,1,1,1,1,1,1,1,1,1,1,1,1,1,1,1,1,1,1,1,1,1,1,1,0,1,1,1,1,1,1,1,1,1,0,0,1,1,1,1,1,0,1,1,0,0,0,0,0,0,0,0,0,0,0,0,0,0,0,0,0,0,0,0,0,0,0,0,0,0,0,0,0,0,0,0,0,0,0,0,0,0,0,0,0,0,0,0,0,0,0,0],"id":2,"left_children":[1,3,5,7,9,11,13,15,17,19,21,23,-1,25,27,29,31,33,35,37,39,41,43,45,47,49,51,53,55,57,59,61,63,65,67,69,71,-1,73,75,77,79,81,83,85,87,89,-1,-1,91,93,95,97,99,-1,101,103,-1,-1,-1,-1,-1,-1,-1,-1,-1,-1,-1,-1,-1,-1,-1,-1,-1,-1,-1,-1,-1,-1,-1,-1,-1,-1,-1,-1,-1,-1,-1,-1,-1,-1,-1,-1,-1,-1,-1,-1,-1,-1,-1,-1,-1,-1,-1,-1],"loss_changes":[3.504251E2,2.3112686E1,3.0124222E1,2.4635574E1,2.533113E1,6.264648E0,1.8510895E1,8.971298E0,1.1057266E1,5.111635E1,2.2772179E1,4.6332717E0,0E0,1.344162E1,1.2003715E1,3.1736298E0,8.094624E0,4.0031635E1,1.1572914E1,4.100237E0,5.1678696E0,7.973111E0,1.4177411E1,4.295455E0,5.333333E-1,1.193959E1,1.0752869E1,6.0650187E0,7.9698496E0,3.2393188E0,5.802681E0,8.670637E0,1.1373905E1,5.9553356E0,1.322633E1,1.2391724E1,1.0765182E1,0E0,4.580456E0,3.4851303E0,6.0809393E0,3.15415E0,1.09856415E1,1.496446E1,6.010714E0,2.4913425E0,5.892857E0,0E0,0E0,8.470272E0,1.0771428E1,6.9407654E0,2.892857E0,7.4720964E0,0E0,3.0625E0,8.16884E0,0E0,0E0,0E0,0E0,0E0,0E0,0E0,0E0,0E0,0E0,0E0,0E0,0E0,0E0,0E0,0E0,0E0,0E0,0E0,0E0,0E0,0E0,0E0,0E0,0E0,0E0,0E0,0E0,0E0,0E0,0E0,0E0,0E0,0E0,0E0,0E0,0E0,0E0,0E0,0E0,0E0,0E0,0E0,0E0,0E0,0E0,0E0,0E0],"parents":[2147483647,0,0,1,1,2,2,3,3,4,4,5,5,6,6,7,7,8,8,9,9,10,10,11,11,13,13,14,14,15,15,16,16,17,17,18,18,19,19,20,20,21,21,22,22,23,23,24,24,25,25,26,26,27,27,28,28,29,29,30,30,31,31,32,32,33,33,34,34,35,35,36,36,38,38,39,39,40,40,41,41,42,42,43,43,44,44,45,45,46,46,49,49,50,50,51,51,52,52,53,53,55,55,56,56],"right_children":[2,4,6,8,10,12,14,16,18,20,22,24,-1,26,28,30,32,34,36,38,40,42,44,46,48,50,52,54,56,58,60,62,64,66,68,70,72,-1,74,76,78,80,82,84,86,88,90,-1,-1,92,94,96,98,100,-1,102,104,-1,-1,-1,-1,-1,-1,-1,-1,-1,-1,-1,-1,-1,-1,-1,-1,-1,-1,-1,-1,-1,-1,-1,-1,-1,-1,-1,-1,-1,-1,-1,-1,-1,-1,-1,-1,-1,-1,-1,-1,-1,-1,-1,-1,-1,-1,-1,-1],"split_conditions":[1.075E1,1.005E1,1.05E1,2.65E-1,2.35E-1,4.2000002E-1,9.93635E-1,9.566668E0,3.05E-1,3.5499997E-2,2.55E1,1.275E1,-2.7857143E-1,2.25E0,2.85E-1,2.65E-1,2.65E1,3.01E0,1.17E-1,2.855E0,6.35E-1,7.75E1,9.9605E-1,4.5500003E-2,4.5E-1,9.9262E-1,8.45E0,9.958E-1,3.35E-2,3.15E-2,1.7775E1,3.7E-1,3.1750002E0,1.15E1,2.08E2,4.5500003E-2,3.175E-1,-2.0000002E-1,3.335E0,3.3249998E0,3.53E0,9E0,4.65E-1,1.5E-1,3.27E0,1.115E1,9.93365E-1,2.4000001E-1,-0E0,1.215E1,3.25E1,9.9025E-1,6.6E1,5.15E-1,-2.2500001E-1,4.7E-1,1.73E2,1.5E-1,-2.8333333E-1,-2.1455698E-1,3.0000001E-2,8.5714296E-2,-2.916667E-1,-1.875E-1,3.409091E-2,-0E0,2.9032257E-1,-1.4244604E-1,1.0434783E-1,-8.1716426E-2,-1.6607143E-1,1.5E-1,-1.846154E-1,2.3437501E-1,2.1428574E-2,-2.4344262E-1,-1.4042553E-1,1.3636365E-2,-2.7E-1,-2.8636363E-1,1.5E-1,-1.5918368E-1,4.7727276E-2,-2.6666668E-1,1.3455883E-1,-1.875E-1,7.5E-2,5.0000004E-2,-1.7142859E-1,2.5714287E-1,-1.5E-1,1.2959185E-1,4.081633E-2,-2.7857143E-1,2.4000001E-1,8.9655176E-2,1.8525001E-1,7.5E-2,-2.5714287E-1,2.2058824E-1,-1.5E-1,-0E0,2.6250002E-1,-1.45E-1,1.5E-1],"split_indices":[10,10,5,2,1,1,7,10,2,4,5,10,0,3,2,1,5,8,4,8,9,6,7,4,2,7,0,7,4,4,3,9,8,3,6,4,1,0,8,8,8,0,9,2,8,10,7,0,0,10,5,7,6,9,0,9,6,0,0,0,0,0,0,0,0,0,0,0,0,0,0,0,0,0,0,0,0,0,0,0,0,0,0,0,0,0,0,0,0,0,0,0,0,0,0,0,0,0,0,0,0,0,0,0,0],"split_type":[0,0,0,0,0,0,0,0,0,0,0,0,0,0,0,0,0,0,0,0,0,0,0,0,0,0,0,0,0,0,0,0,0,0,0,0,0,0,0,0,0,0,0,0,0,0,0,0,0,0,0,0,0,0,0,0,0,0,0,0,0,0,0,0,0,0,0,0,0,0,0,0,0,0,0,0,0,0,0,0,0,0,0,0,0,0,0,0,0,0,0,0,0,0,0,0,0,0,0,0,0,0,0,0,0],"sum_hessian":[2.94E3,1.805E3,1.135E3,1.272E3,5.33E2,6.1E1,1.074E3,3.79E2,8.93E2,2.43E2,2.9E2,4.8E1,1.3E1,9.5E2,1.24E2,2.56E2,1.23E2,1.98E2,6.95E2,4.6E1,1.97E2,1.13E2,1.77E2,4.3E1,5E0,4.56E2,4.94E2,4.1E1,8.3E1,9E1,1.66E2,4.1E1,8.2E1,3.8E1,1.6E2,6.58E2,3.7E1,2E0,4.4E1,1.67E2,3E1,2.2E1,9.1E1,1.43E2,3.4E1,3.2E1,1.1E1,4E0,1E0,4.39E2,1.7E1,4.85E2,9E0,3.8E1,3E0,1.5E1,6.8E1,1E0,8.9E1,1.57E2,9E0,6E0,3.5E1,3.9E1,4.3E1,8E0,3E1,1.38E2,2.2E1,2.67E2,3.91E2,2.5E1,1.2E1,3.1E1,1.3E1,1.21E2,4.6E1,2.1E1,9E0,2.1E1,1E0,4.8E1,4.3E1,8E0,1.35E2,2.3E1,1.1E1,5E0,2.7E1,6E0,5E0,2.93E2,1.46E2,1.3E1,4E0,8.6E1,3.99E2,3E0,6E0,3.3E1,5E0,8E0,7E0,5.9E1,9E0],"tree_param":{"num_deleted":"0","num_feature":"11","num_nodes":"105","size_leaf_vector":"0"}},{"base_weights":[-9.010541E-2,9.743041E-2,-1.7729084E-1,2.55137E-1,-1.6524217E-1,-3.1430584E-1,1.5254237E-1,-4.651163E-1,3.118081E-1,-2.8125E-1,3.59375E-1,-1.8781094E-1,-4.788961E-1,-8.737864E-2,2.805195E-1,-6.5789473E-1,8.333333E-1,4.3041238E-1,1.2903226E-2,-6.440678E-1,-1.8695652E-1,4.8214287E-1,-4.4444445E-1,-1.6216215E-1,-8.9285713E-1,-4.9344262E-1,8.5714287E-1,2.7450982E-1,-4.3809524E-1,3.9175257E-1,-6.315789E-2,-8.695652E-1,-3.125E-1,4.591029E-1,-7E-1,7.534247E-2,-9E-1,8E-1,-7.6363635E-1,-4.918033E-1,-7.647059E-2,5.660377E-1,-7.5E-1,-8.333333E-1,2.5E-1,-2.4382208E-1,1.2865497E-1,5E-1,-9.62963E-1,-7.328767E-1,-4.172043E-1,-2.580645E-1,5E-1,-7.4418604E-1,-2.2222222E-1,1.76E-1,5.508982E-1,-5.714286E-1,8E-2,-9.444444E-1,-5E-1,5.714286E-1,-9E-1,7.2527474E-1,3.7370244E-1,-8.888889E-1,5E-1,-1.9178082E-1,3.3783785E-1,-8.269231E-1,2.5E-1,8.333333E-1,-6.25E-1,-2.1238938E-1,1.8965517E-1,2.0833333E-1,8.333333E-1,6.666667E-1,-5E-1,-3.31384E-1,2.3157895E-1,2.0382166E-1,-6.666667E-1,5E-1,-7.4482757E-1,-3.4974092E-1,-7.375E-1,3.0769232E-1,-6.315789E-1,-5.555556E-1,6.40625E-1,-8.25E-1,2.5E-1,7.5E-1,-2.8333333E-1,2.857143E-1,-3.809524E-1,3.956044E-1,7.2727275E-1,6.666667E-1,-7.368421E-1,-4E-1,3.137255E-1],"categories":[],"categories_nodes":[],"categories_segments":[],"categories_sizes":[],"default_left":[1,1,1,1,1,1,1,1,1,1,1,1,1,1,1,1,0,1,1,1,1,1,1,1,1,1,0,1,1,1,1,1,1,1,1,1,0,0,1,1,1,1,0,0,1,1,1,0,0,1,1,1,1,1,1,1,1,1,1,0,0,0,0,0,0,0,0,0,0,0,0,0,0,0,0,0,0,0,0,0,0,0,0,0,0,0,0,0,0,0,0,0,0,0,0,0,0,0,0,0,0,0,0],"id":3,"left_children":[1,3,5,7,9,11,13,15,17,19,21,23,25,27,29,31,-1,33,35,37,39,41,43,45,47,49,-1,51,53,55,57,59,61,63,65,67,-1,-1,69,71,73,75,-1,-1,77,79,81,-1,-1,83,85,87,89,91,93,95,97,99,101,-1,-1,-1,-1,-1,-1,-1,-1,-1,-1,-1,-1,-1,-1,-1,-1,-1,-1,-1,-1,-1,-1,-1,-1,-1,-1,-1,-1,-1,-1,-1,-1,-1,-1,-1,-1,-1,-1,-1,-1,-1,-1,-1,-1],"loss_changes":[4.810377E1,3.873329E1,9.079367E1,2.3982487E1,2.146283E1,2.94534E1,1.8140106E1,1.1311709E1,1.9209106E1,9.732456E0,6.53001E0,1.4394407E1,1.239473E1,2.6265842E1,1.4742638E1,2.5064354E0,0E0,1.2905037E1,8.902961E0,1.0798151E1,7.7090855E0,6.213275E0,2.6388888E0,1.8483644E1,3.2156086E0,1.0829208E1,0E0,1.2378242E1,6.772682E0,9.894844E0,6.9581957E0,1.6425133E-1,8.823215E0,8.344093E0,2.711111E0,1.0302111E1,0E0,0E0,3.7349663E0,1.1287568E1,6.1894345E0,4.8938675E0,0E0,0E0,1.5833334E0,2.5344353E1,1.035855E1,0E0,0E0,2.5235672E0,9.789886E0,6.745201E0,1.1043404E1,3.661047E0,3.9555554E0,7.7470474E0,4.286396E0,4.7919793E0,8.539608E0,0E0,0E0,0E0,0E0,0E0,0E0,0E0,0E0,0E0,0E0,0E0,0E0,0E0,0E0,0E0,0E0,0E0,0E0,0E0,0E0,0E0,0E0,0E0,0E0,0E0,0E0,0E0,0E0,0E0,0E0,0E0,0E0,0E0,0E0,0E0,0E0,0E0,0E0,0E0,0E0,0E0,0E0,0E0,0E0],"parents":[2147483647,0,0,1,1,2,2,3,3,4,4,5,5,6,6,7,7,8,8,9,9,10,10,11,11,12,12,13,13,14,14,15,15,17,17,18,18,19,19,20,20,21,21,22,22,23,23,24,24,25,25,27,27,28,28,29,29,30,30,31,31,32,32,33,33,34,34,35,35,38,38,39,39,40,40,41,41,44,44,45,45,46,46,49,49,50,50,51,51,52,52,53,53,54,54,55,55,56,56,57,57,58,58],"right_children":[2,4,6,8,10,12,14,16,18,20,22,24,26,28,30,32,-1,34,36,38,40,42,44,46,48,50,-1,52,54,56,58,60,62,64,66,68,-1,-1,70,72,74,76,-1,-1,78,80,82,-1,-1,84,86,88,90,92,94,96,98,100,102,-1,-1,-1,-1,-1,-1,-1,-1,-1,-1,-1,-1,-1,-1,-1,-1,-1,-1,-1,-1,-1,-1,-1,-1,-1,-1,-1,-1,-1,-1,-1,-1,-1,-1,-1,-1,-1,-1,-1,-1,-1,-1,-1,-1],"split_conditions":[2.2749999E-1,1.075E1,1.1233334E1,3.35E-2,1.445E2,3.025E-1,2.45E1,3.435E0,3.85E-1,3.065E0,4.85E-1,1.7825E1,1.00144E0,9.90785E-1,3.65E-1,1.035E1,2.5E-1,2.3E2,1.755E1,3.25E-1,6.1499996E0,9.55E0,9.9345005E-1,9.96995E-1,3.9499998E-2,3.085E0,2.5714287E-1,2.85E-1,4.55E0,4.25E-1,1.75E0,3.1999998E-2,1.85E-1,3.065E0,1.025E1,4.4E0,-2.7E-1,2.4000001E-1,4.7500002E-1,5.3E0,1.175E2,3.9499998E-2,-2.2500001E-1,-2.5E-1,7.7000003E0,3.3249998E0,5.5E-1,1.5E-1,-2.888889E-1,2.5E-2,4.425E-1,1.5E1,1.05E0,3.375E0,3.35E-1,3.85E-2,3.55E0,8.35E1,3.15E-2,-2.8333333E-1,-1.5E-1,1.7142859E-1,-2.7E-1,2.1758243E-1,1.12110734E-1,-2.6666668E-1,1.5E-1,-5.7534248E-2,1.0135136E-1,-2.4807693E-1,7.5E-2,2.5E-1,-1.875E-1,-6.3716814E-2,5.6896552E-2,6.25E-2,2.5E-1,2.0000002E-1,-1.5E-1,-9.9415205E-2,6.9473684E-2,6.11465E-2,-2.0000002E-1,1.5E-1,-2.2344828E-1,-1.0492228E-1,-2.2125001E-1,9.23077E-2,-1.8947369E-1,-1.6666669E-1,1.921875E-1,-2.475E-1,7.5E-2,2.2500001E-1,-8.5E-2,8.5714296E-2,-1.1428572E-1,1.1868133E-1,2.1818183E-1,2.0000002E-1,-2.2105263E-1,-1.20000005E-1,9.411766E-2],"split_indices":[1,10,10,4,6,1,5,8,2,8,2,3,7,7,2,10,0,6,3,9,0,3,7,7,4,8,0,1,3,9,3,4,1,8,10,3,0,0,2,0,6,4,0,0,0,8,2,0,0,4,1,5,3,8,9,4,3,6,4,0,0,0,0,0,0,0,0,0,0,0,0,0,0,0,0,0,0,0,0,0,0,0,0,0,0,0,0,0,0,0,0,0,0,0,0,0,0,0,0,0,0,0,0],"split_type":[0,0,0,0,0,0,0,0,0,0,0,0,0,0,0,0,0,0,0,0,0,0,0,0,0,0,0,0,0,0,0,0,0,0,0,0,0,0,0,0,0,0,0,0,0,0,0,0,0,0,0,0,0,0,0,0,0,0,0,0,0,0,0,0,0,0,0,0,0,0,0,0,0,0,0,0,0,0,0,0,0,0,0,0,0,0,0,0,0,0,0,0,0,0,0,0,0,0,0,0,0,0,0],"sum_hessian":[2.94E3,9.33E2,2.007E3,5.83E2,3.5E2,1.418E3,5.89E2,4.2E1,5.41E2,2.87E2,6.3E1,8.03E2,6.15E2,2.05E2,3.84E2,3.7E1,5E0,3.87E2,1.54E2,5.8E1,2.29E2,5.5E1,8E0,7.76E2,2.7E1,6.09E2,6E0,1.01E2,1.04E2,2.9E2,9.4E1,2.2E1,1.5E1,3.78E2,9E0,1.45E2,9E0,4E0,5.4E1,6E1,1.69E2,5.2E1,3E0,5E0,3E0,6.06E2,1.7E2,1E0,2.6E1,1.45E2,4.64E2,3E1,7.1E1,4.2E1,6.2E1,1.24E2,1.66E2,2E1,7.4E1,1.7E1,5E0,6E0,9E0,9E1,2.88E2,8E0,1E0,7.2E1,7.3E1,5.1E1,3E0,5E0,5.5E1,1.12E2,5.7E1,2.3E1,2.9E1,2E0,1E0,5.12E2,9.4E1,1.56E2,1.4E1,1E0,1.44E2,3.85E2,7.9E1,1.2E1,1.8E1,8E0,6.3E1,3.9E1,3E0,3E0,5.9E1,1.04E2,2E1,9E1,7.6E1,2E0,1.8E1,2.4E1,5E1],"tree_param":{"num_deleted":"0","num_feature":"11","num_nodes":"103","size_leaf_vector":"0"}},{"base_weights":[-4.4882692E-2,-2.7337E-1,1.2941882E-1,-1.638756E-1,-4.8173517E-1,-1.1082474E-1,2.0202808E-1,-2.7586207E-1,-2.9069767E-3,-5.65097E-1,-8.974359E-2,3.8709676E-1,-1.5363128E-1,2.3159637E-1,-2.837838E-1,-7.881773E-2,-4.1237113E-1,7.8175895E-2,-6.5789473E-1,-5.826331E-1,8E-1,-4.651163E-1,3.611111E-1,6.666667E-1,-1.8181819E-1,-4.387755E-1,-4.597701E-2,1.5501906E-1,3.7352246E-1,-4.8214287E-1,3.1578946E-1,-4.680851E-1,3.821656E-2,-5.046296E-1,-1.4473684E-1,2.513089E-1,-2.0512821E-1,-8E-1,7.5E-1,-4.172662E-1,-6.849315E-1,2.5E-1,-7.1875E-1,4.848485E-1,-7.5E-1,-5E-1,7.5E-1,2.857143E-1,-8E-1,-8.4375E-1,-2.3880596E-1,-4E-1,2.764977E-2,1.11908175E-1,4.8351648E-1,2.7244583E-1,6.930693E-1,-6.904762E-1,1.3333334E-1,7.692308E-1,-5.714286E-1,8E-1,-6.0465115E-1,9.3959734E-2,-8.888889E-1,-3.364486E-1,-6.636364E-1,3.9285713E-1,-4.489796E-1,4.0268457E-1,-2.7906978E-1,-6.4285713E-1,3.9473683E-2,-9.6E-1,-3.6363637E-1,-5.970149E-1,-2.4657534E-1,6.666667E-1,-7.0046085E-1,-4E-1,6.25E-1,-4.375E-1,-9.411765E-1,-6.666667E-1,5.8064514E-1,9.285714E-1,2.857143E-1,-6.666667E-1,8E-1,-9E-1,-0E0,-7.368421E-1,-4.0816326E-2,-4.1666668E-2,-7.7272725E-1,-1.0714286E-1,2.6923078E-1,3.1690142E-1,5.9352517E-2,-2.3529412E-1,6.4E-1,2.9022083E-1,-5.714286E-1,7.2727275E-1,-6.666667E-1,-9.5238096E-1,-4.090909E-1,-8E-1,5.4545456E-1,9.166667E-1,-5E-1,-8.333333E-1,5E-1],"categories":[],"categories_nodes":[],"categories_segments":[],"categories_sizes":[],"default_left":[1,1,1,1,1,1,1,1,1,1,1,1,1,1,1,1,1,1,1,1,0,1,1,1,1,1,1,1,1,1,1,1,1,1,1,1,1,1,0,1,1,1,1,1,0,0,1,1,0,1,1,1,1,1,1,1,1,1,1,1,1,0,0,0,0,0,0,0,0,0,0,0,0,0,0,0,0,0,0,0,0,0,0,0,0,0,0,0,0,0,0,0,0,0,0,0,0,0,0,0,0,0,0,0,0,0,0,0,0,0,0,0,0],"id":4,"left_children":[1,3,5,7,9,11,13,15,17,19,21,23,25,27,29,31,33,35,37,39,-1,41,43,45,47,49,51,53,55,57,59,61,63,65,67,69,71,73,-1,75,77,79,81,83,-1,-1,85,87,-1,89,91,93,95,97,99,101,103,105,107,109,111,-1,-1,-1,-1,-1,-1,-1,-1,-1,-1,-1,-1,-1,-1,-1,-1,-1,-1,-1,-1,-1,-1,-1,-1,-1,-1,-1,-1,-1,-1,-1,-1,-1,-1,-1,-1,-1,-1,-1,-1,-1,-1,-1,-1,-1,-1,-1,-1,-1,-1,-1,-1],"loss_changes":[1.17162704E2,2.8964317E1,2.9136272E1,1.5069193E1,1.4261864E1,8.329417E0,1.8481163E1,1.3228378E1,1.8320683E1,9.107895E0,1.3368565E1,5.051808E0,1.0969351E1,1.3081894E1,8.9531355E0,9.2660885E0,7.1122017E0,1.5109683E1,8.202631E0,5.7534866E0,0E0,7.9789248E0,5.3131313E0,2.416667E0,3.407792E0,7.7347984E0,6.8141747E0,1.1091238E1,1.3473534E1,7.2726183E0,8.083284E0,8.623058E0,8.1972475E0,5.552971E0,1.2606875E1,1.5447083E1,1.2552488E1,2.0945473E0,0E0,4.1175137E0,5.0636597E0,3.175E0,1.5900726E0,4.0273695E0,0E0,0E0,1.3928566E0,3.9619048E0,0E0,1.5187492E0,6.5765266E0,5.978031E0,7.0950904E0,7.4903584E0,1.0386452E1,5.0107975E0,5.1821175E0,2.7056274E0,6.2060604E0,2.8910255E0,2.3809521E0,0E0,0E0,0E0,0E0,0E0,0E0,0E0,0E0,0E0,0E0,0E0,0E0,0E0,0E0,0E0,0E0,0E0,0E0,0E0,0E0,0E0,0E0,0E0,0E0,0E0,0E0,0E0,0E0,0E0,0E0,0E0,0E0,0E0,0E0,0E0,0E0,0E0,0E0,0E0,0E0,0E0,0E0,0E0,0E0,0E0,0E0,0E0,0E0,0E0,0E0,0E0,0E0],"parents":[2147483647,0,0,1,1,2,2,3,3,4,4,5,5,6,6,7,7,8,8,9,9,10,10,11,11,12,12,13,13,14,14,15,15,16,16,17,17,18,18,19,19,21,21,22,22,23,23,24,24,25,25,26,26,27,27,28,28,29,29,30,30,31,31,32,32,33,33,34,34,35,35,36,36,37,37,39,39,40,40,41,41,42,42,43,43,46,46,47,47,49,49,50,50,51,51,52,52,53,53,54,54,55,55,56,56,57,57,58,58,59,59,60,60],"right_children":[2,4,6,8,10,12,14,16,18,20,22,24,26,28,30,32,34,36,38,40,-1,42,44,46,48,50,52,54,56,58,60,62,64,66,68,70,72,74,-1,76,78,80,82,84,-1,-1,86,88,-1,90,92,94,96,98,100,102,104,106,108,110,112,-1,-1,-1,-1,-1,-1,-1,-1,-1,-1,-1,-1,-1,-1,-1,-1,-1,-1,-1,-1,-1,-1,-1,-1,-1,-1,-1,-1,-1,-1,-1,-1,-1,-1,-1,-1,-1,-1,-1,-1,-1,-1,-1,-1,-1,-1,-1,-1,-1,-1,-1,-1],"split_conditions":[1.005E1,3.025E-1,2.05E1,9.96995E-1,9.75E0,9.8952997E-1,9.9605E-1,4.5500003E-2,6.25E1,1.00144E0,6.55E0,3.75E-1,1.15E1,1.1716667E1,6.15E-1,2.45E-1,5.15E1,3.65E-1,2.35E2,6.6499996E0,2.4000001E-1,9.9283004E-1,7.75E0,2.95E0,6.3999996E0,1.065E1,9.9048996E-1,9.9519E-1,5.65E-1,4.75E1,9.9733996E-1,3.25E-2,1.2075E1,9.94425E-1,6.7E0,3.29E0,4.45E-1,2.55E-1,2.2500001E-1,2.65E-1,9.92985E-1,9.9227E-1,4.6499997E-2,9.94825E-1,-2.2500001E-1,-1.5E-1,1.305E1,5.2E0,-2.4000001E-1,1.33E2,3.85E-1,1.75E1,1.125E1,1.045E2,1.235E2,1.87E2,1.155E1,1.045E1,1.355E2,7.95E0,2.9500002E-1,2.4000001E-1,-1.8139535E-1,2.8187921E-2,-2.6666668E-1,-1.0093459E-1,-1.9909093E-1,1.1785714E-1,-1.3469388E-1,1.20805375E-1,-8.372094E-2,-1.9285715E-1,1.1842106E-2,-2.8800002E-1,-1.0909092E-1,-1.7910448E-1,-7.3972605E-2,2.0000002E-1,-2.1013826E-1,-1.20000005E-1,1.875E-1,-1.3125001E-1,-2.8235295E-1,-2.0000002E-1,1.7419355E-1,2.7857143E-1,8.5714296E-2,-2.0000002E-1,2.4000001E-1,-2.7E-1,-0E0,-2.2105263E-1,-1.2244898E-2,-1.2500001E-2,-2.3181818E-1,-3.214286E-2,8.076924E-2,9.507043E-2,1.7805755E-2,-7.058824E-2,1.92E-1,8.706625E-2,-1.7142859E-1,2.1818183E-1,-2.0000002E-1,-2.857143E-1,-1.22727275E-1,-2.4000001E-1,1.6363637E-1,2.75E-1,-1.5E-1,-2.5E-1,1.5E-1],"split_indices":[10,1,5,7,10,7,7,4,5,7,3,1,5,10,9,2,5,2,6,0,0,7,0,8,0,10,7,7,9,5,7,4,3,7,3,8,9,1,0,2,7,7,4,7,0,0,10,0,0,6,9,5,10,6,6,6,3,3,6,0,1,0,0,0,0,0,0,0,0,0,0,0,0,0,0,0,0,0,0,0,0,0,0,0,0,0,0,0,0,0,0,0,0,0,0,0,0,0,0,0,0,0,0,0,0,0,0,0,0,0,0,0,0],"split_type":[0,0,0,0,0,0,0,0,0,0,0,0,0,0,0,0,0,0,0,0,0,0,0,0,0,0,0,0,0,0,0,0,0,0,0,0,0,0,0,0,0,0,0,0,0,0,0,0,0,0,0,0,0,0,0,0,0,0,0,0,0,0,0,0,0,0,0,0,0,0,0,0,0,0,0,0,0,0,0,0,0,0,0,0,0,0,0,0,0,0,0,0,0,0,0,0,0,0,0,0,0,0,0,0,0,0,0,0,0,0,0,0,0],"sum_hessian":[2.94E3,1.272E3,1.668E3,8.35E2,4.37E2,3.87E2,1.281E3,4.92E2,3.43E2,3.6E2,7.7E1,3E1,3.57E2,1.208E3,7.3E1,2.02E2,2.9E2,3.06E2,3.7E1,3.56E2,4E0,4.2E1,3.5E1,2E1,1E1,9.7E1,2.6E2,7.86E2,4.22E2,5.5E1,1.8E1,4.6E1,1.56E2,2.15E2,7.5E1,1.9E2,1.16E2,3.4E1,3E0,1.38E2,2.18E2,1.1E1,3.1E1,3.2E1,3E0,1E0,1.9E1,6E0,4E0,3.1E1,6.6E1,4.4E1,2.16E2,6.96E2,9E1,3.22E2,1E2,4.1E1,1.4E1,1.2E1,6E0,4E0,4.2E1,1.48E2,8E0,1.06E2,1.09E2,2.7E1,4.8E1,1.48E2,4.2E1,4.1E1,7.5E1,2.4E1,1E1,6.6E1,7.2E1,2E0,2.16E2,4E0,7E0,1.5E1,1.6E1,2E0,3E1,1.3E1,6E0,2E0,4E0,2.9E1,2E0,1.8E1,4.8E1,2.3E1,2.1E1,1.39E2,7.7E1,1.41E2,5.55E2,1.6E1,7.4E1,3.16E2,6E0,9.8E1,2E0,2E1,2.1E1,4E0,1E1,1.1E1,1E0,5E0,1E0],"tree_param":{"num_deleted":"0","num_feature":"11","num_nodes":"113","size_leaf_vector":"0"}},{"base_weights":[-6.1883714E-2,1.3660477E-1,-1.3025594E-1,5.4385964E-2,3.8918918E-1,3.696498E-2,-1.8149254E-1,-1.2807882E-1,1.548913E-1,4.9342105E-1,-8.82353E-2,7.643312E-2,-3.8636363E-1,-1.6920269E-1,-7.878788E-1,2.3255815E-1,-2.2360249E-1,1.8550725E-1,-2.9166666E-1,-8E-2,6.015625E-1,-5.3333336E-1,2.5E-1,5.8441557E-2,9E-1,-6.666667E-1,5.5555556E-2,-1.9164456E-1,8.0882356E-2,1.6666667E-1,-9.6428573E-1,7.368421E-1,-1.6E-1,-1.8300654E-1,-8.888889E-1,9.615385E-3,2.603306E-1,-7.8571427E-1,3.6363637E-1,4.4444445E-1,-3.529412E-1,6.269841E-1,-6.666667E-1,-7.5E-1,2.5E-1,8.333333E-1,-0E0,7.743363E-2,-7.2727275E-1,-2.5E-1,-9.375E-1,6.25E-1,-3.6363637E-1,-3.9915967E-1,-1.5263572E-1,-2.3333333E-1,6.8085104E-1,7.5E-1,-6.666667E-1,9.375E-1,-2.5E-1,-5E-1,2.5E-1,8E-1,-2.147651E-1,3.409091E-1,-2.2950819E-1,-4.6153846E-1,3E-1,-9.166667E-1,-0E0,-1.6666667E-1,8.333333E-1,-6.666667E-1,8.5714287E-1,1E-1,-8.75E-1,4.347826E-1,8.448276E-1,-9.0909094E-1,5E-1,-5E-1,6.666667E-1,7.5E-1,-2.5E-1,4.255319E-2,5.6666666E-1,5E-1,-9E-1,-8.333333E-1,2.857143E-1,8.5714287E-1,-5E-1,6.666667E-1,-6.666667E-1,-7.692308E-1,-2.5862068E-1,-1.8692449E-1,4.8387095E-2,1.724138E-2,-6.666667E-1,9.117647E-1,7.1428575E-2],"categories":[],"categories_nodes":[],"categories_segments":[],"categories_sizes":[],"default_left":[1,1,1,1,1,1,1,1,1,1,1,1,1,1,1,1,1,1,1,1,1,1,1,1,0,1,1,1,1,1,0,1,1,1,0,1,1,1,1,1,1,1,0,1,1,0,1,1,1,1,0,1,1,1,1,1,1,0,0,0,0,0,0,0,0,0,0,0,0,0,0,0,0,0,0,0,0,0,0,0,0,0,0,0,0,0,0,0,0,0,0,0,0,0,0,0,0,0,0,0,0,0,0],"id":5,"left_children":[1,3,5,7,9,11,13,15,17,19,21,23,25,27,29,31,33,35,37,39,41,43,45,47,-1,49,51,53,55,57,-1,59,61,63,-1,65,67,69,71,73,75,77,-1,79,81,-1,83,85,87,89,-1,91,93,95,97,99,101,-1,-1,-1,-1,-1,-1,-1,-1,-1,-1,-1,-1,-1,-1,-1,-1,-1,-1,-1,-1,-1,-1,-1,-1,-1,-1,-1,-1,-1,-1,-1,-1,-1,-1,-1,-1,-1,-1,-1,-1,-1,-1,-1,-1,-1,-1],"loss_changes":[3.99304E1,1.5637295E1,1.8753124E1,1.0472889E1,9.249664E0,8.61744E0,1.2349461E1,7.0452213E0,5.085327E0,9.473732E0,5.2519608E0,6.9263296E0,5.4873734E0,9.236637E0,5.717533E0,8.630208E0,4.185605E0,4.5379763E0,8.055736E0,3.7354248E0,4.5447655E0,2.733333E0,2.9166665E0,6.9504366E0,0E0,2.8125E0,4.52399E0,1.2146225E1,2.5797527E1,3.4166667E0,0E0,3.9967108E0,3.6100001E0,4.9483E0,0E0,8.317137E0,7.068405E0,1.4404755E0,2.8787875E0,4.698413E0,4.1073527E0,4.908287E0,0E0,2.840909E0,1.5833334E0,0E0,3E0,7.689114E0,2.7818184E0,3.9880953E0,0E0,2.517857E0,3.878788E0,1.2179302E1,8.769823E0,9.783909E0,6.5489006E0,0E0,0E0,0E0,0E0,0E0,0E0,0E0,0E0,0E0,0E0,0E0,0E0,0E0,0E0,0E0,0E0,0E0,0E0,0E0,0E0,0E0,0E0,0E0,0E0,0E0,0E0,0E0,0E0,0E0,0E0,0E0,0E0,0E0,0E0,0E0,0E0,0E0,0E0,0E0,0E0,0E0,0E0,0E0,0E0,0E0,0E0],"parents":[2147483647,0,0,1,1,2,2,3,3,4,4,5,5,6,6,7,7,8,8,9,9,10,10,11,11,12,12,13,13,14,14,15,15,16,16,17,17,18,18,19,19,20,20,21,21,22,22,23,23,25,25,26,26,27,27,28,28,29,29,31,31,32,32,33,33,35,35,36,36,37,37,38,38,39,39,40,40,41,41,43,43,44,44,46,46,47,47,48,48,49,49,51,51,52,52,53,53,54,54,55,55,56,56],"right_children":[2,4,6,8,10,12,14,16,18,20,22,24,26,28,30,32,34,36,38,40,42,44,46,48,-1,50,52,54,56,58,-1,60,62,64,-1,66,68,70,72,74,76,78,-1,80,82,-1,84,86,88,90,-1,92,94,96,98,100,102,-1,-1,-1,-1,-1,-1,-1,-1,-1,-1,-1,-1,-1,-1,-1,-1,-1,-1,-1,-1,-1,-1,-1,-1,-1,-1,-1,-1,-1,-1,-1,-1,-1,-1,-1,-1,-1,-1,-1,-1,-1,-1,-1,-1,-1,-1],"split_conditions":[9.9180996E-1,3.295E0,2.075E-1,1.55E0,3.455E0,3.4650002E0,1.0000501E0,1.6499999E-1,7.8500004E0,8.15E1,1.475E0,7.95E-1,3.15E-1,4.35E-1,8.65E0,9.9075E-1,5.0499998E-2,3.15E-2,3.25E0,9.89775E-1,1.92E2,4.5E-2,2.15E1,7.65E-1,2.7E-1,2.95E1,4.5499998E-1,2.35E-1,9.6E0,1.99E2,-2.8928572E-1,3.21E0,1.26E2,2.9500002E-1,-2.6666668E-1,1.005E2,1.35E1,3.3E1,1.275E1,8E0,1.9E1,3.35E1,-2.0000002E-1,3.58E0,5.55E0,2.5E-1,1.85E-1,9.9865E-1,6.6000004E0,1.3499999E0,-2.8125E-1,4.85E-1,5.95E0,9.25E0,3.3249998E0,9.9485E-1,9.978E-1,2.2500001E-1,-2.0000002E-1,2.8125E-1,-7.5E-2,-1.5E-1,7.5E-2,2.4000001E-1,-6.442954E-2,1.02272734E-1,-6.885246E-2,-1.3846155E-1,9E-2,-2.75E-1,-0E0,-5.0000004E-2,2.5E-1,-2.0000002E-1,2.5714287E-1,3.0000001E-2,-2.6250002E-1,1.3043478E-1,2.5344828E-1,-2.7272728E-1,1.5E-1,-1.5E-1,2.0000002E-1,2.2500001E-1,-7.5E-2,1.2765958E-2,1.7E-1,1.5E-1,-2.7E-1,-2.5E-1,8.5714296E-2,2.5714287E-1,-1.5E-1,2.0000002E-1,-2.0000002E-1,-2.3076925E-1,-7.7586204E-2,-5.607735E-2,1.4516129E-2,5.172414E-3,-2.0000002E-1,2.735294E-1,2.1428574E-2],"split_indices":[7,8,1,3,8,8,7,1,0,6,3,9,2,1,10,7,4,4,3,7,6,4,5,9,0,5,9,2,3,6,0,8,6,9,0,6,5,5,10,5,5,5,0,8,0,0,1,7,0,3,0,2,0,10,8,7,7,0,0,0,0,0,0,0,0,0,0,0,0,0,0,0,0,0,0,0,0,0,0,0,0,0,0,0,0,0,0,0,0,0,0,0,0,0,0,0,0,0,0,0,0,0,0],"split_type":[0,0,0,0,0,0,0,0,0,0,0,0,0,0,0,0,0,0,0,0,0,0,0,0,0,0,0,0,0,0,0,0,0,0,0,0,0,0,0,0,0,0,0,0,0,0,0,0,0,0,0,0,0,0,0,0,0,0,0,0,0,0,0,0,0,0,0,0,0,0,0,0,0,0,0,0,0,0,0,0,0,0,0,0,0,0,0,0,0,0,0,0,0,0,0,0,0,0,0,0,0,0,0],"sum_hessian":[2.94E3,7.53E2,2.187E3,5.69E2,1.84E2,5.13E2,1.674E3,2.02E2,3.67E2,1.51E2,3.3E1,4.7E2,4.3E1,1.642E3,3.2E1,4.2E1,1.6E2,3.44E2,2.3E1,2.4E1,1.27E2,1.4E1,1.9E1,4.61E2,9E0,2.6E1,1.7E1,1.507E3,1.35E2,5E0,2.7E1,1.8E1,2.4E1,1.52E2,8E0,1.03E2,2.41E2,1.3E1,1E1,8E0,1.6E1,1.25E2,2E0,1.1E1,3E0,5E0,1.4E1,4.51E2,1E1,1.1E1,1.5E1,7E0,1E1,2.37E2,1.27E3,8.9E1,4.6E1,3E0,2E0,1.5E1,3E0,1.3E1,1.1E1,4E0,1.48E2,4.3E1,6E1,1.2E1,2.29E2,1.1E1,2E0,5E0,5E0,2E0,6E0,9E0,7E0,6.8E1,5.7E1,1E1,1E0,1E0,2E0,3E0,1.1E1,4.22E2,2.9E1,1E0,9E0,5E0,6E0,6E0,1E0,2E0,8E0,6.4E1,1.73E2,1.085E3,1.85E2,5.7E1,3.2E1,3.3E1,1.3E1],"tree_param":{"num_deleted":"0","num_feature":"11","num_nodes":"103","size_leaf_vector":"0"}},{"base_weights":[4.352261E-2,9.975816E-2,-2.8726708E-2,-3.979239E-2,1.7455897E-1,1.264706E-1,-8.429926E-2,1.23203285E-2,-3.152174E-1,7.9395086E-2,2.6593807E-1,-5.116279E-1,2.181208E-1,6.3829785E-3,-1.7291667E-1,-3.1325302E-1,7.901235E-2,6.666667E-1,-4.1666666E-1,5.6420233E-2,8.125E-1,3.905724E-1,1.1857708E-1,8E-1,-6.666667E-1,3.85E-1,-1.21212125E-1,-4.9382716E-2,3.4848484E-1,-2.8308824E-1,-2.8708134E-2,-3.974359E-1,8.333333E-1,1.6254418E-1,-1.1382114E-1,8.75E-1,-5E-1,4.4444445E-1,-5.131579E-1,2.8513238E-2,6.25E-1,9.3333334E-1,-5E-1,2.4561404E-1,5.826772E-1,-4.4444446E-2,3.0252102E-1,2.2222222E-1,-9.032258E-1,5.0625E-1,-9.756097E-2,-5.833333E-1,1.40625E-1,-1.07361965E-1,1.875E-1,4.8333332E-1,-8.5714287E-1,4.6153846E-1,-3.1923077E-1,4.2307693E-1,-9.2391305E-2,-2.3728813E-1,-8.5E-1,-3E-1,2.1653543E-1,-2.6373628E-1,3.030303E-1,8.5714287E-1,-6.666667E-1,-6.197183E-1,8.333333E-1,6.9716774E-2,-5.4545456E-1,8.333333E-1,-0E0,1.3076924E-1,5.952381E-1,7.763158E-1,2.8846154E-1,1.7283951E-1,-3.6363637E-1,6.034483E-1,1.6129032E-2,8.333333E-1,-7.5E-1,-9.6666664E-1,5E-1,7.195122E-1,2.78481E-1,-8.333333E-1,2.7777778E-2,6.666667E-1,-6.764706E-1,-1.25E-1,5.6E-1,1.1881188E-1,-2.079646E-1,5.970149E-2,7.8571427E-1,-7.5E-1,5.614035E-1,-2.5E-1,7E-1,-3.6956522E-1,6.451613E-2,-8E-1,6.818182E-1,-5.1136363E-2,-8.888889E-1],"categories":[],"categories_nodes":[],"categories_segments":[],"categories_sizes":[],"default_left":[1,1,1,1,1,1,1,1,1,1,1,1,1,1,1,1,1,1,1,1,1,1,1,0,1,1,1,1,1,1,1,1,0,1,1,0,0,1,1,1,1,0,0,1,1,1,1,1,1,1,1,1,1,1,1,1,0,1,1,1,1,0,0,0,0,0,0,0,0,0,0,0,0,0,0,0,0,0,0,0,0,0,0,0,0,0,0,0,0,0,0,0,0,0,0,0,0,0,0,0,0,0,0,0,0,0,0,0,0],"id":6,"left_children":[1,3,5,7,9,11,13,15,17,19,21,23,25,27,29,31,33,35,37,39,41,43,45,-1,47,49,51,53,55,57,59,61,-1,63,65,-1,-1,67,69,71,73,-1,-1,75,77,79,81,83,85,87,89,91,93,95,97,99,-1,101,103,105,107,-1,-1,-1,-1,-1,-1,-1,-1,-1,-1,-1,-1,-1,-1,-1,-1,-1,-1,-1,-1,-1,-1,-1,-1,-1,-1,-1,-1,-1,-1,-1,-1,-1,-1,-1,-1,-1,-1,-1,-1,-1,-1,-1,-1,-1,-1,-1,-1],"loss_changes":[1.1952089E1,1.7272215E1,1.1119288E1,8.300001E0,9.344467E0,1.999543E1,7.627291E0,1.0599051E1,9.442028E0,8.864093E0,1.0036751E1,9.277521E0,1.6921694E1,8.983658E0,7.61796E0,8.342601E0,6.542133E0,2.625E0,7.2076044E0,8.137999E0,3.0041666E0,8.127502E0,7.600111E0,0E0,8.401434E0,1.1751492E1,1.2061079E1,5.5825143E0,1.1144371E1,7.4675903E0,6.0522494E0,5.451521E0,0E0,7.1324167E0,7.766478E0,0E0,0E0,4.698413E0,1.1421112E1,1.1649934E1,3.125E0,0E0,0E0,6.7882414E0,7.011444E0,9.425814E0,1.0246061E1,5.972222E0,3.2430096E0,7.5715523E0,3.8042002E0,4.6421566E0,7.199375E0,7.4424105E0,6.0691633E0,6.198246E0,0E0,2.3807693E0,5.0459213E0,8.773426E0,6.0006866E0,0E0,0E0,0E0,0E0,0E0,0E0,0E0,0E0,0E0,0E0,0E0,0E0,0E0,0E0,0E0,0E0,0E0,0E0,0E0,0E0,0E0,0E0,0E0,0E0,0E0,0E0,0E0,0E0,0E0,0E0,0E0,0E0,0E0,0E0,0E0,0E0,0E0,0E0,0E0,0E0,0E0,0E0,0E0,0E0,0E0,0E0,0E0,0E0],"parents":[2147483647,0,0,1,1,2,2,3,3,4,4,5,5,6,6,7,7,8,8,9,9,10,10,11,11,12,12,13,13,14,14,15,15,16,16,17,17,18,18,19,19,20,20,21,21,22,22,24,24,25,25,26,26,27,27,28,28,29,29,30,30,31,31,33,33,34,34,37,37,38,38,39,39,40,40,43,43,44,44,45,45,46,46,47,47,48,48,49,49,50,50,51,51,52,52,53,53,54,54,55,55,57,57,58,58,59,59,60,60],"right_children":[2,4,6,8,10,12,14,16,18,20,22,24,26,28,30,32,34,36,38,40,42,44,46,-1,48,50,52,54,56,58,60,62,-1,64,66,-1,-1,68,70,72,74,-1,-1,76,78,80,82,84,86,88,90,92,94,96,98,100,-1,102,104,106,108,-1,-1,-1,-1,-1,-1,-1,-1,-1,-1,-1,-1,-1,-1,-1,-1,-1,-1,-1,-1,-1,-1,-1,-1,-1,-1,-1,-1,-1,-1,-1,-1,-1,-1,-1,-1,-1,-1,-1,-1,-1,-1,-1,-1,-1,-1,-1,-1],"split_conditions":[1.425E2,2.25E1,3.0949998E0,1.2225E1,4.5499998E-1,1.85E-1,1.725E2,3.65E-1,3.25E-1,1.415E2,6.75E0,1.85E1,9.65E0,6.35E-1,9.9611497E-1,3.31E0,4.6499997E-2,7.6000004E0,2.35E-1,5.3499997E-1,4.1750002E-1,9.92385E-1,3.25E1,2.4000001E-1,9.931E-1,6.125E1,3.0349998E0,5.45E-2,8.05E0,3.45E-1,9.9651E-1,4.5499998E-1,2.5E-1,8.5E0,3.25E-1,2.6250002E-1,-1.5E-1,1.65E1,2.15E1,5.85E-2,4.0249996E0,2.8E-1,-1.5E-1,1.255E1,9.9544E-1,5.45E-1,2.35E0,1.59E2,9.05E1,3.9499998E-1,3.5000002E-1,6.65E0,4.65E1,3.165E0,3.65E-1,1.4500001E-1,-2.5714287E-1,2.65E-1,3.3249998E0,6.1E0,5.55E-1,-7.1186446E-2,-2.5500003E-1,-9E-2,6.4960636E-2,-7.912089E-2,9.090909E-2,2.5714287E-1,-2.0000002E-1,-1.859155E-1,2.5E-1,2.0915033E-2,-1.6363637E-1,2.5E-1,-0E0,3.923077E-2,1.7857143E-1,2.3289475E-1,8.6538464E-2,5.1851854E-2,-1.0909092E-1,1.8103449E-1,4.8387097E-3,2.5E-1,-2.2500001E-1,-2.9E-1,1.5E-1,2.1585368E-1,8.354431E-2,-2.5E-1,8.333334E-3,2.0000002E-1,-2.0294118E-1,-3.75E-2,1.6800001E-1,3.5643566E-2,-6.238938E-2,1.7910449E-2,2.3571429E-1,-2.2500001E-1,1.6842106E-1,-7.5E-2,2.1000001E-1,-1.1086957E-1,1.9354839E-2,-2.4000001E-1,2.0454547E-1,-1.5340909E-2,-2.6666668E-1],"split_indices":[6,5,8,10,9,1,6,9,9,6,0,5,10,9,7,8,4,0,1,2,1,7,5,0,7,5,8,4,0,9,7,2,0,5,1,0,0,5,5,4,3,0,0,10,7,9,3,6,5,2,9,0,5,8,1,1,0,1,8,0,1,0,0,0,0,0,0,0,0,0,0,0,0,0,0,0,0,0,0,0,0,0,0,0,0,0,0,0,0,0,0,0,0,0,0,0,0,0,0,0,0,0,0,0,0,0,0,0,0],"split_type":[0,0,0,0,0,0,0,0,0,0,0,0,0,0,0,0,0,0,0,0,0,0,0,0,0,0,0,0,0,0,0,0,0,0,0,0,0,0,0,0,0,0,0,0,0,0,0,0,0,0,0,0,0,0,0,0,0,0,0,0,0,0,0,0,0,0,0,0,0,0,0,0,0,0,0,0,0,0,0,0,0,0,0,0,0,0,0,0,0,0,0,0,0,0,0,0,0,0,0,0,0,0,0,0,0,0,0,0,0],"sum_hessian":[2.94E3,1.653E3,1.287E3,5.77E2,1.076E3,3.39E2,9.48E2,4.86E2,9.1E1,5.28E2,5.48E2,4.2E1,2.97E2,4.69E2,4.79E2,8.2E1,4.04E2,8E0,8.3E1,5.13E2,1.5E1,2.96E2,2.52E2,4E0,3.8E1,1.99E2,9.8E1,4.04E2,6.5E1,2.71E2,2.08E2,7.7E1,5E0,2.82E2,1.22E2,7E0,1E0,8E0,7.5E1,4.9E2,2.3E1,1.4E1,1E0,1.7E2,1.26E2,1.34E2,1.18E2,8E0,3E1,1.59E2,4E1,3.5E1,6.3E1,3.25E2,7.9E1,5.9E1,6E0,1.2E1,2.59E2,2.5E1,1.83E2,5.8E1,1.9E1,2.9E1,2.53E2,9E1,3.2E1,6E0,2E0,7E1,5E0,4.58E2,3.2E1,1.7E1,6E0,1.29E2,4.1E1,7.5E1,5.1E1,8E1,5.4E1,5.7E1,6.1E1,5E0,3E0,2.9E1,1E0,8.1E1,7.8E1,5E0,3.5E1,2E0,3.3E1,3.9E1,2.4E1,1E2,2.25E2,6.6E1,1.3E1,3E0,5.6E1,3E0,9E0,2.29E2,3E1,4E0,2.1E1,1.75E2,8E0],"tree_param":{"num_deleted":"0","num_feature":"11","num_nodes":"109","size_leaf_vector":"0"}},{"base_weights":[-3.400204E-3,3.4129692E-4,-9.166667E-1,5.1617343E-3,-5.6E-1,-2.6262626E-1,1.4601139E-2,6.666667E-1,-6.956522E-1,5.714286E-1,-3.2258064E-1,9.024134E-2,-2.424569E-2,-7.7272725E-1,5E-1,8.333333E-1,-5E-1,-2.4096386E-1,-9.0909094E-1,-1.2068965E-1,1.371795E-1,-5.9892327E-2,1.1859838E-1,-9.411765E-1,-1.6666667E-1,-3.0379745E-1,8E-1,-2.4305555E-1,4.516129E-1,-6.4285713E-1,1.5123859E-1,-7.271468E-2,3.7209302E-1,4.827586E-1,7.017544E-3,6.666667E-1,-7.5E-1],"categories":[],"categories_nodes":[],"categories_segments":[],"categories_sizes":[],"default_left":[1,1,0,1,1,1,1,0,1,1,1,1,1,1,0,0,0,1,0,1,1,1,1,0,1,0,0,0,0,0,0,0,0,0,0,0,0],"id":7,"left_children":[1,3,-1,5,7,9,11,-1,13,15,17,19,21,23,-1,-1,-1,25,-1,27,29,31,33,-1,35,-1,-1,-1,-1,-1,-1,-1,-1,-1,-1,-1,-1],"loss_changes":[1.0049672E1,7.9170847E0,0E0,7.3495035E0,4.623768E0,5.134851E0,8.253164E0,0E0,2.505929E0,2.3809521E0,4.232767E0,9.451933E0,9.45769E0,2.0891266E0,0E0,0E0,0E0,5.671862E0,0E0,1.2295042E1,8.651186E0,8.258112E0,1.5071568E1,0E0,3.4166667E0,0E0,0E0,0E0,0E0,0E0,0E0,0E0,0E0,0E0,0E0,0E0,0E0],"parents":[2147483647,0,0,1,1,3,3,4,4,5,5,6,6,8,8,9,9,10,10,11,11,12,12,13,13,17,17,19,19,20,20,21,21,22,22,24,24],"right_children":[2,4,-1,6,8,10,12,-1,14,16,18,20,22,24,-1,-1,-1,26,-1,28,30,32,34,-1,36,-1,-1,-1,-1,-1,-1,-1,-1,-1,-1,-1,-1],"split_conditions":[7.6E-1,3.625E0,-2.75E-1,1.075E0,1.25E0,5.25E0,3.85E-2,2.0000002E-1,1.21E1,5.3500004E-2,4.95E1,1.035E1,9.97755E-1,1.68E2,1.5E-1,2.5E-1,-1.5E-1,9.9347997E-1,-2.7272728E-1,4.45E-1,5.4E1,7.25E1,3.005E0,-2.8235295E-1,5.0499998E-2,-9.113924E-2,2.4000001E-1,-7.291667E-2,1.3548388E-1,-1.9285715E-1,4.5371577E-2,-2.1814404E-2,1.11627914E-1,1.4482759E-1,2.1052633E-3,2.0000002E-1,-2.2500001E-1],"split_indices":[2,8,0,3,3,0,4,0,10,4,5,10,7,6,0,0,0,7,0,2,6,5,8,0,4,0,0,0,0,0,0,0,0,0,0,0,0],"split_type":[0,0,0,0,0,0,0,0,0,0,0,0,0,0,0,0,0,0,0,0,0,0,0,0,0,0,0,0,0,0,0,0,0,0,0,0,0],"sum_hessian":[2.94E3,2.929E3,1.1E1,2.905E3,2.4E1,9.8E1,2.807E3,2E0,2.2E1,6E0,9.2E1,9.52E2,1.855E3,2.1E1,1E0,5E0,1E0,8.2E1,1E1,1.73E2,7.79E2,1.485E3,3.7E2,1.6E1,5E0,7.8E1,4E0,1.43E2,3E1,1.3E1,7.66E2,1.443E3,4.2E1,8.6E1,2.84E2,2E0,3E0],"tree_param":{"num_deleted":"0","num_feature":"11","num_nodes":"37","size_leaf_vector":"0"}},{"base_weights":[-1.0200612E-2,-1.7312072E-1,1.8377947E-2,-9.585492E-2,-7.222222E-1,1.6846652E-1,-1.5678588E-2,-1.456044E-1,6.956522E-1,-0E0,-8.4782606E-1,2.0594966E-1,-4.4444445E-1,-1.4805825E-1,1.779141E-2,-7.5E-1,-9.495549E-2,-7.5E-1,9.5E-1,8E-1,-8E-1,-9.268293E-1,-1.6666667E-1,2.255814E-1,-8.75E-1,-7.368421E-1,2.2222222E-1,4.4871796E-2,-2.6459143E-1,1.438515E-1,-2.75E-2,-9.5E-1,-2.2222222E-1,4.3333334E-1,-1.4610389E-1,-9.736842E-1,-2.5E-1,6.666667E-1,-7.5E-1,6.25E-1,1.8414322E-1,5E-1,-8.333333E-1,-7.5E-1,8.333333E-1,3.5526314E-1,-2.4691358E-1,-1.2587413E-1,-4.347826E-1,2.4647888E-2,3.716216E-1,-4.021739E-1,3.606853E-3,-8E-1,4E-1,-3.75E-1,6.956522E-1,1.1235955E-1,-2.5E-1,5E-1,-6.666667E-1,-6.666667E-1,7.105263E-1,4.3243244E-2,3.0917874E-1,-9.375E-1,-0E0,1.3461539E-1,8E-1,-4.1666666E-1,2.2727273E-1,-2.6890758E-1,5.6E-1,-9.285714E-1,-3.627451E-1,-0E0,8.75E-1,5.4444444E-1,1.0169491E-1,-4.827586E-1,8.333333E-1,1.4611872E-2,-8E-1],"categories":[],"categories_nodes":[],"categories_segments":[],"categories_sizes":[],"default_left":[1,1,1,1,1,1,1,1,1,1,1,1,1,1,1,1,1,0,0,0,0,1,1,1,0,1,1,1,1,1,1,0,1,1,1,0,1,0,0,1,1,0,1,0,0,1,1,1,1,1,1,1,1,0,0,0,0,0,0,0,0,0,0,0,0,0,0,0,0,0,0,0,0,0,0,0,0,0,0,0,0,0,0],"id":8,"left_children":[1,3,5,7,9,11,13,15,17,19,21,23,25,27,29,31,33,-1,-1,-1,-1,35,37,39,-1,41,43,45,47,49,51,-1,53,55,57,-1,59,-1,-1,61,63,-1,65,-1,-1,67,69,71,73,75,77,79,81,-1,-1,-1,-1,-1,-1,-1,-1,-1,-1,-1,-1,-1,-1,-1,-1,-1,-1,-1,-1,-1,-1,-1,-1,-1,-1,-1,-1,-1,-1],"loss_changes":[1.3696543E1,1.8556124E1,1.2796718E1,1.5300836E1,4.89855E0,1.0728415E1,9.04579E0,1.1071543E1,9.169564E0,6.4E0,2.3209648E0,9.470926E0,5.4269004E0,9.274767E0,9.310343E0,2.744444E0,9.169434E0,0E0,0E0,0E0,0E0,1.0568047E0,3.4166667E0,7.001917E0,0E0,2.6842108E0,5.972222E0,1.4216274E1,6.0126457E0,1.1692931E1,1.3987362E1,0E0,3.5555556E0,6.622102E0,8.29892E0,0E0,1.5833334E0,0E0,0E0,4.892544E0,6.8750725E0,0E0,1.5625E0,0E0,0E0,7.3502035E0,6.6147594E0,1.4179308E1,3.7538662E0,5.9524646E0,6.8487587E0,9.562093E0,9.819364E0,0E0,0E0,0E0,0E0,0E0,0E0,0E0,0E0,0E0,0E0,0E0,0E0,0E0,0E0,0E0,0E0,0E0,0E0,0E0,0E0,0E0,0E0,0E0,0E0,0E0,0E0,0E0,0E0,0E0,0E0],"parents":[2147483647,0,0,1,1,2,2,3,3,4,4,5,5,6,6,7,7,8,8,9,9,10,10,11,11,12,12,13,13,14,14,15,15,16,16,21,21,22,22,23,23,25,25,26,26,27,27,28,28,29,29,30,30,32,32,33,33,34,34,36,36,39,39,40,40,42,42,45,45,46,46,47,47,48,48,49,49,50,50,51,51,52,52],"right_children":[2,4,6,8,10,12,14,16,18,20,22,24,26,28,30,32,34,-1,-1,-1,-1,36,38,40,-1,42,44,46,48,50,52,-1,54,56,58,-1,60,-1,-1,62,64,-1,66,-1,-1,68,70,72,74,76,78,80,82,-1,-1,-1,-1,-1,-1,-1,-1,-1,-1,-1,-1,-1,-1,-1,-1,-1,-1,-1,-1,-1,-1,-1,-1,-1,-1,-1,-1,-1,-1],"split_conditions":[3.0349998E0,9.9827504E-1,2.05E1,9.98035E-1,1.95E-1,5.05E-1,6.1499996E0,9.9028003E-1,5.1E-2,7.05E0,6.05E1,1.63E1,2.75E-1,5.75E0,1.225E2,1.07E2,3.25E-1,-2.2500001E-1,2.85E-1,2.4000001E-1,-2.4000001E-1,8.55E0,6.15E1,9.89995E-1,-2.6250002E-1,2E-2,2.8500001E0,2.6749998E-1,9.9303997E-1,3.245E0,2.55E1,-2.85E-1,1.55E0,9.91145E-1,2.9500002E-1,-2.9210526E-1,8.65E0,2.0000002E-1,-2.2500001E-1,5.1499996E0,1.8499999E0,1.5E-1,8.9E0,-2.2500001E-1,2.5E-1,6.35E0,4.0249997E-1,9.9222004E-1,1.135E2,5.45E-1,3.25E-1,1.3975E1,9.15E0,-2.4000001E-1,1.20000005E-1,-1.12500004E-1,2.0869567E-1,3.370787E-2,-7.5E-2,1.5E-1,-2.0000002E-1,-2.0000002E-1,2.1315789E-1,1.2972974E-2,9.275363E-2,-2.8125E-1,-0E0,4.038462E-2,2.4000001E-1,-1.25E-1,6.818182E-2,-8.067228E-2,1.6800001E-1,-2.7857143E-1,-1.0882354E-1,-0E0,2.6250002E-1,1.6333334E-1,3.0508475E-2,-1.4482759E-1,2.5E-1,4.3835617E-3,-2.4000001E-1],"split_indices":[8,7,5,7,1,1,0,7,4,0,5,3,2,0,6,6,9,0,0,0,0,0,5,7,0,2,3,1,7,8,5,0,3,7,2,0,0,0,0,0,3,0,3,0,0,3,1,7,6,2,2,3,0,0,0,0,0,0,0,0,0,0,0,0,0,0,0,0,0,0,0,0,0,0,0,0,0,0,0,0,0,0,0],"split_type":[0,0,0,0,0,0,0,0,0,0,0,0,0,0,0,0,0,0,0,0,0,0,0,0,0,0,0,0,0,0,0,0,0,0,0,0,0,0,0,0,0,0,0,0,0,0,0,0,0,0,0,0,0,0,0,0,0,0,0,0,0,0,0,0,0,0,0,0,0,0,0,0,0,0,0,0,0,0,0,0,0,0,0],"sum_hessian":[2.94E3,4.38E2,2.502E3,3.85E2,5.3E1,4.62E2,2.04E3,3.63E2,2.2E1,8E0,4.5E1,4.36E2,2.6E1,4.11E2,1.629E3,2.7E1,3.36E2,3E0,1.9E1,4E0,4E0,4E1,5E0,4.29E2,7E0,1.8E1,8E0,1.55E2,2.56E2,4.3E2,1.199E3,1.9E1,8E0,2.9E1,3.07E2,3.7E1,3E0,2E0,3E0,3.9E1,3.9E2,1E0,1.7E1,3E0,5E0,7.5E1,8E1,1.42E2,1.14E2,2.83E2,1.47E2,9.1E1,1.108E3,4E0,4E0,7E0,2.2E1,8.8E1,2.19E2,1E0,2E0,2E0,3.7E1,1.84E2,2.06E2,1.5E1,2E0,5.1E1,2.4E1,5.9E1,2.1E1,1.18E2,2.4E1,1.3E1,1.01E2,2.76E2,7E0,8.9E1,5.8E1,8.6E1,5E0,1.094E3,1.4E1],"tree_param":{"num_deleted":"0","num_feature":"11","num_nodes":"83","size_leaf_vector":"0"}},{"base_weights":[-1.3600816E-3,-6.8610637E-3,5.925926E-1,1.010274E-1,-3.38765E-2,7.2E-1,-6.666667E-1,-5.882353E-1,1.2147887E-1,-3.7914693E-2,7.5E-1,-5E-1,7.916667E-1,6.666667E-1,-8E-1,8.349901E-2,4.090909E-1,-3.2142857E-1,-2.725648E-2,9.0909094E-1,-5E-1,9.375E-1,4.4444445E-1,-9.230769E-1,-0E0,1.045082E-1,-5.625E-1,-8E-1,5E-1,-4.2666668E-1,5E-1,6.875E-1,-3.2388665E-2,-6.666667E-1,8.5714287E-1,5E-1,-5E-1,7.743363E-2,4.3243244E-1,-7.692308E-1,2.5E-1,-7.5E-1,5.762712E-1,-5.5737704E-1,1.3333334E-1,-5E-1,6.666667E-1,9.285714E-1,-6.666667E-1,-2.8481012E-2,-7.5E-1],"categories":[],"categories_nodes":[],"categories_segments":[],"categories_sizes":[],"default_left":[1,1,1,1,1,1,0,1,1,1,1,0,1,0,1,1,1,1,1,0,0,0,1,0,1,1,1,0,1,1,1,1,1,0,0,0,0,0,0,0,0,0,0,0,0,0,0,0,0,0,0],"id":9,"left_children":[1,3,5,7,9,11,-1,13,15,17,19,-1,21,-1,23,25,27,29,31,-1,-1,-1,33,-1,35,37,39,-1,41,43,45,47,49,-1,-1,-1,-1,-1,-1,-1,-1,-1,-1,-1,-1,-1,-1,-1,-1,-1,-1],"loss_changes":[9.613262E0,8.499639E0,4.8118515E0,8.303778E0,7.4102488E0,2.581667E0,0E0,5.0509806E0,6.170371E0,7.0047245E0,2.840909E0,0E0,7.986107E-1,0E0,1.476923E0,6.88546E0,7.654546E0,7.474762E0,8.231838E0,0E0,0E0,0E0,4.698413E0,0E0,1E0,4.299178E0,2.8798075E0,0E0,6.3432198E0,5.564152E0,2E0,5.8422613E0,6.2123203E0,0E0,0E0,0E0,0E0,0E0,0E0,0E0,0E0,0E0,0E0,0E0,0E0,0E0,0E0,0E0,0E0,0E0,0E0],"parents":[2147483647,0,0,1,1,2,2,3,3,4,4,5,5,7,7,8,8,9,9,10,10,12,12,14,14,15,15,16,16,17,17,18,18,22,22,24,24,25,25,26,26,28,28,29,29,30,30,31,31,32,32],"right_children":[2,4,6,8,10,12,-1,14,16,18,20,-1,22,-1,24,26,28,30,32,-1,-1,-1,34,-1,36,38,40,-1,42,44,46,48,50,-1,-1,-1,-1,-1,-1,-1,-1,-1,-1,-1,-1,-1,-1,-1,-1,-1,-1],"split_conditions":[1.00039E0,9.91395E-1,3.415E0,5.75E1,7.6E-1,1.95E-1,-2.0000002E-1,2.1499999E-2,6.35E-1,5.6499996E0,8.95E0,-1.5E-1,2.19E2,2.0000002E-1,3.85E-1,6.15E-1,5.1E0,5.85E-1,2.1499999E-2,2.7272728E-1,-1.5E-1,2.8125E-1,2.345E2,-2.769231E-1,7.05E0,5.85E-1,3.5E1,-2.4000001E-1,2.35E-2,3.475E0,4.9E0,8.875E0,2.485E2,-2.0000002E-1,2.5714287E-1,1.5E-1,-1.5E-1,2.323009E-2,1.2972973E-1,-2.3076925E-1,7.5E-2,-2.2500001E-1,1.7288136E-1,-1.6721311E-1,4.0000003E-2,-1.5E-1,2.0000002E-1,2.7857143E-1,-2.0000002E-1,-8.544304E-3,-2.2500001E-1],"split_indices":[7,7,8,6,2,1,0,4,9,0,0,0,6,0,2,9,0,9,4,0,0,0,6,0,0,9,5,0,4,8,0,3,6,0,0,0,0,0,0,0,0,0,0,0,0,0,0,0,0,0,0],"split_type":[0,0,0,0,0,0,0,0,0,0,0,0,0,0,0,0,0,0,0,0,0,0,0,0,0,0,0,0,0,0,0,0,0,0,0,0,0,0,0,0,0,0,0,0,0,0,0,0,0,0,0],"sum_hessian":[2.94E3,2.914E3,2.6E1,5.83E2,2.331E3,2.4E1,2E0,1.6E1,5.67E2,2.32E3,1.1E1,1E0,2.3E1,2E0,1.4E1,5.02E2,6.5E1,8.3E1,2.237E3,1E1,1E0,1.5E1,8E0,1.2E1,2E0,4.87E2,1.5E1,4E0,6.1E1,7.4E1,9E0,1.5E1,2.222E3,2E0,6E0,1E0,1E0,4.51E2,3.6E1,1.2E1,3E0,3E0,5.8E1,6E1,1.4E1,1E0,8E0,1.3E1,2E0,2.211E3,1.1E1],"tree_param":{"num_deleted":"0","num_feature":"11","num_nodes":"51","size_leaf_vector":"0"}},{"base_weights":[-1.0200612E-2,-3.4352457E-3,-6.451613E-1,3.448276E-4,-9.166667E-1,-7.586207E-1,6.666667E-1,-6.318006E-3,3.653846E-1,-8.214286E-1,5E-1,-1.7576665E-2,1.6477273E-1,-8.695652E-2,7E-1,-0E0,-8.8461536E-1,-3.6885245E-3,-1.6170213E-1,4.0789473E-1,-1.980198E-2,8E-1,-3.1578946E-1,8.695652E-1,1.25E-1,5E-1,-5E-1,-5.367647E-2,5.920444E-2,1.0619469E-1,-4.0650406E-1,4.861111E-1,-8E-1,6.666667E-1,-1.3793103E-1,6.666667E-1,-4.7058824E-1,9.5E-1,2.5E-1,-7.5E-1,8E-1],"categories":[],"categories_nodes":[],"categories_segments":[],"categories_sizes":[],"default_left":[1,1,1,1,0,1,0,1,1,1,0,1,1,1,1,1,0,1,1,1,1,0,1,1,1,0,0,0,0,0,0,0,0,0,0,0,0,0,0,0,0],"id":10,"left_children":[1,3,5,7,-1,9,-1,11,13,15,-1,17,19,21,23,25,-1,27,29,31,33,-1,35,37,39,-1,-1,-1,-1,-1,-1,-1,-1,-1,-1,-1,-1,-1,-1,-1,-1],"loss_changes":[1.2631559E1,1.0049326E1,5.1197634E0,7.055687E0,0E0,2.7032013E0,0E0,5.490788E0,7.9316053E0,1.4532967E0,0E0,5.3517747E0,7.9059324E0,4.920824E0,2.8163042E0,1E0,0E0,7.6742697E0,1.5454858E1,7.569153E0,8.282235E0,0E0,3.2033024E0,9.086952E-1,5.325E0,0E0,0E0,0E0,0E0,0E0,0E0,0E0,0E0,0E0,0E0,0E0,0E0,0E0,0E0,0E0,0E0],"parents":[2147483647,0,0,1,1,2,2,3,3,5,5,7,7,8,8,9,9,11,11,12,12,13,13,14,14,15,15,17,17,18,18,19,19,20,20,22,22,23,23,24,24],"right_children":[2,4,6,8,-1,10,-1,12,14,16,-1,18,20,22,24,26,-1,28,30,32,34,-1,36,38,40,-1,-1,-1,-1,-1,-1,-1,-1,-1,-1,-1,-1,-1,-1,-1,-1],"split_conditions":[1.000335E0,7.6E-1,2.405E2,7.8499997E-1,-2.75E-1,9.85E1,2.0000002E-1,2.065E2,3.185E0,4.0499997E-1,1.5E-1,9.98075E-1,3.05E-1,2.99E0,3.4250002E0,7.7E0,-2.653846E-1,4.95E0,4.75E-1,1.0975E2,6.6000004E0,2.4000001E-1,6.25E0,8.3E1,4E1,1.5E-1,-1.5E-1,-1.6102942E-2,1.7761333E-2,3.1858407E-2,-1.2195122E-1,1.4583334E-1,-2.4000001E-1,2.0000002E-1,-4.137931E-2,2.0000002E-1,-1.4117648E-1,2.85E-1,7.5E-2,-2.2500001E-1,2.4000001E-1],"split_indices":[7,2,6,9,0,5,0,6,8,9,0,7,2,8,8,0,0,3,9,5,3,0,0,5,5,0,0,0,0,0,0,0,0,0,0,0,0,0,0,0,0],"split_type":[0,0,0,0,0,0,0,0,0,0,0,0,0,0,0,0,0,0,0,0,0,0,0,0,0,0,0,0,0,0,0,0,0,0,0,0,0,0,0,0,0],"sum_hessian":[2.94E3,2.91E3,3E1,2.899E3,1.1E1,2.8E1,2E0,2.848E3,5.1E1,2.7E1,1E0,2.673E3,1.75E2,2.2E1,2.9E1,2E0,2.5E1,2.439E3,2.34E2,7.5E1,1E2,4E0,1.8E1,2.2E1,7E0,1E0,1E0,1.359E3,1.08E3,1.12E2,1.22E2,7.1E1,4E0,1.4E1,8.6E1,2E0,1.6E1,1.9E1,3E0,3E0,4E0],"tree_param":{"num_deleted":"0","num_feature":"11","num_nodes":"41","size_leaf_vector":"0"}},{"base_weights":[5.4403264E-3,3.4199728E-4,8.333333E-1,-3.523166E-2,8.675264E-2,-5E-1,9.411765E-1,-5.3423237E-2,2.0689656E-1,7.2886297E-3,4.107143E-1,-1.9489247E-2,-1.6780046E-1,2.846154E-1,-4.375E-1,4.313099E-2,-3.6065573E-1,-5E-1,4.654088E-1,-1.15961805E-2,-5.217391E-1,1.4150944E-2,-3.347826E-1,-2.0689656E-1,4.2156863E-1,-6.4285713E-1,6.666667E-1,-1.2269939E-1,1.012931E-1,3.0769232E-1,-5.3061223E-1,-8.75E-1,6.666667E-1,5.033113E-1,-2.2222222E-1,1.2145749E-1,-3.852459E-2,-9.3333334E-1,2.2222222E-1,2.7522936E-1,-2.596154E-1,-4.710145E-1,-1.2903225E-1,6.666667E-1,-5.714286E-1,-1.0526316E-1,5.3571427E-1,-7.692308E-1,5E-1,-5.4421768E-2,-7.058824E-1,4.75E-1,6.5882355E-2,-5E-1,8.75E-1,-5.9574467E-1,6.666667E-1,1.8421052E-1,6.052632E-1,4E-1,-8E-1],"categories":[],"categories_nodes":[],"categories_segments":[],"categories_sizes":[],"default_left":[1,1,1,1,1,0,0,1,1,1,1,1,1,1,1,1,1,1,1,1,1,1,1,1,1,1,0,1,1,1,1,0,0,1,1,0,0,0,0,0,0,0,0,0,0,0,0,0,0,0,0,0,0,0,0,0,0,0,0,0,0],"id":11,"left_children":[1,3,5,7,9,-1,-1,11,13,15,17,19,21,23,25,27,29,31,33,35,37,39,41,43,45,47,-1,49,51,53,55,-1,-1,57,59,-1,-1,-1,-1,-1,-1,-1,-1,-1,-1,-1,-1,-1,-1,-1,-1,-1,-1,-1,-1,-1,-1,-1,-1,-1,-1],"loss_changes":[1.2413297E1,8.991264E0,3.0588236E0,9.137579E0,2.1956034E1,0E0,0E0,7.4798284E0,7.3863726E0,9.06252E0,8.6009655E0,5.8928165E0,1.34034815E1,8.83806E0,4.0565476E0,6.050227E0,7.0922613E0,4.9583335E0,4.255848E0,5.2572455E0,7.2502418E0,1.5224044E1,6.3860683E0,9.615765E0,6.190218E0,2.4065933E0,0E0,6.451975E0,6.108929E0,6.394231E0,4.2182665E0,0E0,0E0,4.800976E0,3.5555556E0,0E0,0E0,0E0,0E0,0E0,0E0,0E0,0E0,0E0,0E0,0E0,0E0,0E0,0E0,0E0,0E0,0E0,0E0,0E0,0E0,0E0,0E0,0E0,0E0,0E0,0E0],"parents":[2147483647,0,0,1,1,2,2,3,3,4,4,7,7,8,8,9,9,10,10,11,11,12,12,13,13,14,14,15,15,16,16,17,17,18,18,19,19,20,20,21,21,22,22,23,23,24,24,25,25,27,27,28,28,29,29,30,30,33,33,34,34],"right_children":[2,4,6,8,10,-1,-1,12,14,16,18,20,22,24,26,28,30,32,34,36,38,40,42,44,46,48,-1,50,52,54,56,-1,-1,58,60,-1,-1,-1,-1,-1,-1,-1,-1,-1,-1,-1,-1,-1,-1,-1,-1,-1,-1,-1,-1,-1,-1,-1,-1,-1,-1],"split_conditions":[1.965E1,3.75E-1,2.05E-1,7.95E0,1.1975E1,-1.5E-1,2.8235295E-1,9.9597E-1,9.05E0,1.075E1,3.5500002E-1,7.75E1,3.1550002E0,2.9850001E0,4.1500002E-1,2.25E1,4.25E-1,5.2250004E-1,2.395E2,9.75E0,1.065E1,4.95E-1,4.95E-1,2.1000001E-1,2.75E-1,2.18E2,2.0000002E-1,5.4499996E-1,2.55E1,4.75E-2,4.35E-1,-2.6250002E-1,2.0000002E-1,3.65E1,3.9499998E-1,3.6437247E-2,-1.1557378E-2,-2.8E-1,6.666667E-2,8.256881E-2,-7.788462E-2,-1.4130436E-1,-3.8709678E-2,2.0000002E-1,-1.7142859E-1,-3.157895E-2,1.6071428E-1,-2.3076925E-1,1.5E-1,-1.6326532E-2,-2.1176472E-1,1.425E-1,1.9764706E-2,-1.5E-1,2.6250002E-1,-1.7872341E-1,2.0000002E-1,5.5263158E-2,1.8157896E-1,1.20000005E-1,-2.4000001E-1],"split_indices":[3,2,1,0,3,0,0,7,0,3,9,5,8,8,1,5,2,1,6,10,10,9,9,1,2,6,0,2,5,4,1,0,0,5,1,0,0,0,0,0,0,0,0,0,0,0,0,0,0,0,0,0,0,0,0,0,0,0,0,0,0],"split_type":[0,0,0,0,0,0,0,0,0,0,0,0,0,0,0,0,0,0,0,0,0,0,0,0,0,0,0,0,0,0,0,0,0,0,0,0,0,0,0,0,0,0,0,0,0,0,0,0,0,0,0,0,0,0,0,0,0,0,0,0,0],"sum_hessian":[2.94E3,2.923E3,1.7E1,2.071E3,8.52E2,1E0,1.6E1,1.927E3,1.44E2,6.85E2,1.67E2,1.487E3,4.4E2,1.29E2,1.5E1,6.25E2,6E1,9E0,1.58E2,1.465E3,2.2E1,2.11E2,2.29E2,2.8E1,1.01E2,1.3E1,2E0,1.62E2,4.63E2,1.2E1,4.8E1,7E0,2E0,1.5E2,8E0,2.46E2,1.219E3,1.4E1,8E0,1.08E2,1.03E2,1.37E2,9.2E1,8E0,2E1,1.8E1,8.3E1,1.2E1,1E0,1.46E2,1.6E1,3.9E1,4.24E2,5E0,7E0,4.6E1,2E0,3.7E1,1.13E2,4E0,4E0],"tree_param":{"num_deleted":"0","num_feature":"11","num_nodes":"61","size_leaf_vector":"0"}},{"base_weights":[-1.4960898E-2,-1.1600137E-2,-9.0909094E-1,2.1112256E-2,-7.575758E-2,3.264876E-2,-4.7727272E-1,-1.0860215E-1,4.262295E-1,1.983471E-2,3.0588236E-1,-9.285714E-1,-2.580645E-1,4.9792532E-2,-1.6376811E-1,6.666667E-1,-0E0,2.608213E-2,-7.8571427E-1,1.4925373E-1,8.4210527E-1,8.5714287E-1,-5.6E-1,-8.5714287E-1,7.6595746E-2,-5.15625E-1,-1.275917E-1,-4E-1,8E-1,-6.25E-1,3.125E-1,1.9596865E-2,7.058824E-1,-9.230769E-1,5E-1,6.956522E-1,-1.3333334E-1,9.444444E-1,-5E-1,7.5E-1,-7.7272725E-1,1.4659686E-1,-2.2222222E-1,-8.108108E-1,-1.0714286E-1,-5.945946E-1,-9.813875E-2,-7.5E-1,5E-1,8.5294116E-1,-5E-1,-8.5714287E-1,5E-1,-5E-1,7.2727275E-1],"categories":[],"categories_nodes":[],"categories_segments":[],"categories_sizes":[],"default_left":[1,1,0,1,1,1,1,1,1,1,1,0,1,1,1,1,1,1,1,1,1,0,1,0,1,1,1,1,1,1,1,0,0,0,0,0,0,0,0,0,0,0,0,0,0,0,0,0,0,0,0,0,0,0,0],"id":12,"left_children":[1,3,-1,5,7,9,11,13,15,17,19,-1,21,23,25,27,29,31,33,35,37,-1,39,-1,41,43,45,47,49,51,53,-1,-1,-1,-1,-1,-1,-1,-1,-1,-1,-1,-1,-1,-1,-1,-1,-1,-1,-1,-1,-1,-1,-1,-1],"loss_changes":[8.827034E0,6.153016E0,0E0,1.1181348E1,1.6368967E1,6.642767E0,4.1132174E0,8.134491E0,6.2513666E0,9.154668E0,7.013281E0,0E0,1.0918341E1,5.9240704E0,8.717165E0,5.866665E0,4.6875E0,7.930619E0,2.9340658E0,1.0437898E1,3.081871E0,0E0,7.546364E0,0E0,4.9482107E0,7.630127E0,8.565792E0,1.95E0,2.8352947E0,2.517857E0,5.755682E0,0E0,0E0,0E0,0E0,0E0,0E0,0E0,0E0,0E0,0E0,0E0,0E0,0E0,0E0,0E0,0E0,0E0,0E0,0E0,0E0,0E0,0E0,0E0,0E0],"parents":[2147483647,0,0,1,1,3,3,4,4,5,5,6,6,7,7,8,8,9,9,10,10,12,12,13,13,14,14,15,15,16,16,17,17,18,18,19,19,20,20,22,22,24,24,25,25,26,26,27,27,28,28,29,29,30,30],"right_children":[2,4,-1,6,8,10,12,14,16,18,20,-1,22,24,26,28,30,32,34,36,38,-1,40,-1,42,44,46,48,50,52,54,-1,-1,-1,-1,-1,-1,-1,-1,-1,-1,-1,-1,-1,-1,-1,-1,-1,-1,-1,-1,-1,-1,-1,-1],"split_conditions":[2.005E1,7.125E0,-2.7272728E-1,9.9926E-1,2.105E2,9.9804E-1,3.15E-1,9.9254E-1,4.15E-1,9.97975E-1,3.45E-1,-2.7857143E-1,3.45E-1,5.55E1,1.6499999E-1,7.25E0,2.975E0,9.97855E-1,6.4500004E-2,3.0749998E0,9.9914E-1,2.5714287E-1,3.45E1,-2.5714287E-1,4.05E0,1.005E1,1.175E1,3.25E-1,3.455E0,2.47E2,4.3E-1,5.87906E-3,2.1176472E-1,-2.769231E-1,1.5E-1,2.0869567E-1,-4.0000003E-2,2.8333333E-1,-1.5E-1,2.2500001E-1,-2.3181818E-1,4.397906E-2,-6.666667E-2,-2.4324325E-1,-3.214286E-2,-1.7837839E-1,-2.9441627E-2,-2.2500001E-1,1.5E-1,2.5588235E-1,-1.5E-1,-2.5714287E-1,1.5E-1,-1.5E-1,2.1818183E-1],"split_indices":[3,0,0,7,6,7,2,7,2,7,1,0,2,6,1,0,8,7,4,8,7,0,5,0,3,10,5,1,8,6,2,0,0,0,0,0,0,0,0,0,0,0,0,0,0,0,0,0,0,0,0,0,0,0,0],"split_type":[0,0,0,0,0,0,0,0,0,0,0,0,0,0,0,0,0,0,0,0,0,0,0,0,0,0,0,0,0,0,0,0,0,0,0,0,0,0,0,0,0,0,0,0,0,0,0,0,0,0,0,0,0,0,0],"sum_hessian":[2.94E3,2.93E3,1E1,1.941E3,9.89E2,1.898E3,4.3E1,9.29E2,6E1,1.814E3,8.4E1,1.3E1,3E1,2.4E2,6.89E2,3.8E1,2.2E1,1.801E3,1.3E1,6.6E1,1.8E1,6E0,2.4E1,6E0,2.34E2,6.3E1,6.26E2,4E0,3.4E1,7E0,1.5E1,1.785E3,1.6E1,1.2E1,1E0,2.2E1,4.4E1,1.7E1,1E0,3E0,2.1E1,1.9E2,4.4E1,3.6E1,2.7E1,3.6E1,5.9E2,3E0,1E0,3.3E1,1E0,6E0,1E0,5E0,1E1],"tree_param":{"num_deleted":"0","num_feature":"11","num_nodes":"55","size_leaf_vector":"0"}},{"base_weights":[2.7201632E-3,1.7338995E-2,-3.5344827E-1,8.623787E-3,5.681818E-1,2.1428572E-1,-4.2718446E-1,-1.7687075E-1,1.896094E-2,-2.2222222E-1,7.5E-1,7E-1,-8E-1,5E-1,-5.212766E-1,1.875E-1,-3.5E-1,3.05835E-2,-1.6993465E-1,-8E-1,4E-1,9.583333E-1,3.0769232E-1,8.888889E-1,-5E-1,8.75E-1,-6.666667E-1,2.2222222E-1,-5.9302324E-1,-2.0833333E-1,5.6E-1,-8.148148E-1,-1.7567568E-1,2.0627803E-1,1.3256739E-2,-4.8214287E-1,1.0204081E-2,7.5E-1,-5E-1,8.75E-1,-5E-1,8E-1,-4E-1,-9.62963E-1,-4.1666666E-1,2.5E-1,-6.1538464E-1,-6.666667E-1,6.956522E-1,5E-1,-8.8461536E-1,-2.6086956E-1,8.333333E-1,3.195266E-1,-1.4545454E-1,3.7685774E-2,-1.0789473E-1,-5.9615386E-1,8E-1,-7.5E-1,1.1494253E-1,-8E-1,5E-1,5E-1,-7.5E-1,-3E-1,-9.0909094E-1],"categories":[],"categories_nodes":[],"categories_segments":[],"categories_sizes":[],"default_left":[1,1,1,1,1,1,1,1,1,1,1,1,0,1,1,1,1,1,1,0,1,0,1,0,0,0,0,1,1,1,1,1,1,1,1,1,1,0,0,0,1,0,1,0,1,0,0,0,0,0,0,0,0,0,0,0,0,0,0,0,0,0,0,0,0,0,0],"id":13,"left_children":[1,3,5,7,9,11,13,15,17,19,21,23,-1,25,27,29,31,33,35,-1,37,-1,39,-1,-1,-1,-1,41,43,45,47,49,51,53,55,57,59,-1,-1,-1,61,-1,63,-1,65,-1,-1,-1,-1,-1,-1,-1,-1,-1,-1,-1,-1,-1,-1,-1,-1,-1,-1,-1,-1,-1,-1],"loss_changes":[1.5319229E1,1.3561906E1,4.9475927E0,5.339716E0,6.4898996E0,7.4571433E0,9.246437E0,9.3388605E0,5.7945995E0,3.5555556E0,3.0224361E0,2.711111E0,0E0,4.9583335E0,5.146078E0,7.194167E0,7.959709E0,7.5621457E0,8.609761E0,0E0,1.95E0,0E0,6.394231E0,0E0,0E0,0E0,0E0,3.5555556E0,5.2095184E0,4.6314106E0,4.623768E0,2.920227E0,6.578534E0,8.929286E0,6.7016716E0,8.662913E0,7.889221E0,0E0,0E0,0E0,2.2E0,0E0,1.95E0,0E0,3.174242E0,0E0,0E0,0E0,0E0,0E0,0E0,0E0,0E0,0E0,0E0,0E0,0E0,0E0,0E0,0E0,0E0,0E0,0E0,0E0,0E0,0E0,0E0],"parents":[2147483647,0,0,1,1,2,2,3,3,4,4,5,5,6,6,7,7,8,8,9,9,10,10,11,11,13,13,14,14,15,15,16,16,17,17,18,18,20,20,22,22,27,27,28,28,29,29,30,30,31,31,32,32,33,33,34,34,35,35,36,36,40,40,42,42,44,44],"right_children":[2,4,6,8,10,12,14,16,18,20,22,24,-1,26,28,30,32,34,36,-1,38,-1,40,-1,-1,-1,-1,42,44,46,48,50,52,54,56,58,60,-1,-1,-1,62,-1,64,-1,66,-1,-1,-1,-1,-1,-1,-1,-1,-1,-1,-1,-1,-1,-1,-1,-1,-1,-1,-1,-1,-1,-1],"split_conditions":[2.155E2,1.7975E1,2.25E-1,2.6500002E-2,9.9906003E-1,9.65E0,2.9850001E0,9.9021E-1,6.95E-1,1.18E1,7.1E0,1.44E1,-2.4000001E-1,5.55E-1,3.7E-2,9.893575E-1,2.05E-1,5.8500004E0,7.45E-1,-2.4000001E-1,7.6E0,2.875E-1,3.65E-1,2.6666668E-1,-1.5E-1,2.6250002E-1,-2.0000002E-1,2.2E-1,2.45E-1,3.2350001E0,1.1516666E1,2.45E-1,4.25E-1,3.39E0,1.1924999E1,1.1674999E1,2.5E-1,2.2500001E-1,-1.5E-1,2.6250002E-1,1.9974998E1,2.4000001E-1,2.65E-1,-2.888889E-1,3.9999998E-1,7.5E-2,-1.846154E-1,-2.0000002E-1,2.0869567E-1,1.5E-1,-2.653846E-1,-7.826087E-2,2.5E-1,9.5857985E-2,-4.3636363E-2,1.1305733E-2,-3.236842E-2,-1.7884617E-1,2.4000001E-1,-2.2500001E-1,3.448276E-2,-2.4000001E-1,1.5E-1,1.5E-1,-2.2500001E-1,-9E-2,-2.7272728E-1],"split_indices":[6,3,2,4,7,10,8,7,9,10,0,3,0,1,4,7,1,0,9,0,0,0,2,0,0,0,0,1,1,8,10,2,2,8,3,3,2,0,0,0,3,0,2,0,1,0,0,0,0,0,0,0,0,0,0,0,0,0,0,0,0,0,0,0,0,0,0],"split_type":[0,0,0,0,0,0,0,0,0,0,0,0,0,0,0,0,0,0,0,0,0,0,0,0,0,0,0,0,0,0,0,0,0,0,0,0,0,0,0,0,0,0,0,0,0,0,0,0,0,0,0,0,0,0,0,0,0,0,0,0,0,0,0,0,0,0,0],"sum_hessian":[2.94E3,2.825E3,1.15E2,2.782E3,4.3E1,1.3E1,1.02E2,1.46E2,2.636E3,8E0,3.5E1,9E0,4E0,9E0,9.3E1,4.7E1,9.9E1,2.484E3,1.52E2,4E0,4E0,2.3E1,1.2E1,8E0,1E0,7E0,2E0,8E0,8.5E1,2.3E1,2.4E1,2.6E1,7.3E1,2.22E2,2.262E3,5.5E1,9.7E1,3E0,1E0,7E0,5E0,4E0,4E0,2.6E1,5.9E1,1.1E1,1.2E1,2E0,2.2E1,1E0,2.5E1,6.8E1,5E0,1.68E2,5.4E1,1.883E3,3.79E2,5.1E1,4E0,1.1E1,8.6E1,4E0,1E0,1E0,3E0,4.9E1,1E1],"tree_param":{"num_deleted":"0","num_feature":"11","num_nodes":"67","size_leaf_vector":"0"}},{"base_weights":[5.4403264E-3,8.870693E-3,-9.0909094E-1,1.1978097E-2,-9E-1,7.931034E-3,5.217391E-1,-1.2111801E-1,2.4040326E-2,6.666667E-1,-6.666667E-1,6.315789E-2,-1.9736843E-1,2.9839026E-2,-4.2424244E-1,7.5E-1,-5E-1,-3.5714287E-2,7.5E-1,-2.2972973E-1,8.5714287E-1,2.6168224E-1,1.9664072E-2,2.857143E-1,-5.925926E-1,8.4210527E-1,-5E-1],"categories":[],"categories_nodes":[],"categories_segments":[],"categories_sizes":[],"default_left":[1,1,0,1,0,1,1,1,1,1,0,1,1,1,1,1,0,0,0,0,0,0,0,0,0,0,0],"id":14,"left_children":[1,3,-1,5,-1,7,9,11,13,15,-1,17,19,21,23,25,-1,-1,-1,-1,-1,-1,-1,-1,-1,-1,-1],"loss_changes":[9.234501E0,8.288596E0,0E0,6.0240498E0,0E0,6.031689E0,4.4057965E0,4.5369244E0,6.7166595E0,2.416667E0,0E0,6.4781957E0,7.9774942E0,6.003212E0,4.113516E0,2.7236843E0,0E0,0E0,0E0,0E0,0E0,0E0,0E0,0E0,0E0,0E0,0E0],"parents":[2147483647,0,0,1,1,3,3,5,5,6,6,7,7,8,8,9,9,11,11,12,12,13,13,14,14,15,15],"right_children":[2,4,-1,6,-1,8,10,12,14,16,-1,18,20,22,24,26,-1,-1,-1,-1,-1,-1,-1,-1,-1,-1,-1],"split_conditions":[2.005E1,2.5E2,-2.7272728E-1,1.345E1,-2.7E-1,9.90575E-1,4.45E1,9.8951E-1,5.975E-1,7.275E-1,-2.0000002E-1,3E0,4.8000002E-1,2.75E-2,1.005E2,4.35E-2,-1.5E-1,-1.0714287E-2,2.2500001E-1,-6.891892E-2,2.5714287E-1,7.8504674E-2,5.8992216E-3,8.5714296E-2,-1.7777778E-1,2.526316E-1,-1.5E-1],"split_indices":[3,6,0,10,0,7,5,7,1,1,0,3,2,4,6,4,0,0,0,0,0,0,0,0,0,0,0],"split_type":[0,0,0,0,0,0,0,0,0,0,0,0,0,0,0,0,0,0,0,0,0,0,0,0,0,0,0],"sum_hessian":[2.94E3,2.93E3,1E1,2.921E3,9E0,2.899E3,2.2E1,3.21E2,2.578E3,2E1,2E0,9.4E1,2.27E2,2.546E3,3.2E1,1.9E1,1E0,8.3E1,1.1E1,2.21E2,6E0,1.06E2,2.44E3,6E0,2.6E1,1.8E1,1E0],"tree_param":{"num_deleted":"0","num_feature":"11","num_nodes":"27","size_leaf_vector":"0"}},{"base_weights":[-4.080245E-3,1.3675214E-3,-9.411765E-1,-4.6662346E-2,5.4953E-2,-7.593985E-2,1.3551402E-1,4.9454544E-2,8.888889E-1,-9.1836736E-2,2.8070176E-1,4.651163E-1,5.232558E-2,3.3802816E-1,3.3716474E-2,-7.024793E-2,-4.923077E-1,4.3137255E-1,-8.5714287E-1,-5E-1,6.052632E-1,2.739726E-1,-1.1E-1,4.53125E-1,-6.25E-1,1.724138E-2,2.6136363E-1,-9.0192646E-2,2.6086956E-1,-8.333333E-1,-1.9444445E-1,6.666667E-1,-3.0769232E-1,-8E-1,5E-1,-6.666667E-1,6.944444E-1,3.478261E-1,-8E-1,-3.3962265E-1,1.4583333E-1,7.5E-1,6.896552E-2,5E-1,-8.5714287E-1,1.2566845E-1,-3.076923E-2,7.826087E-1,7.575758E-2],"categories":[],"categories_nodes":[],"categories_segments":[],"categories_sizes":[],"default_left":[1,1,0,1,1,1,1,1,0,1,1,1,1,1,1,1,1,1,0,1,1,1,1,1,1,1,1,0,0,0,0,0,0,0,0,0,0,0,0,0,0,0,0,0,0,0,0,0,0],"id":15,"left_children":[1,3,-1,5,7,9,11,13,-1,15,17,19,21,23,25,27,29,31,-1,33,35,37,39,41,43,45,47,-1,-1,-1,-1,-1,-1,-1,-1,-1,-1,-1,-1,-1,-1,-1,-1,-1,-1,-1,-1,-1,-1],"loss_changes":[1.5015331E1,7.5306463E0,0E0,8.240143E0,6.297592E0,7.566201E0,5.8433485E0,6.2332916E0,0E0,1.0980022E1,1.0141825E1,6.1187277E0,6.218522E0,8.152949E0,4.889908E0,8.01442E0,6.4405985E0,9.073908E0,0E0,2.2E0,4.7733917E0,6.0683737E0,5.924041E0,7.247307E0,2.517857E0,6.344348E0,8.454382E0,0E0,0E0,0E0,0E0,0E0,0E0,0E0,0E0,0E0,0E0,0E0,0E0,0E0,0E0,0E0,0E0,0E0,0E0,0E0,0E0,0E0,0E0],"parents":[2147483647,0,0,1,1,3,3,4,4,5,5,6,6,7,7,9,9,10,10,11,11,12,12,13,13,14,14,15,15,16,16,17,17,19,19,20,20,21,21,22,22,23,23,24,24,25,25,26,26],"right_children":[2,4,-1,6,8,10,12,14,-1,16,18,20,22,24,26,28,30,32,-1,34,36,38,40,42,44,46,48,-1,-1,-1,-1,-1,-1,-1,-1,-1,-1,-1,-1,-1,-1,-1,-1,-1,-1,-1,-1,-1,-1],"split_conditions":[1.355E1,6.8500004E0,-2.8235295E-1,3.375E0,1.965E1,1.6150002E1,9.9105E-1,2.9250002E0,2.6666668E-1,1.335E1,4.95E-1,1.1500001E0,2.75E-1,1.88E2,2.085E2,9.9696E-1,2.35E-1,9.9987996E-1,-2.5714287E-1,5.9E0,9.8903E-1,6.6E1,6.3500004E0,1.005E1,8.95E0,4.15E-1,3.95E1,-2.7057795E-2,7.826087E-2,-2.5E-1,-5.8333337E-2,2.0000002E-1,-9.23077E-2,-2.4000001E-1,1.5E-1,-2.0000002E-1,2.0833333E-1,1.0434783E-1,-2.4000001E-1,-1.018868E-1,4.375E-2,2.2500001E-1,2.0689655E-2,1.5E-1,-2.5714287E-1,3.7700538E-2,-9.230769E-3,2.3478262E-1,2.2727273E-2],"split_indices":[10,0,0,8,3,3,7,8,0,3,2,3,2,6,6,7,1,7,0,0,7,5,0,10,10,9,5,0,0,0,0,0,0,0,0,0,0,0,0,0,0,0,0,0,0,0,0,0,0],"split_type":[0,0,0,0,0,0,0,0,0,0,0,0,0,0,0,0,0,0,0,0,0,0,0,0,0,0,0,0,0,0,0,0,0,0,0,0,0,0,0,0,0,0,0,0,0,0,0,0,0],"sum_hessian":[2.94E3,2.924E3,1.6E1,1.542E3,1.382E3,1.329E3,2.13E2,1.374E3,8E0,1.273E3,5.6E1,4.2E1,1.71E2,7E1,1.304E3,1.209E3,6.4E1,5E1,6E0,5E0,3.7E1,7.2E1,9.9E1,6.3E1,7E0,1.217E3,8.7E1,1.141E3,6.8E1,2.9E1,3.5E1,3.8E1,1.2E1,4E0,1E0,2E0,3.5E1,6.8E1,4E0,5.2E1,4.7E1,3.5E1,2.8E1,1E0,6E0,3.73E2,8.44E2,2.2E1,6.5E1],"tree_param":{"num_deleted":"0","num_feature":"11","num_nodes":"49","size_leaf_vector":"0"}},{"base_weights":[-6.1203674E-3,-3.375E-1,3.144654E-3,8E-1,-4.0789473E-1,8.459641E-3,-5.769231E-1,-8E-1,-2.1153846E-1,-2.8245518E-2,7.6228686E-2,-8.4210527E-1,1.25E-1,2.5E-1,-9.5454544E-1,-3.6956522E-1,8.5714287E-1,2.189781E-1,-4.809384E-2,1.2645012E-1,-2.4264705E-1,-9.444444E-1,5E-1,8E-1,-7.5E-1,6.666667E-1,-5E-1,2.2222222E-1,-5E-1,9.3333334E-1,1.300813E-1,-3.1598512E-2,-3.3695653E-1,1.3567251E-1,-8.75E-1,-3.3606556E-1,5.3333336E-1,8E-1,-4E-1,1.25E-1,-6.451613E-1,-3.0952382E-1,3.5365853E-1,-4.99316E-2,1.4379086E-1,-1.5E-1,-6.666667E-1,1.5432099E-2,2.0864661E-1,-4.255319E-2,-5.131579E-1,-6.666667E-1,7.692308E-1],"categories":[],"categories_nodes":[],"categories_segments":[],"categories_sizes":[],"default_left":[1,1,1,0,1,1,1,1,1,1,1,1,1,1,0,1,0,1,1,1,1,0,0,0,0,0,0,1,1,0,1,1,1,1,0,1,1,0,0,0,0,0,0,0,0,0,0,0,0,0,0,0,0],"id":16,"left_children":[1,3,5,-1,7,9,11,13,15,17,19,21,23,25,-1,27,-1,29,31,33,35,-1,-1,-1,-1,-1,-1,37,39,-1,41,43,45,47,-1,49,51,-1,-1,-1,-1,-1,-1,-1,-1,-1,-1,-1,-1,-1,-1,-1,-1],"loss_changes":[9.030636E0,6.732237E0,8.828575E0,0E0,5.682186E0,7.0591154E0,4.9448385E0,4.295454E0,9.098542E0,9.044271E0,1.5997036E1,3.081871E0,5.325E0,1.5833334E0,0E0,3.6618361E0,0E0,8.578625E0,8.1134815E0,8.079947E0,1.0038002E1,0E0,0E0,0E0,0E0,0E0,0E0,3.5555556E0,3.528226E0,0E0,1.21986065E1,5.196882E0,5.5710144E0,7.4989233E0,0E0,6.3195763E0,4.7589736E0,0E0,0E0,0E0,0E0,0E0,0E0,0E0,0E0,0E0,0E0,0E0,0E0,0E0,0E0,0E0,0E0],"parents":[2147483647,0,0,1,1,2,2,4,4,5,5,6,6,7,7,8,8,9,9,10,10,11,11,12,12,13,13,15,15,17,17,18,18,19,19,20,20,27,27,28,28,30,30,31,31,32,32,33,33,35,35,36,36],"right_children":[2,4,6,-1,8,10,12,14,16,18,20,22,24,26,-1,28,-1,30,32,34,36,-1,-1,-1,-1,-1,-1,38,40,-1,42,44,46,48,-1,50,52,-1,-1,-1,-1,-1,-1,-1,-1,-1,-1,-1,-1,-1,-1,-1,-1],"split_conditions":[2.915E0,2.795E0,1.91E1,2.4000001E-1,1.85E-1,5.15E-1,2.0349998E1,9.9054503E-1,1.4075E1,8.95E0,1.945E2,2.42E2,5.0499998E-2,7.55E0,-2.8636363E-1,9.9194E-1,2.5714287E-1,2.995E0,6.55E-2,1.00034E0,2.415E2,-2.8333333E-1,1.5E-1,2.4000001E-1,-2.2500001E-1,2.0000002E-1,-1.5E-1,2.6999998E-1,6.8500004E0,2.8E-1,4.35E-1,8.05E0,4.65E-1,2.75E1,-2.6250002E-1,6.75E0,8.799999E0,2.4000001E-1,-1.20000005E-1,3.75E-2,-1.935484E-1,-9.285715E-2,1.06097564E-1,-1.4979481E-2,4.313726E-2,-4.5E-2,-2.0000002E-1,4.6296297E-3,6.259399E-2,-1.2765958E-2,-1.5394738E-1,-2.0000002E-1,2.3076925E-1],"split_indices":[8,8,3,0,1,9,3,7,3,10,6,6,4,0,0,7,0,8,4,7,6,0,0,0,0,0,0,1,0,0,9,0,9,5,0,0,10,0,0,0,0,0,0,0,0,0,0,0,0,0,0,0,0],"split_type":[0,0,0,0,0,0,0,0,0,0,0,0,0,0,0,0,0,0,0,0,0,0,0,0,0,0,0,0,0,0,0,0,0,0,0,0,0,0,0,0,0,0,0,0,0,0,0,0,0,0,0,0,0],"sum_hessian":[2.94E3,7.9E1,2.861E3,4E0,7.5E1,2.836E3,2.5E1,2.4E1,5.1E1,1.84E3,9.96E2,1.8E1,7E0,3E0,2.1E1,4.5E1,6E0,1.36E2,1.704E3,8.61E2,1.35E2,1.7E1,1E0,4E0,3E0,2E0,1E0,8E0,3.7E1,1.4E1,1.22E2,1.613E3,9.1E1,8.54E2,7E0,1.21E2,1.4E1,4E0,4E0,7E0,3E1,4.1E1,8.1E1,1.461E3,1.52E2,5.9E1,3.2E1,3.23E2,5.31E2,4.6E1,7.5E1,2E0,1.2E1],"tree_param":{"num_deleted":"0","num_feature":"11","num_nodes":"53","size_leaf_vector":"0"}},{"base_weights":[2.1761306E-2,1.0218464E-2,3.3653846E-1,6.024096E-3,7.058824E-1,-3.888889E-1,4.827586E-1,-8.75E-1,8.525755E-3,9.3333334E-1,-6.666667E-1,-8.888889E-1,1E-1,6.666667E-1,-0E0,1.1039886E-2,-8.75E-1,8.333333E-1,-8E-1,8.292683E-1,3.478261E-1,7E-1,-4.375E-1,-2.3958333E-1,1.9904165E-2,4.4444445E-1,9.0909094E-1,-5.714286E-1,7.058824E-1,8.75E-1,-0E0,-8.5714287E-1,-1E-1,8.75E-1,-3.3707866E-1,-1.7931035E-1,3.1140521E-2,-2.5E-1,8.333333E-1,5.714286E-1,9.62963E-1,-8.333333E-1,5E-1,-0E0,9.230769E-1,5E-1,-5E-1,2.857143E-1,-7.5E-1],"categories":[],"categories_nodes":[],"categories_segments":[],"categories_sizes":[],"default_left":[1,1,1,1,1,1,1,0,1,0,0,0,1,1,1,1,0,0,0,1,1,1,1,1,1,1,1,1,1,0,1,0,1,0,0,0,0,0,0,0,0,0,0,0,0,0,0,0,0],"id":17,"left_children":[1,3,5,7,9,11,13,-1,15,-1,-1,-1,17,19,21,23,-1,-1,-1,25,27,29,31,33,35,37,39,41,43,-1,45,-1,47,-1,-1,-1,-1,-1,-1,-1,-1,-1,-1,-1,-1,-1,-1,-1,-1],"loss_changes":[1.0682457E1,8.276663E0,1.1219239E1,6.227208E0,5.929411E0,4.4888887E0,7.7241383E0,0E0,6.2626185E0,0E0,0E0,0E0,7.266667E0,2.9777298E0,7.9625E0,6.243005E0,0E0,0E0,0E0,8.553848E-1,7.973694E0,1.2249999E0,2.180357E0,1.0726944E1,6.078486E0,2.6388888E0,5.0024033E-2,2.3809521E0,2.6063347E0,0E0,1E0,0E0,2.7214286E0,0E0,0E0,0E0,0E0,0E0,0E0,0E0,0E0,0E0,0E0,0E0,0E0,0E0,0E0,0E0,0E0],"parents":[2147483647,0,0,1,1,2,2,3,3,4,4,5,5,6,6,8,8,12,12,13,13,14,14,15,15,19,19,20,20,21,21,22,22,23,23,24,24,25,25,26,26,27,27,28,28,30,30,32,32],"right_children":[2,4,6,8,10,12,14,-1,16,-1,-1,-1,18,20,22,24,-1,-1,-1,26,28,30,32,34,36,38,40,42,44,-1,46,-1,48,-1,-1,-1,-1,-1,-1,-1,-1,-1,-1,-1,-1,-1,-1,-1,-1],"split_conditions":[9.99405E-1,1.355E1,2.85E-1,7.5E-1,4.55E0,4.9000002E-2,9.15E0,-2.6250002E-1,2.5E2,2.8E-1,-2.0000002E-1,-2.6666668E-1,1.00027E0,1.835E2,3.45E-1,8.85E0,-2.6250002E-1,2.5E-1,-2.4000001E-1,3.55E1,1.93E2,3.4250002E0,4.45E-1,2.92E0,2.6500002E-2,7.3E0,9.99485E-1,8.75E0,5.25E-1,2.6250002E-1,6.65E0,-2.5714287E-1,3.15E-1,2.6250002E-1,-1.011236E-1,-5.3793106E-2,9.342156E-3,-7.5E-2,2.5E-1,1.7142859E-1,2.888889E-1,-2.5E-1,1.5E-1,-0E0,2.769231E-1,1.5E-1,-1.5E-1,8.5714296E-2,-2.2500001E-1],"split_indices":[7,10,2,3,3,4,10,0,6,0,0,0,7,6,2,10,0,0,0,5,6,8,2,8,4,0,7,0,9,0,0,0,1,0,0,0,0,0,0,0,0,0,0,0,0,0,0,0,0],"split_type":[0,0,0,0,0,0,0,0,0,0,0,0,0,0,0,0,0,0,0,0,0,0,0,0,0,0,0,0,0,0,0,0,0,0,0,0,0,0,0,0,0,0,0,0,0,0,0,0,0],"sum_hessian":[2.94E3,2.837E3,1.03E2,2.821E3,1.6E1,1.7E1,8.6E1,7E0,2.814E3,1.4E1,2E0,8E0,9E0,6.2E1,2.4E1,2.807E3,7E0,5E0,4E0,4E1,2.2E1,9E0,1.5E1,9.5E1,2.712E3,8E0,3.2E1,6E0,1.6E1,7E0,2E0,6E0,9E0,7E0,8.8E1,1.44E2,2.568E3,3E0,5E0,6E0,2.6E1,5E0,1E0,4E0,1.2E1,1E0,1E0,6E0,3E0],"tree_param":{"num_deleted":"0","num_feature":"11","num_nodes":"49","size_leaf_vector":"0"}},{"base_weights":[-1.83611E-2,-1.3675214E-2,-8.235294E-1,-1.7882689E-3,-2.6923078E-1,-9.375E-1,5E-1,1.625E-1,-1.7207665E-2,-5.614035E-1,-4.054054E-2,6.0714287E-1,1.03286386E-1,-3.529412E-1,-5.66114E-3,-6.730769E-1,5E-1,2.9268292E-1,-4.4117647E-1,7.307692E-1,-6.666667E-1,7.281554E-2,8.75E-1,6.666667E-1,-4.6753246E-1,6.2929064E-2,-4.3125E-2,4E-1,-7.708333E-1,-5E-1,8E-1,4.3243244E-1,-8E-1,-6.333333E-1,8E-1,-0E0,8.636364E-1,1.3440861E-1,-4.7619048E-1,8.5714287E-1,-0E0,-5.967742E-1,6.25E-2,1.8527919E-1,-3.742204E-2,-9.224138E-2,8.61678E-2,-5E-1,7.5E-1,6.666667E-1,-8.4782606E-1,-4.4444445E-1,6.896552E-1,-7.407407E-1,2.5E-1],"categories":[],"categories_nodes":[],"categories_segments":[],"categories_sizes":[],"default_left":[1,1,1,1,1,0,0,1,1,1,1,1,1,1,1,1,1,1,1,1,0,1,0,1,1,1,1,1,1,0,0,1,0,1,0,0,0,0,0,0,0,0,0,0,0,0,0,0,0,0,0,0,0,0,0],"id":18,"left_children":[1,3,5,7,9,-1,-1,11,13,15,17,19,21,23,25,27,29,31,33,35,-1,37,-1,39,41,43,45,47,49,-1,-1,51,-1,53,-1,-1,-1,-1,-1,-1,-1,-1,-1,-1,-1,-1,-1,-1,-1,-1,-1,-1,-1,-1,-1],"loss_changes":[1.108492E1,8.88501E0,3.0330887E0,7.085696E0,8.663458E0,0E0,0E0,6.256229E0,9.910354E0,7.092779E0,1.0008221E1,4.8965197E0,4.944933E0,1.0242934E1,6.3574677E0,5.7631416E0,2.2E0,6.6067243E0,8.615686E0,2.524475E0,0E0,7.0298867E0,0E0,1.1428571E0,5.3119755E0,1.0737879E1,1.0168578E1,1.95E0,5.877714E0,0E0,0E0,8.651962E0,0E0,3.0314808E0,0E0,0E0,0E0,0E0,0E0,0E0,0E0,0E0,0E0,0E0,0E0,0E0,0E0,0E0,0E0,0E0,0E0,0E0,0E0,0E0,0E0],"parents":[2147483647,0,0,1,1,2,2,3,3,4,4,7,7,8,8,9,9,10,10,11,11,12,12,13,13,14,14,15,15,16,16,17,17,18,18,19,19,21,21,23,23,24,24,25,25,26,26,27,27,28,28,31,31,33,33],"right_children":[2,4,6,8,10,-1,-1,12,14,16,18,20,22,24,26,28,30,32,34,36,-1,38,-1,40,42,44,46,48,50,-1,-1,52,-1,54,-1,-1,-1,-1,-1,-1,-1,-1,-1,-1,-1,-1,-1,-1,-1,-1,-1,-1,-1,-1,-1],"split_conditions":[1.355E1,9.9909E-1,6.85E0,8.35E1,7.1499996E0,-2.8125E-1,1.5E-1,9.85E0,8.85E1,2.03E1,5.15E-2,5.975E-1,1.115E1,1.55E-1,3.9499998E-2,1.445E1,2.955E0,6.4E1,6.3E-2,9.9283004E-1,-2.0000002E-1,9.9356997E-1,2.6250002E-1,3.9E-1,7.6499996E0,3.15E1,1.775E2,6.05E0,3.65E-1,-1.5E-1,2.4000001E-1,1.605E2,-2.4000001E-1,1.9375E1,2.4000001E-1,-0E0,2.5909093E-1,4.0322583E-2,-1.4285715E-1,2.5714287E-1,-0E0,-1.7903227E-1,1.875E-2,5.558376E-2,-1.1226612E-2,-2.7672414E-2,2.585034E-2,-1.5E-1,2.2500001E-1,2.0000002E-1,-2.5434783E-1,-1.3333334E-1,2.0689656E-1,-2.2222222E-1,7.5E-2],"split_indices":[10,7,0,6,0,0,0,10,6,3,4,1,3,1,4,3,8,5,4,7,0,7,0,2,0,5,6,0,9,0,0,6,0,3,0,0,0,0,0,0,0,0,0,0,0,0,0,0,0,0,0,0,0,0,0],"split_type":[0,0,0,0,0,0,0,0,0,0,0,0,0,0,0,0,0,0,0,0,0,0,0,0,0,0,0,0,0,0,0,0,0,0,0,0,0,0,0,0,0,0,0,0,0,0,0,0,0,0,0,0,0,0,0],"sum_hessian":[2.94E3,2.924E3,1.6E1,2.795E3,1.29E2,1.5E1,1E0,2.39E2,2.556E3,5.6E1,7.3E1,2.7E1,2.12E2,8.4E1,2.472E3,5.1E1,5E0,4E1,3.3E1,2.5E1,2E0,2.05E2,7E0,8E0,7.6E1,8.73E2,1.599E3,4E0,4.7E1,1E0,4E0,3.6E1,4E0,2.9E1,4E0,4E0,2.1E1,1.85E2,2E1,6E0,2E0,6.1E1,1.5E1,3.93E2,4.8E2,1.159E3,4.4E2,1E0,3E0,2E0,4.5E1,8E0,2.8E1,2.6E1,3E0],"tree_param":{"num_deleted":"0","num_feature":"11","num_nodes":"55","size_leaf_vector":"0"}},{"base_weights":[2.516151E-2,5.7000355E-3,4.2962962E-1,7.1658904E-4,8.235294E-1,6.7045456E-1,-2.0833334E-2,-1.1585366E-1,2.5652174E-2,-0E0,9.3333334E-1,7.710843E-1,-8.333333E-1,1.9444445E-1,-6.1538464E-1,-9.185804E-2,-9.285714E-1,4.7117796E-2,-1.14379086E-1,-5E-1,5E-1,-7.5E-1,8.375E-1,-3.846154E-2,7.2727275E-1,-7.5E-1,5E-1,-5E-1,-4.8387095E-2,3.7209302E-2,3.6065573E-1,-5.860806E-2,-5.588235E-1,8.767123E-1,3.75E-1,2.777778E-1,-6.666667E-1,-5E-1,9E-1,5E-1,-9.0909094E-1,-2.4E-1,-7.7272725E-1,7.5E-1,-7.092199E-2,7.391614E-2,-6.0491495E-2,-3.0769232E-1,5.3061223E-1,-4.4117647E-1,-4.166667E-3,-6.451613E-1,2.5E-1,4.4444445E-1,9.230769E-1,8.333333E-1,-6.666667E-1,-3E-1,8.888889E-1,-8.75E-1,5E-1],"categories":[],"categories_nodes":[],"categories_segments":[],"categories_sizes":[],"default_left":[1,1,1,1,1,1,1,1,1,1,0,1,0,1,1,1,0,1,1,0,0,0,1,1,1,1,0,1,1,1,1,1,1,1,1,1,1,0,0,0,0,0,0,0,0,0,0,0,0,0,0,0,0,0,0,0,0,0,0,0,0],"id":19,"left_children":[1,3,5,7,9,11,13,15,17,19,-1,21,-1,23,25,27,-1,29,31,-1,-1,-1,33,35,37,39,-1,41,43,45,47,49,51,53,55,57,59,-1,-1,-1,-1,-1,-1,-1,-1,-1,-1,-1,-1,-1,-1,-1,-1,-1,-1,-1,-1,-1,-1,-1,-1],"loss_changes":[2.3147766E1,1.1439644E1,1.4659134E1,8.115704E0,1.5372553E0,1.3959244E1,6.263355E0,9.509523E0,6.9188623E0,1E0,0E0,9.0131035E0,0E0,4.4955325E0,2.326923E0,8.474375E0,0E0,6.184423E0,7.5521083E0,0E0,0E0,0E0,1.1220894E0,5.350427E0,2.7818184E0,2.840909E0,0E0,3.0763645E0,7.861531E0,6.9439363E0,7.0922613E0,5.684085E0,2.5355787E0,1.0528069E0,4.375E0,6.6222224E0,2.625E0,0E0,0E0,0E0,0E0,0E0,0E0,0E0,0E0,0E0,0E0,0E0,0E0,0E0,0E0,0E0,0E0,0E0,0E0,0E0,0E0,0E0,0E0,0E0,0E0],"parents":[2147483647,0,0,1,1,2,2,3,3,4,4,5,5,6,6,7,7,8,8,9,9,11,11,13,13,14,14,15,15,17,17,18,18,22,22,23,23,24,24,25,25,27,27,28,28,29,29,30,30,31,31,32,32,33,33,34,34,35,35,36,36],"right_children":[2,4,6,8,10,12,14,16,18,20,-1,22,-1,24,26,28,-1,30,32,-1,-1,-1,34,36,38,40,-1,42,44,46,48,50,52,54,56,58,60,-1,-1,-1,-1,-1,-1,-1,-1,-1,-1,-1,-1,-1,-1,-1,-1,-1,-1,-1,-1,-1,-1,-1,-1],"split_conditions":[9.99065E-1,1.355E1,7.45E0,2.45E-1,2.8E-1,2.03E1,6.75E-1,1.625E1,7.8500004E0,5.6000004E0,2.8E-1,2.95E1,-2.5E-1,4.65E1,8.75E0,8.55E1,-2.7857143E-1,2.1975E2,3.75E-1,-1.5E-1,1.5E-1,-2.2500001E-1,4.95E-1,4.15E1,1.75E-1,1.9E-1,1.5E-1,7.1E1,8.85E1,1.605E2,6.25E0,7.95E0,1.96E2,3.65E-1,5.45E1,1.635E2,1.7900002E1,-1.5E-1,2.7E-1,1.5E-1,-2.7272728E-1,-7.2000004E-2,-2.3181818E-1,2.2500001E-1,-2.1276597E-2,2.2174843E-2,-1.814745E-2,-9.23077E-2,1.5918368E-1,-1.3235295E-1,-1.2500001E-3,-1.935484E-1,7.5E-2,1.3333334E-1,2.769231E-1,2.5E-1,-2.0000002E-1,-9E-2,2.6666668E-1,-2.6250002E-1,1.5E-1],"split_indices":[7,10,0,2,1,3,9,3,0,0,0,5,0,5,0,6,0,6,1,0,0,0,2,5,1,1,0,6,6,6,0,0,6,9,5,6,3,0,0,0,0,0,0,0,0,0,0,0,0,0,0,0,0,0,0,0,0,0,0,0,0],"split_type":[0,0,0,0,0,0,0,0,0,0,0,0,0,0,0,0,0,0,0,0,0,0,0,0,0,0,0,0,0,0,0,0,0,0,0,0,0,0,0,0,0,0,0,0,0,0,0,0,0,0,0,0,0,0,0,0,0,0,0,0,0],"sum_hessian":[2.94E3,2.806E3,1.34E2,2.79E3,1.6E1,8.7E1,4.7E1,4.91E2,2.299E3,2E0,1.4E1,8.2E1,5E0,3.5E1,1.2E1,4.78E2,1.3E1,1.994E3,3.05E2,1E0,1E0,3E0,7.9E1,2.5E1,1E1,1.1E1,1E0,4.5E1,4.33E2,1.934E3,6E1,2.72E2,3.3E1,7.2E1,7E0,1.7E1,8E0,1E0,9E0,1E0,1E1,2.4E1,2.1E1,1.1E1,4.22E2,1.406E3,5.28E2,1.2E1,4.8E1,3.3E1,2.39E2,3E1,3E0,8E0,6.4E1,5E0,2E0,9E0,8E0,7E0,1E0],"tree_param":{"num_deleted":"0","num_feature":"11","num_nodes":"61","size_leaf_vector":"0"}},{"base_weights":[-3.0601837E-2,-1.2112576E-2,-4.148148E-1,1.1037528E-3,-4.1111112E-1,-6.3366336E-1,2.2857143E-1,-1.1077158E-2,3.1683168E-1,-7.54717E-2,-8.684211E-1,-7.1875E-1,8.333333E-1,-1.7391305E-1,9.230769E-1,-6.533436E-3,-7.058824E-1,-0E0,5.423729E-1,6.666667E-1,-3.5897437E-1,-9.714286E-1,2.5E-1,1.8181819E-1,-8.255814E-1,-6.1538464E-1,3.6363637E-1,-1.2524462E-2,3.125E-1,6.666667E-1,-9.3333334E-1,8.333333E-1,-1.3157895E-1,6.481481E-1,-5E-1,9.230769E-1,-6.666667E-1,-5.9375E-1,6.25E-1,6.666667E-1,-5E-1,-7.5E-1,6.25E-1,-8.6904764E-1,6.666667E-1,-9E-1,2.5E-1,6.666667E-1,-6.666667E-1,-7.2727275E-1,-9.430256E-3,4E-1,-7.5E-1,4.1666666E-1,-3.7037036E-1,7.755102E-1,-5E-1,5E-1,-8E-1,-8.148148E-1,5E-1,-5E-1,8.5714287E-1,8.5714287E-1,-5E-1,-9.102564E-1,-2.857143E-1,6.666667E-1,-5E-1,8.75E-1,-5E-1],"categories":[],"categories_nodes":[],"categories_segments":[],"categories_sizes":[],"default_left":[1,1,1,1,1,1,1,1,1,1,1,1,0,1,0,1,1,1,1,1,1,0,1,1,1,1,1,1,1,0,0,0,1,1,1,0,0,1,1,0,0,0,1,1,0,0,1,1,0,0,0,0,0,0,0,0,0,0,0,0,0,0,0,0,0,0,0,0,0,0,0],"id":20,"left_children":[1,3,5,7,9,11,13,15,17,19,21,23,-1,25,-1,27,29,31,33,35,37,-1,39,41,43,45,47,49,51,-1,-1,-1,53,55,57,-1,-1,59,61,-1,-1,-1,63,65,-1,-1,67,69,-1,-1,-1,-1,-1,-1,-1,-1,-1,-1,-1,-1,-1,-1,-1,-1,-1,-1,-1,-1,-1,-1,-1],"loss_changes":[2.0887291E1,1.4802595E1,1.9153397E1,1.045654E1,1.3748671E1,1.3205963E1,9.944004E0,8.26042E0,7.2173185E0,1.1390421E1,4.620678E0,9.386166E0,0E0,5.6819706E0,0E0,4.9772143E0,5.929411E0,4.824561E0,6.8292522E0,5.74359E0,9.3806095E0,0E0,1.5833334E0,5.0113635E0,6.1575317E0,3.4269233E0,3.878788E0,5.6437254E0,4.7625E0,0E0,0E0,0E0,5.1291423E0,8.284203E0,2.2E0,0E0,0E0,8.144676E0,2.517857E0,0E0,0E0,0E0,2.517857E0,1.7591553E0,0E0,0E0,1.5833334E0,2.625E0,0E0,0E0,0E0,0E0,0E0,0E0,0E0,0E0,0E0,0E0,0E0,0E0,0E0,0E0,0E0,0E0,0E0,0E0,0E0,0E0,0E0,0E0,0E0],"parents":[2147483647,0,0,1,1,2,2,3,3,4,4,5,5,6,6,7,7,8,8,9,9,10,10,11,11,13,13,15,15,16,16,17,17,18,18,19,19,20,20,22,22,23,23,24,24,25,25,26,26,27,27,28,28,32,32,33,33,34,34,37,37,38,38,42,42,43,43,46,46,47,47],"right_children":[2,4,6,8,10,12,14,16,18,20,22,24,-1,26,-1,28,30,32,34,36,38,-1,40,42,44,46,48,50,52,-1,-1,-1,54,56,58,-1,-1,60,62,-1,-1,-1,64,66,-1,-1,68,70,-1,-1,-1,-1,-1,-1,-1,-1,-1,-1,-1,-1,-1,-1,-1,-1,-1,-1,-1,-1,-1,-1,-1],"split_conditions":[9.99065E-1,2.1775E2,7.75E0,1.475E1,9.55E0,2.03E1,6.75E-1,1.355E1,9.9815E-1,7.55E0,6.1E-1,1.36E2,2.5E-1,2.75E-1,2.769231E-1,7.325E1,2.8E-1,1.4975E1,5.7499997E-2,8.15E-2,1.3200001E1,-2.914286E-1,6.6499996E0,6.35E0,7.9999995E-1,1.7375E1,3.5500002E-1,4.8500004E0,1.09E2,2.0000002E-1,-2.8E-1,2.5E-1,6.3E0,6.05E1,6.3500004E0,2.769231E-1,-2.0000002E-1,3.2350001E0,1.8E-1,2.0000002E-1,-1.5E-1,-2.2500001E-1,7.5E0,5.15E-1,2.0000002E-1,-2.7E-1,8.15E0,2.445E1,-2.0000002E-1,-2.1818183E-1,-2.8290767E-3,1.20000005E-1,-2.2500001E-1,1.25E-1,-1.1111111E-1,2.3265307E-1,-1.5E-1,1.5E-1,-2.4000001E-1,-2.4444444E-1,1.5E-1,-1.5E-1,2.5714287E-1,2.5714287E-1,-1.5E-1,-2.7307692E-1,-8.5714296E-2,2.0000002E-1,-1.5E-1,2.6250002E-1,-1.5E-1],"split_indices":[7,6,0,3,10,3,9,10,7,3,9,6,0,1,0,5,1,3,4,4,3,0,0,0,9,3,1,0,5,0,0,0,0,5,0,0,0,8,2,0,0,0,0,2,0,0,0,3,0,0,0,0,0,0,0,0,0,0,0,0,0,0,0,0,0,0,0,0,0,0,0],"split_type":[0,0,0,0,0,0,0,0,0,0,0,0,0,0,0,0,0,0,0,0,0,0,0,0,0,0,0,0,0,0,0,0,0,0,0,0,0,0,0,0,0,0,0,0,0,0,0,0,0,0,0,0,0,0,0,0,0,0,0,0,0,0,0,0,0,0,0,0,0,0,0],"sum_hessian":[2.94E3,2.806E3,1.34E2,2.717E3,8.9E1,1E2,3.4E1,2.617E3,1E2,5.2E1,3.7E1,9.5E1,5E0,2.2E1,1.2E1,2.601E3,1.6E1,4.2E1,5.8E1,1.4E1,3.8E1,3.4E1,3E0,1E1,8.5E1,1.2E1,1E1,2.554E3,4.7E1,2E0,1.4E1,5E0,3.7E1,5.3E1,5E0,1.2E1,2E0,3.1E1,7E0,2E0,1E0,3E0,7E0,8.3E1,2E0,9E0,3E0,8E0,2E0,1E1,2.544E3,4.4E1,3E0,1.1E1,2.6E1,4.8E1,5E0,1E0,4E0,2.6E1,5E0,1E0,6E0,6E0,1E0,7.7E1,6E0,2E0,1E0,7E0,1E0],"tree_param":{"num_deleted":"0","num_feature":"11","num_nodes":"71","size_leaf_vector":"0"}},{"base_weights":[1.4280857E-2,-3.5625224E-3,3.8518518E-1,1.5654119E-2,-4.16E-1,-9E-1,4.8412699E-1,1.052236E-2,6.086956E-1,-1E-1,-8.035714E-1,7.7922076E-1,2E-2,1.101083E-1,-1.565465E-2,-2.5E-1,7.5E-1,-2.2222222E-1,8.75E-1,-8.679245E-1,2.5E-1,8.4931505E-1,-4E-1,4.5833334E-1,-3.7037036E-1,-2.9850746E-2,3.2272726E-1,-8.649687E-3,-5.3571427E-1,-6.666667E-1,5E-1,-5E-1,8.4210527E-1,-5.769231E-1,2.631579E-2,-0E0,-9.3877554E-1,6.666667E-1,-5E-1,8.9855075E-1,-0E0,-7.5E-1,5E-1,7.222222E-1,-2.857143E-1,7.5E-1,-5.416667E-1,-1.1447811E-1,6.1538464E-1,3.7438422E-1,-2.777778E-1,-1.8728437E-2,3.773585E-1,-7.5E-1,-0E0,2.5E-1,9.375E-1,-8.5E-1,2.857143E-1,4.347826E-1,-5.625E-1,-6.666667E-1,6.666667E-1,-4E-1,-9.777778E-1,9.516129E-1,3.75E-1,-6.666667E-1,6.666667E-1,9.375E-1,-6.666667E-1,6.666667E-1,-8E-1,6.666667E-1,-6.818182E-1],"categories":[],"categories_nodes":[],"categories_segments":[],"categories_sizes":[],"default_left":[1,1,1,1,1,0,1,1,1,1,1,1,1,1,1,1,1,1,0,1,1,1,1,1,1,1,1,1,1,0,0,0,1,1,1,1,1,0,0,1,1,0,0,1,1,0,1,0,0,0,0,0,0,0,0,0,0,0,0,0,0,0,0,0,0,0,0,0,0,0,0,0,0,0,0],"id":21,"left_children":[1,3,5,7,9,-1,11,13,15,17,19,21,23,25,27,29,31,33,-1,35,37,39,41,43,45,47,49,51,53,-1,-1,-1,55,57,59,61,63,-1,-1,65,67,-1,-1,69,71,-1,73,-1,-1,-1,-1,-1,-1,-1,-1,-1,-1,-1,-1,-1,-1,-1,-1,-1,-1,-1,-1,-1,-1,-1,-1,-1,-1,-1,-1],"loss_changes":[1.9465458E1,2.2253847E1,1.7602116E1,8.158893E0,1.5228714E1,0E0,1.72415E1,6.938584E0,2.978261E0,8.536111E0,4.013817E0,6.7042885E0,8.725369E0,1.6495539E1,7.6748047E0,1.5833334E0,2.7236843E0,5.5690503E0,0E0,3.2591438E0,1.5833334E0,3.0526085E0,1.95E0,4.918651E0,5.587962E0,1.836298E1,6.9284534E0,8.103156E0,3.2142859E0,0E0,0E0,0E0,8.388157E-1,6.3675823E0,9.38401E0,2.6666667E0,6.38546E-1,0E0,0E0,1.5600166E0,2.6666667E0,0E0,0E0,6.0069437E0,3.9619048E0,0E0,4.5189395E0,0E0,0E0,0E0,0E0,0E0,0E0,0E0,0E0,0E0,0E0,0E0,0E0,0E0,0E0,0E0,0E0,0E0,0E0,0E0,0E0,0E0,0E0,0E0,0E0,0E0,0E0,0E0,0E0],"parents":[2147483647,0,0,1,1,2,2,3,3,4,4,6,6,7,7,8,8,9,9,10,10,11,11,12,12,13,13,14,14,15,15,16,16,17,17,19,19,20,20,21,21,22,22,23,23,24,24,25,25,26,26,27,27,28,28,32,32,33,33,34,34,35,35,36,36,39,39,40,40,43,43,44,44,46,46],"right_children":[2,4,6,8,10,-1,12,14,16,18,20,22,24,26,28,30,32,34,-1,36,38,40,42,44,46,48,50,52,54,-1,-1,-1,56,58,60,62,64,-1,-1,66,68,-1,-1,70,72,-1,74,-1,-1,-1,-1,-1,-1,-1,-1,-1,-1,-1,-1,-1,-1,-1,-1,-1,-1,-1,-1,-1,-1,-1,-1,-1,-1,-1,-1],"split_conditions":[9.99065E-1,1.4424999E1,2.75E1,1.345E1,9.9832E-1,-2.7E-1,5.7E-1,9.45E0,2.8E-1,6.2E-1,5.9E-2,2.03E1,9.99465E-1,3.175E-1,9.9792004E-1,6.05E0,1.1E-2,9.55E0,2.6250002E-1,3.85E-2,7.05E0,5E-1,7.4E0,2.11E2,4.25E1,1.375E1,1.315E1,2.135E2,5.15E-2,-2.0000002E-1,1.5E-1,-1.5E-1,1.35E1,3.75E1,1.5575001E1,3.7E-1,9.9838245E-1,2.0000002E-1,-1.5E-1,1.965E1,2.5E-1,-2.2500001E-1,1.5E-1,7.9999995E-1,7.1E0,2.2500001E-1,6.8E0,-3.4343436E-2,1.846154E-1,1.12315275E-1,-8.333334E-2,-5.6185313E-3,1.1320756E-1,-2.2500001E-1,-0E0,7.5E-2,2.8125E-1,-2.5500003E-1,8.5714296E-2,1.3043478E-1,-1.6875E-1,-2.0000002E-1,2.0000002E-1,-1.20000005E-1,-2.9333335E-1,2.8548387E-1,1.12500004E-1,-2.0000002E-1,2.0000002E-1,2.8125E-1,-2.0000002E-1,2.0000002E-1,-2.4000001E-1,2.0000002E-1,-2.0454547E-1],"split_indices":[7,3,5,10,7,0,9,10,1,2,4,3,7,1,7,0,4,10,0,4,0,2,0,6,5,3,3,6,4,0,0,0,5,5,3,2,7,0,0,3,1,0,0,9,0,0,0,0,0,0,0,0,0,0,0,0,0,0,0,0,0,0,0,0,0,0,0,0,0,0,0,0,0,0,0],"split_type":[0,0,0,0,0,0,0,0,0,0,0,0,0,0,0,0,0,0,0,0,0,0,0,0,0,0,0,0,0,0,0,0,0,0,0,0,0,0,0,0,0,0,0,0,0,0,0,0,0,0,0,0,0,0,0,0,0,0,0,0,0,0,0,0,0,0,0,0,0,0,0,0,0,0,0],"sum_hessian":[2.94E3,2.806E3,1.34E2,2.682E3,1.24E2,9E0,1.25E2,2.66E3,2.2E1,6.9E1,5.5E1,7.6E1,4.9E1,5.53E2,2.107E3,3E0,1.9E1,6.2E1,7E0,5.2E1,3E0,7.2E1,4E0,2.3E1,2.6E1,3.34E2,2.19E2,2.08E3,2.7E1,2E0,1E0,1E0,1.8E1,2.5E1,3.7E1,4E0,4.8E1,2E0,1E0,6.8E1,4E0,3E0,1E0,1.7E1,6E0,3E0,2.3E1,2.96E2,3.8E1,2.02E2,1.7E1,2.028E3,5.2E1,1.9E1,8E0,3E0,1.5E1,1.9E1,6E0,2.2E1,1.5E1,2E0,2E0,4E0,4.4E1,6.1E1,7E0,2E0,2E0,1.5E1,2E0,2E0,4E0,2E0,2.1E1],"tree_param":{"num_deleted":"0","num_feature":"11","num_nodes":"75","size_leaf_vector":"0"}},{"base_weights":[-1.4280857E-2,7.1250444E-4,-3.2592592E-1,-1.761468E-2,6.0240966E-1,-4.5689654E-1,4.5E-1,2.0618556E-2,-1.3062409E-1,-5E-1,6.7948717E-1,-6.333333E-1,1.4814815E-1,-5.714286E-1,9.285714E-1,2.6799008E-2,-5.217391E-1,-1.797005E-1,2.0224719E-1,-8E-1,5E-1,-4E-1,7.432432E-1,6.25E-1,-7.4698794E-1,-8.333333E-1,4.090909E-1,-8.333333E-1,5E-1,2.2477522E-2,6.4285713E-1,4E-1,-7.368421E-1,-4.7138046E-2,-3.0819672E-1,4.2857144E-2,7.5E-1,5E-1,-7.5E-1,-2.5E-1,7.887324E-1,8.5714287E-1,-5E-1,-8.101266E-1,4E-1,8E-1,-3.75E-1,3.7253857E-2,-2.016129E-1,-5E-1,7.692308E-1,-5E-1,7.5E-1,-0E0,-9.3333334E-1,-3.3802816E-1,4.405286E-2,-4.4270834E-1,-7.8947365E-2,6.315789E-1,-1.7307693E-1,-6.666667E-1,9.444444E-1,-6.666667E-1,5E-1,8.382353E-1,-2.5E-1,-9.5E-1,-3.5E-1,7.5E-1,-5E-1,-5E-1,9.285714E-1,-8.333333E-1,6.666667E-1],"categories":[],"categories_nodes":[],"categories_segments":[],"categories_sizes":[],"default_left":[1,1,1,1,1,1,1,1,1,1,1,1,1,1,0,1,1,1,1,0,0,1,1,1,1,0,1,0,0,1,1,1,1,1,1,1,1,0,0,1,1,0,0,1,1,1,1,0,0,0,0,0,0,0,0,0,0,0,0,0,0,0,0,0,0,0,0,0,0,0,0,0,0,0,0],"id":22,"left_children":[1,3,5,7,9,11,13,15,17,19,21,23,25,27,-1,29,31,33,35,-1,-1,37,39,41,43,-1,45,-1,-1,47,49,51,53,55,57,59,61,-1,-1,63,65,-1,-1,67,69,71,73,-1,-1,-1,-1,-1,-1,-1,-1,-1,-1,-1,-1,-1,-1,-1,-1,-1,-1,-1,-1,-1,-1,-1,-1,-1,-1,-1,-1],"loss_changes":[1.374237E1,3.0964561E1,1.3924777E1,1.1776643E1,7.3923397E0,1.2477076E1,1.0307142E1,6.8420367E0,1.1291935E1,2.2E0,5.665558E0,1.3338253E1,7.2558923E0,2.3809521E0,0E0,5.350056E0,4.85492E0,1.0222771E1,7.738122E0,0E0,0E0,1.95E0,3.5406342E0,2.517857E0,6.3348503E0,0E0,7.0431824E0,0E0,0E0,6.636605E0,2.4065933E0,1.95E0,2.7508774E0,7.893272E0,9.370241E0,9.008068E0,6.1388893E0,0E0,0E0,1.5833334E0,3.8603973E0,0E0,0E0,4.7518997E0,1.95E0,2.971428E0,4.375E0,0E0,0E0,0E0,0E0,0E0,0E0,0E0,0E0,0E0,0E0,0E0,0E0,0E0,0E0,0E0,0E0,0E0,0E0,0E0,0E0,0E0,0E0,0E0,0E0,0E0,0E0,0E0,0E0],"parents":[2147483647,0,0,1,1,2,2,3,3,4,4,5,5,6,6,7,7,8,8,9,9,10,10,11,11,12,12,13,13,15,15,16,16,17,17,18,18,21,21,22,22,23,23,24,24,26,26,29,29,30,30,31,31,32,32,33,33,34,34,35,35,36,36,39,39,40,40,43,43,44,44,45,45,46,46],"right_children":[2,4,6,8,10,12,14,16,18,20,22,24,26,28,-1,30,32,34,36,-1,-1,38,40,42,44,-1,46,-1,-1,48,50,52,54,56,58,60,62,-1,-1,64,66,-1,-1,68,70,72,74,-1,-1,-1,-1,-1,-1,-1,-1,-1,-1,-1,-1,-1,-1,-1,-1,-1,-1,-1,-1,-1,-1,-1,-1,-1,-1,-1,-1],"split_conditions":[9.99065E-1,9.9859E-1,6.85E-1,4.95E-2,1.275E1,4.85E-1,7.2E0,1.345E1,1.085E1,5.75E-1,3.8999997E-2,2.75E1,9.99505E-1,2.15E-1,2.7857143E-1,9.98385E-1,2.3E-2,1.505E2,9.9450004E-1,-2.4000001E-1,1.5E-1,6.5E0,1.95E-1,9.8E0,2.0075E1,-2.5E-1,1.795E1,-2.5E-1,1.5E-1,4.95E-1,2.1000001E-1,1.1E-2,3.135E0,2.55E-1,4.85E1,1.45E0,1.185E2,1.5E-1,-2.2500001E-1,7.25E0,9.75E0,2.5714287E-1,-1.5E-1,5.65E-1,7.3500004E0,1.52E1,2.55E-1,1.1176158E-2,-6.0483873E-2,-1.5E-1,2.3076925E-1,-1.5E-1,2.2500001E-1,-0E0,-2.8E-1,-1.0140845E-1,1.3215859E-2,-1.3281251E-1,-2.3684211E-2,1.8947369E-1,-5.192308E-2,-2.0000002E-1,2.8333333E-1,-2.0000002E-1,1.5E-1,2.514706E-1,-7.5E-2,-2.85E-1,-1.05000004E-1,2.2500001E-1,-1.5E-1,-1.5E-1,2.7857143E-1,-2.5E-1,2.0000002E-1],"split_indices":[7,7,9,4,3,2,0,10,10,9,4,5,7,1,0,7,4,6,7,0,0,0,2,0,3,0,3,0,0,2,1,4,8,2,5,3,6,0,0,0,10,0,0,9,0,3,1,0,0,0,0,0,0,0,0,0,0,0,0,0,0,0,0,0,0,0,0,0,0,0,0,0,0,0,0],"split_type":[0,0,0,0,0,0,0,0,0,0,0,0,0,0,0,0,0,0,0,0,0,0,0,0,0,0,0,0,0,0,0,0,0,0,0,0,0,0,0,0,0,0,0,0,0,0,0,0,0,0,0,0,0,0,0,0,0,0,0,0,0,0,0,0,0,0,0,0,0,0,0,0,0,0,0],"sum_hessian":[2.94E3,2.806E3,1.34E2,2.724E3,8.2E1,1.15E2,1.9E1,2.036E3,6.88E2,5E0,7.7E1,8.9E1,2.6E1,6E0,1.3E1,2.014E3,2.2E1,6E2,8.8E1,4E0,1E0,4E0,7.3E1,7E0,8.2E1,5E0,2.1E1,5E0,1E0,2.001E3,1.3E1,4E0,1.8E1,2.96E2,3.04E2,6.9E1,1.9E1,1E0,3E0,3E0,7E1,6E0,1E0,7.8E1,4E0,1.4E1,7E0,1.878E3,1.23E2,1E0,1.2E1,1E0,3E0,4E0,1.4E1,7E1,2.26E2,1.91E2,1.13E2,1.8E1,5.1E1,2E0,1.7E1,2E0,1E0,6.7E1,3E0,5.9E1,1.9E1,3E0,1E0,1E0,1.3E1,5E0,2E0],"tree_param":{"num_deleted":"0","num_feature":"11","num_nodes":"75","size_leaf_vector":"0"}},{"base_weights":[2.6521591E-2,1.1232011E-2,4.9462366E-1,-5.93692E-3,3.0967742E-1,6.375E-1,-3.5714287E-1,1.178782E-2,-3.0463576E-1,3.897059E-1,-2.5E-1,7.5714284E-1,-1.8181819E-1,-7.2727275E-1,7.5E-1,-4.1545494E-3,2.877698E-1,-6.0273975E-1,-2.5316456E-2,4.318182E-1,-8E-1,-7.692308E-1,6.25E-1,-2.2222222E-1,8.8709676E-1,-8.5714287E-1,8E-1,-0E0,-8.888889E-1,5.541347E-3,-3.7096775E-1,-8E-1,4.16E-1,-2.3333333E-1,-8.4090906E-1,4.516129E-1,-3.265306E-1,2.7142859E-1,6.031746E-1,-9.166667E-1,5E-1,8.5714287E-1,-5E-1,7.5E-1,-8.333333E-1,3.6363637E-1,9.807692E-1,5E-1,-5E-1,-4.3802015E-3,3.59375E-1,8.75E-1,-5.4545456E-1,5E-1,-9.285714E-1,5.1282054E-1,-8.888889E-1,-7.5E-1,7.2727275E-1,-8.8372093E-1,5E-1,7.307692E-1,-8.333333E-1,-1.75E-1,-9E-1,8.888889E-1,1.7741935E-1,-1.25E-1,6.964286E-1,-4E-1,8.5714287E-1],"categories":[],"categories_nodes":[],"categories_segments":[],"categories_sizes":[],"default_left":[1,1,1,1,1,1,1,1,1,1,1,1,1,1,0,1,1,1,1,1,0,1,1,1,1,0,0,1,0,1,1,1,1,1,1,1,1,1,1,0,0,0,0,0,0,1,0,0,0,0,0,0,0,0,0,0,0,0,0,0,0,0,0,0,0,0,0,0,0,0,0],"id":23,"left_children":[1,3,5,7,9,11,13,15,17,19,21,23,25,27,-1,29,31,33,35,37,-1,39,41,43,45,-1,-1,47,-1,49,51,53,55,57,59,61,63,65,67,-1,-1,-1,-1,-1,-1,69,-1,-1,-1,-1,-1,-1,-1,-1,-1,-1,-1,-1,-1,-1,-1,-1,-1,-1,-1,-1,-1,-1,-1,-1,-1],"loss_changes":[2.1043428E1,1.4600082E1,1.15455265E1,1.4271889E1,7.039895E0,7.979706E0,6.282468E0,1.1198703E1,1.2557936E1,7.1592255E0,9.567307E0,9.106194E0,7.979221E0,1.2929292E0,0E0,8.56275E0,1.9721209E1,6.2264233E0,1.1496438E1,3.4641418E0,0E0,2.8910255E0,2.517857E0,5.972222E0,2.6834526E0,0E0,0E0,1E0,0E0,8.23739E0,1.3956378E1,2.971428E0,1.624834E1,1.5434849E1,2.9677582E0,1.1728701E1,4.100511E0,3.9055815E0,4.36508E0,0E0,0E0,0E0,0E0,0E0,0E0,4.488312E0,0E0,0E0,0E0,0E0,0E0,0E0,0E0,0E0,0E0,0E0,0E0,0E0,0E0,0E0,0E0,0E0,0E0,0E0,0E0,0E0,0E0,0E0,0E0,0E0,0E0],"parents":[2147483647,0,0,1,1,2,2,3,3,4,4,5,5,6,6,7,7,8,8,9,9,10,10,11,11,12,12,13,13,15,15,16,16,17,17,18,18,19,19,21,21,22,22,23,23,24,24,27,27,29,29,30,30,31,31,32,32,33,33,34,34,35,35,36,36,37,37,38,38,45,45],"right_children":[2,4,6,8,10,12,14,16,18,20,22,24,26,28,-1,30,32,34,36,38,-1,40,42,44,46,-1,-1,48,-1,50,52,54,56,58,60,62,64,66,68,-1,-1,-1,-1,-1,-1,70,-1,-1,-1,-1,-1,-1,-1,-1,-1,-1,-1,-1,-1,-1,-1,-1,-1,-1,-1,-1,-1,-1,-1,-1,-1],"split_conditions":[1.6925E1,6.4500004E-2,5.05E-1,9.9839497E-1,4.925E-1,2.005E1,1.8E1,9.9779E-1,9.9885E-1,7.425E1,1.835E2,2.6E1,2.9000002E-1,1.74E1,2.2500001E-1,6.95E1,1.185E2,4.75E-1,5.2E-1,2.9500002E-1,-2.4000001E-1,6.4250004E-1,2.2749999E-1,1.55E1,9.9907E-1,-2.5714287E-1,2.4000001E-1,8.85E0,-2.6666668E-1,2.145E2,3.6E-1,1.17E1,6.1499998E-2,1.6775E2,4.85E-1,4.7E-1,5.9E1,2.9650002E0,1E2,-2.75E-1,1.5E-1,2.5714287E-1,-1.5E-1,2.2500001E-1,-2.5E-1,1.7349998E1,2.942308E-1,1.5E-1,-1.5E-1,-1.3140605E-3,1.078125E-1,2.6250002E-1,-1.6363637E-1,1.5E-1,-2.7857143E-1,1.5384617E-1,-2.6666668E-1,-2.2500001E-1,2.1818183E-1,-2.651163E-1,1.5E-1,2.1923077E-1,-2.5E-1,-5.2500002E-2,-2.7E-1,2.6666668E-1,5.3225808E-2,-3.75E-2,2.0892859E-1,-1.20000005E-1,2.5714287E-1],"split_indices":[3,4,2,7,1,3,3,7,7,5,6,5,1,3,0,5,6,9,9,1,0,1,4,5,7,0,0,0,0,6,9,3,4,6,1,2,5,8,6,0,0,0,0,0,0,3,0,0,0,0,0,0,0,0,0,0,0,0,0,0,0,0,0,0,0,0,0,0,0,0,0],"split_type":[0,0,0,0,0,0,0,0,0,0,0,0,0,0,0,0,0,0,0,0,0,0,0,0,0,0,0,0,0,0,0,0,0,0,0,0,0,0,0,0,0,0,0,0,0,0,0,0,0,0,0,0,0,0,0,0,0,0,0,0,0,0,0,0,0,0,0,0,0,0,0],"sum_hessian":[2.94E3,2.848E3,9.2E1,2.694E3,1.54E2,7.9E1,1.3E1,2.544E3,1.5E2,1.35E2,1.9E1,6.9E1,1E1,1E1,3E0,2.406E3,1.38E2,7.2E1,7.8E1,1.31E2,4E0,1.2E1,7E0,8E0,6.1E1,6E0,4E0,2E0,8E0,2.345E3,6.1E1,1.4E1,1.24E2,2.9E1,4.3E1,3E1,4.8E1,6.9E1,6.2E1,1.1E1,1E0,6E0,1E0,3E0,5E0,1E1,5.1E1,1E0,1E0,2.282E3,6.3E1,7E0,5.4E1,1E0,1.3E1,1.16E2,8E0,1.9E1,1E1,4.2E1,1E0,2.5E1,5E0,3.9E1,9E0,8E0,6.1E1,7E0,5.5E1,4E0,6E0],"tree_param":{"num_deleted":"0","num_feature":"11","num_nodes":"71","size_leaf_vector":"0"}},{"base_weights":[-3.0601837E-2,-1.4477401E-2,-4.4545454E-1,7.377351E-4,-3.52459E-1,9.375E-2,-6.5822786E-1,-1.6222479E-2,3.5772356E-1,-8.076923E-1,-2.2680412E-1,6.111111E-1,-5.3333336E-1,-7.605634E-1,2.2222222E-1,3.895184E-2,-8.234295E-2,5.425532E-1,-2.3333333E-1,5E-1,-8.8E-1,1.25E-1,-4.6551725E-1,-6.666667E-1,8.125E-1,-9.0909094E-1,4E-1,7.5E-1,-8.382353E-1,8.333333E-1,-7.5E-1,1.2955465E-2,2.1910113E-1,-5.0862852E-2,-5.25641E-1,2.1428572E-1,7.924528E-1,-7.368421E-1,5.833333E-1,-4E-1,-9.5238096E-1,5.185185E-1,-6.4285713E-1,-6.304348E-1,1.5384616E-1,-0E0,9.285714E-1,7.5E-1,-5E-1,-9.21875E-1,4E-1,-9.683099E-3,2.7E-1,5.5421686E-1,-7.2916664E-2,-2.746479E-1,-1.7708333E-2,-8.0851066E-1,-9.375E-2,4.1666666E-1,-8.5714287E-1,8.269231E-1,-5E-1,5E-1,-8.333333E-1,-6.666667E-1,9E-1,5E-1,-7.5E-1,7.826087E-1,-8E-1,-7.692308E-1,5E-1,-0E0,-7.631579E-1,-7.5E-1,5E-1,-5E-1,5E-1,-9.5238096E-1,5E-1,-5E-1,7.5E-1],"categories":[],"categories_nodes":[],"categories_segments":[],"categories_sizes":[],"default_left":[1,1,1,1,1,1,1,1,1,1,1,1,1,1,1,1,1,1,1,0,1,1,1,0,1,0,1,0,1,0,0,1,1,1,1,1,1,1,1,1,0,1,1,1,1,1,0,0,0,1,1,0,0,0,0,0,0,0,0,0,0,0,0,0,0,0,0,0,0,0,0,0,0,0,0,0,0,0,0,0,0,0,0],"id":24,"left_children":[1,3,5,7,9,11,13,15,17,19,21,23,25,27,29,31,33,35,37,-1,39,41,43,-1,45,-1,47,-1,49,-1,-1,51,53,55,57,59,61,63,65,67,-1,69,71,73,75,77,-1,-1,-1,79,81,-1,-1,-1,-1,-1,-1,-1,-1,-1,-1,-1,-1,-1,-1,-1,-1,-1,-1,-1,-1,-1,-1,-1,-1,-1,-1,-1,-1,-1,-1,-1,-1],"loss_changes":[1.966668E1,1.456364E1,1.2681826E1,1.6419706E1,6.795491E0,1.070764E1,7.287018E0,9.448274E0,1.3563709E1,2.8984623E0,8.204275E0,5.1736107E0,5.6242423E0,8.958988E0,5.972222E0,6.6098804E0,1.6412336E1,7.541376E0,1.2765789E1,0E0,4.876175E-1,1.2419973E1,6.0213337E0,0E0,1.5089283E0,0E0,1.95E0,0E0,7.411213E0,0E0,0E0,7.1892266E0,1.745945E1,8.163989E0,9.453371E0,9.464285E0,2.7746735E0,2.6842108E0,5.35E0,1.95E0,0E0,1.0027698E1,2.4065933E0,3.8489704E0,4.4423075E0,1E0,0E0,0E0,0E0,3.2522316E0,1.95E0,0E0,0E0,0E0,0E0,0E0,0E0,0E0,0E0,0E0,0E0,0E0,0E0,0E0,0E0,0E0,0E0,0E0,0E0,0E0,0E0,0E0,0E0,0E0,0E0,0E0,0E0,0E0,0E0,0E0,0E0,0E0,0E0],"parents":[2147483647,0,0,1,1,2,2,3,3,4,4,5,5,6,6,7,7,8,8,9,9,10,10,11,11,12,12,13,13,14,14,15,15,16,16,17,17,18,18,20,20,21,21,22,22,24,24,26,26,28,28,31,31,32,32,33,33,34,34,35,35,36,36,37,37,38,38,39,39,41,41,42,42,43,43,44,44,45,45,49,49,50,50],"right_children":[2,4,6,8,10,12,14,16,18,20,22,24,26,28,30,32,34,36,38,-1,40,42,44,-1,46,-1,48,-1,50,-1,-1,52,54,56,58,60,62,64,66,68,-1,70,72,74,76,78,-1,-1,-1,80,82,-1,-1,-1,-1,-1,-1,-1,-1,-1,-1,-1,-1,-1,-1,-1,-1,-1,-1,-1,-1,-1,-1,-1,-1,-1,-1,-1,-1,-1,-1,-1,-1],"split_conditions":[1.6349998E1,2.1225E2,9.9907E-1,9.9839497E-1,4.65E-1,2.65E-1,2.005E1,6.8500004E0,9.99465E-1,5.8500004E0,3.1750002E0,1.8E1,4.35E1,1.275E2,3.05E-1,9.9608004E-1,9.9791E-1,4.95E-1,5.3E1,1.5E-1,3.05E0,3.45E-1,6.55E1,-2.0000002E-1,1.6599998E1,-2.7272728E-1,3.95E-1,2.2500001E-1,6.5E-1,2.5E-1,