{"learner":{"attributes":{"best_iteration":"99","best_ntree_limit":"100","scikit_learn":"{\"n_estimators\": 100, \"objective\": \"reg:squarederror\", \"max_depth\": null, \"max_leaves\": null, \"max_bin\": null, \"grow_policy\": null, \"learning_rate\": null, \"verbosity\": null, \"booster\": null, \"tree_method\": null, \"gamma\": null, \"min_child_weight\": null, \"max_delta_step\": null, \"subsample\": null, \"sampling_method\": null, \"colsample_bytree\": null, \"colsample_bylevel\": null, \"colsample_bynode\": null, \"reg_alpha\": null, \"reg_lambda\": null, \"scale_pos_weight\": null, \"base_score\": null, \"missing\": NaN, \"num_parallel_tree\": null, \"random_state\": null, \"n_jobs\": null, \"monotone_constraints\": null, \"interaction_constraints\": null, \"importance_type\": null, \"gpu_id\": null, \"validate_parameters\": null, \"predictor\": null, \"enable_categorical\": false, \"feature_types\": null, \"max_cat_to_onehot\": null, \"max_cat_threshold\": null, \"eval_metric\": \"mae\", \"early_stopping_rounds\": null, \"callbacks\": null, \"kwargs\": {\"seed\": 1337}, \"_estimator_type\": \"regressor\"}"},"feature_names":[],"feature_types":[],"gradient_booster":{"model":{"gbtree_model_param":{"num_parallel_tree":"1","num_trees":"100","size_leaf_vector":"0"},"tree_info":[0,0,0,0,0,0,0,0,0,0,0,0,0,0,0,0,0,0,0,0,0,0,0,0,0,0,0,0,0,0,0,0,0,0,0,0,0,0,0,0,0,0,0,0,0,0,0,0,0,0,0,0,0,0,0,0,0,0,0,0,0,0,0,0,0,0,0,0,0,0,0,0,0,0,0,0,0,0,0,0,0,0,0,0,0,0,0,0,0,0,0,0,0,0,0,0,0,0,0,0],"trees":[{"base_weights":[5.366882E0,5.103759E0,5.833808E0,5.4291725E0,4.902294E0,4.651786E0,5.8942885E0,5.4332867E0,1.25E0,5.0617886E0,4.7193604E0,5.9011045E0,1.6666666E0,5.0685153E0,2E0,2.6E0,4.7298746E0],"categories":[],"categories_nodes":[],"categories_segments":[],"categories_sizes":[],"default_left":[1,1,1,1,1,0,1,0,0,1,1,0,0,0,0,0,0],"id":0,"left_children":[1,3,5,7,9,-1,11,-1,-1,13,15,-1,-1,-1,-1,-1,-1],"loss_changes":[3.315547E2,9.722656E1,4.786328E1,5.466797E0,1.0451172E1,0E0,1.8917969E1,0E0,0E0,2.5302734E0,2.4804688E-1,0E0,0E0,0E0,0E0,0E0,0E0],"parents":[2147483647,0,0,1,1,2,2,3,3,4,4,6,6,9,9,10,10],"right_children":[2,4,6,8,10,-1,12,-1,-1,14,16,-1,-1,-1,-1,-1,-1],"split_conditions":[1.085E1,2.375E-1,1.05E1,1.125E1,3.025E-1,1.3955358E0,1.145E2,1.629986E0,3.75E-1,1.1425E2,5.8E1,1.7703314E0,5E-1,1.5205547E0,6E-1,7.8000003E-1,1.4189625E0],"split_indices":[10,1,5,0,1,0,5,0,0,5,6,0,0,0,0,0,0],"split_type":[0,0,0,0,0,0,0,0,0,0,0,0,0,0,0,0,0],"sum_hessian":[2.94E3,1.888E3,1.052E3,7.12E2,1.176E3,5.5E1,9.97E2,7.11E2,1E0,6.14E2,5.62E2,9.95E2,2E0,6.12E2,2E0,4E0,5.58E2],"tree_param":{"num_deleted":"0","num_feature":"11","num_nodes":"17","size_leaf_vector":"0"}},{"base_weights":[3.7602143E0,3.5821683E0,4.1022196E0,3.7688959E0,3.4028683E0,3.2200627E0,4.145259E0,3.7868009E0,2.7541316E0,3.4555905E0,3.0263493E0,1.9664061E0,3.3748171E0,3.940367E0,4.3071117E0,2.0583448E0,3.793973E0,3.3459017E0,3.6211047E0,3.0413132E0,5.4051876E-1,5.522321E-1,3.4276161E0,3.648343E-1,3.9478338E0,4.3402095E0,3.31397E0,3.7970493E0,1.5900047E0,2.852802E0,3.673862E0,2.4876003E0,3.1756704E0,3.49216E0,1.402976E0,3.9569356E0,1.3333334E0,3.648343E-1,3.443185E0,5.4051876E-1,2.5361025E0],"categories":[],"categories_nodes":[],"categories_segments":[],"categories_sizes":[],"default_left":[1,1,1,1,1,1,1,1,0,1,1,0,1,1,1,0,1,0,1,1,0,0,1,0,1,0,1,0,0,0,0,1,0,0,0,0,0,0,0,0,0],"id":1,"left_children":[1,3,5,7,9,11,13,15,-1,17,19,-1,21,23,25,-1,27,-1,29,31,-1,-1,33,-1,35,-1,37,-1,-1,-1,-1,39,-1,-1,-1,-1,-1,-1,-1,-1,-1],"loss_changes":[1.6439062E2,5.2191406E1,2.4621094E1,6.6865234E0,9.413086E0,3.2582397E0,1.4532227E1,3.6328125E0,0E0,3.6972656E0,3.229126E0,0E0,4.6644287E0,1.0065918E1,2.7089844E0,0E0,1.8652344E-1,0E0,3.0981445E0,1.7716064E0,0E0,0E0,7.197876E-1,0E0,4.9570312E0,0E0,6.746338E0,0E0,0E0,0E0,0E0,1.4623108E0,0E0,0E0,0E0,0E0,0E0,0E0,0E0,0E0,0E0],"parents":[2147483647,0,0,1,1,2,2,3,3,4,4,5,5,6,6,7,7,9,9,10,10,12,12,13,13,14,14,16,16,18,18,19,19,22,22,24,24,26,26,31,31],"right_children":[2,4,6,8,10,12,14,16,-1,18,20,-1,22,24,26,-1,28,-1,30,32,-1,-1,34,-1,36,-1,38,-1,-1,-1,-1,40,-1,-1,-1,-1,-1,-1,-1,-1,-1],"split_conditions":[1.099E1,2.575E-1,1.05E1,9.1E0,4.225E-1,1.9E-1,1.1775E1,6.5E0,8.262395E-1,9.85E0,2.4149999E-1,5.8992183E-1,2.35E1,7.9999995E-1,8.25E0,6.1750346E-1,1.1325E2,1.0037706E0,8.35E1,1.75E0,1.6215563E-1,1.6566963E-1,8.2500005E-1,1.09450296E-1,1.145E2,1.3020629E0,1.175E0,1.1391149E0,4.7700143E-1,8.558406E-1,1.1021587E0,8.6E0,9.5270115E-1,1.0476481E0,4.2089283E-1,1.1870807E0,4.0000004E-1,1.09450296E-1,1.0329555E0,1.6215563E-1,7.608308E-1],"split_indices":[10,1,5,0,1,2,10,5,0,10,4,0,6,3,0,0,5,0,6,3,0,0,9,0,5,0,3,0,0,0,0,10,0,0,0,0,0,0,0,0,0],"split_type":[0,0,0,0,0,0,0,0,0,0,0,0,0,0,0,0,0,0,0,0,0,0,0,0,0,0,0,0,0,0,0,0,0,0,0,0,0,0,0,0,0],"sum_hessian":[2.94E3,1.941E3,9.99E2,9.41E2,1E3,5E1,9.49E2,9.22E2,1.9E1,8.7E2,1.3E2,7E0,4.3E1,4.3E2,5.19E2,5E0,9.17E2,5.36E2,3.34E2,1.29E2,1E0,1E0,4.2E1,1E0,4.29E2,4.99E2,2E1,9.15E2,2E0,2.5E1,3.09E2,2.9E1,1E2,4E1,2E0,4.27E2,2E0,1E0,1.9E1,1E0,2.8E1],"tree_param":{"num_deleted":"0","num_feature":"11","num_nodes":"41","size_leaf_vector":"0"}},{"base_weights":[2.6370547E0,2.4579318E0,2.816089E0,2.7382376E0,2.3717787E0,2.7069542E0,3.0167496E0,2.5617068E0,3.2912674E0,1.9819041E0,2.3982053E0,2.121097E0,2.7472227E0,2.4108014E0,3.0524962E0,3.7134967E0,2.7379806E0,1.2054293E0,2.0298684E0,2.4146788E0,1.8911711E0,1.5418588E0,2.2756162E0,1.973094E0,2.7608926E0,1.2419698E0,3.0613723E0,8.6544955E-1,3.7618527E0,5.3863347E-1,2.0432851E0,2.4159362E0,5.641682E-1,1.2400365E0,2.0234723E0,1.8064276E0,9.0584236E-1,2.3162792E0,8.6646795E-1,2.111462E0,9.2634845E-1,2.689367E0,2.9543912E0,3.064841E0,7.138028E-1,2.3895366E0,3.9741077E0,2.2532597E0,2.4522476E0,2.1726503E0,1.2229377E0,2.3733995E0,1.0946052E0,2.7021592E0,1.9152243E0,2.9616542E0,6.601033E-1,7.138028E-1,3.0683246E0],"categories":[],"categories_nodes":[],"categories_segments":[],"categories_sizes":[],"default_left":[1,1,1,1,1,1,1,0,1,1,1,1,1,0,1,1,0,0,1,1,1,1,1,1,1,0,1,0,1,0,0,1,0,0,1,0,0,1,0,0,0,1,1,1,0,0,0,0,0,0,0,0,0,0,0,0,0,0,0],"id":2,"left_children":[1,3,5,7,9,11,13,-1,15,17,19,21,23,-1,25,27,-1,-1,29,31,33,35,37,39,41,-1,43,-1,45,-1,-1,47,-1,-1,49,-1,-1,51,-1,-1,-1,53,55,57,-1,-1,-1,-1,-1,-1,-1,-1,-1,-1,-1,-1,-1,-1,-1],"loss_changes":[8.739258E1,2.9197266E1,2.3895508E1,2.485962E1,6.972168E0,1.6773438E1,3.6235352E0,0E0,8.288025E0,4.5809937E-1,4.29541E0,2.398529E0,4.0024414E0,0E0,3.8310547E0,2.5285645E0,0E0,0E0,3.3996582E-1,1.0200195E0,7.643738E-1,1.2242584E0,8.580322E-1,7.959442E-1,4.164551E0,0E0,1.6557617E0,0E0,2.446167E0,0E0,0E0,5.1708984E-1,0E0,0E0,9.256439E-1,0E0,0E0,7.5164795E-1,0E0,0E0,0E0,1.2617188E0,1.8109131E0,1.6674805E0,0E0,0E0,0E0,0E0,0E0,0E0,0E0,0E0,0E0,0E0,0E0,0E0,0E0,0E0,0E0],"parents":[2147483647,0,0,1,1,2,2,3,3,4,4,5,5,6,6,8,8,9,9,10,10,11,11,12,12,14,14,15,15,18,18,19,19,20,20,21,21,22,22,23,23,24,24,26,26,28,28,31,31,34,34,37,37,41,41,42,42,43,43],"right_children":[2,4,6,8,10,12,14,-1,16,18,20,22,24,-1,26,28,-1,-1,30,32,34,36,38,40,42,-1,44,-1,46,-1,-1,48,-1,-1,50,-1,-1,52,-1,-1,-1,54,56,58,-1,-1,-1,-1,-1,-1,-1,-1,-1,-1,-1,-1,-1,-1,-1],"split_conditions":[1.035E1,2.05E-1,1.185E1,9.9788E-1,1.45E1,1.15E1,2.975E0,7.6851207E-1,3.05E-1,3.5500002E-1,5.525E-1,9.9154997E-1,9.75E-1,7.2324044E-1,2.35E1,1.2700001E1,8.213942E-1,3.616288E-1,8.45E0,8.5E-1,1.625E0,7E0,1.69E2,3.315E0,3.295E0,3.7259096E-1,2.145E1,2.5963488E-1,4.85E-2,1.6159004E-1,6.1298555E-1,2.35E-1,1.6925047E-1,3.7201095E-1,9.97855E-1,5.419283E-1,2.7175272E-1,5.75E-1,2.599404E-1,6.3343865E-1,2.7790454E-1,1.5E1,5.7500005E-1,1.15E-2,2.1414085E-1,7.16861E-1,1.1922324E0,6.7597795E-1,7.356743E-1,6.5179515E-1,3.668813E-1,7.1201986E-1,3.2838157E-1,8.106478E-1,5.745673E-1,8.884963E-1,1.9803101E-1,2.1414085E-1,9.204974E-1],"split_indices":[10,1,10,7,5,5,8,0,2,9,1,7,3,0,6,3,0,0,10,2,3,0,6,8,8,0,3,0,4,0,0,2,0,0,7,0,0,2,0,0,0,3,1,4,0,0,0,0,0,0,0,0,0,0,0,0,0,0,0],"split_type":[0,0,0,0,0,0,0,0,0,0,0,0,0,0,0,0,0,0,0,0,0,0,0,0,0,0,0,0,0,0,0,0,0,0,0,0,0,0,0,0,0,0,0,0,0,0,0,0,0,0,0,0,0,0,0,0,0,0,0],"sum_hessian":[2.94E3,1.477E3,1.463E3,3.4E2,1.137E3,9.57E2,5.06E2,2.62E2,7.8E1,7.7E1,1.06E3,6.5E1,8.92E2,3.2E1,4.74E2,4.1E1,3.7E1,6E0,7.1E1,1.023E3,3.7E1,1.6E1,4.9E1,1.8E1,8.74E2,3E0,4.71E2,1E0,4E1,1E0,7E1,1.022E3,1E0,8E0,2.9E1,1E1,6E0,4.7E1,2E0,1.5E1,3E0,6.49E2,2.25E2,4.7E2,1E0,7E0,3.3E1,1.98E2,8.24E2,2.3E1,6E0,4.4E1,3E0,6.36E2,1.3E1,2.24E2,1E0,1E0,4.69E2],"tree_param":{"num_deleted":"0","num_feature":"11","num_nodes":"59","size_leaf_vector":"0"}},{"base_weights":[1.8513132E0,1.745051E0,2.0048938E0,1.9347059E0,1.6848394E0,1.9406157E0,2.233335E0,1.7943039E0,2.2598584E0,1.7461611E0,1.5700262E0,1.8878046E0,2.202327E0,1.8609563E0,2.3860574E0,7.87944E-1,1.8089886E0,2.062073E0,2.7675557E0,1.6399862E0,1.8336589E0,1.2504523E0,1.5990081E0,1.8933355E0,3.2766104E-1,9.6252656E-1,2.2208297E0,1.9064949E0,8.056866E-1,2.517494E0,2.0285654E0,9.614825E-1,-3.9874315E-2,1.8257831E0,9.9085456E-1,2.1023548E0,9.487568E-1,2.9109056E0,1.4399557E0,1.2935923E0,1.6929232E0,1.2418011E0,1.8674625E0,1.0035754E0,1.5224706E0,1.6201748E0,1.172549E0,1.6270952E0,1.9383286E0,-1.340301E-1,5.262348E-1,1.0946342E0,2.831018E-1,2.2476509E0,1.206983E0,2.0120869E0,1.3026949E0,1.1303312E0,-2.464459E-1,2.1264615E0,1.2120926E0,1.8522292E0,1.2315613E0,1.4202099E0,2.0644677E-1,1.1530554E0,2.1342118E0,3.9841956E-1,1.335946E0,1.5849879E0,1.837337E0,1.3048353E0,5.3738725E-1,1.8806021E0,9.294196E-1,4.5194396E-1,1.1133951E0,1.6278694E0,6.744126E-1,-3.5015154E-1,1.2539774E0,1.9657913E0,1.4923545E0,1.9518974E0,1.1650563E0,9.0685767E-1,2.260149E0,1.0338584E0,2.0617259E0,1.3763794E0,1.7239809E-1,1.178443E0,2.2392032E0,2.535541E-1,1.3128046E0],"categories":[],"categories_nodes":[],"categories_segments":[],"categories_sizes":[],"default_left":[1,1,1,1,1,1,1,1,1,1,1,1,1,1,1,1,1,1,1,1,1,1,1,1,1,1,1,1,1,0,1,0,0,1,1,1,0,0,0,1,1,1,1,1,0,1,1,1,1,0,0,0,0,1,0,1,1,0,0,1,1,0,0,0,0,0,0,0,0,0,0,0,0,0,0,0,0,0,0,0,0,0,0,0,0,0,0,0,0,0,0,0,0,0,0],"id":3,"left_children":[1,3,5,7,9,11,13,15,17,19,21,23,25,27,29,31,33,35,37,39,41,43,45,47,49,51,53,55,57,-1,59,-1,-1,61,63,65,-1,-1,-1,67,69,71,73,75,-1,77,79,81,83,-1,-1,-1,-1,85,-1,87,89,-1,-1,91,93,-1,-1,-1,-1,-1,-1,-1,-1,-1,-1,-1,-1,-1,-1,-1,-1,-1,-1,-1,-1,-1,-1,-1,-1,-1,-1,-1,-1,-1,-1,-1,-1,-1,-1],"loss_changes":[4.449707E1,1.667871E1,1.3228027E1,1.4845215E1,6.6433105E0,8.848389E0,1.011853E1,2.9193115E0,6.4432983E0,4.982422E0,2.390747E0,6.196289E0,1.3491821E0,2.260376E0,3.256836E0,9.0028834E-1,2.1619263E0,2.0863953E0,1.7080841E0,5.1082764E0,6.944214E0,1.4269104E0,1.9907227E0,6.2736816E0,4.3725023E-1,4.9135923E-2,1.3388062E0,2.160614E0,1.9864109E0,0E0,1.6587677E0,0E0,0E0,2.1504517E0,2.4011197E0,1.7019653E-1,0E0,0E0,0E0,1.6288147E0,2.4187012E0,5.4205704E-1,3.6259766E0,1.071888E0,0E0,1.8713379E0,3.4148636E0,2.542694E0,4.734619E0,0E0,0E0,0E0,0E0,3.6340332E-1,0E0,8.7905884E-1,9.2871094E-1,0E0,0E0,2.2777863E0,4.3942356E-1,0E0,0E0,0E0,0E0,0E0,0E0,0E0,0E0,0E0,0E0,0E0,0E0,0E0,0E0,0E0,0E0,0E0,0E0,0E0,0E0,0E0,0E0,0E0,0E0,0E0,0E0,0E0,0E0,0E0,0E0,0E0,0E0,0E0,0E0],"parents":[2147483647,0,0,1,1,2,2,3,3,4,4,5,5,6,6,7,7,8,8,9,9,10,10,11,11,12,12,13,13,14,14,15,15,16,16,17,17,18,18,19,19,20,20,21,21,22,22,23,23,24,24,25,25,26,26,27,27,28,28,30,30,33,33,34,34,35,35,39,39,40,40,41,41,42,42,43,43,45,45,46,46,47,47,48,48,53,53,55,55,56,56,59,59,60,60],"right_children":[2,4,6,8,10,12,14,16,18,20,22,24,26,28,30,32,34,36,38,40,42,44,46,48,50,52,54,56,58,-1,60,-1,-1,62,64,66,-1,-1,-1,68,70,72,74,76,-1,78,80,82,84,-1,-1,-1,-1,86,-1,88,90,-1,-1,92,94,-1,-1,-1,-1,-1,-1,-1,-1,-1,-1,-1,-1,-1,-1,-1,-1,-1,-1,-1,-1,-1,-1,-1,-1,-1,-1,-1,-1,-1,-1,-1,-1,-1,-1],"split_conditions":[1.065E1,2.075E-1,5.65E-1,1.135E1,5.0499998E-2,1.255E1,2.35E1,2.89E0,5.55E-2,9.541667E0,1.95E-1,7.45E1,2.35E1,5.85E-1,6.8500004E0,4.6E-1,9.1E0,7.25E-1,5.95E1,3.85E-1,7.4E1,2.85E1,8.25E0,1.275E0,6.45E0,5.8500004E0,6.05E-2,9.9265003E-1,6.6499996E0,7.5524825E-1,7.55E-1,2.8844476E-1,-1.19622955E-2,9.9656E-1,1.6500001E0,3.4E-2,2.8462705E-1,8.732717E-1,4.3198672E-1,1.175E1,1.235E1,9.9384E-1,9.299999E0,3.85E-1,4.5674118E-1,3.64E0,2.2E-1,1.85E-1,9.961E-1,-4.0209033E-2,1.5787044E-1,3.2839027E-1,8.493054E-2,1.55E-1,3.620949E-1,5.75E-1,7.95E0,3.3909935E-1,-7.393377E-2,1.55E0,2.8E1,5.556688E-1,3.694684E-1,4.2606297E-1,6.193403E-2,3.4591663E-1,6.4026356E-1,1.1952587E-1,4.007838E-1,4.7549638E-1,5.512011E-1,3.914506E-1,1.6121618E-1,5.641807E-1,2.7882588E-1,1.3558319E-1,3.3401853E-1,4.8836082E-1,2.023238E-1,-1.0504547E-1,3.7619326E-1,5.897374E-1,4.4770637E-1,5.8556926E-1,3.4951693E-1,2.7205732E-1,6.7804474E-1,3.1015754E-1,6.1851776E-1,4.1291383E-1,5.171943E-2,3.535329E-1,6.71761E-1,7.606623E-2,3.938414E-1],"split_indices":[10,1,9,3,4,10,5,8,4,10,2,5,6,1,0,2,0,2,5,9,6,5,0,3,0,0,4,7,0,0,9,0,0,7,3,4,0,0,0,5,3,7,0,9,0,8,2,1,7,0,0,0,0,2,0,9,0,0,0,3,5,0,0,0,0,0,0,0,0,0,0,0,0,0,0,0,0,0,0,0,0,0,0,0,0,0,0,0,0,0,0,0,0,0,0],"split_type":[0,0,0,0,0,0,0,0,0,0,0,0,0,0,0,0,0,0,0,0,0,0,0,0,0,0,0,0,0,0,0,0,0,0,0,0,0,0,0,0,0,0,0,0,0,0,0,0,0,0,0,0,0,0,0,0,0,0,0,0,0,0,0,0,0,0,0,0,0,0,0,0,0,0,0,0,0,0,0,0,0,0,0,0,0,0,0,0,0,0,0,0,0,0,0],"sum_hessian":[2.94E3,1.745E3,1.195E3,4.13E2,1.332E3,9.4E2,2.55E2,2.93E2,1.2E2,8.59E2,4.73E2,7.89E2,1.51E2,7.8E1,1.77E2,5E0,2.88E2,9E1,3E1,3.97E2,4.62E2,4.3E1,4.3E2,7.86E2,3E0,3E0,1.48E2,7.4E1,4E0,1.25E2,5.2E1,4E0,1E0,2.81E2,7E0,8.6E1,4E0,2.6E1,4E0,5.6E1,3.41E2,2.7E1,4.35E2,2.5E1,1.8E1,4.07E2,2.3E1,1.19E2,6.67E2,1E0,2E0,2E0,1E0,1.43E2,5E0,6.1E1,1.3E1,3E0,1E0,4.5E1,7E0,2.67E2,1.4E1,4E0,3E0,4E0,8.2E1,3E0,5.3E1,2.02E2,1.39E2,2.4E1,3E0,4.28E2,7E0,5E0,2E1,4.03E2,4E0,1E0,2.2E1,3E1,8.9E1,6.54E2,1.3E1,2E0,1.41E2,4E0,5.7E1,1.2E1,1E0,6E0,3.9E1,1E0,6E0],"tree_param":{"num_deleted":"0","num_feature":"11","num_nodes":"95","size_leaf_vector":"0"}},{"base_weights":[1.3016387E0,1.4233234E0,1.2272E0,1.1912507E0,1.4739513E0,1.3805494E0,1.1791824E0,9.511982E-1,1.2671161E0,1.077309E0,1.5022821E0,1.2956982E0,1.6316525E0,1.0071383E0,1.2189537E0,1.0248691E0,2.0329864E-1,1.2911793E0,4.6638027E-1,6.5465665E-1,1.1825585E0,1.0591707E0,1.5224339E0,1.2150338E0,1.541816E0,1.4608824E0,1.9452932E0,4.1618264E-1,1.0259937E0,1.371688E0,1.1739843E0,9.187424E-2,1.0427653E0,3.253746E-1,-2.0354056E-1,1.0403657E0,1.3602695E0,3.3152404E-1,8.332424E-1,1.2193111E0,2.0033042E-1,1.6070385E0,8.7198377E-1,1.3292849E0,1.5549886E0,1.2805513E0,1.0078521E0,1.3148315E0,1.8721756E0,1.5024575E0,7.531468E-1,1.500685E0,2.301626E0,1.9857101E-1,5.940801E-1,-2.2462535E-1,1.0316896E0,1.223698E0,1.5428997E0,1.0577738E0,1.2147384E0,1.0660113E0,3.4648576E-1,1.1010158E0,4.44132E-1,1.37765E0,-2.8447795E-1,3.6697873E-1,5.9397936E-2,9.884204E-1,1.9341294E-1,1.2702652E0,5.2705306E-1,1.0938509E0,4.635741E-1,1.394272E0,8.075417E-1,1.6456579E0,1.4765813E0,8.598212E-1,1.3257896E0,1.0307448E0,1.9115607E-1,1.3529902E0,2.787358E-1,2.148022E0,1.2255158E0,1.5233909E0,5.4808235E-1,1.3462067E-1,8.499279E-1,1.0483903E0,5.110054E-1,-2.4541228E-1,1.2467679E0,1.8014708E0,1.3011482E0,9.446536E-1,1.2489461E0,1.234403E0,7.841648E-1],"categories":[],"categories_nodes":[],"categories_segments":[],"categories_sizes":[],"default_left":[1,1,1,1,1,1,1,1,1,1,1,1,1,1,1,1,1,1,0,1,1,1,1,1,1,1,1,1,1,1,1,0,1,0,0,1,1,1,1,1,0,0,1,1,1,1,1,1,1,1,1,0,0,0,0,0,1,1,1,1,1,0,0,0,0,0,0,0,0,0,0,0,0,0,0,0,0,0,0,0,0,0,0,0,0,0,0,0,0,0,0,0,0,0,0,0,0,0,0,0,0],"id":4,"left_children":[1,3,5,7,9,11,13,15,17,19,21,23,25,27,29,31,33,35,-1,37,39,41,43,45,47,49,51,53,55,57,59,-1,61,-1,-1,63,65,67,69,71,-1,-1,73,75,77,79,81,83,85,87,89,-1,-1,-1,-1,-1,91,93,95,97,99,-1,-1,-1,-1,-1,-1,-1,-1,-1,-1,-1,-1,-1,-1,-1,-1,-1,-1,-1,-1,-1,-1,-1,-1,-1,-1,-1,-1,-1,-1,-1,-1,-1,-1,-1,-1,-1,-1,-1,-1],"loss_changes":[2.4892578E1,1.1285889E1,1.1862305E1,2.5098877E0,8.57373E0,7.0689087E0,8.365356E0,2.7118607E0,2.3266144E0,2.0727997E0,5.923828E0,4.6185303E0,2.782013E0,2.5703735E0,6.1782227E0,7.056503E-1,3.642187E-1,1.1321564E0,0E0,5.893636E-1,1.5607071E0,2.7008362E0,2.994995E0,2.116455E0,3.312378E0,9.86969E-1,1.9325562E0,2.6915848E-1,2.0838623E0,4.4970703E0,2.8970947E0,0E0,3.9137268E-1,0E0,0E0,8.1282425E-1,3.593567E0,4.5739293E-2,7.0241404E-1,1.0236282E0,0E0,0E0,2.3925228E0,3.0445862E0,2.425415E0,2.4192505E0,1.0182343E0,1.5601349E0,2.5405426E0,5.036011E-1,2.4475217E-1,0E0,0E0,0E0,0E0,0E0,1.7164307E0,5.0508575E0,4.7196045E0,3.945404E0,4.510132E0,0E0,0E0,0E0,0E0,0E0,0E0,0E0,0E0,0E0,0E0,0E0,0E0,0E0,0E0,0E0,0E0,0E0,0E0,0E0,0E0,0E0,0E0,0E0,0E0,0E0,0E0,0E0,0E0,0E0,0E0,0E0,0E0,0E0,0E0,0E0,0E0,0E0,0E0,0E0,0E0],"parents":[2147483647,0,0,1,1,2,2,3,3,4,4,5,5,6,6,7,7,8,8,9,9,10,10,11,11,12,12,13,13,14,14,15,15,16,16,17,17,19,19,20,20,21,21,22,22,23,23,24,24,25,25,26,26,27,27,28,28,29,29,30,30,32,32,35,35,36,36,37,37,38,38,39,39,42,42,43,43,44,44,45,45,46,46,47,47,48,48,49,49,50,50,56,56,57,57,58,58,59,59,60,60],"right_children":[2,4,6,8,10,12,14,16,18,20,22,24,26,28,30,32,34,36,-1,38,40,42,44,46,48,50,52,54,56,58,60,-1,62,-1,-1,64,66,68,70,72,-1,-1,74,76,78,80,82,84,86,88,90,-1,-1,-1,-1,-1,92,94,96,98,100,-1,-1,-1,-1,-1,-1,-1,-1,-1,-1,-1,-1,-1,-1,-1,-1,-1,-1,-1,-1,-1,-1,-1,-1,-1,-1,-1,-1,-1,-1,-1,-1,-1,-1,-1,-1,-1,-1,-1,-1],"split_conditions":[3.9499998E-2,1.0116667E1,2.025E-1,9.25E0,2.975E0,9.9678004E-1,2.25E1,3.335E0,9.9922E-1,3.5500002E-1,1.05E1,5.55E-1,5.55E-2,2.15E-1,1.305E2,3.05E-2,6.75E0,1.425E0,1.3991408E-1,2.9500002E-1,4.8000002E-1,9.8958254E-1,1.3499999E0,1.49E2,4.25E1,3.3449998E0,1.85E-1,9.9314E-1,3.5E0,4.75E-1,2.65E-1,2.7562274E-2,7.7E-1,9.761239E-2,-6.1062172E-2,3.3449998E0,7.7E-1,1.185E1,3.8E1,1.37E2,6.009913E-2,4.8211157E-1,3.85E-1,1.475E2,9.91395E-1,3.0149999E0,3.615E0,5.7499997E-2,9.938E-1,7.85E1,3.365E0,4.502055E-1,6.904878E-1,5.9571307E-2,1.7822403E-1,-6.738761E-2,9.9829E-1,1.05E0,9.9302495E-1,9.85E0,1.7525E1,3.1980342E-1,1.0394573E-1,3.3030474E-1,1.3323961E-1,4.1329503E-1,-8.534339E-2,1.1009362E-1,1.7819382E-2,2.9652613E-1,5.8023885E-2,3.8107958E-1,1.5811592E-1,3.2815528E-1,1.3907224E-1,4.182816E-1,2.4226253E-1,4.9369738E-1,4.4297442E-1,2.5794637E-1,3.9773688E-1,3.0922344E-1,5.7346825E-2,4.0589705E-1,8.362074E-2,6.444066E-1,3.6765477E-1,4.5701727E-1,1.6442472E-1,4.03862E-2,2.549784E-1,3.1451708E-1,1.5330163E-1,-7.362369E-2,3.7403038E-1,5.404413E-1,3.9034447E-1,2.833961E-1,3.7468383E-1,3.7032092E-1,2.3524944E-1],"split_indices":[4,10,1,10,8,7,5,8,7,9,5,9,4,1,6,4,0,3,0,1,1,7,3,6,5,8,1,7,5,9,2,0,2,0,0,8,9,10,5,6,0,0,1,6,7,8,8,4,7,5,8,0,0,0,0,0,7,3,7,10,3,0,0,0,0,0,0,0,0,0,0,0,0,0,0,0,0,0,0,0,0,0,0,0,0,0,0,0,0,0,0,0,0,0,0,0,0,0,0,0,0],"split_type":[0,0,0,0,0,0,0,0,0,0,0,0,0,0,0,0,0,0,0,0,0,0,0,0,0,0,0,0,0,0,0,0,0,0,0,0,0,0,0,0,0,0,0,0,0,0,0,0,0,0,0,0,0,0,0,0,0,0,0,0,0,0,0,0,0,0,0,0,0,0,0,0,0,0,0,0,0,0,0,0,0,0,0,0,0,0,0,0,0,0,0,0,0,0,0,0,0,0,0,0,0],"sum_hessian":[2.94E3,1.109E3,1.831E3,2.03E2,9.06E2,4.3E2,1.401E3,5.2E1,1.51E2,6.3E1,8.43E2,3.26E2,1.04E2,2.68E2,1.133E3,4.7E1,5E0,1.46E2,5E0,1.4E1,4.9E1,3.9E1,8.04E2,2.5E2,7.6E1,7.1E1,3.3E1,9E0,2.59E2,2.51E2,8.82E2,1E0,4.6E1,4E0,1E0,3.5E1,1.11E2,6E0,8E0,4.7E1,2E0,8E0,3.1E1,1.22E2,6.82E2,1.86E2,6.4E1,4.8E1,2.8E1,6.6E1,5E0,1.7E1,1.6E1,5E0,4E0,1E0,2.58E2,1.39E2,1.12E2,2.36E2,6.46E2,4.4E1,2E0,3.1E1,4E0,1.1E2,1E0,5E0,1E0,6E0,2E0,4.3E1,4E0,1.9E1,1.2E1,1.07E2,1.5E1,3.07E2,3.75E2,2E1,1.66E2,6.2E1,2E0,4.6E1,2E0,1.8E1,1E1,6.4E1,2E0,1E0,4E0,2.49E2,9E0,2E0,1.37E2,5.1E1,6.1E1,1.52E2,8.4E1,6.16E2,3E1],"tree_param":{"num_deleted":"0","num_feature":"11","num_nodes":"101","size_leaf_vector":"0"}},{"base_weights":[9.1548645E-1,8.3750886E-1,9.7441393E-1,7.820782E-1,9.6146417E-1,8.7329537E-1,1.036616E0,2.2508992E-1,7.9012376E-1,1.0860094E0,7.980204E-1,1.0044469E0,7.956143E-1,9.6375036E-1,1.149069E0,3.8253713E-1,-1.3482246E-1,8.69855E-1,7.399741E-1,1.2132002E0,8.1675094E-1,8.4709024E-1,6.026929E-1,9.5448333E-1,1.3859607E0,9.035289E-1,7.0382804E-1,9.9825096E-1,7.276126E-1,9.790423E-1,1.2433174E0,1.4904816E-1,4.2227834E-1,2.6699018E-1,-3.0202317E-1,7.0907205E-1,9.251629E-1,8.251848E-1,6.6528887E-1,9.095195E-1,1.3867489E0,1.0634935E0,6.198725E-1,9.073763E-1,6.24689E-1,-4.3932676E-1,6.427293E-1,1.2817315E0,8.8882035E-1,2.0539093E-1,1.4265932E0,1.035474E0,6.7385453E-1,6.005885E-1,9.1487056E-1,9.0661395E-1,1.0830255E0,7.675986E-1,7.986196E-2,6.691445E-1,1.0966287E0,1.4125937E0,1.0873032E0,7.978943E-1,4.194999E-1,7.787048E-1,1.0424215E0,6.446793E-1,8.8809246E-1,6.821356E-1,5.6017347E-2,6.2613106E-1,1.0072216E0,1.4186258E0,-2.118508E-2,7.739067E-1,1.3598557E0,-2.5854445E-1,6.4694303E-1,5.6166995E-1,9.684721E-1,3.696085E-1,8.280183E-1,5.125183E-1,9.908837E-1,5.3013223E-1,1.3970124E0,3.5878408E-1,9.180605E-1,1.5290912E0,7.312825E-1,8.618557E-1,1.2517383E0,9.9829257E-1,5.5923784E-1,5.4979753E-1,8.659719E-1,5.721899E-1,1.0849732E0,8.379934E-1,1.0555358E0,1.4019358E0,9.854477E-1,5.5849874E-1,8.910069E-1,-3.0840635E-1,2.1919689E-1,5.6363344E-1,1.3583016E0,1.301066E0,8.364335E-1,1.2299013E0,1.606342E0,5.53606E-1,1.1298397E0],"categories":[],"categories_nodes":[],"categories_segments":[],"categories_sizes":[],"default_left":[1,1,1,1,1,1,1,1,1,1,1,1,1,1,1,1,1,1,1,1,1,1,1,1,1,1,1,1,1,1,1,0,0,0,0,1,1,1,1,1,1,1,1,1,1,0,1,1,1,0,1,1,1,1,1,1,1,1,1,1,1,1,1,0,0,0,0,0,0,0,0,0,0,0,0,0,0,0,0,0,0,0,0,0,0,0,0,0,0,0,0,0,0,0,0,0,0,0,0,0,0,0,0,0,0,0,0,0,0,0,0,0,0,0,0],"id":5,"left_children":[1,3,5,7,9,11,13,15,17,19,21,23,25,27,29,31,33,35,37,39,41,43,45,47,49,51,53,55,57,59,61,-1,-1,-1,-1,63,65,67,69,71,73,75,77,79,81,-1,83,85,87,-1,89,91,93,95,97,99,101,103,105,107,109,111,113,-1,-1,-1,-1,-1,-1,-1,-1,-1,-1,-1,-1,-1,-1,-1,-1,-1,-1,-1,-1,-1,-1,-1,-1,-1,-1,-1,-1,-1,-1,-1,-1,-1,-1,-1,-1,-1,-1,-1,-1,-1,-1,-1,-1,-1,-1,-1,-1,-1,-1,-1,-1],"loss_changes":[1.2697754E1,7.994751E0,9.592529E0,3.788025E0,7.05188E0,5.7415466E0,7.315918E0,8.4491545E-1,2.8430176E0,6.475006E0,1.1380234E0,3.1566162E0,3.4053345E0,4.406189E0,5.1766357E0,2.9851556E-2,4.16554E-1,2.2873993E0,2.900299E0,6.433426E0,2.886982E0,1.2432175E0,1.8676777E0,3.3947601E0,9.062271E-1,4.87825E0,4.3528214E0,3.267517E0,2.11438E0,4.6228485E0,5.1456604E0,0E0,0E0,0E0,0E0,1.9544029E0,3.3614044E0,2.2549133E0,2.979477E0,9.198532E-1,4.114197E0,1.6080971E0,1.1897678E0,1.6526413E0,1.3536482E0,0E0,1.1694956E0,2.1186867E0,2.444809E0,0E0,5.9223175E-1,3.2391434E0,2.0447369E0,1.5996742E0,3.5761375E0,1.8644104E0,7.3005676E0,1.5409355E0,3.9219776E-1,2.361103E0,4.4970627E0,2.2011414E0,2.4619293E0,0E0,0E0,0E0,0E0,0E0,0E0,0E0,0E0,0E0,0E0,0E0,0E0,0E0,0E0,0E0,0E0,0E0,0E0,0E0,0E0,0E0,0E0,0E0,0E0,0E0,0E0,0E0,0E0,0E0,0E0,0E0,0E0,0E0,0E0,0E0,0E0,0E0,0E0,0E0,0E0,0E0,0E0,0E0,0E0,0E0,0E0,0E0,0E0,0E0,0E0,0E0,0E0],"parents":[2147483647,0,0,1,1,2,2,3,3,4,4,5,5,6,6,7,7,8,8,9,9,10,10,11,11,12,12,13,13,14,14,15,15,16,16,17,17,18,18,19,19,20,20,21,21,22,22,23,23,24,24,25,25,26,26,27,27,28,28,29,29,30,30,35,35,36,36,37,37,38,38,39,39,40,40,41,41,42,42,43,43,44,44,46,46,47,47,48,48,50,50,51,51,52,52,53,53,54,54,55,55,56,56,57,57,58,58,59,59,60,60,61,61,62,62],"right_children":[2,4,6,8,10,12,14,16,18,20,22,24,26,28,30,32,34,36,38,40,42,44,46,48,50,52,54,56,58,60,62,-1,-1,-1,-1,64,66,68,70,72,74,76,78,80,82,-1,84,86,88,-1,90,92,94,96,98,100,102,104,106,108,110,112,114,-1,-1,-1,-1,-1,-1,-1,-1,-1,-1,-1,-1,-1,-1,-1,-1,-1,-1,-1,-1,-1,-1,-1,-1,-1,-1,-1,-1,-1,-1,-1,-1,-1,-1,-1,-1,-1,-1,-1,-1,-1,-1,-1,-1,-1,-1,-1,-1,-1,-1,-1,-1],"split_conditions":[1.005E1,1.235E1,2.65E1,8.65E0,1.4775E1,6.55E0,3.245E0,3.85E-1,4.5500003E-2,2.825E-1,1.955E2,1.285E1,2.55E-1,1.685E2,2.225E-1,8.5E0,6.6499996E0,2.55E1,9.9513E-1,7.05E0,7.05E0,9.99825E-1,9.9810004E-1,2.85E-2,9.5E-1,7.45E0,2.15E1,3.85E0,4.35E-1,6.1499996E0,1.305E2,4.471445E-2,1.266835E-1,8.009706E-2,-9.060696E-2,2.15E1,9.45E0,1.14E2,9.15E0,6.45E0,5.9000003E-1,1.325E1,8.65E0,1.515E1,1.52E2,-1.3179803E-1,5.25E-1,3.125E0,6.25E1,6.161728E-2,5.5E-1,2.05E0,3.4500003E-2,6.15E-1,2.9500002E-1,5.3499997E-1,9.9180996E-1,1.775E2,6.95E0,6.5E1,6.75E0,1.095E2,1.3499999E0,2.393683E-1,1.2584998E-1,2.3361145E-1,3.1272644E-1,1.934038E-1,2.6642776E-1,2.0464069E-1,1.6805205E-2,1.8783933E-1,3.021665E-1,4.2558777E-1,-6.355524E-3,2.3217203E-1,4.0795672E-1,-7.756334E-2,1.9408292E-1,1.6850099E-1,2.9054165E-1,1.1088255E-1,2.484055E-1,1.5375549E-1,2.972651E-1,1.5903968E-1,4.191037E-1,1.0763523E-1,2.7541816E-1,4.587274E-1,2.1938474E-1,2.5855672E-1,3.755215E-1,2.9948777E-1,1.6777135E-1,1.6493927E-1,2.5979158E-1,1.7165698E-1,3.2549196E-1,2.5139803E-1,3.1666076E-1,4.2058077E-1,2.9563433E-1,1.6754963E-1,2.6730207E-1,-9.2521906E-2,6.575907E-2,1.6909003E-1,4.0749052E-1,3.9031982E-1,2.5093004E-1,3.689704E-1,4.819026E-1,1.660818E-1,3.3895192E-1],"split_indices":[10,3,5,10,3,0,8,1,4,1,6,10,1,6,1,5,0,5,7,0,0,7,7,4,3,0,5,3,1,0,6,0,0,0,0,5,10,6,0,0,2,3,10,3,6,0,2,8,6,0,1,3,4,9,1,9,7,6,0,5,0,6,3,0,0,0,0,0,0,0,0,0,0,0,0,0,0,0,0,0,0,0,0,0,0,0,0,0,0,0,0,0,0,0,0,0,0,0,0,0,0,0,0,0,0,0,0,0,0,0,0,0,0,0,0],"split_type":[0,0,0,0,0,0,0,0,0,0,0,0,0,0,0,0,0,0,0,0,0,0,0,0,0,0,0,0,0,0,0,0,0,0,0,0,0,0,0,0,0,0,0,0,0,0,0,0,0,0,0,0,0,0,0,0,0,0,0,0,0,0,0,0,0,0,0,0,0,0,0,0,0,0,0,0,0,0,0,0,0,0,0,0,0,0,0,0,0,0,0,0,0,0,0,0,0,0,0,0,0,0,0,0,0,0,0,0,0,0,0,0,0,0,0],"sum_hessian":[2.94E3,1.272E3,1.668E3,8.84E2,3.88E2,6.41E2,1.027E3,1.3E1,8.71E2,2.17E2,1.71E2,2.34E2,4.07E2,6.29E2,3.98E2,9E0,4E0,3.3E2,5.41E2,1.45E2,7.2E1,1.34E2,3.7E1,2.1E2,2.4E1,1.83E2,2.24E2,5.46E2,8.3E1,1.46E2,2.52E2,2E0,7E0,1E0,3E0,8.8E1,2.42E2,2.48E2,2.93E2,5.5E1,9E1,3E1,4.2E1,1.03E2,3.1E1,1E0,3.6E1,3.2E1,1.78E2,1E0,2.3E1,1.14E2,6.9E1,1.53E2,7.1E1,2.68E2,2.78E2,7.8E1,5E0,4.2E1,1.04E2,1.17E2,1.35E2,6.6E1,2.2E1,1.11E2,1.31E2,6.7E1,1.81E2,2.85E2,8E0,1.6E1,3.9E1,8.8E1,2E0,1.7E1,1.3E1,1E0,4.1E1,1.7E1,8.6E1,1.5E1,1.6E1,2.8E1,8E0,5E0,2.7E1,1E1,1.68E2,1.9E1,4E0,6.6E1,4.8E1,1.6E1,5.3E1,1.31E2,2.2E1,2.5E1,4.6E1,1.88E2,8E1,6.2E1,2.16E2,3.1E1,4.7E1,1E0,4E0,3.8E1,4E0,5.6E1,4.8E1,6.4E1,5.3E1,1.1E1,1.24E2],"tree_param":{"num_deleted":"0","num_feature":"11","num_nodes":"115","size_leaf_vector":"0"}},{"base_weights":[6.4510685E-1,6.301051E-1,8.352465E-1,7.2302175E-1,6.066514E-1,8.5883325E-1,4.0812346E-1,7.078301E-1,1.2486612E0,5.751452E-1,6.851251E-1,7.3970246E-1,9.515048E-1,5.324969E-1,1.7427158E-1,1.028128E0,6.91337E-1,1.3310122E0,8.9048624E-2,5.5310065E-1,6.572991E-1,7.364647E-1,5.051289E-1,1.2416313E0,6.4889276E-1,8.528025E-1,1.3245049E0,3.417049E-1,9.340205E-1,2.164999E-1,-1.8435001E-2,3.8658756E-1,1.2204978E0,4.07746E-1,7.0762116E-1,1.5030301E0,5.682148E-1,5.660509E-1,1.7913608E-1,7.2341794E-1,5.377667E-1,3.292686E-1,7.5995594E-1,2.4010226E-1,5.657922E-1,1.3160036E0,1.7458224E-1,-3.1339746E-2,7.044703E-1,2.8959447E-1,9.125435E-1,3.6801267E-1,9.19292E-2,1.13144554E-1,4.7333583E-1,7.986411E-1,1.478119E0,5.43421E-1,2.1387307E-1,6.263267E-1,7.6247925E-1,5.5671483E-1,8.442076E-1,5.46521E-1,1.1641382E-1,8.61643E-1,5.669007E-1,4.2950913E-1,6.4608496E-1,-2.7522102E-1,4.7264555E-1,7.705879E-1,-2.9056208E-2,-2.6590634E-2,5.0869447E-1,5.777201E-1,-3.910303E-1,1.5534235E0,8.1967974E-1,1.3570432E-1,-5.168021E-1,7.505661E-1,5.6956053E-2,4.144478E-2,6.514578E-1,8.006096E-1,1.2297729E0],"categories":[],"categories_nodes":[],"categories_segments":[],"categories_sizes":[],"default_left":[1,1,1,1,1,1,1,1,1,1,1,1,1,1,1,1,1,1,0,1,1,1,1,1,1,1,0,1,0,0,0,1,1,1,1,0,0,1,1,1,1,1,1,1,1,1,0,1,1,1,1,0,0,0,0,0,0,0,0,0,0,0,0,0,0,0,0,0,0,0,0,0,0,0,0,0,0,0,0,0,0,0,0,0,0,0,0],"id":6,"left_children":[1,3,5,7,9,11,13,15,17,19,21,23,25,27,29,31,33,35,-1,37,39,41,43,45,47,49,-1,51,-1,-1,-1,53,55,57,59,-1,-1,61,63,65,67,69,71,73,75,77,-1,79,81,83,85,-1,-1,-1,-1,-1,-1,-1,-1,-1,-1,-1,-1,-1,-1,-1,-1,-1,-1,-1,-1,-1,-1,-1,-1,-1,-1,-1,-1,-1,-1,-1,-1,-1,-1,-1,-1],"loss_changes":[7.862671E0,5.510742E0,1.7852783E0,3.4681702E0,5.01062E0,1.5041656E0,2.853055E-1,2.0996094E0,1.2184105E0,2.4725342E0,5.366577E0,3.3876762E0,2.8834E0,2.9370046E-1,5.281721E-2,2.4900837E0,2.0620422E0,8.517475E-1,0E0,5.9086914E0,2.1874695E0,4.3507996E0,2.1310616E0,8.019142E-1,3.0465279E0,2.730278E0,0E0,1.2166142E-2,0E0,0E0,0E0,1.124897E-1,7.7573967E-1,6.728878E-1,1.6630859E0,0E0,0E0,2.6436462E0,9.272355E-1,3.9898987E0,1.1296539E0,2.5568383E0,3.830902E0,2.0192122E0,1.5269775E0,1.4073753E-1,0E0,6.3778746E-1,2.1659813E0,8.709633E-1,1.8561249E0,0E0,0E0,0E0,0E0,0E0,0E0,0E0,0E0,0E0,0E0,0E0,0E0,0E0,0E0,0E0,0E0,0E0,0E0,0E0,0E0,0E0,0E0,0E0,0E0,0E0,0E0,0E0,0E0,0E0,0E0,0E0,0E0,0E0,0E0,0E0,0E0],"parents":[2147483647,0,0,1,1,2,2,3,3,4,4,5,5,6,6,7,7,8,8,9,9,10,10,11,11,12,12,13,13,14,14,15,15,16,16,17,17,19,19,20,20,21,21,22,22,23,23,24,24,25,25,27,27,31,31,32,32,33,33,34,34,37,37,38,38,39,39,40,40,41,41,42,42,43,43,44,44,45,45,47,47,48,48,49,49,50,50],"right_children":[2,4,6,8,10,12,14,16,18,20,22,24,26,28,30,32,34,36,-1,38,40,42,44,46,48,50,-1,52,-1,-1,-1,54,56,58,60,-1,-1,62,64,66,68,70,72,74,76,78,-1,80,82,84,86,-1,-1,-1,-1,-1,-1,-1,-1,-1,-1,-1,-1,-1,-1,-1,-1,-1,-1,-1,-1,-1,-1,-1,-1,-1,-1,-1,-1,-1,-1,-1,-1,-1,-1,-1,-1],"split_conditions":[1.255E1,1.95E-1,4.95E-2,8.15E-1,3.245E0,2.85E1,1.18E2,8.85E0,5.7E-2,1.1975E1,1.745E2,3.45E-1,5.95E-1,4.5E0,7.3E0,6.75E0,2.9250002E0,1.195E1,2.6714588E-2,9.9755E-1,3.9499998E-1,7.75E1,2.85E1,3.65E-1,3.75E-1,2.55E-1,3.9735147E-1,8.6E0,2.8020617E-1,6.4949974E-2,-5.530501E-3,3.7E-1,1.7E-1,3.9499998E-1,1.0116667E1,4.5090905E-1,1.7046444E-1,9.96995E-1,8.4E0,4.85E-1,3.065E0,2.55E-1,5.975E-1,3.35E-1,3.705E0,9.89875E-1,5.2374676E-2,2.55E1,6.2E-1,4.75E0,3.3E0,1.10403806E-1,2.757876E-2,3.3943366E-2,1.4200075E-1,2.3959233E-1,4.4343573E-1,1.630263E-1,6.416193E-2,1.8789801E-1,2.2874378E-1,1.6701445E-1,2.5326228E-1,1.6395631E-1,3.4924146E-2,2.5849292E-1,1.700702E-1,1.2885274E-1,1.938255E-1,-8.2566306E-2,1.4179367E-1,2.3117639E-1,-8.716863E-3,-7.97719E-3,1.5260835E-1,1.7331603E-1,-1.173091E-1,4.6602708E-1,2.4590392E-1,4.07113E-2,-1.5504062E-1,2.2516985E-1,1.7086817E-2,1.2433434E-2,1.9543734E-1,2.4018289E-1,3.689319E-1],"split_indices":[10,1,4,9,8,5,6,10,4,3,6,9,9,3,0,0,8,10,0,7,2,6,5,2,9,2,0,0,0,0,0,2,1,2,10,0,0,7,3,9,8,1,1,1,8,7,0,5,1,3,8,0,0,0,0,0,0,0,0,0,0,0,0,0,0,0,0,0,0,0,0,0,0,0,0,0,0,0,0,0,0,0,0,0,0,0,0],"split_type":[0,0,0,0,0,0,0,0,0,0,0,0,0,0,0,0,0,0,0,0,0,0,0,0,0,0,0,0,0,0,0,0,0,0,0,0,0,0,0,0,0,0,0,0,0,0,0,0,0,0,0,0,0,0,0,0,0,0,0,0,0,0,0,0,0,0,0,0,0,0,0,0,0,0,0,0,0,0,0,0,0,0,0,0,0,0,0],"sum_hessian":[2.94E3,2.729E3,2.11E2,5.44E2,2.185E3,1.99E2,1.2E1,5.31E2,1.3E1,1.565E3,6.2E2,9.1E1,1.08E2,7E0,5E0,2.3E1,5.08E2,1.2E1,1E0,1.24E3,3.25E2,4.8E2,1.4E2,1.2E1,7.9E1,8.8E1,2E1,6E0,1E0,4E0,1E0,6E0,1.7E1,2.9E1,4.79E2,9E0,3E0,1.198E3,4.2E1,2.06E2,1.19E2,2.7E1,4.53E2,2.7E1,1.13E2,1.1E1,1E0,6E0,7.3E1,9E0,7.9E1,5E0,1E0,2E0,4E0,8E0,9E0,1.6E1,1.3E1,1.98E2,2.81E2,1.162E3,3.6E1,5E0,3.7E1,1.07E2,9.9E1,6.2E1,5.7E1,5E0,2.2E1,4.47E2,6E0,1.4E1,1.3E1,1.12E2,1E0,6E0,5E0,5E0,1E0,6.8E1,5E0,6E0,3E0,6.1E1,1.8E1],"tree_param":{"num_deleted":"0","num_feature":"11","num_nodes":"87","size_leaf_vector":"0"}},{"base_weights":[4.5381472E-1,5.114817E-1,4.1862684E-1,5.3065974E-1,3.4257123E-1,4.1464874E-1,9.87417E-1,4.651513E-1,6.046249E-1,3.8370746E-1,-8.497524E-2,4.9330926E-1,3.90052E-1,1.172949E0,4.9308243E-1,3.8941795E-1,5.446737E-1,1.8957256E-1,6.278293E-1,5.5058736E-1,2.783507E-1,-1.9381523E-1,3.8027287E-2,7.311984E-1,4.5936853E-1,3.252662E-1,4.1714406E-1,5.470426E-1,1.3862085E-1,4.0957135E-1,-1.8761992E-1,4.0368646E-1,6.4742815E-1,9.533868E-2,6.840242E-1,-1.3861358E-2,6.382592E-1,1.1484405E0,4.3236718E-1,-8.422076E-2,3.4343728E-1,-3.625703E-1,-1.8795133E-2,5.4979086E-2,2.7491252E-3,7.941441E-1,2.1309812E-1,6.503175E-1,4.2971334E-1,1.1909925E0,3.1819007E-1,5.302482E-1,3.9114168E-1,4.1539666E-1,-5.699806E-1,3.9235234E-1,-2.95656E-1,4.327352E-1,-4.8155117E-1,4.1046154E-1,7.5469786E-1,-8.136822E-2,5.108642E-1,1.7781734E-2,9.001778E-1,-1.5297286E-1,2.6898208E-1,8.4158754E-1,6.03202E-1,-3.1558418E-1,4.6364763E-1,-2.176336E-1,2.0366013E-1,-9.2105106E-2,3.7804624E-1,-5.6556065E-2,4.7243834E-2,8.4955055E-1,1.6990098E-1,3.0032668E-1,-1.5513659E-1,7.4362445E-1,3.6393404E-1,2.6522234E-1,4.845798E-1,2.966103E-1,5.8380467E-1,5.459299E-1,-2.96229E-1,3.9895314E-1,3.0047616E-2],"categories":[],"categories_nodes":[],"categories_segments":[],"categories_sizes":[],"default_left":[1,1,1,1,1,1,1,1,1,1,1,1,1,0,1,1,1,1,1,1,1,1,1,1,1,1,1,0,0,1,1,1,1,1,1,1,1,0,1,1,1,0,1,0,0,1,1,1,1,0,1,1,1,0,0,0,0,0,0,0,0,0,0,0,0,0,0,0,0,0,0,0,0,0,0,0,0,0,0,0,0,0,0,0,0,0,0,0,0,0,0],"id":7,"left_children":[1,3,5,7,9,11,13,15,17,19,21,23,25,-1,27,29,31,33,35,37,39,41,43,45,47,49,51,-1,-1,53,55,57,59,61,63,65,67,-1,69,71,73,-1,75,-1,-1,77,79,81,83,-1,85,87,89,-1,-1,-1,-1,-1,-1,-1,-1,-1,-1,-1,-1,-1,-1,-1,-1,-1,-1,-1,-1,-1,-1,-1,-1,-1,-1,-1,-1,-1,-1,-1,-1,-1,-1,-1,-1,-1,-1],"loss_changes":[5.753723E0,3.41391E0,3.7359009E0,4.5398865E0,2.072772E0,3.330841E0,5.2221775E-1,2.9918594E0,4.349777E0,1.7104282E0,1.5463382E-1,3.1359787E0,2.3075256E0,0E0,1.980257E-2,3.2865257E0,3.4618149E0,1.1462326E0,2.9469757E0,2.3305845E0,1.6100264E0,1.7039858E-1,3.4370255E-3,1.5266056E0,1.866684E0,2.16333E0,2.668869E0,0E0,0E0,1.7603226E0,7.4258053E-1,3.0627556E0,3.4268684E0,1.7303712E0,5.6003594E-1,3.5592118E-1,2.571701E0,0E0,9.651885E-1,4.668004E-1,8.9401865E-1,0E0,1.2646697E-2,0E0,9.364339E-8,1.4466648E0,2.714357E-1,1.0387268E0,2.8587685E0,0E0,2.1941109E0,2.4946213E0,2.2417297E0,0E0,0E0,0E0,0E0,0E0,0E0,0E0,0E0,0E0,0E0,0E0,0E0,0E0,0E0,0E0,0E0,0E0,0E0,0E0,0E0,0E0,0E0,0E0,0E0,0E0,0E0,0E0,0E0,0E0,0E0,0E0,0E0,0E0,0E0,0E0,0E0,0E0,0E0],"parents":[2147483647,0,0,1,1,2,2,3,3,4,4,5,5,6,6,7,7,8,8,9,9,10,10,11,11,12,12,14,14,15,15,16,16,17,17,18,18,19,19,20,20,21,21,22,22,23,23,24,24,25,25,26,26,29,29,30,30,31,31,32,32,33,33,34,34,35,35,36,36,38,38,39,39,40,40,42,42,45,45,46,46,47,47,48,48,50,50,51,51,52,52],"right_children":[2,4,6,8,10,12,14,16,18,20,22,24,26,-1,28,30,32,34,36,38,40,42,44,46,48,50,52,-1,-1,54,56,58,60,62,64,66,68,-1,70,72,74,-1,76,-1,-1,78,80,82,84,-1,86,88,90,-1,-1,-1,-1,-1,-1,-1,-1,-1,-1,-1,-1,-1,-1,-1,-1,-1,-1,-1,-1,-1,-1,-1,-1,-1,-1,-1,-1,-1,-1,-1,-1,-1,-1,-1,-1,-1,-1],"split_conditions":[3.9499998E-2,1.675E2,8.9E-1,3.75E0,5E-1,2.075E-1,2.25E-1,3.2150002E0,7.75E1,3.5499997E-2,6.35E-1,9.05E0,2.75E1,3.518847E-1,6.75E0,4.775E-1,2.35E-1,4.25E-1,6.5E0,2.9E0,2.5E-1,2.9500002E-1,7.5E0,5.45E1,9.15E1,3.05E-1,1.325E2,1.6411279E-1,4.1586258E-2,7.05E1,2.4999999E-2,9.9356E-1,2.35E1,9.75E0,8.700001E0,3.9499998E-1,9.9105E-1,3.4453216E-1,2.8500003E-1,9.9549997E-1,1.6499999E-1,-1.0877109E-1,7.2E0,1.6493727E-2,8.247376E-4,8.1E0,5.8E-1,3.65E-1,1.12E2,3.5729775E-1,6.35E-1,8.15E0,3.525E0,1.24619E-1,-1.7099419E-1,1.1770571E-1,-8.86968E-2,1.2982057E-1,-1.4446536E-1,1.23138465E-1,2.2640936E-1,-2.4410468E-2,1.5325926E-1,5.3345207E-3,2.7005336E-1,-4.589186E-2,8.069463E-2,2.5247627E-1,1.809606E-1,-9.467526E-2,1.390943E-1,-6.5290086E-2,6.1098043E-2,-2.7631532E-2,1.1341388E-1,-1.696682E-2,1.4173151E-2,2.5486517E-1,5.0970297E-2,9.009801E-2,-4.6540976E-2,2.2308734E-1,1.0918022E-1,7.95667E-2,1.4537394E-1,8.898309E-2,1.7514141E-1,1.6377898E-1,-8.886871E-2,1.1968595E-1,9.014285E-3],"split_indices":[4,6,9,3,2,1,1,8,6,4,2,10,5,0,0,1,1,2,5,3,2,1,0,5,6,9,6,0,0,5,4,7,5,3,0,1,7,0,9,7,1,0,0,0,0,0,2,2,6,0,9,0,8,0,0,0,0,0,0,0,0,0,0,0,0,0,0,0,0,0,0,0,0,0,0,0,0,0,0,0,0,0,0,0,0,0,0,0,0,0,0],"split_type":[0,0,0,0,0,0,0,0,0,0,0,0,0,0,0,0,0,0,0,0,0,0,0,0,0,0,0,0,0,0,0,0,0,0,0,0,0,0,0,0,0,0,0,0,0,0,0,0,0,0,0,0,0,0,0,0,0,0,0,0,0,0,0,0,0,0,0,0,0,0,0,0,0,0,0,0,0,0,0,0,0,0,0,0,0,0,0,0,0,0,0],"sum_hessian":[2.94E3,1.109E3,1.831E3,9.94E2,1.15E2,1.82E3,1.1E1,5.31E2,4.63E2,1.05E2,1E1,4.29E2,1.391E3,7E0,4E0,2.75E2,2.56E2,2.5E1,4.38E2,3.9E1,6.6E1,5E0,5E0,5.1E1,3.78E2,4.14E2,9.77E2,3E0,1E0,2.66E2,9E0,1.1E2,1.46E2,2.2E1,3E0,7E0,4.31E2,5E0,3.4E1,1E1,5.6E1,2E0,3E0,3E0,2E0,4.5E1,6E0,4.8E1,3.3E2,2E0,4.12E2,1.79E2,7.98E2,2.65E2,1E0,1E0,8E0,1.07E2,3E0,4.7E1,9.9E1,1.6E1,6E0,1E0,2E0,5E0,2E0,6E1,3.71E2,1E0,3.3E1,7E0,3E0,4E0,5.2E1,2E0,1E0,4.1E1,4E0,5E0,1E0,3.5E1,1.3E1,8.4E1,2.46E2,3.83E2,2.9E1,1.76E2,3E0,7.81E2,1.7E1],"tree_param":{"num_deleted":"0","num_feature":"11","num_nodes":"91","size_leaf_vector":"0"}},{"base_weights":[3.1898123E-1,2.2203515E-1,3.3406678E-1,1.7536648E-1,3.4615755E-1,3.1524307E-1,4.0201944E-1,-2.3693714E-1,1.8931584E-1,6.0870355E-1,2.5974366E-1,3.0656424E-1,4.9152464E-1,4.3503308E-1,1.975137E-1,-4.6856585E-1,-4.423698E-3,3.311188E-1,1.4636375E-1,3.8763946E-1,8.749146E-1,5.525067E-1,1.8158373E-1,3.477674E-1,2.697854E-1,4.0135947E-1,8.657027E-1,3.1378362E-1,4.9523637E-1,4.0760612E-1,-4.6307784E-2,-6.610368E-1,-1.1990627E-1,5.3664804E-2,-8.040047E-2,1.00706875E-1,5.0276273E-1,-3.3757183E-1,1.6158058E-1,7.492635E-1,2.4655208E-1,1.0115656E0,1.7332347E-1,3.4158564E-1,8.0502456E-1,2.4049488E-1,-1.7825922E-1,2.4292247E-1,3.963541E-1,2.7321658E-1,-4.7521076E-1,4.5861393E-1,1.1504592E-1,2.7647257E-1,1.0257372E0,1.3277379E-1,4.738189E-1,5.7123744E-1,3.959887E-1,1.5261026E-1,4.8252326E-1,-2.462126E-1,1.1772505E-1,9.446263E-2,8.577983E-3,5.57172E-1,-1.7605523E-2,5.6763643E-1,7.2975874E-2,1.4086604E-1,-4.4078913E-1,2.1156316E-1,4.1909218E-2,2.883001E-1,1.1291981E-2,3.7651125E-1,1.1392224E0,5.193396E-1,1.0690069E-1,1.0375285E-1,9.0461105E-1,3.7434044E-1,2.054117E-2,2.6925611E-1,-2.579005E-1,6.8329793E-1,2.194493E-1,4.4071922E-1,2.561324E-1,1.1302444E0,2.7038643E-1,4.911311E-1,-1.437968E-1,-8.661418E-2,6.408497E-1,-1.6623807E-1,4.2870975E-1,3.3365026E-1,1.1212393E0,3.8406563E-1,-5.5792904E-3,6.304413E-1,2.676328E-1,4.41435E-1,8.254694E-1,1.0217315E0,3.6501524E-1,5.1813655E-2,4.0412998E-1,3.524196E-1,8.2878166E-1,-3.9642525E-1,-1.01421215E-1,3.8744384E-1,3.1471E-2],"categories":[],"categories_nodes":[],"categories_segments":[],"categories_sizes":[],"default_left":[1,1,1,1,1,1,1,1,1,1,1,1,1,1,1,1,1,1,1,1,1,1,1,1,1,1,1,1,1,1,1,0,0,1,0,1,1,1,1,0,1,1,0,1,1,1,1,1,1,1,0,1,1,1,1,1,1,1,1,1,1,1,1,0,0,0,0,0,0,0,0,0,0,0,0,0,0,0,0,0,0,0,0,0,0,0,0,0,0,0,0,0,0,0,0,0,0,0,0,0,0,0,0,0,0,0,0,0,0,0,0,0,0,0,0],"id":8,"left_children":[1,3,5,7,9,11,13,15,17,19,21,23,25,27,29,31,33,35,37,39,41,43,45,47,49,51,53,55,57,59,61,-1,-1,63,-1,65,67,69,71,-1,73,75,-1,77,79,81,83,85,87,89,-1,91,93,95,97,99,101,103,105,107,109,111,113,-1,-1,-1,-1,-1,-1,-1,-1,-1,-1,-1,-1,-1,-1,-1,-1,-1,-1,-1,-1,-1,-1,-1,-1,-1,-1,-1,-1,-1,-1,-1,-1,-1,-1,-1,-1,-1,-1,-1,-1,-1,-1,-1,-1,-1,-1,-1,-1,-1,-1,-1,-1],"loss_changes":[4.226959E0,2.2505531E0,3.126068E0,1.7242565E0,2.2921562E0,2.9030151E0,3.613884E0,5.364951E-1,1.6752138E0,1.1909399E0,1.7989082E0,2.7930298E0,2.756422E0,3.28273E0,4.014429E0,2.5627172E-1,3.0794935E-2,2.520041E0,1.6672535E0,6.3159704E-1,8.792772E-1,6.304579E-1,1.4631872E0,4.462906E0,2.7141724E0,1.1930857E0,1.3194628E0,4.5429935E0,2.1347275E0,7.287116E-1,1.2422507E0,0E0,0E0,6.547479E-3,0E0,1.5759683E0,9.9020576E-1,4.0777367E-1,1.2651901E0,0E0,1.2442589E-1,3.0069065E-1,0E0,4.0336037E-1,3.9500427E-1,1.6998203E0,4.258482E-1,2.8064365E0,3.6819E0,2.1368942E0,0E0,1.3047094E0,1.5399777E0,4.0825295E-1,4.8514175E-1,2.644435E0,2.5439167E0,5.410591E0,2.3210697E0,2.5793624E-1,1.1495042E0,3.2953548E-1,4.7635785E-1,0E0,0E0,0E0,0E0,0E0,0E0,0E0,0E0,0E0,0E0,0E0,0E0,0E0,0E0,0E0,0E0,0E0,0E0,0E0,0E0,0E0,0E0,0E0,0E0,0E0,0E0,0E0,0E0,0E0,0E0,0E0,0E0,0E0,0E0,0E0,0E0,0E0,0E0,0E0,0E0,0E0,0E0,0E0,0E0,0E0,0E0,0E0,0E0,0E0,0E0,0E0,0E0],"parents":[2147483647,0,0,1,1,2,2,3,3,4,4,5,5,6,6,7,7,8,8,9,9,10,10,11,11,12,12,13,13,14,14,15,15,16,16,17,17,18,18,19,19,20,20,21,21,22,22,23,23,24,24,25,25,26,26,27,27,28,28,29,29,30,30,33,33,35,35,36,36,37,37,38,38,40,40,41,41,43,43,44,44,45,45,46,46,47,47,48,48,49,49,51,51,52,52,53,53,54,54,55,55,56,56,57,57,58,58,59,59,60,60,61,61,62,62],"right_children":[2,4,6,8,10,12,14,16,18,20,22,24,26,28,30,32,34,36,38,40,42,44,46,48,50,52,54,56,58,60,62,-1,-1,64,-1,66,68,70,72,-1,74,76,-1,78,80,82,84,86,88,90,-1,92,94,96,98,100,102,104,106,108,110,112,114,-1,-1,-1,-1,-1,-1,-1,-1,-1,-1,-1,-1,-1,-1,-1,-1,-1,-1,-1,-1,-1,-1,-1,-1,-1,-1,-1,-1,-1,-1,-1,-1,-1,-1,-1,-1,-1,-1,-1,-1,-1,-1,-1,-1,-1,-1,-1,-1,-1,-1,-1,-1],"split_conditions":[2.35E-1,4.075E-1,5.65E-1,3.25E-1,5.7E0,1.275E1,1.945E2,3.25E1,4.05E-1,1.175E2,3.065E0,3.25E-1,3.3049998E0,2.75E1,6.25E-1,7E0,4.5E-2,6.2E0,8.6E1,4.25E-1,5.925E-1,7.25E0,1.207E1,4.05E-1,3.5949998E0,4.05E1,3.75E-1,3.205E0,4.35E-2,2.075E2,4.75E-2,-1.9831105E-1,-3.5971884E-2,6.25E0,-2.412014E-2,3.15E-2,2.25E-1,1.9999999E-1,4.45E1,2.2477907E-1,3.45E0,2.6E1,5.1997043E-2,6.65E0,3.8000003E-2,6.75E0,3.185E0,1.3499999E-1,1.715E2,1.85E-2,-1.4256324E-1,4.85E-1,3.26E0,2.1000001E-1,5.45E0,9.9162996E-1,1.105E2,1.42E2,9.8E1,7.7E0,7.25E0,8.65E0,3.2E1,2.8338792E-2,2.573395E-3,1.671516E-1,-5.281657E-3,1.7029093E-1,2.1892764E-2,4.2259812E-2,-1.3223675E-1,6.346895E-2,1.2572766E-2,8.6490035E-2,3.3875944E-3,1.1295338E-1,3.4176672E-1,1.5580189E-1,3.207021E-2,3.1125857E-2,2.7138332E-1,1.1230214E-1,6.1623515E-3,8.077684E-2,-7.737015E-2,2.0498939E-1,6.583479E-2,1.3221577E-1,7.683972E-2,3.3907333E-1,8.111593E-2,1.4733933E-1,-4.313904E-2,-2.5984254E-2,1.9225492E-1,-4.9871422E-2,1.2861294E-1,1.00095086E-1,3.363718E-1,1.1521969E-1,-1.6737873E-3,1.891324E-1,8.028985E-2,1.3243051E-1,2.4764082E-1,3.0651945E-1,1.0950457E-1,1.5544097E-2,1.21239E-1,1.0572589E-1,2.486345E-1,-1.18927576E-1,-3.0426366E-2,1.16233155E-1,9.4413E-3],"split_indices":[2,1,9,9,0,10,6,5,9,6,8,2,8,5,9,0,4,0,6,1,1,0,10,9,8,5,9,8,4,6,4,0,0,0,0,4,2,1,5,0,8,5,0,0,4,0,8,1,6,4,0,2,8,1,0,7,6,6,6,0,0,3,5,0,0,0,0,0,0,0,0,0,0,0,0,0,0,0,0,0,0,0,0,0,0,0,0,0,0,0,0,0,0,0,0,0,0,0,0,0,0,0,0,0,0,0,0,0,0,0,0,0,0,0,0],"split_type":[0,0,0,0,0,0,0,0,0,0,0,0,0,0,0,0,0,0,0,0,0,0,0,0,0,0,0,0,0,0,0,0,0,0,0,0,0,0,0,0,0,0,0,0,0,0,0,0,0,0,0,0,0,0,0,0,0,0,0,0,0,0,0,0,0,0,0,0,0,0,0,0,0,0,0,0,0,0,0,0,0,0,0,0,0,0,0,0,0,0,0,0,0,0,0,0,0,0,0,0,0,0,0,0,0,0,0,0,0,0,0,0,0,0,0],"sum_hessian":[2.94E3,3.98E2,2.542E3,2.91E2,1.07E2,1.995E3,5.47E2,9E0,2.82E2,2.5E1,8.2E1,1.904E3,9.1E1,4.7E2,7.7E1,4E0,5E0,6.4E1,2.18E2,1.5E1,1E1,1.6E1,6.6E1,8.94E2,1.01E3,7.5E1,1.6E1,1.58E2,3.12E2,4.1E1,3.6E1,2E0,2E0,3E0,2E0,2.8E1,3.6E1,6E0,2.12E2,3E0,1.2E1,8E0,2E0,1E1,6E0,5.7E1,9E0,2.85E2,6.09E2,1.006E3,4E0,6.2E1,1.3E1,4E0,1.2E1,7.5E1,8.3E1,1.74E2,1.38E2,1E1,3.1E1,1.6E1,2E1,1E0,2E0,5E0,2.3E1,3.1E1,5E0,1E0,5E0,1.49E2,6.3E1,1E1,2E0,2E0,6E0,5E0,5E0,1E0,5E0,3.5E1,2.2E1,1E0,8E0,1.3E1,2.72E2,4.61E2,1.48E2,2E0,1.004E3,5.9E1,3E0,1E1,3E0,1E0,3E0,2E0,1E1,2.6E1,4.9E1,4.6E1,3.7E1,1.17E2,5.7E1,5E0,1.33E2,8E0,2E0,2.4E1,7E0,7E0,9E0,4E0,1.6E1],"tree_param":{"num_deleted":"0","num_feature":"11","num_nodes":"115","size_leaf_vector":"0"}},{"base_weights":[2.2489719E-1,2.609014E-1,2.0295967E-1,2.0726977E-1,2.9213932E-1,1.6059385E-1,2.3119876E-1,2.5491175E-1,1.0652812E-1,3.4036317E-1,2.204729E-1,2.8359467E-1,1.1878125E-1,2.6142758E-1,1.416339E-1,4.9183905E-1,1.9586326E-1,-2.4102646E-1,1.769498E-1,1.4042768E-1,3.743227E-1,-9.18112E-2,2.7810752E-1,1.7640898E-1,4.009559E-1,1.1167783E-2,1.8866435E-1,3.51837E-1,2.1532845E-1,-2.2050299E-2,1.7660162E-1,2.9518333E-1,7.961777E-1,2.16027E-1,-4.6295467E-1,1.0477187E-1,-6.2778574E-1,1.3291788E-1,5.0204533E-1,6.2892354E-1,7.685806E-2,3.3371988E-1,6.270592E-1,4.6694928E-1,-2.4447213E-1,4.6353528E-1,1.6963859E-1,7.9320484E-1,1.2808661E-1,9.9303566E-2,5.061667E-1,5.125113E-1,-1.7949559E-2,-2.0364872E-1,2.0391716E-1,2.1763584E-1,4.8939648E-1,1.1931003E-1,3.0986017E-1,-1.0254069E-1,5.8530265E-1,9.9579495E-1,1.650482E-1,7.399953E-1,2.4580093E-1,9.029621E-1,-1.4551608E-1,2.810096E-1,5.0657228E-2,-1.3728619E-1,-6.7288446E-1,4.3636164E-1,-2.4178532E-1,-1.6127825E-1,-7.8256625E-1,9.36951E-2,3.489339E-1,-1.0231352E-1,6.935843E-1,7.4197197E-1,2.3086834E-1,-1.0399297E-2,3.3937293E-1,9.540007E-2,3.8175592E-1,-5.8603525E-2,7.4555296E-1,7.3456115E-1,1.661145E-1,-3.5118893E-1,1.7293525E-1,9.009655E-4,5.3657097E-1,2.2910367E-1,-9.252601E-2,8.729851E-1,1.5726161E-1,6.9283366E-2,4.2924458E-1,4.9450505E-1,1.9298349E-2,3.067696E-1,6.683136E-1,-3.0145773E-1,7.054509E-1,-3.9933346E-2,6.158634E-1,-3.4060878E-1,1.8966365E-1,4.006635E-2,2.4128732E-1,3.2881567E-1,-1.1719917E-2,2.9211965E-1,6.631091E-1,3.6191076E-1,6.702494E-2,3.3081734E-1,-1.7527334E-1,-7.923042E-2,-5.640962E-1,8.412077E-1,2.4704826E-1,-1.7730609E-1,1.7992717E-1],"categories":[],"categories_nodes":[],"categories_segments":[],"categories_sizes":[],"default_left":[1,1,1,1,1,1,1,1,1,1,1,1,1,1,1,1,1,1,1,1,1,1,1,1,1,1,1,1,1,1,1,1,1,1,1,1,1,1,1,1,1,1,1,1,1,1,1,1,1,1,1,1,1,1,1,1,1,1,1,1,1,0,1,0,0,0,0,0,0,0,0,0,0,0,0,0,0,0,0,0,0,0,0,0,0,0,0,0,0,0,0,0,0,0,0,0,0,0,0,0,0,0,0,0,0,0,0,0,0,0,0,0,0,0,0,0,0,0,0,0,0,0,0,0,0],"id":9,"left_children":[1,3,5,7,9,11,13,15,17,19,21,23,25,27,29,31,33,35,37,39,41,43,45,47,49,51,53,55,57,59,61,63,65,67,69,71,73,75,77,79,81,83,85,87,89,91,93,95,97,99,101,103,105,107,109,111,113,115,117,119,121,-1,123,-1,-1,-1,-1,-1,-1,-1,-1,-1,-1,-1,-1,-1,-1,-1,-1,-1,-1,-1,-1,-1,-1,-1,-1,-1,-1,-1,-1,-1,-1,-1,-1,-1,-1,-1,-1,-1,-1,-1,-1,-1,-1,-1,-1,-1,-1,-1,-1,-1,-1,-1,-1,-1,-1,-1,-1,-1,-1,-1,-1,-1,-1],"loss_changes":[2.2699738E0,1.7990723E0,2.154625E0,1.9502525E0,2.340725E0,3.7515488E0,2.9330368E0,3.8069324E0,3.32235E0,2.7719612E0,5.1370716E0,2.2690449E0,4.141614E0,3.3376656E0,1.6007957E0,3.0567293E0,3.0889654E0,3.141811E0,1.5365026E0,1.8769789E0,3.4336815E0,3.9526968E0,4.7485237E0,2.8491E0,2.7425985E0,3.1915176E0,2.040142E0,4.9701653E0,4.9098797E0,2.504321E0,2.0124798E0,5.869143E-1,2.2431183E0,2.3391733E0,3.8619494E-1,1.5993986E0,6.680579E-1,8.145813E-1,1.5758207E0,1.4369869E-1,1.2862852E0,3.4895477E0,3.9435349E0,6.83048E-1,1.6643305E0,2.9729328E0,2.4064126E0,2.178626E-1,1.6172035E0,7.4929315E-1,1.8965378E0,2.0972257E0,2.9088504E0,7.648863E-1,1.9619808E0,3.5993166E0,4.4326706E0,3.4259005E0,2.84375E0,4.3946058E-1,3.1154704E-1,0E0,1.1933064E0,0E0,0E0,0E0,0E0,0E0,0E0,0E0,0E0,0E0,0E0,0E0,0E0,0E0,0E0,0E0,0E0,0E0,0E0,0E0,0E0,0E0,0E0,0E0,0E0,0E0,0E0,0E0,0E0,0E0,0E0,0E0,0E0,0E0,0E0,0E0,0E0,0E0,0E0,0E0,0E0,0E0,0E0,0E0,0E0,0E0,0E0,0E0,0E0,0E0,0E0,0E0,0E0,0E0,0E0,0E0,0E0,0E0,0E0,0E0,0E0,0E0,0E0],"parents":[2147483647,0,0,1,1,2,2,3,3,4,4,5,5,6,6,7,7,8,8,9,9,10,10,11,11,12,12,13,13,14,14,15,15,16,16,17,17,18,18,19,19,20,20,21,21,22,22,23,23,24,24,25,25,26,26,27,27,28,28,29,29,30,30,31,31,32,32,33,33,34,34,35,35,36,36,37,37,38,38,39,39,40,40,41,41,42,42,43,43,44,44,45,45,46,46,47,47,48,48,49,49,50,50,51,51,52,52,53,53,54,54,55,55,56,56,57,57,58,58,59,59,60,60,62,62],"right_children":[2,4,6,8,10,12,14,16,18,20,22,24,26,28,30,32,34,36,38,40,42,44,46,48,50,52,54,56,58,60,62,64,66,68,70,72,74,76,78,80,82,84,86,88,90,92,94,96,98,100,102,104,106,108,110,112,114,116,118,120,122,-1,124,-1,-1,-1,-1,-1,-1,-1,-1,-1,-1,-1,-1,-1,-1,-1,-1,-1,-1,-1,-1,-1,-1,-1,-1,-1,-1,-1,-1,-1,-1,-1,-1,-1,-1,-1,-1,-1,-1,-1,-1,-1,-1,-1,-1,-1,-1,-1,-1,-1,-1,-1,-1,-1,-1,-1,-1,-1,-1,-1,-1,-1,-1],"split_conditions":[3.9499998E-2,2.05E0,3.15E1,9.9179E-1,9.9365497E-1,9.95E1,3.05E-1,1.115E1,9.9199E-1,3.0149999E0,9.9405503E-1,1.95E1,2.25E0,9.9451E-1,9.9336E-1,1.25E0,9.9165E-1,1.255E2,6.75E-1,3.25E-1,9.92945E-1,2.25E1,2.9500002E-1,5.75E0,6.25E0,7.5E0,9.5E0,4.75E-1,6.8500004E0,7.3500004E0,9.9355E-1,1.125E-1,1.365E2,3.65E-1,7E0,7.1E0,2.4000001E-1,3.85E-2,2.6E1,7.6E0,3.5500002E-1,8.95E1,5.6499996E0,7.45E0,4.1E-1,9.25E0,1.065E1,3.75E-1,6.95E0,1.4E-1,3.145E0,1.12E2,7.1000004E-1,8.25E0,2.35E-1,6.95E0,3.25E-1,1.325E2,5.85E-1,3.3449998E0,3.15E0,2.987385E-1,8.65E0,2.219986E-1,7.374028E-2,2.7088863E-1,-4.3654826E-2,8.430289E-2,1.5197169E-2,-4.1185856E-2,-2.0186535E-1,1.309085E-1,-7.25356E-2,-4.8383478E-2,-2.3476988E-1,2.810853E-2,1.0468017E-1,-3.0694056E-2,2.080753E-1,2.225916E-1,6.926051E-2,-3.1197893E-3,1.01811886E-1,2.8620023E-2,1.1452678E-1,-1.7581059E-2,2.236659E-1,2.2036836E-1,4.9834352E-2,-1.05356686E-1,5.1880576E-2,2.7028966E-4,1.609713E-1,6.873111E-2,-2.7757805E-2,2.6189554E-1,4.7178484E-2,2.0785011E-2,1.2877338E-1,1.4835152E-1,5.789505E-3,9.203088E-2,2.004941E-1,-9.043732E-2,2.1163528E-1,-1.1980005E-2,1.8475902E-1,-1.02182634E-1,5.6899097E-2,1.2019905E-2,7.23862E-2,9.86447E-2,-3.5159753E-3,8.76359E-2,1.9893275E-1,1.08573236E-1,2.0107482E-2,9.9245206E-2,-5.2582007E-2,-2.3769127E-2,-1.6922887E-1,2.523623E-1,7.411448E-2,-5.319183E-2,5.3978153E-2],"split_indices":[4,3,5,7,7,6,1,10,7,8,7,5,3,7,7,3,7,6,9,9,7,5,2,0,0,5,5,9,0,0,7,1,6,2,0,0,2,4,5,0,2,6,0,3,2,10,10,2,3,1,8,6,9,3,2,0,2,6,2,8,8,0,10,0,0,0,0,0,0,0,0,0,0,0,0,0,0,0,0,0,0,0,0,0,0,0,0,0,0,0,0,0,0,0,0,0,0,0,0,0,0,0,0,0,0,0,0,0,0,0,0,0,0,0,0,0,0,0,0,0,0,0,0,0,0],"split_type":[0,0,0,0,0,0,0,0,0,0,0,0,0,0,0,0,0,0,0,0,0,0,0,0,0,0,0,0,0,0,0,0,0,0,0,0,0,0,0,0,0,0,0,0,0,0,0,0,0,0,0,0,0,0,0,0,0,0,0,0,0,0,0,0,0,0,0,0,0,0,0,0,0,0,0,0,0,0,0,0,0,0,0,0,0,0,0,0,0,0,0,0,0,0,0,0,0,0,0,0,0,0,0,0,0,0,0,0,0,0,0,0,0,0,0,0,0,0,0,0,0,0,0,0,0],"sum_hessian":[2.94E3,1.109E3,1.831E3,4.11E2,6.98E2,7.35E2,1.096E3,2.78E2,1.33E2,4.15E2,2.83E2,1.85E2,5.5E2,8.18E2,2.78E2,5.4E1,2.24E2,2.2E1,1.11E2,6.1E1,3.54E2,4.4E1,2.39E2,9.8E1,8.7E1,2.17E2,3.33E2,2.74E2,5.44E2,4.9E1,2.29E2,3.4E1,2E1,2.18E2,6E0,1.2E1,1E1,9.9E1,1.2E1,6E0,5.5E1,3.07E2,4.7E1,9E0,3.5E1,8.7E1,1.52E2,6E0,9.2E1,2.3E1,6.4E1,1.1E1,2.06E2,1.2E1,3.21E2,1.4E2,1.34E2,2.71E2,2.73E2,4.4E1,5E0,2E0,2.27E2,2E0,3.2E1,1.8E1,2E0,1.56E2,6.2E1,3E0,3E0,6E0,6E0,3E0,7E0,8.5E1,1.4E1,3E0,9E0,4E0,2E0,4.2E1,1.3E1,5.2E1,2.55E2,7E0,4E1,4E0,5E0,2.8E1,7E0,1.2E1,7.5E1,1.24E2,2.8E1,5E0,1E0,7.8E1,1.4E1,3E0,2E1,3E1,3.4E1,2E0,9E0,2E2,6E0,9E0,3E0,6E1,2.61E2,9.4E1,4.6E1,6.4E1,7E1,4.7E1,2.24E2,2.62E2,1.1E1,4.3E1,1E0,2E0,3E0,9E0,2.18E2],"tree_param":{"num_deleted":"0","num_feature":"11","num_nodes":"125","size_leaf_vector":"0"}},{"base_weights":[1.5873781E-1,1.1089942E-1,1.7036718E-1,8.060891E-2,2.1066344E-1,1.7513676E-1,-1.8938068E-2,1.1316442E-1,-9.527727E-3,1.8234132E-1,6.3394403E-1,2.2850396E-1,1.589646E-1,-1.1664502E-1,3.0345178E-1,9.562731E-2,4.9841365E-1,-3.6595187E-1,6.617363E-2,3.8341698E-1,1.2421671E-1,-2.3643017E-2,7.312626E-1,2.6394296E-1,1.12853475E-1,1.5587181E-1,5.3641915E-1,-2.4480675E-1,2.2751988E-1,-1.0851139E-1,7.3091656E-1,-3.569433E-2,1.3139348E-1,1.8651843E-1,5.665198E-1,-7.476699E-2,-5.062038E-1,5.7206005E-1,3.3179034E-2,2.3883936E-1,5.851425E-1,1.9004315E-1,-2.1603316E-2,1.3782677E-1,3.31478E-1,4.1220848E-2,3.646538E-1,1.8005402E-1,1.2525819E-1,6.2087154E-1,2.6023054E-1,-4.7359756E-1,-1.6794996E-1,3.66407E-1,-1.7657793E-1,-5.6504583E-1,3.742865E-2,8.8413715E-2,8.232648E-1,-8.0506034E-2,7.0141935E-1,3.0342928E-1,1.071161E-1,2.8263772E-1,6.3764584E-1,-3.368462E-1,6.8733774E-2,-6.2154067E-1,-6.2476397E-2,7.775041E-1,1.07447945E-1,6.8093473E-3,4.1879955E-1,5.5957663E-1,1.0723039E-1,6.876773E-1,8.2490444E-2,3.0531144E-1,6.934508E-2,2.5727433E-1,-2.5280118E-1,-1.2580982E-1,1.7648762E-1,-6.4612246E-1,3.4136897E-1,-3.1095615E-1,8.824223E-2,-2.0114638E-2,5.7953155E-1,5.0900245E-1,1.7476521E-1,1.4336058E-1,-1.3378159E-2,7.316428E-1,3.6377174E-1,-2.073729E-1,-6.87979E-1,2.954824E-1,-1.97139E-1,5.7148844E-1,4.7027875E-2,4.1312456E-2,-2.6297888E-1,2.2523999E-1,-3.141324E-2],"categories":[],"categories_nodes":[],"categories_segments":[],"categories_sizes":[],"default_left":[1,1,1,1,1,1,1,1,1,1,1,1,1,1,1,1,1,1,1,1,1,0,0,1,1,1,1,1,1,1,1,1,1,0,1,1,1,1,1,1,1,1,1,1,1,1,1,1,1,1,0,1,1,1,1,0,1,0,0,0,0,0,0,0,0,0,0,0,0,0,0,0,0,0,0,0,0,0,0,0,0,0,0,0,0,0,0,0,0,0,0,0,0,0,0,0,0,0,0,0,0,0,0,0,0],"id":10,"left_children":[1,3,5,7,9,11,13,15,17,19,21,23,25,27,29,31,33,35,37,39,41,-1,-1,43,45,47,49,51,53,55,57,59,61,-1,63,65,67,69,71,73,75,77,79,81,83,85,87,89,91,93,-1,95,97,99,101,-1,103,-1,-1,-1,-1,-1,-1,-1,-1,-1,-1,-1,-1,-1,-1,-1,-1,-1,-1,-1,-1,-1,-1,-1,-1,-1,-1,-1,-1,-1,-1,-1,-1,-1,-1,-1,-1,-1,-1,-1,-1,-1,-1,-1,-1,-1,-1,-1,-1],"loss_changes":[1.6172714E0,1.7296786E0,2.1377945E0,1.3069062E0,1.4908247E0,1.9539032E0,1.8938801E0,2.161602E0,3.2350495E0,1.4366784E0,5.2925277E-1,2.1588306E0,1.9861717E0,2.0847015E0,2.5447094E0,1.4795079E0,1.9172144E-1,8.1977654E-1,1.6334798E0,6.768646E-1,9.639869E-1,0E0,0E0,3.4293575E0,2.2756827E0,1.2803841E0,1.6497755E-1,5.183196E-1,7.9431117E-1,5.5416214E-1,3.4254956E-1,2.302598E0,9.991126E-1,0E0,4.1882515E-2,3.2402122E-1,6.776626E-1,4.8916948E-1,9.530053E-1,6.998105E-1,5.102062E-1,9.3880177E-1,2.1282687E0,1.4899118E0,2.782961E0,1.6834246E0,2.3266463E0,1.617733E0,1.959445E0,1.8641472E-2,0E0,3.1392086E-1,4.2348385E-1,6.281115E-1,8.6168036E-2,0E0,9.758053E-2,0E0,0E0,0E0,0E0,0E0,0E0,0E0,0E0,0E0,0E0,0E0,0E0,0E0,0E0,0E0,0E0,0E0,0E0,0E0,0E0,0E0,0E0,0E0,0E0,0E0,0E0,0E0,0E0,0E0,0E0,0E0,0E0,0E0,0E0,0E0,0E0,0E0,0E0,0E0,0E0,0E0,0E0,0E0,0E0,0E0,0E0,0E0,0E0],"parents":[2147483647,0,0,1,1,2,2,3,3,4,4,5,5,6,6,7,7,8,8,9,9,10,10,11,11,12,12,13,13,14,14,15,15,16,16,17,17,18,18,19,19,20,20,23,23,24,24,25,25,26,26,27,27,28,28,29,29,30,30,31,31,32,32,34,34,35,35,36,36,37,37,38,38,39,39,40,40,41,41,42,42,43,43,44,44,45,45,46,46,47,47,48,48,49,49,51,51,52,52,53,53,54,54,56,56],"right_children":[2,4,6,8,10,12,14,16,18,20,22,24,26,28,30,32,34,36,38,40,42,-1,-1,44,46,48,50,52,54,56,58,60,62,-1,64,66,68,70,72,74,76,78,80,82,84,86,88,90,92,94,-1,96,98,100,102,-1,104,-1,-1,-1,-1,-1,-1,-1,-1,-1,-1,-1,-1,-1,-1,-1,-1,-1,-1,-1,-1,-1,-1,-1,-1,-1,-1,-1,-1,-1,-1,-1,-1,-1,-1,-1,-1,-1,-1,-1,-1,-1,-1,-1,-1,-1,-1,-1,-1],"split_conditions":[2.55E-1,4.075E-1,4.75E-1,4.95E-2,7.6499996E0,2.9500002E-1,1.245E1,4.85E-2,2.25E1,5.7E0,1.05E1,1.615E2,8.95E-1,1.075E1,3.2350001E0,1.6500001E0,2.1000001E-1,1.85E-1,9.92985E-1,1.175E2,1.0533333E1,-7.092905E-3,2.193788E-1,4.05E-1,9.97775E-1,4.45E-2,7E0,1.1E2,5.2E1,1.3E0,5.75E0,6.3E-1,1.005E2,5.5955533E-2,5.6499996E0,5.2500002E-2,2.45E-1,6.75E0,5.65E1,4.25E-1,5.925E-1,6.75E0,3.205E0,1.3499999E0,6.5E0,1.665E2,2.75E-1,5.25E0,1.4475E1,2.2E-1,7.8069165E-2,1.6E1,1.17E2,5.9E-2,2.9E-1,-1.6951376E-1,2.15E0,2.6524115E-2,2.4697945E-1,-2.4151811E-2,2.1042581E-1,9.102879E-2,3.213483E-2,8.479132E-2,1.9129376E-1,-1.01053864E-1,2.0620134E-2,-1.8646221E-1,-1.8742919E-2,2.3325123E-1,3.2234386E-2,2.0428044E-3,1.2563987E-1,1.67873E-1,3.216912E-2,2.0630321E-1,2.4747135E-2,9.159344E-2,2.0803524E-2,7.71823E-2,-7.5840354E-2,-3.7742946E-2,5.294629E-2,-1.9383675E-1,1.024107E-1,-9.328685E-2,2.6472671E-2,-6.0343915E-3,1.7385948E-1,1.5270074E-1,5.2429568E-2,4.300818E-2,-4.013448E-3,2.1949284E-1,1.0913152E-1,-6.2211875E-2,-2.063937E-1,8.864472E-2,-5.91417E-2,1.7144653E-1,1.4108363E-2,1.2393737E-2,-7.889367E-2,6.7572E-2,-9.423972E-3],"split_indices":[2,1,1,4,0,2,10,4,5,0,5,6,9,3,8,3,1,2,7,6,10,0,0,9,7,4,0,6,5,3,0,9,6,0,0,4,2,0,5,1,1,0,8,3,5,6,2,0,3,1,0,5,6,4,2,0,3,0,0,0,0,0,0,0,0,0,0,0,0,0,0,0,0,0,0,0,0,0,0,0,0,0,0,0,0,0,0,0,0,0,0,0,0,0,0,0,0,0,0,0,0,0,0,0,0],"split_type":[0,0,0,0,0,0,0,0,0,0,0,0,0,0,0,0,0,0,0,0,0,0,0,0,0,0,0,0,0,0,0,0,0,0,0,0,0,0,0,0,0,0,0,0,0,0,0,0,0,0,0,0,0,0,0,0,0,0,0,0,0,0,0,0,0,0,0,0,0,0,0,0,0,0,0,0,0,0,0,0,0,0,0,0,0,0,0,0,0,0,0,0,0,0,0,0,0,0,0,0,0,0,0,0,0],"sum_hessian":[2.94E3,5.77E2,2.363E3,4.44E2,1.33E2,2.305E3,5.8E1,3.26E2,1.18E2,1.26E2,7E0,5.33E2,1.772E3,4.5E1,1.3E1,3.13E2,1.3E1,2E1,9.8E1,2.7E1,9.9E1,1E0,6E0,4.07E2,1.26E2,1.759E3,1.3E1,3.3E1,1.2E1,7E0,6E0,6.7E1,2.46E2,3E0,1E1,7E0,1.3E1,5E0,9.3E1,1.7E1,1E1,6.8E1,3.1E1,1.43E2,2.64E2,9.9E1,2.7E1,9.8E2,7.79E2,9E0,4E0,7E0,2.6E1,9E0,3E0,1E0,6E0,1E0,5E0,6.4E1,3E0,2.9E1,2.17E2,3E0,7E0,2E0,5E0,1E1,3E0,3E0,2E0,8.8E1,5E0,4E0,1.3E1,8E0,2E0,3.4E1,3.4E1,1.4E1,1.7E1,1.8E1,1.25E2,2E0,2.62E2,1.1E1,8.8E1,1E1,1.7E1,1.4E1,9.66E2,6.89E2,9E1,5E0,4E0,4E0,3E0,1E0,2.5E1,5E0,4E0,1E0,2E0,1E0,5E0],"tree_param":{"num_deleted":"0","num_feature":"11","num_nodes":"105","size_leaf_vector":"0"}},{"base_weights":[1.1187253E-1,3.7316808E-1,1.1022575E-1,-3.3726692E-1,4.3479759E-1,8.047849E-2,1.2320244E-1,6.1618567E-2,5.103632E-1,7.033014E-2,3.064314E-1,1.265176E-1,-1.4826357E-1,6.495236E-1,1.2996969E-1,8.425254E-2,-7.32998E-2,7.280894E-1,2.2048053E-1,7.703189E-2,1.4311515E-1,-2.255873E-1,2.0614882E-1,7.4131584E-1,1.8823655E-1,1.0469437E-2,1.572274E-1,4.8736572E-2,1.7659861E-1,-1.015336E-1,3.479268E-1,7.95015E-1,1.9673085E-1,-4.101455E-3,4.0786004E-1,-1.6047555E-1,9.230589E-2,2.308011E-1,1.2854841E-1,1.2741263E-1,-3.4386307E-1,2.6218057E-1,-8.989096E-3,8.2424176E-1,8.0417156E-2,8.420776E-2,-1.2378573E-2,2.8173032E-1,3.1837042E-2,2.1147871E-1,-1.3849613E-1,4.189409E-1,3.1935215E-2,2.3931427E-1,-1.05182886E-1,5.7930875E-1,2.1277022E-1,-3.2914466E-1,4.1381136E-2,1.2194927E-1,-2.5080027E-2,2.9833755E-1,-6.875243E-2,1.9341771E-1,1.1007986E-1,2.2531636E-1,2.2131681E-2,3.56493E-1,-4.1431966E-1],"categories":[],"categories_nodes":[],"categories_segments":[],"categories_sizes":[],"default_left":[1,1,1,0,1,1,1,0,1,1,1,1,1,1,1,1,1,1,1,1,1,1,1,1,0,0,0,1,1,1,1,0,0,1,1,1,1,1,1,1,1,0,0,0,0,0,0,0,0,0,0,0,0,0,0,0,0,0,0,0,0,0,0,0,0,0,0,0,0],"id":11,"left_children":[1,3,5,-1,7,9,11,-1,13,15,17,19,21,23,25,27,29,31,33,35,37,39,41,43,-1,-1,-1,45,47,49,51,-1,-1,53,55,57,59,61,63,65,67,-1,-1,-1,-1,-1,-1,-1,-1,-1,-1,-1,-1,-1,-1,-1,-1,-1,-1,-1,-1,-1,-1,-1,-1,-1,-1,-1,-1],"loss_changes":[1.224369E0,9.347508E-1,1.1188126E0,0E0,4.4794393E-1,2.0215554E0,1.8492546E0,0E0,6.566818E-1,1.7138963E0,1.2166622E0,1.6398735E0,7.316168E-1,2.8388262E-1,1.4640436E-2,2.5463262E0,9.3918097E-1,5.6964874E-2,1.3903807E0,1.8540514E0,1.8913879E0,9.205905E-1,6.2629536E-2,3.7216234E-1,0E0,0E0,0E0,1.2236966E0,3.2783427E0,8.623094E-1,9.882033E-2,0E0,0E0,4.1884872E-1,4.7880244E-1,1.069077E0,1.6628823E0,4.329667E0,1.5265789E0,5.6857765E-2,9.372176E-1,0E0,0E0,0E0,0E0,0E0,0E0,0E0,0E0,0E0,0E0,0E0,0E0,0E0,0E0,0E0,0E0,0E0,0E0,0E0,0E0,0E0,0E0,0E0,0E0,0E0,0E0,0E0,0E0],"parents":[2147483647,0,0,1,1,2,2,4,4,5,5,6,6,8,8,9,9,10,10,11,11,12,12,13,13,14,14,15,15,16,16,17,17,18,18,19,19,20,20,21,21,22,22,23,23,27,27,28,28,29,29,30,30,33,33,34,34,35,35,36,36,37,37,38,38,39,39,40,40],"right_children":[2,4,6,-1,8,10,12,-1,14,16,18,20,22,24,26,28,30,32,34,36,38,40,42,44,-1,-1,-1,46,48,50,52,-1,-1,54,56,58,60,62,64,66,68,-1,-1,-1,-1,-1,-1,-1,-1,-1,-1,-1,-1,-1,-1,-1,-1,-1,-1,-1,-1,-1,-1,-1,-1,-1,-1,-1,-1],"split_conditions":[1.125E-1,5.95E0,2.025E0,-1.01180084E-1,3.85E-1,7.45E-1,3.5549998E0,1.848557E-2,7.1E0,9.94115E-1,1.7E1,2.65E-1,7.1500003E-1,5.8500004E-1,4.1000003E-1,3.295E0,5.15E-1,7.8500004E0,3.7E1,1.35E1,2.85E-1,4.45E-1,6.45E0,1.06E1,5.6470968E-2,3.1408311E-3,4.716822E-2,1.255E2,1.115E1,3.065E0,8.5E0,2.385045E-1,5.9019256E-2,6.3999996E0,3.28E0,4.7E0,1.815E2,3.295E0,9.9261E-1,1.59E2,4.9E0,7.865417E-2,-2.6967288E-3,2.4727254E-1,2.4125148E-2,2.5262328E-2,-3.7135722E-3,8.45191E-2,9.5511135E-3,6.3443616E-2,-4.154884E-2,1.2568228E-1,9.580565E-3,7.179429E-2,-3.1554867E-2,1.7379263E-1,6.383107E-2,-9.87434E-2,1.2414341E-2,3.6584783E-2,-7.5240084E-3,8.950127E-2,-2.062573E-2,5.8025315E-2,3.302396E-2,6.759491E-2,6.639505E-3,1.0694791E-1,-1.24295905E-1],"split_indices":[1,0,3,0,9,9,8,0,0,7,5,2,9,9,2,8,2,0,5,5,2,9,0,3,0,0,0,6,10,8,0,0,0,0,8,3,6,8,7,6,0,0,0,0,0,0,0,0,0,0,0,0,0,0,0,0,0,0,0,0,0,0,0,0,0,0,0,0,0],"split_type":[0,0,0,0,0,0,0,0,0,0,0,0,0,0,0,0,0,0,0,0,0,0,0,0,0,0,0,0,0,0,0,0,0,0,0,0,0,0,0,0,0,0,0,0,0,0,0,0,0,0,0,0,0,0,0,0,0,0,0,0,0,0,0,0,0,0,0,0,0],"sum_hessian":[2.94E3,1.7E1,2.923E3,1E0,1.6E1,8.9E2,2.033E3,3E0,1.3E1,8.53E2,3.7E1,2.009E3,2.4E1,9E0,4E0,7.78E2,7.5E1,5E0,3.2E1,5.06E2,1.503E3,2E1,4E0,7E0,2E0,1E0,3E0,5.63E2,2.15E2,7.1E1,4E0,4E0,1E0,1.5E1,1.7E1,3E1,4.76E2,2.12E2,1.291E3,5E0,1.5E1,3E0,1E0,6E0,1E0,3.56E2,2.07E2,1.24E2,9.1E1,7E0,6.4E1,3E0,1E0,4E0,1.1E1,8E0,9E0,1.6E1,1.4E1,3.8E2,9.6E1,1.73E2,3.9E1,2.84E2,1.007E3,2E0,3E0,1E0,1.4E1],"tree_param":{"num_deleted":"0","num_feature":"11","num_nodes":"69","size_leaf_vector":"0"}},{"base_weights":[7.8779735E-2,4.6023136E-1,7.784313E-2,1.1256393E-1,5.7678556E-1,4.7282144E-2,8.954957E-2,1.4864397E-1,2.0201921E-2,1.6480042E-1,3.136204E-2,3.834021E-2,1.12912126E-1,1.8453494E-1,-5.150595E-1,4.661601E-2,-7.713927E-2,2.8448628E-2,2.8073114E-1,1.2305671E-1,-1.0563135E-3,1.1072104E-1,3.6633584E-1,2.0094116E-1,3.182485E-2,-2.4467906E-1,4.1277923E-2,-5.784826E-2,6.2009215E-2,3.6304712E-2,3.1103438E-1,1.0946602E-1,2.9566485E-1,-4.878034E-1,2.8840931E-2,2.3639368E-2,4.5113906E-1,6.3077515E-1,-7.5646356E-2,6.135351E-1,5.8625516E-2,-6.462789E-3,8.2643785E-2,-5.169642E-1,-9.330364E-2,5.0872326E-1,-4.0914267E-2,2.3412895E-1,-1.0211326E-1,1.0033033E-1,-4.3255836E-2,1.7991798E-1,-1.9726753E-1,7.2865486E-2,3.4311646E-1,2.2702849E-2,1.3845596E-1,4.814361E-1,7.029731E-2,-1.905063E-1,-1.135793E0,5.5234455E-2,-5.5758476E-1],"categories":[],"categories_nodes":[],"categories_segments":[],"categories_sizes":[],"default_left":[1,1,1,1,0,1,1,0,0,1,1,1,1,1,0,1,1,1,1,1,1,1,1,1,1,1,1,1,1,1,1,1,1,1,1,0,0,0,0,0,0,0,0,0,0,0,0,0,0,0,0,0,0,0,0,0,0,0,0,0,0,0,0],"id":12,"left_children":[1,3,5,7,-1,9,11,-1,-1,13,15,17,19,21,-1,23,25,27,29,31,33,35,37,39,41,43,45,47,49,51,53,55,57,59,61,-1,-1,-1,-1,-1,-1,-1,-1,-1,-1,-1,-1,-1,-1,-1,-1,-1,-1,-1,-1,-1,-1,-1,-1,-1,-1,-1,-1],"loss_changes":[1.0149059E0,2.1872938E-1,1.0457935E0,6.9943815E-3,0E0,1.5196179E0,2.5331955E0,0E0,0E0,1.3964667E0,1.1935953E0,1.5888351E0,1.6835022E0,1.2342851E0,0E0,1.4339559E0,1.7758234E0,1.860035E0,1.8128777E-1,3.1040554E0,1.7603563E0,2.0347831E0,3.2034075E0,3.193553E0,1.1232245E0,1.4768045E0,2.057093E0,2.3502946E0,1.8679894E0,1.6966826E-1,1.5074062E-1,3.1182928E0,4.027237E0,1.1321422E0,1.7952715E0,0E0,0E0,0E0,0E0,0E0,0E0,0E0,0E0,0E0,0E0,0E0,0E0,0E0,0E0,0E0,0E0,0E0,0E0,0E0,0E0,0E0,0E0,0E0,0E0,0E0,0E0,0E0,0E0],"parents":[2147483647,0,0,1,1,2,2,3,3,5,5,6,6,9,9,10,10,11,11,12,12,13,13,15,15,16,16,17,17,18,18,19,19,20,20,21,21,22,22,23,23,24,24,25,25,26,26,27,27,28,28,29,29,30,30,31,31,32,32,33,33,34,34],"right_children":[2,4,6,8,-1,10,12,-1,-1,14,16,18,20,22,-1,24,26,28,30,32,34,36,38,40,42,44,46,48,50,52,54,56,58,60,62,-1,-1,-1,-1,-1,-1,-1,-1,-1,-1,-1,-1,-1,-1,-1,-1,-1,-1,-1,-1,-1,-1,-1,-1,-1,-1,-1,-1],"split_conditions":[2.65E-1,3E-2,2.45E1,7E0,1.7303568E-1,2.85E-2,6.425E0,4.4593193E-2,6.0605765E-3,9.9539E-1,1.2174999E1,7.45E-1,1.4924999E1,5.3499997E-1,-1.5451784E-1,9.9092495E-1,1.255E1,2.2749999E-1,1.025E1,1.375E1,9.97355E-1,3.85E-1,3.35E-1,1.95E-1,3.95E0,3.35E-2,2.45E-1,3.65E-1,1.755E2,3E-1,5.2E0,9.45E0,9.15E0,5.7E-2,6.65E-2,7.0918105E-3,1.3534172E-1,1.8923256E-1,-2.2693908E-2,1.8406054E-1,1.7587656E-2,-1.9388368E-3,2.4793137E-2,-1.5508926E-1,-2.7991094E-2,1.5261698E-1,-1.2274281E-2,7.023869E-2,-3.063398E-2,3.00991E-2,-1.2976752E-2,5.3975396E-2,-5.9180263E-2,2.1859646E-2,1.0293494E-1,6.8108547E-3,4.153679E-2,1.4443083E-1,2.1089192E-2,-5.715189E-2,-3.407379E-1,1.6570337E-2,-1.6727543E-1],"split_indices":[9,4,5,0,0,4,0,0,0,7,10,9,3,9,0,7,10,1,10,3,7,2,2,1,3,4,1,9,6,1,0,10,10,4,4,0,0,0,0,0,0,0,0,0,0,0,0,0,0,0,0,0,0,0,0,0,0,0,0,0,0,0,0],"split_type":[0,0,0,0,0,0,0,0,0,0,0,0,0,0,0,0,0,0,0,0,0,0,0,0,0,0,0,0,0,0,0,0,0,0,0,0,0,0,0,0,0,0,0,0,0,0,0,0,0,0,0,0,0,0,0,0,0,0,0,0,0,0,0],"sum_hessian":[2.94E3,6E0,2.934E3,2E0,4E0,8.14E2,2.12E3,1E0,1E0,9.6E1,7.18E2,6.65E2,1.455E3,9.4E1,2E0,6.3E2,8.8E1,6.4E2,2.5E1,1.336E3,1.19E2,6.8E1,2.6E1,5.4E1,5.76E2,3.6E1,5.2E1,1.79E2,4.61E2,3E0,2.2E1,1.24E3,9.6E1,6E0,1.13E2,5.5E1,1.3E1,1.6E1,1E1,1.3E1,4.1E1,3.29E2,2.47E2,1.2E1,2.4E1,7E0,4.5E1,2.3E1,1.56E2,3.38E2,1.23E2,2E0,1E0,3E0,1.9E1,3.11E2,9.29E2,5.2E1,4.4E1,5E0,1E0,1.09E2,4E0],"tree_param":{"num_deleted":"0","num_feature":"11","num_nodes":"63","size_leaf_vector":"0"}},{"base_weights":[5.5282354E-2,1.9307427E-1,5.3267684E-2,-3.8699824E-2,3.3719295E-1,4.3634348E-2,8.292033E-2,-1.4450516E-1,5.0322676E-1,4.174992E-2,6.783973E-1,2.9632078E-2,8.692056E-2,2.094019E-1,5.9881438E-2,-2.0978762E-1,2.801733E-2,2.4248514E-1,-2.997671E-1,1.4955063E-1,9.241268E-1,2.5908194E-2,2.71691E-1,4.6985814E-1,7.648369E-2,4.1307613E-1,1.11561894E-1,7.056744E-2,-2.1219511E-1,-2.387165E-1,-5.3071816E-2,-2.077357E-2,6.746912E-2,-1.7055193E-2,3.0950212E-1,-3.6221552E-1,6.237507E-3,-1.384418E-1,2.561592E-1,1.2491555E0,4.7927848E-1,-8.3673395E-2,3.1237008E-2,4.6925837E-1,1.8554807E-2,6.0913855E-1,9.7325705E-2,5.014483E-4,1.3359617E-1,1.1100683E0,3.1304348E-1,3.45923E-2,5.127696E-1,6.2665224E-2,4.3938327E-1,3.784895E-4,-6.108179E-1,-1.3921137E-1,-2.9047832E-1,5.4130394E-2,3.856043E-1,1.23392336E-1,-2.3707102E-1,6.93223E-2,9.91609E-3,8.793807E-2,4.9182624E-1,1.987635E-1,-1.9478114E-1,2.410717E-1,6.710213E-1,1.2055135E-1,2.2115707E-3,-4.9145736E-2,3.3774263E-1,1.0107776E0,1.2124932E-1,-2.8061092E-1,3.8413227E-1,1.6441903E-1,-1.4940798E-1,5.8868647E-1,8.87901E-2,1.464542E-1,3.8746137E-2,1.5263948E0,2.0180087E-1,3.859175E-1,-2.0994993E-1,-9.124163E-1,-8.1115484E-2],"categories":[],"categories_nodes":[],"categories_segments":[],"categories_sizes":[],"default_left":[1,1,1,1,1,1,1,1,0,1,1,1,1,1,1,1,1,1,1,1,1,1,1,1,1,1,1,1,1,1,0,0,0,0,1,0,0,0,0,0,0,1,1,1,1,1,1,1,1,0,1,1,1,1,1,1,1,0,0,0,0,0,0,0,0,0,0,0,0,0,0,0,0,0,0,0,0,0,0,0,0,0,0,0,0,0,0,0,0,0,0],"id":13,"left_children":[1,3,5,7,9,11,13,15,-1,17,19,21,23,25,27,29,31,33,35,37,39,41,43,45,47,49,51,53,55,57,-1,-1,-1,-1,59,-1,-1,-1,-1,-1,-1,61,63,65,67,69,71,73,75,-1,77,79,81,83,85,87,89,-1,-1,-1,-1,-1,-1,-1,-1,-1,-1,-1,-1,-1,-1,-1,-1,-1,-1,-1,-1,-1,-1,-1,-1,-1,-1,-1,-1,-1,-1,-1,-1,-1,-1],"loss_changes":[8.061533E-1,1.4159744E0,8.247776E-1,1.0474771E0,2.5926442E0,1.3254008E0,2.0563965E0,1.7481807E-1,0E0,1.1010064E0,1.4212351E0,1.4865803E0,2.102282E0,2.1260133E0,1.7652347E0,3.72006E-2,1.10260155E-2,1.7921472E-1,1.1691636E-1,1.8897542E-1,5.5801487E-1,9.5618737E-1,1.2415792E0,6.671257E-1,2.26517E0,2.0927696E0,2.2983215E0,1.6628525E0,1.949175E0,5.917251E-3,0E0,0E0,0E0,0E0,1.3460183E-1,0E0,0E0,0E0,0E0,0E0,0E0,2.4432707E0,1.2644295E0,7.722807E-2,5.000553E-1,6.600547E-2,1.0778826E-2,3.7837906E0,3.1049123E0,0E0,1.4582608E0,1.5534074E0,3.3397698E-1,1.1346905E0,2.79103E0,1.3784604E0,1.2040479E0,0E0,0E0,0E0,0E0,0E0,0E0,0E0,0E0,0E0,0E0,0E0,0E0,0E0,0E0,0E0,0E0,0E0,0E0,0E0,0E0,0E0,0E0,0E0,0E0,0E0,0E0,0E0,0E0,0E0,0E0,0E0,0E0,0E0,0E0],"parents":[2147483647,0,0,1,1,2,2,3,3,4,4,5,5,6,6,7,7,9,9,10,10,11,11,12,12,13,13,14,14,15,15,16,16,17,17,18,18,19,19,20,20,21,21,22,22,23,23,24,24,25,25,26,26,27,27,28,28,29,29,34,34,41,41,42,42,43,43,44,44,45,45,46,46,47,47,48,48,50,50,51,51,52,52,53,53,54,54,55,55,56,56],"right_children":[2,4,6,8,10,12,14,16,-1,18,20,22,24,26,28,30,32,34,36,38,40,42,44,46,48,50,52,54,56,58,-1,-1,-1,-1,60,-1,-1,-1,-1,-1,-1,62,64,66,68,70,72,74,76,-1,78,80,82,84,86,88,90,-1,-1,-1,-1,-1,-1,-1,-1,-1,-1,-1,-1,-1,-1,-1,-1,-1,-1,-1,-1,-1,-1,-1,-1,-1,-1,-1,-1,-1,-1,-1,-1,-1,-1],"split_conditions":[2.1499999E-2,3.14E0,1.015E1,9.9385E-1,6.55E0,3.295E0,9.9616003E-1,9.9308E-1,1.5096803E-1,3.2E1,2.375E1,1.695E-1,3.35E-1,1.055E1,1.045E1,3.35E-1,7.35E0,2.65E-1,1.035E2,2.8E-1,9.9049497E-1,2.6500002E-2,2.85E-1,1.655E2,4.85E-1,2.15E-1,4.35E-1,8.55E0,4.4E-1,1.135E1,-1.5921546E-2,-6.232071E-3,2.0240737E-2,-5.116558E-3,1.8E-2,-1.0866466E-1,1.8712521E-3,-4.1532543E-2,7.684776E-2,3.7474668E-1,1.4378355E-1,3.0949998E0,3.85E-2,1.45E1,1.985E-1,1.1500001E0,2.8500003E-1,4.05E-1,9.5E0,3.330205E-1,2.45E1,3.65E1,5.4999995E-1,2.05E-1,9.972E-1,2.9E1,2.85E-1,-4.1763414E-2,-8.7143496E-2,1.623912E-2,1.1568129E-1,3.7017703E-2,-7.112131E-2,2.0796692E-2,2.9748273E-3,2.6381422E-2,1.4754787E-1,5.9629053E-2,-5.8434345E-2,7.232151E-2,2.0130639E-1,3.6165405E-2,6.6347123E-4,-1.4743721E-2,1.0132279E-1,3.032333E-1,3.6374796E-2,-8.4183276E-2,1.1523969E-1,4.932571E-2,-4.4822395E-2,1.7660594E-1,2.663703E-2,4.393626E-2,1.1623842E-2,4.5791847E-1,6.0540263E-2,1.1577526E-1,-6.298498E-2,-2.7372488E-1,-2.4334647E-2],"split_indices":[4,8,3,7,0,8,7,7,0,5,5,4,9,10,10,1,0,1,6,2,7,4,1,6,9,1,1,0,9,10,0,0,0,0,4,0,0,0,0,0,0,8,4,5,4,3,1,2,5,0,5,5,1,1,7,5,1,0,0,0,0,0,0,0,0,0,0,0,0,0,0,0,0,0,0,0,0,0,0,0,0,0,0,0,0,0,0,0,0,0,0],"split_type":[0,0,0,0,0,0,0,0,0,0,0,0,0,0,0,0,0,0,0,0,0,0,0,0,0,0,0,0,0,0,0,0,0,0,0,0,0,0,0,0,0,0,0,0,0,0,0,0,0,0,0,0,0,0,0,0,0,0,0,0,0,0,0,0,0,0,0,0,0,0,0,0,0,0,0,0,0,0,0,0,0,0,0,0,0,0,0,0,0,0,0],"sum_hessian":[2.94E3,4.1E1,2.899E3,1.6E1,2.5E1,2.19E3,7.09E2,1.4E1,2E0,1.4E1,1.1E1,1.656E3,5.34E2,1.08E2,6.01E2,1E1,4E0,9E0,5E0,4E0,7E0,1.632E3,2.4E1,1.3E1,5.21E2,3.4E1,7.4E1,5.79E2,2.2E1,8E0,2E0,2E0,2E0,2E0,7E0,4E0,1E0,1E0,3E0,3E0,4E0,7.5E1,1.557E3,1.3E1,1.1E1,9E0,4E0,2.24E2,2.97E2,3E0,3.1E1,6.3E1,1.1E1,5.68E2,1.1E1,1.5E1,7E0,4E0,4E0,2E0,5E0,3.2E1,4.3E1,5.58E2,9.99E2,1E0,1.2E1,6E0,5E0,2E0,7E0,3E0,1E0,1.96E2,2.8E1,3E0,2.94E2,3E0,2.8E1,3.7E1,2.6E1,9E0,2E0,1.25E2,4.43E2,1E0,1E1,5E0,1E1,4E0,3E0],"tree_param":{"num_deleted":"0","num_feature":"11","num_nodes":"91","size_leaf_vector":"0"}},{"base_weights":[3.951229E-2,2.2716716E-1,3.8214345E-2,3.6323737E-2,3.8000962E-1,4.030069E-2,-7.3340066E-2,-2.8719497E-1,1.0418081E-1,5.384035E-1,8.225622E-2,1.5269841E-1,3.8171694E-2,1.9677806E-1,-1.3173653E-1,2.1480799E-1,1.3065894E-2,8.716369E-2,5.990829E-1,1.005944E-1,4.4517517E-3,5.927778E-2,3.4704342E-1,-1.7348315E-1,3.9442655E-2,6.9235265E-2,4.712995E-1,-3.2473482E-2,-2.9331842E-1,4.1454475E-2,-1.1492014E-2,-9.682547E-2,1.5850696E-1,6.538606E-2,5.3766495E-1,1.3948393E-1,-2.8051025E-1,1.264532E-1,3.6573734E-2,1.0492802E-1,-9.0307E-2,3.2180357E-1,-1.1968968E-1,-1.7741546E-1,-5.360024E-1,-4.7747293E-4,-2.2267818E-2,7.385999E-2,-2.5540775E-1,2.979165E-1,-5.2517127E-2,-1.8094206E-1,2.4937133E-1,7.5095135E-1,2.9997528E-2,-2.0553827E-1,2.7712405E-1,-3.4624547E-1,5.4022312E-2,2.75606E-1,1.502513E-2,-3.3225614E-1,3.8609996E-2,-6.3494444E-2,1.4358084E-1,-1.4467239E-3,4.837904E-1,-2.1044768E-1,6.701383E-3,-2.3776083E-1,1.0298935E-1],"categories":[],"categories_nodes":[],"categories_segments":[],"categories_sizes":[],"default_left":[1,1,1,1,1,1,1,0,1,1,1,1,1,1,1,0,1,0,0,0,0,1,1,1,1,1,0,1,1,0,1,1,1,1,1,1,1,1,1,1,0,1,1,1,0,0,0,0,0,0,0,0,0,0,0,0,0,0,0,0,0,0,0,0,0,0,0,0,0,0,0],"id":14,"left_children":[1,3,5,7,9,11,13,-1,15,17,19,21,23,25,27,-1,29,-1,-1,-1,-1,31,33,35,37,39,-1,41,43,-1,45,47,49,51,53,55,57,59,61,63,-1,65,67,69,-1,-1,-1,-1,-1,-1,-1,-1,-1,-1,-1,-1,-1,-1,-1,-1,-1,-1,-1,-1,-1,-1,-1,-1,-1,-1,-1],"loss_changes":[7.076483E-1,5.6957614E-1,6.830249E-1,2.4945053E-1,4.744984E-1,6.80707E-1,8.777158E-1,0E0,8.791141E-2,1.394484E-1,6.68614E-3,9.416871E-1,7.6462936E-1,3.1750178E-1,7.122349E-1,0E0,4.6593808E-3,0E0,0E0,0E0,0E0,5.884774E-1,8.775737E-1,6.0855794E-1,6.9457865E-1,5.5031754E-2,0E0,9.3457884E-1,3.8307726E-1,0E0,4.641299E-4,4.248798E-1,6.922775E-1,4.0768772E-1,1.0602589E0,2.944041E-1,3.0458236E-1,1.475022E0,2.050385E0,5.468659E-2,0E0,3.1487364E-1,2.767143E-1,2.4446154E-1,0E0,0E0,0E0,0E0,0E0,0E0,0E0,0E0,0E0,0E0,0E0,0E0,0E0,0E0,0E0,0E0,0E0,0E0,0E0,0E0,0E0,0E0,0E0,0E0,0E0,0E0,0E0],"parents":[2147483647,0,0,1,1,2,2,3,3,4,4,5,5,6,6,8,8,9,9,10,10,11,11,12,12,13,13,14,14,16,16,21,21,22,22,23,23,24,24,25,25,27,27,28,28,30,30,31,31,32,32,33,33,34,34,35,35,36,36,37,37,38,38,39,39,41,41,42,42,43,43],"right_children":[2,4,6,8,10,12,14,-1,16,18,20,22,24,26,28,-1,30,-1,-1,-1,-1,32,34,36,38,40,-1,42,44,-1,46,48,50,52,54,56,58,60,62,64,-1,66,68,70,-1,-1,-1,-1,-1,-1,-1,-1,-1,-1,-1,-1,-1,-1,-1,-1,-1,-1,-1,-1,-1,-1,-1,-1,-1,-1,-1],"split_conditions":[1.175E-1,1.065E2,5.65E-1,5.95E0,3.45E-1,2.25E-2,7.55E1,-8.615849E-2,3.2E1,9.25E-2,7.55E0,3.25E-1,2.35E-2,4.1E-1,2.9000002E-1,6.4442396E-2,6.75E0,2.6149107E-2,1.7972487E-1,3.0178322E-2,1.3355255E-3,9.90525E-1,3.25E0,3.0749998E0,5.45E0,6.75E0,1.4138986E-1,3.0749998E0,5.3999996E-1,1.2436343E-2,7.2E0,1.75E0,7.15E0,3.75E-1,3.75E-1,4E0,3.2999998E-1,9.9068E-1,5.55E0,9E-1,-2.7092101E-2,6.275E-1,2.55E1,3.7E1,-1.6080073E-1,-1.4324188E-4,-6.6803456E-3,2.2157997E-2,-7.662233E-2,8.937495E-2,-1.575514E-2,-5.428262E-2,7.481141E-2,2.2528541E-1,8.999258E-3,-6.1661486E-2,8.3137214E-2,-1.0387365E-1,1.6206695E-2,8.2681805E-2,4.507539E-3,-9.967685E-2,1.15829995E-2,-1.9048333E-2,4.3074254E-2,-4.340172E-4,1.4513713E-1,-6.3134305E-2,2.0104148E-3,-7.132825E-2,3.0896807E-2],"split_indices":[1,6,1,0,2,4,6,0,5,1,0,1,4,2,2,0,0,0,0,0,0,7,8,8,0,0,0,8,9,0,0,3,3,1,1,5,1,7,0,3,0,1,5,5,0,0,0,0,0,0,0,0,0,0,0,0,0,0,0,0,0,0,0,0,0,0,0,0,0,0,0],"split_type":[0,0,0,0,0,0,0,0,0,0,0,0,0,0,0,0,0,0,0,0,0,0,0,0,0,0,0,0,0,0,0,0,0,0,0,0,0,0,0,0,0,0,0,0,0,0,0,0,0,0,0,0,0,0,0,0,0,0,0,0,0,0,0,0,0,0,0,0,0,0,0],"sum_hessian":[2.94E3,1.9E1,2.921E3,9E0,1E1,2.868E3,5.3E1,1E0,8E0,6E0,4E0,5.2E1,2.816E3,9E0,4.4E1,3E0,5E0,1E0,5E0,3E0,1E0,3.6E1,1.6E1,1.6E1,2.8E3,7E0,2E0,2.8E1,1.6E1,2E0,3E0,1.4E1,2.2E1,7E0,9E0,4E0,1.2E1,8.8E1,2.712E3,6E0,1E0,5E0,2.3E1,1.2E1,4E0,2E0,1E0,7E0,7E0,1.3E1,9E0,3E0,4E0,6E0,3E0,1E0,3E0,1E1,2E0,3.7E1,5.1E1,1.4E1,2.698E3,1E0,5E0,2E0,3E0,1.3E1,1E1,1E1,2E0],"tree_param":{"num_deleted":"0","num_feature":"11","num_nodes":"71","size_leaf_vector":"0"}},{"base_weights":[2.7811352E-2,4.9705267E-1,2.7322909E-2,-2.469474E-1,2.8155768E-2,-3.2391477E-1,-6.975949E-2,3.248078E-1,2.7436204E-2,-8.645519E-2,-9.836197E-3,1.06202245E-1,4.6221137E-1,2.844205E-2,-1.6959387E-1,1.4094846E-1,9.818077E-4,2.439455E-2,9.788129E-2,-3.890195E-1,-2.0979118E-2,2.907607E-2,-7.590456E-2,4.1466936E-2,1.9909552E-1,1.0972023E-2,-4.712122E-1,2.7585983E-2,-5.7953518E-2],"categories":[],"categories_nodes":[],"categories_segments":[],"categories_sizes":[],"default_left":[1,0,1,1,1,0,1,1,1,0,0,1,0,1,1,0,0,1,1,1,1,0,0,0,0,0,0,0,0],"id":15,"left_children":[1,-1,3,5,7,-1,9,11,13,-1,-1,15,-1,17,19,-1,-1,21,23,25,27,-1,-1,-1,-1,-1,-1,-1,-1],"loss_changes":[6.604898E-1,0E0,6.7830443E-1,1.00143075E-1,6.1673856E-1,0E0,3.151454E-3,1.6117239E-1,5.845053E-1,0E0,0E0,1.4485661E-2,0E0,8.157642E-1,4.8098695E-1,0E0,0E0,1.2944148E0,9.053335E-1,2.0242852E-1,1.955536E-2,0E0,0E0,0E0,0E0,0E0,0E0,0E0,0E0],"parents":[2147483647,0,0,2,2,3,3,4,4,6,6,7,7,8,8,11,11,13,13,14,14,17,17,18,18,19,19,20,20],"right_children":[2,-1,4,6,8,-1,10,12,14,-1,-1,16,-1,18,20,-1,-1,22,24,26,28,-1,-1,-1,-1,-1,-1,-1,-1],"split_conditions":[2.78E0,1.491158E-1,2.84E0,5.3E-1,2.65E-1,-9.7174436E-2,2.9500002E-1,3.15E-2,2.475E2,-2.5936557E-2,-2.9508593E-3,7E0,1.3866341E-1,2.085E2,6.8E0,4.228454E-2,2.9454232E-4,1.945E2,7.25E0,6.3999996E0,4.3E1,8.722821E-3,-2.277137E-2,1.2440082E-2,5.9728656E-2,3.2916071E-3,-1.4136367E-1,8.275796E-3,-1.7386056E-2],"split_indices":[8,0,8,9,9,0,1,4,6,0,0,0,0,6,0,0,0,6,0,0,5,0,0,0,0,0,0,0,0],"split_type":[0,0,0,0,0,0,0,0,0,0,0,0,0,0,0,0,0,0,0,0,0,0,0,0,0,0,0,0,0],"sum_hessian":[2.94E3,2E0,2.938E3,8E0,2.93E3,5E0,3E0,6E0,2.924E3,2E0,1E0,3E0,3E0,2.91E3,1.4E1,2E0,1E0,2.751E3,1.59E2,5E0,9E0,2.629E3,1.22E2,1.03E2,5.6E1,1E0,4E0,4E0,5E0],"tree_param":{"num_deleted":"0","num_feature":"11","num_nodes":"29","size_leaf_vector":"0"}},{"base_weights":[1.9507159E-2,1.2709709E-2,4.524813E-2,-2.0428804E-1,1.4773533E-2,4.515372E-1,4.0496036E-2,2.5598437E-2,-3.1327495E-1,6.382572E-2,6.466438E-3,7.282561E-1,6.1933994E-2,9.718988E-2,1.7008011E-3,1.8231559E-1,-1.0489497E-1,-3.5800388E-1,1.5646505E-1,4.0229517E-3,1.8393378E-1,1.1993238E-2,-1.5603592E-1,7.725827E-2,7.980585E-3,3.669329E-2,2.0417604E-1,2.363887E-2,-1.458339E-1,-2.5121212E-2,2.5983492E-1,-1.5636118E-1,-1.846377E-2,-3.9033985E-1,3.1181812E-2,-5.921586E-2,1.4113216E-1,3.8335526E-1,4.2156182E-2,2.838206E-2,-1.8732274E-2,-2.1898574E-1,2.1208663E-1,1.5169978E-1,-7.044157E-2,-8.928086E-2,2.6014507E-1,3.3127606E-2,-1.83413E-1,4.2796624E-1,-1.9468313E-1,9.32622E-3,-3.7021875E-2,-4.347839E-1,-9.726509E-2,-2.5388105E-2,-2.6102838E-1,-1.5882492E-1,2.0483233E-1,7.473511E-1,2.3290522E-1,1.2616952E-1,-1.4388046E-1,1.6380763E-2,1.4404944E-1,-1.516344E-1,-5.566724E-4,-2.5975162E-1,-5.4874895E-3,4.1600475E-1,-7.503243E-2,-2.706011E-1,2.3382612E-1,6.1822426E-2,-1.83505E-1,1.7564745E-1,-2.0158638E-1,6.434467E-1,2.0477404E-1,1.4153264E-2,2.748384E-1,-3.7142354E-1,2.2929068E-1,-3.5946405E-1,-5.5071086E-2],"categories":[],"categories_nodes":[],"categories_segments":[],"categories_sizes":[],"default_left":[1,1,1,1,1,1,1,1,1,1,1,0,1,1,1,1,1,1,0,1,1,1,1,0,0,1,1,1,1,0,0,0,1,1,0,1,1,1,1,1,1,1,1,1,1,1,1,1,1,0,1,0,0,0,0,0,0,0,0,0,0,0,0,0,0,0,0,0,0,0,0,0,0,0,0,0,0,0,0,0,0,0,0,0,0],"id":16,"left_children":[1,3,5,7,9,11,13,15,17,19,21,-1,23,25,27,29,31,33,-1,35,37,39,41,-1,-1,43,45,47,49,-1,-1,-1,51,53,-1,55,57,59,61,63,65,67,69,71,73,75,77,79,81,-1,83,-1,-1,-1,-1,-1,-1,-1,-1,-1,-1,-1,-1,-1,-1,-1,-1,-1,-1,-1,-1,-1,-1,-1,-1,-1,-1,-1,-1,-1,-1,-1,-1,-1,-1],"loss_changes":[5.1402056E-1,1.0456014E0,1.1671783E0,5.5922097E-1,9.3964624E-1,7.0957005E-1,1.337101E0,1.8272842E-1,3.7117958E-1,2.3983135E0,1.7747562E0,0E0,2.6906207E-3,1.5911658E0,1.175106E0,7.084881E-2,1.9354414E-2,1.8835735E-1,0E0,1.9505767E0,3.122197E0,9.623215E-1,1.5527049E0,0E0,0E0,1.9697576E0,1.4850066E0,6.269088E-1,1.4007137E0,0E0,0E0,0E0,1.8924627E-3,1.2704134E-1,0E0,1.0447102E0,1.3891522E0,2.3450456E0,1.0497042E0,1.727286E0,1.6062738E0,4.8596764E-1,6.167016E-1,2.7337894E0,1.252545E0,4.817018E-1,1.4600239E0,1.38576E0,1.171461E0,0E0,9.9244153E-1,0E0,0E0,0E0,0E0,0E0,0E0,0E0,0E0,0E0,0E0,0E0,0E0,0E0,0E0,0E0,0E0,0E0,0E0,0E0,0E0,0E0,0E0,0E0,0E0,0E0,0E0,0E0,0E0,0E0,0E0,0E0,0E0,0E0,0E0],"parents":[2147483647,0,0,1,1,2,2,3,3,4,4,5,5,6,6,7,7,8,8,9,9,10,10,12,12,13,13,14,14,15,15,16,16,17,17,19,19,20,20,21,21,22,22,25,25,26,26,27,27,28,28,32,32,33,33,35,35,36,36,37,37,38,38,39,39,40,40,41,41,42,42,43,43,44,44,45,45,46,46,47,47,48,48,50,50],"right_children":[2,4,6,8,10,12,14,16,18,20,22,-1,24,26,28,30,32,34,-1,36,38,40,42,-1,-1,44,46,48,50,-1,-1,-1,52,54,-1,56,58,60,62,64,66,68,70,72,74,76,78,80,82,-1,84,-1,-1,-1,-1,-1,-1,-1,-1,-1,-1,-1,-1,-1,-1,-1,-1,-1,-1,-1,-1,-1,-1,-1,-1,-1,-1,-1,-1,-1,-1,-1,-1,-1,-1],"split_conditions":[5.65E-1,8.65E0,8.65E0,8.55E0,9.15E0,4.7E-1,6.15E-1,5.5E-2,6.65E-2,9.98385E-1,9.9833E-1,2.1847685E-1,7.4E0,4.075E1,1.9E2,5.45E0,7.5E0,6.55E-1,4.693952E-2,5.55E-2,1.4825E1,1.435E2,1.845E1,2.317748E-2,2.3941756E-3,3.9499998E-2,2.75E-1,9.9942505E-1,6.25E-1,-7.536364E-3,7.795048E-2,-4.6908356E-2,6.85E0,2.14E2,9.354544E-3,7.45E0,2.35E-1,3.85E1,9.9985003E-1,3.375E0,1.495E2,4.05E-1,3.4E1,9.8964E-1,2.65E-1,4.5E1,9.91945E-1,5.85E1,4.1E-1,1.2838988E-1,4.75E-2,2.797866E-3,-1.1106563E-2,-1.3043518E-1,-2.9179526E-2,-7.616432E-3,-7.8308515E-2,-4.764748E-2,6.1449703E-2,2.2420534E-1,6.987157E-2,3.7850857E-2,-4.3164138E-2,4.914229E-3,4.321483E-2,-4.549032E-2,-1.6700172E-4,-7.792549E-2,-1.6462469E-3,1.2480143E-1,-2.250973E-2,-8.1180334E-2,7.0147835E-2,1.8546728E-2,-5.50515E-2,5.269424E-2,-6.0475916E-2,1.9303401E-1,6.1432213E-2,4.2459797E-3,8.245152E-2,-1.1142707E-1,6.878721E-2,-1.0783922E-1,-1.6521327E-2],"split_indices":[9,10,10,10,10,2,9,4,4,7,7,0,0,5,6,0,3,2,0,4,3,6,3,0,0,4,2,7,9,0,0,0,0,6,0,0,2,5,7,8,6,1,5,7,1,5,7,5,2,0,4,0,0,0,0,0,0,0,0,0,0,0,0,0,0,0,0,0,0,0,0,0,0,0,0,0,0,0,0,0,0,0,0,0,0],"split_type":[0,0,0,0,0,0,0,0,0,0,0,0,0,0,0,0,0,0,0,0,0,0,0,0,0,0,0,0,0,0,0,0,0,0,0,0,0,0,0,0,0,0,0,0,0,0,0,0,0,0,0,0,0,0,0,0,0,0,0,0,0,0,0,0,0,0,0,0,0,0,0,0,0,0,0,0,0,0,0,0,0,0,0,0,0],"sum_hessian":[2.94E3,2.327E3,6.13E2,2.1E1,2.306E3,6E0,6.07E2,7E0,1.4E1,3.33E2,1.973E3,3E0,3E0,2.46E2,3.61E2,3E0,4E0,1.3E1,1E0,2.23E2,1.1E2,1.909E3,6.4E1,2E0,1E0,1.58E2,8.8E1,3.15E2,4.6E1,1E0,2E0,2E0,2E0,1.2E1,1E0,1.53E2,7E1,4.5E1,6.5E1,1.245E3,6.64E2,5.5E1,9E0,7.6E1,8.2E1,1.4E1,7.4E1,3.02E2,1.3E1,3E0,4.3E1,1E0,1E0,1E1,2E0,1.32E2,2.1E1,1.2E1,5.8E1,1.2E1,3.3E1,4.5E1,2E1,1.129E3,1.16E2,7.9E1,5.85E2,4.6E1,9E0,5E0,4E0,1.2E1,6.4E1,3.8E1,4.4E1,4E0,1E1,8E0,6.6E1,2.81E2,2.1E1,9E0,4E0,1.9E1,2.4E1],"tree_param":{"num_deleted":"0","num_feature":"11","num_nodes":"85","size_leaf_vector":"0"}},{"base_weights":[1.3874304E-2,-1.6707573E-2,2.0665923E-2,1.5844111E-1,-3.429603E-2,-8.088525E-3,3.511999E-2,4.056967E-2,3.5918805E-1,-1.2640695E-1,3.09744E-4,8.278054E-2,-2.034639E-2,2.4848728E-2,9.85246E-2,1.9498487E-1,-2.8331269E-2,-1.18979834E-1,5.04306E-1,-2.0936444E-2,-3.1274146E-1,-4.2796627E-1,1.2686768E-2,3.996533E-2,1.057539E0,-2.3784116E-1,-7.0265215E-3,4.9008556E-2,1.8481438E-3,1.856869E-1,-2.9949142E-2,7.824707E-2,2.9607326E-1,-1.5207274E-1,2.4287645E-2,-2.1790361E-1,-3.9772987E-2,6.0127103E-1,-5.1656086E-2,-1.01877905E-1,1.9240725E-1,-3.5062736E-1,7.339475E-1,-5.447883E-1,-1.1653614E-1,1.0984051E-3,2.8741807E-1,4.3956405E-3,6.651128E-1,1.3733946E0,5.4986E-2,6.965812E-2,-3.529128E-1,1.2648404E-1,-1.6825976E-2,8.9758E-2,-8.506767E-3,-2.0197558E-1,1.0850889E-2,1.0481308E-1,3.3636537E-1,2.2682407E-1,-1.0547433E-1,4.0735126E-2,1.0218064E-1,7.016659E-2,3.3500826E-1,3.944103E-2,-2.3656645E-1,-4.838562E-3,1.618228E-1,-6.600634E-2,1.946354E-2,2.3170853E-1,6.520127E-1,6.159067E-3,-8.36432E-2,3.1824E-1,-1.600755E-1,2.622539E-1,-2.2238946E-1,-3.9528307E-1,2.2824228E-1,-1.406881E-1,-2.2040129E-2,-6.7858644E-2,6.8416834E-2,6.71436E-1,-1.9251932E-1,-7.6969884E-2,1.4480288E-1,1.2177515E0,-1.092302E-1,2.6199418E-1,-2.520112E-1,-2.8333995E-1,-8.846221E-1,4.2318936E-2,4.2524648E-1,2.7697058E-3,-9.6983686E-2,-7.6949894E-2,1.2112197E-1,-4.8897568E-2,1.6541038E-1,1.0529126E-3,-4.3408337E-1,4.72452E-1,6.033565E-3,-6.329066E-2,2.9906103E-1,6.187443E-1,9.535293E-2,-3.6961687E-1,3.4676516E-1,-2.1994875E-1,2.556986E-2],"categories":[],"categories_nodes":[],"categories_segments":[],"categories_sizes":[],"default_left":[1,1,1,1,1,1,1,1,1,1,1,1,1,1,1,1,1,1,1,1,1,1,1,1,1,1,1,1,1,1,1,1,1,1,1,0,1,1,1,1,1,1,0,0,1,1,1,1,1,0,0,1,1,1,1,1,1,1,1,1,1,1,1,0,0,0,0,0,0,0,0,0,0,0,0,0,0,0,0,0,0,0,0,0,0,0,0,0,0,0,0,0,0,0,0,0,0,0,0,0,0,0,0,0,0,0,0,0,0,0,0,0,0,0,0,0,0],"id":17,"left_children":[1,3,5,7,9,11,13,15,17,19,21,23,25,27,29,31,33,35,37,39,41,43,45,47,49,51,53,55,57,59,61,63,65,67,69,-1,71,73,75,77,79,81,-1,-1,83,85,87,89,91,-1,-1,93,95,97,99,101,103,105,107,109,111,113,115,-1,-1,-1,-1,-1,-1,-1,-1,-1,-1,-1,-1,-1,-1,-1,-1,-1,-1,-1,-1,-1,-1,-1,-1,-1,-1,-1,-1,-1,-1,-1,-1,-1,-1,-1,-1,-1,-1,-1,-1,-1,-1,-1,-1,-1,-1,-1,-1,-1,-1,-1,-1,-1,-1],"loss_changes":[6.1119235E-1,1.6535522E0,1.0006785E0,1.1448821E0,1.5523857E0,8.9945596E-1,1.0408472E0,3.4598342E-1,1.3090355E0,2.6072743E0,1.8872073E0,3.9642458E0,2.058097E0,7.6676184E-1,2.5027301E0,9.484151E-2,1.5344976E-1,3.0510522E-2,7.8578377E-1,1.5046802E0,2.1607695E0,3.0033147E-1,1.1012394E0,2.0650527E0,1.1911306E0,1.4753458E0,8.8001806E-1,1.5780853E0,1.3013524E0,1.585475E0,1.7886732E0,1.2244284E-3,2.047199E-2,1.2260236E-1,6.8882905E-2,0E0,7.5006085E-3,7.3949814E-2,6.063184E-3,1.591283E0,7.536543E-1,1.305162E0,0E0,0E0,6.0282685E-3,1.5504556E0,2.7095284E0,1.0279089E0,2.2726748E0,0E0,0E0,8.084488E-1,8.5912776E-1,1.138691E0,9.8355496E-1,2.0693977E0,1.9749908E0,1.414192E0,1.5070295E0,2.8924632E0,3.0716152E0,1.6304638E0,1.07071E0,0E0,0E0,0E0,0E0,0E0,0E0,0E0,0E0,0E0,0E0,0E0,0E0,0E0,0E0,0E0,0E0,0E0,0E0,0E0,0E0,0E0,0E0,0E0,0E0,0E0,0E0,0E0,0E0,0E0,0E0,0E0,0E0,0E0,0E0,0E0,0E0,0E0,0E0,0E0,0E0,0E0,0E0,0E0,0E0,0E0,0E0,0E0,0E0,0E0,0E0,0E0,0E0,0E0,0E0],"parents":[2147483647,0,0,1,1,2,2,3,3,4,4,5,5,6,6,7,7,8,8,9,9,10,10,11,11,12,12,13,13,14,14,15,15,16,16,17,17,18,18,19,19,20,20,21,21,22,22,23,23,24,24,25,25,26,26,27,27,28,28,29,29,30,30,31,31,32,32,33,33,34,34,36,36,37,37,38,38,39,39,40,40,41,41,44,44,45,45,46,46,47,47,48,48,51,51,52,52,53,53,54,54,55,55,56,56,57,57,58,58,59,59,60,60,61,61,62,62],"right_children":[2,4,6,8,10,12,14,16,18,20,22,24,26,28,30,32,34,36,38,40,42,44,46,48,50,52,54,56,58,60,62,64,66,68,70,-1,72,74,76,78,80,82,-1,-1,84,86,88,90,92,-1,-1,94,96,98,100,102,104,106,108,110,112,114,116,-1,-1,-1,-1,-1,-1,-1,-1,-1,-1,-1,-1,-1,-1,-1,-1,-1,-1,-1,-1,-1,-1,-1,-1,-1,-1,-1,-1,-1,-1,-1,-1,-1,-1,-1,-1,-1,-1,-1,-1,-1,-1,-1,-1,-1,-1,-1,-1,-1,-1,-1,-1,-1,-1],"split_conditions":[6.1499996E0,7.65E1,2.75E1,6.85E1,2.225E-1,9.90625E-1,3.315E0,9.89775E-1,2.55E-1,1.235E2,8.15E1,1.37E2,9.9118495E-1,3.1350002E0,9.9595E-1,1.5E0,5.45E1,5.1499996E0,3.65E-1,1.125E2,4.65E-1,4.6999997E-1,3.5349998E0,7.8E0,4.7E-1,1.45E1,6.3500004E0,7.3500004E0,3.45E-1,4.05E1,4.5500003E-2,5.75E0,1.525E-1,3.65E1,3.85E-1,-6.537109E-2,5.85E0,2.65E-1,5.85E0,5.45E0,1.165E1,8.95E-1,2.2018427E-1,-1.634365E-1,8E-2,3.95E0,5.45E-1,2.1E1,1.5999999E0,4.120184E-1,1.6495802E-2,3.05E-1,4.1E-1,3.65E-1,3.275E0,2.55E-1,3.105E0,1.0450001E1,2.1499999E-2,2.05E0,1.525E2,7.65E0,5.45E-2,1.2220538E-2,3.0654192E-2,2.1049976E-2,1.0050248E-1,1.183231E-2,-7.096994E-2,-1.4515687E-3,4.854684E-2,-1.9801904E-2,5.839062E-3,6.951256E-2,1.9560382E-1,1.8477202E-3,-2.5092961E-2,9.5472E-2,-4.8022654E-2,7.867618E-2,-6.671684E-2,-1.1858492E-1,6.847268E-2,-4.2206433E-2,-6.6120387E-3,-2.0357594E-2,2.0525051E-2,2.0143081E-1,-5.7755798E-2,-2.3090966E-2,4.3440867E-2,3.6532545E-1,-3.276906E-2,7.859826E-2,-7.5603366E-2,-8.500199E-2,-2.6538664E-1,1.2695681E-2,1.2757395E-1,8.309118E-4,-2.9095108E-2,-2.3084968E-2,3.6336593E-2,-1.4669271E-2,4.9623117E-2,3.1587377E-4,-1.3022502E-1,1.4173561E-1,1.8100695E-3,-1.89872E-2,8.971831E-2,1.856233E-1,2.860588E-2,-1.1088506E-1,1.0402955E-1,-6.598463E-2,7.670958E-3],"split_indices":[0,6,5,6,1,7,8,7,2,6,6,6,7,8,7,3,6,0,2,6,2,1,8,0,1,5,0,0,9,5,4,0,1,6,2,0,0,2,0,0,10,9,0,0,2,3,9,5,3,0,0,1,2,2,8,2,8,10,4,3,6,3,4,0,0,0,0,0,0,0,0,0,0,0,0,0,0,0,0,0,0,0,0,0,0,0,0,0,0,0,0,0,0,0,0,0,0,0,0,0,0,0,0,0,0,0,0,0,0,0,0,0,0,0,0,0,0],"split_type":[0,0,0,0,0,0,0,0,0,0,0,0,0,0,0,0,0,0,0,0,0,0,0,0,0,0,0,0,0,0,0,0,0,0,0,0,0,0,0,0,0,0,0,0,0,0,0,0,0,0,0,0,0,0,0,0,0,0,0,0,0,0,0,0,0,0,0,0,0,0,0,0,0,0,0,0,0,0,0,0,0,0,0,0,0,0,0,0,0,0,0,0,0,0,0,0,0,0,0,0,0,0,0,0,0,0,0,0,0,0,0,0,0,0,0,0,0],"sum_hessian":[2.94E3,5.34E2,2.406E3,4.8E1,4.86E2,8.05E2,1.601E3,3.1E1,1.7E1,1.32E2,3.54E2,9.5E1,7.1E2,1.379E3,2.22E2,9E0,2.2E1,4E0,1.3E1,8.5E1,4.7E1,9E0,3.45E2,9.2E1,3E0,4E1,6.7E2,6.72E2,7.07E2,1.32E2,9E1,5E0,4E0,6E0,1.6E1,1E0,3E0,1.1E1,2E0,6.2E1,2.3E1,4.6E1,1E0,6E0,3E0,3.32E2,1.3E1,8.8E1,4E0,2E0,1E0,1.1E1,2.9E1,4.5E1,6.25E2,3.93E2,2.79E2,2.9E1,6.78E2,8.7E1,4.5E1,2E1,7E1,3E0,2E0,1E0,3E0,2E0,4E0,1.4E1,2E0,2E0,1E0,2E0,9E0,1E0,1E0,7E0,5.5E1,2E1,3E0,4.3E1,3E0,2E0,1E0,1.64E2,1.68E2,7E0,6E0,5.6E1,3.2E1,2E0,2E0,7E0,4E0,2.7E1,2E0,3.6E1,9E0,5.03E2,1.22E2,6.2E1,3.31E2,2.27E2,5.2E1,1.6E1,1.3E1,6E0,6.72E2,4.7E1,4E1,2E1,2.5E1,3E0,1.7E1,3.7E1,3.3E1],"tree_param":{"num_deleted":"0","num_feature":"11","num_nodes":"117","size_leaf_vector":"0"}},{"base_weights":[1.0155291E-2,3.9381185E-1,9.760217E-3,1.1020713E-2,-1.1710404E-1,8.535426E-3,1.0752355E-1,-1.86216E-1,2.518766E-1,9.797245E-3,-1.3388686E-1,-1.4907553E-2,3.16662E-1,3.002298E-1,-2.1899416E-1,-6.532419E-2,3.4750783E-1,6.0600853E-3,6.546148E-2,-5.570289E-1,9.800521E-2,4.58042E-1,-9.529144E-2,4.9892431E-1,4.7257125E-2,-2.3683973E-1,9.572697E-2,1.2340262E-2,-3.822598E-2,1.5267964E-1,-5.8000006E-2,-2.1135959E-1,-7.9129237E-1,2.2465995E-1,-2.5089818E-1,8.49514E-1,-4.7940493E-2,-1.9587818E-1,3.4411365E-1,3.6099654E-1,1.2839205E0,1.115427E-1,-1.091997E-1,-2.54652E-1,7.7515125E-2],"categories":[],"categories_nodes":[],"categories_segments":[],"categories_sizes":[],"default_left":[1,0,1,1,1,1,1,1,1,1,1,1,1,0,1,0,0,1,1,1,1,1,1,1,1,1,0,0,0,0,0,0,0,0,0,0,0,0,0,0,0,0,0,0,0],"id":18,"left_children":[1,-1,3,5,7,9,11,13,15,17,19,21,23,-1,25,-1,-1,27,29,31,33,35,37,39,41,43,-1,-1,-1,-1,-1,-1,-1,-1,-1,-1,-1,-1,-1,-1,-1,-1,-1,-1,-1],"loss_changes":[4.419327E-1,0E0,4.712715E-1,6.972484E-1,7.8643167E-1,5.115118E-1,1.8738897E0,4.643684E-1,1.7437217E-1,5.85197E-1,2.5076735E0,1.8304712E0,1.3021858E0,0E0,1.574651E-1,0E0,0E0,7.344417E-1,1.9148059E0,5.6155205E-1,8.0760133E-1,1.427272E0,1.8795356E0,1.2688737E0,1.3287544E-1,1.4852488E-1,0E0,0E0,0E0,0E0,0E0,0E0,0E0,0E0,0E0,0E0,0E0,0E0,0E0,0E0,0E0,0E0,0E0,0E0,0E0],"parents":[2147483647,0,0,2,2,3,3,4,4,5,5,6,6,7,7,8,8,9,9,10,10,11,11,12,12,14,14,17,17,18,18,19,19,20,20,21,21,22,22,23,23,24,24,25,25],"right_children":[2,-1,4,6,8,10,12,14,16,18,20,22,24,-1,26,-1,-1,28,30,32,34,36,38,40,42,44,-1,-1,-1,-1,-1,-1,-1,-1,-1,-1,-1,-1,-1,-1,-1,-1,-1,-1,-1],"split_conditions":[2.78E0,1.1814356E-1,9.25E0,8.55E0,3.65E1,8.45E0,3.105E0,3.5E0,9.5E0,7.95E0,3.8E-1,9.9175E-1,4.85E-2,9.006894E-2,1.3E1,-1.9597257E-2,1.0425235E-1,7.45E0,1.085E1,3.25E-1,5.45E-2,4.7500002E-1,3.85E1,9.05E0,2.55E1,1.325E1,2.8718092E-2,3.7020787E-3,-1.1467794E-2,4.5803893E-2,-1.7400002E-2,-6.340788E-2,-2.3738772E-1,6.739799E-2,-7.526946E-2,2.548542E-1,-1.4382148E-2,-5.8763456E-2,1.032341E-1,1.08298965E-1,3.8517618E-1,3.346281E-2,-3.2759912E-2,-7.63956E-2,2.3254538E-2],"split_indices":[8,0,0,0,5,0,8,5,0,0,9,7,4,0,0,0,0,0,10,2,4,9,5,0,5,3,0,0,0,0,0,0,0,0,0,0,0,0,0,0,0,0,0,0,0],"split_type":[0,0,0,0,0,0,0,0,0,0,0,0,0,0,0,0,0,0,0,0,0,0,0,0,0,0,0,0,0,0,0,0,0,0,0,0,0,0,0,0,0,0,0,0,0],"sum_hessian":[2.94E3,2E0,2.938E3,2.91E3,2.8E1,2.838E3,7.2E1,2.4E1,4E0,2.814E3,2.4E1,4.6E1,2.6E1,1E0,2.3E1,1E0,3E0,2.638E3,1.76E2,8E0,1.6E1,6E0,4E1,1.5E1,1.1E1,2.2E1,1E0,2.311E3,3.27E2,1.03E2,7.3E1,4E0,4E0,1.2E1,4E0,3E0,3E0,3.3E1,7E0,1.4E1,1E0,8E0,3E0,2.1E1,1E0],"tree_param":{"num_deleted":"0","num_feature":"11","num_nodes":"45","size_leaf_vector":"0"}},{"base_weights":[7.3669003E-3,1.075095E-1,5.703386E-3,2.0494021E-1,-1.7056857E-1,-1.4796077E-1,6.9319974E-3,1.2613424E-2,3.2675666E-1,-2.43159E-1,1.5245247E-1,3.2750946E-2,-3.861611E-1,-1.129688E-2,1.5297651E-2,1.0145966E-1,-2.5707865E-1,1.845228E-1,6.7529315E-1,-8.6015105E-2,-2.9133606E-1,1.2362623E-1,-3.4166718E-1,-5.40529E-1,1.5420707E-1,-2.915638E-2,6.433578E-2,-1.5858014E-1,1.7796766E-2,2.140584E-2,3.3448586E-1,-8.015804E-2,2.7212906E-1,6.162691E-2,7.85701E-1,-1.8132854E-1,-4.1423908E-1,-3.082977E-2,2.8322053E-1,-2.4733543E-3,-6.1704075E-1,1.3469972E-1,-4.266714E-2,1.9601863E-2,2.6861364E-1,-1.8858348E-1,3.2575512E-1,4.174057E-3,5.3067084E-2,1.6484156E-1,-1.0169157E-1,-2.3978901E-1,1.0619227E-1,-9.612179E-2,3.1082678E-1,9.9027E-2,-1.0257788E-1,5.987978E-2,3.1591272E-1,1.938258E-1,-2.4428505E-1,9.1681786E-2,-5.4225113E-2,-1.5576392E-1,6.753759E-2,7.467548E-3,4.1187063E-1,-2.2481479E-1,7.5950265E-2,1.1150196E-2,-9.7646445E-2,2.0837262E-1,1.9094713E-2],"categories":[],"categories_nodes":[],"categories_segments":[],"categories_sizes":[],"default_left":[1,1,1,1,1,1,1,1,1,1,0,1,1,1,1,1,0,1,1,0,1,1,0,1,0,1,1,1,1,1,0,1,1,0,0,0,0,1,1,0,0,1,1,1,1,1,0,1,1,0,0,0,0,0,0,0,0,0,0,0,0,0,0,0,0,0,0,0,0,0,0,0,0],"id":19,"left_children":[1,3,5,7,9,11,13,15,17,19,-1,21,23,25,27,29,-1,31,33,-1,35,37,-1,39,-1,41,43,45,47,49,-1,51,53,-1,-1,-1,-1,55,57,-1,-1,59,61,63,65,67,-1,69,71,-1,-1,-1,-1,-1,-1,-1,-1,-1,-1,-1,-1,-1,-1,-1,-1,-1,-1,-1,-1,-1,-1,-1,-1],"loss_changes":[4.8932418E-1,1.3354368E0,5.473942E-1,8.3930683E-1,3.4189725E-1,1.0026958E0,4.3814272E-1,3.8549998E-1,9.660144E-1,5.8218777E-2,0E0,5.1859397E-1,9.175085E-1,1.2229642E0,8.5843253E-1,2.166957E-1,0E0,4.1600424E-1,3.5810113E-1,0E0,3.304869E-2,3.0453518E-1,0E0,3.2781434E-1,0E0,1.6262636E0,1.5756342E0,4.6831906E-1,9.328654E-1,1.9332863E-1,0E0,1.7420013E-1,2.1513325E-1,0E0,0E0,0E0,0E0,7.537682E-2,2.4892181E-2,0E0,0E0,1.3021905E0,1.056218E0,1.2126188E0,1.1566656E0,2.7585375E-1,0E0,9.969491E-1,2.8503895E0,0E0,0E0,0E0,0E0,0E0,0E0,0E0,0E0,0E0,0E0,0E0,0E0,0E0,0E0,0E0,0E0,0E0,0E0,0E0,0E0,0E0,0E0,0E0,0E0],"parents":[2147483647,0,0,1,1,2,2,3,3,4,4,5,5,6,6,7,7,8,8,9,9,11,11,12,12,13,13,14,14,15,15,17,17,18,18,20,20,21,21,23,23,25,25,26,26,27,27,28,28,29,29,31,31,32,32,37,37,38,38,41,41,42,42,43,43,44,44,45,45,47,47,48,48],"right_children":[2,4,6,8,10,12,14,16,18,20,-1,22,24,26,28,30,-1,32,34,-1,36,38,-1,40,-1,42,44,46,48,50,-1,52,54,-1,-1,-1,-1,56,58,-1,-1,60,62,64,66,68,-1,70,72,-1,-1,-1,-1,-1,-1,-1,-1,-1,-1,-1,-1,-1,-1,-1,-1,-1,-1,-1,-1,-1,-1,-1,-1],"split_conditions":[3.05E-1,4.45E1,3.15E-1,1.095E1,7.45E0,3.75E-2,6.425E0,1.1225E1,9.9298E-1,6.45E0,4.5735743E-2,7.5E0,9.9405503E-1,3.475E-1,1.3499999E-1,1.055E1,-7.71236E-2,1.675E0,2.75E-2,-2.5804533E-2,5.05E1,9.9057E-1,-1.02500156E-1,1.9999999E-1,4.6262123E-2,1.575E1,8E0,5.95E-1,4.425E1,1.95E0,1.0034576E-1,3.65E1,9.8897004E-1,1.8488074E-2,2.3571031E-1,-5.4398563E-2,-1.2427173E-1,1.3E0,1.8E-1,-7.4200635E-4,-1.8511224E-1,1.2174999E1,3.65E-1,3.1750002E0,1.515E2,6.45E-1,9.772654E-2,4.15E1,3.925E0,4.9452472E-2,-3.0507471E-2,-7.1936704E-2,3.185768E-2,-2.8836537E-2,9.324804E-2,2.97081E-2,-3.0773366E-2,1.7963935E-2,9.477382E-2,5.814774E-2,-7.328552E-2,2.7504537E-2,-1.6267534E-2,-4.6729177E-2,2.0261278E-2,2.2402646E-3,1.23561196E-1,-6.7444436E-2,2.278508E-2,3.345059E-3,-2.9293934E-2,6.251179E-2,5.7284143E-3],"split_indices":[9,5,9,10,0,4,0,3,7,0,0,0,7,1,2,3,0,3,4,0,5,7,0,1,0,5,3,9,5,3,0,5,7,0,0,0,0,3,1,0,0,10,9,8,6,1,0,5,3,0,0,0,0,0,0,0,0,0,0,0,0,0,0,0,0,0,0,0,0,0,0,0,0],"split_type":[0,0,0,0,0,0,0,0,0,0,0,0,0,0,0,0,0,0,0,0,0,0,0,0,0,0,0,0,0,0,0,0,0,0,0,0,0,0,0,0,0,0,0,0,0,0,0,0,0,0,0,0,0,0,0,0,0,0,0,0,0,0,0,0,0,0,0,0,0,0,0,0,0],"sum_hessian":[2.94E3,4.7E1,2.893E3,3.5E1,1.2E1,2.2E1,2.871E3,1.4E1,2.1E1,1E1,2E0,1.3E1,9E0,9.03E2,1.968E3,1.1E1,3E0,1.6E1,5E0,3E0,7E0,1.1E1,2E0,7E0,2E0,7.31E2,1.72E2,2.7E1,1.941E3,9E0,2E0,4E0,1.2E1,1E0,4E0,5E0,2E0,6E0,5E0,1E0,6E0,5.5E1,6.76E2,1.42E2,3E1,2.6E1,1E0,1.401E3,5.4E2,4E0,5E0,2E0,2E0,1E0,1.1E1,2E0,4E0,1E0,4E0,4.8E1,7E0,5.3E1,6.23E2,3E1,1.12E2,1.1E1,1.9E1,2.3E1,3E0,1.312E3,8.9E1,9.6E1,4.44E2],"tree_param":{"num_deleted":"0","num_feature":"11","num_nodes":"73","size_leaf_vector":"0"}},{"base_weights":[5.2324194E-3,6.1392356E-3,-1.7206648E-1,-1.2522581E-2,1.4378285E-2,-3.4754452E-1,-4.9573015E-2,-3.690244E-2,2.6962386E-2,1.06186315E-1,9.116442E-3,-6.596708E-2,-3.9066657E-1,1.5226603E-3,-7.168869E-2,-2.129207E-2,-2.0917168E-1,-2.663254E-2,1.07744776E-1,8.199085E-1,7.851272E-2,2.6340246E-2,-1.2005231E-2,9.001096E-3,-1.0456324E-2,-3.1764507E-2,-8.130546E-2,1.3198079E-1,-4.240928E-2,-1.3579439E-1,-6.7572135E-1,1.8025037E-2,-1.6721782E-1,-1.3967547E-1,1.725837E-1,9.5435953E-1,2.082777E-1,-1.2635006E-1,1.4583102E-1,1.2682394E-2,1.0713327E-1,-6.510817E-2,6.458884E-3,-2.3392677E-2,-8.993548E-2,8.3885185E-2,3.7368947E-1,-7.1580033E-3,-1.0362547E-1,-1.8560214E-1,3.7132788E-1,-1.4743543E-1,-7.5189143E-1,-9.2408314E-2,9.6203275E-2,-3.356544E-1,2.9240727E-2,1.4605739E-3,-5.1034015E-1,2.3834015E-1,-9.828682E-2,1.637313E-1,-2.1702719E-1,4.6460196E-1,7.2287805E-2,3.8317524E-2,-2.0345902E-2,4.338606E-1,8.369989E-2,1.7525889E-2,-2.1894747E-1,9.408475E-2,-1.3044318E-2],"categories":[],"categories_nodes":[],"categories_segments":[],"categories_sizes":[],"default_left":[1,1,1,1,1,1,1,1,1,1,1,0,0,1,1,1,1,1,1,1,1,1,1,0,0,0,1,1,1,1,1,1,1,1,1,0,0,1,1,1,1,1,1,0,0,0,0,0,0,0,0,0,0,0,0,0,0,0,0,0,0,0,0,0,0,0,0,0,0,0,0,0,0],"id":20,"left_children":[1,3,5,7,9,11,13,15,17,19,21,-1,-1,23,25,27,29,31,33,35,37,39,41,-1,-1,-1,43,45,47,49,51,53,55,57,59,-1,-1,61,63,65,67,69,71,-1,-1,-1,-1,-1,-1,-1,-1,-1,-1,-1,-1,-1,-1,-1,-1,-1,-1,-1,-1,-1,-1,-1,-1,-1,-1,-1,-1,-1,-1],"loss_changes":[4.7390306E-1,4.502228E-1,3.051948E-1,8.6448115E-1,9.801663E-1,4.7082067E-2,1.1409305E-2,1.4880449E0,1.4878972E0,2.1082656E0,6.995313E-1,0E0,0E0,4.5245464E-4,1.0496378E-4,1.6563116E0,1.4830117E0,1.302601E0,2.2219229E0,1.3016558E-1,1.4940643E0,1.1672046E0,8.4757155E-1,0E0,0E0,0E0,3.9511546E-4,6.894108E-1,9.6817726E-1,1.1045227E0,1.3058233E-1,1.3729807E0,1.6643552E0,1.5178558E0,1.9648778E0,0E0,0E0,7.4573517E-1,1.8653333E0,7.687226E-1,1.1351037E0,2.838695E0,1.0983956E0,0E0,0E0,0E0,0E0,0E0,0E0,0E0,0E0,0E0,0E0,0E0,0E0,0E0,0E0,0E0,0E0,0E0,0E0,0E0,0E0,0E0,0E0,0E0,0E0,0E0,0E0,0E0,0E0,0E0,0E0],"parents":[2147483647,0,0,1,1,2,2,3,3,4,4,5,5,6,6,7,7,8,8,9,9,10,10,13,13,14,14,15,15,16,16,17,17,18,18,19,19,20,20,21,21,22,22,26,26,27,27,28,28,29,29,30,30,31,31,32,32,33,33,34,34,37,37,38,38,39,39,40,40,41,41,42,42],"right_children":[2,4,6,8,10,12,14,16,18,20,22,-1,-1,24,26,28,30,32,34,36,38,40,42,-1,-1,-1,44,46,48,50,52,54,56,58,60,-1,-1,62,64,66,68,70,72,-1,-1,-1,-1,-1,-1,-1,-1,-1,-1,-1,-1,-1,-1,-1,-1,-1,-1,-1,-1,-1,-1,-1,-1,-1,-1,-1,-1,-1,-1],"split_conditions":[2.475E2,2.025E0,6.8E0,3.25E1,2.45E0,6.3999996E0,3.8E1,3.05E1,9.9215E-1,9.25E0,4.5500003E-2,-1.9790126E-2,-1.1719998E-1,7.65E0,2.6E-1,9.8996496E-1,3.395E0,9.91665E-1,3.085E0,7.05E0,9.9025E-1,4.35E-2,4.25E-1,2.7003288E-3,-3.1368972E-3,-9.529352E-3,7E0,3.85E-1,3.65E-1,3.65E-1,6.3E0,1.12E2,2.55E-1,1.55E0,9.9395E-1,2.8630787E-1,6.2483314E-2,2.75E-1,4.25E-1,7.6499996E0,3.45E-1,3.205E0,2.05E-1,-7.0178034E-3,-2.6980646E-2,2.5165556E-2,1.12106845E-1,-2.147401E-3,-3.1087643E-2,-5.5680644E-2,1.1139837E-1,-4.423063E-2,-2.2556745E-1,-2.7722495E-2,2.8860984E-2,-1.00696325E-1,8.772219E-3,4.3817217E-4,-1.5310206E-1,7.150205E-2,-2.9486047E-2,4.9119394E-2,-6.510816E-2,1.3938059E-1,2.1686342E-2,1.1495258E-2,-6.103771E-3,1.3015819E-1,2.5109967E-2,5.2577667E-3,-6.5684244E-2,2.8225426E-2,-3.9132955E-3],"split_indices":[6,3,0,5,3,0,5,5,7,10,4,0,0,0,1,7,8,7,8,0,7,4,9,0,0,0,0,2,2,1,0,6,1,3,7,0,0,2,9,3,9,8,1,0,0,0,0,0,0,0,0,0,0,0,0,0,0,0,0,0,0,0,0,0,0,0,0,0,0,0,0,0,0],"split_type":[0,0,0,0,0,0,0,0,0,0,0,0,0,0,0,0,0,0,0,0,0,0,0,0,0,0,0,0,0,0,0,0,0,0,0,0,0,0,0,0,0,0,0,0,0,0,0,0,0,0,0,0,0,0,0,0,0,0,0,0,0,0,0,0,0,0,0,0,0,0,0,0,0],"sum_hessian":[2.94E3,2.926E3,1.4E1,8.96E2,2.03E3,5E0,9E0,5.54E2,3.42E2,1.09E2,1.921E3,1E0,4E0,3E0,6E0,5.09E2,4.5E1,2.06E2,1.36E2,3E0,1.06E2,1.058E3,8.63E2,2E0,1E0,2E0,4E0,6.1E1,4.48E2,4E1,5E0,1.57E2,4.9E1,2.8E1,1.08E2,2E0,1E0,2.6E1,8E1,9.06E2,1.52E2,2.22E2,6.41E2,1E0,3E0,5.2E1,9E0,2.85E2,1.63E2,3.7E1,3E0,1E0,4E0,6.5E1,9.2E1,2.6E1,2.3E1,2.1E1,7E0,8.7E1,2.1E1,6E0,2E1,1.4E1,6.6E1,5.1E2,3.96E2,9E0,1.43E2,1.45E2,7.7E1,1.16E2,5.25E2],"tree_param":{"num_deleted":"0","num_feature":"11","num_nodes":"73","size_leaf_vector":"0"}},{"base_weights":[3.7056056E-3,1.4193347E-1,2.7582194E-3,3.5853386E-3,2.5480145E-1,6.5125837E-3,-3.2972183E-2,-2.1956682E-1,5.2776337E-2,1.3063248E-1,3.7767774E-1,6.457706E-2,3.7099374E-4,1.6486602E-2,-1.435835E-1,1.6927385E-1,-4.690647E-3,5.568552E-2,1.729213E-1,1.2073158E-2,2.19439E-1,1.1295041E-2,-3.4187637E-2,-2.6027163E-2,1.3226484E-1,-2.4953914E-1,-5.450322E-2,-2.3197364E-2,2.7717432E-2,3.5862926E-2,-2.039223E-1,-4.863449E-2,2.8223738E-1,4.1808587E-2,-8.413789E-3,1.3233303E-1,-4.1680977E-2,-1.3308726E-3,-2.70988E-1,-1.0541543E-1,1.9136527E-1,-4.0034625E-1,-1.6768612E-1,1.4736351E-1,-1.9184224E-1,-4.9552917E-3,-3.370698E-2,2.4588205E-2,3.436989E-1,-2.9897943E-1,-3.5846293E-2,5.1185727E-2,-8.369913E-2,6.303207E-2,3.8690764E-1,8.035432E-2,-1.5507438E-3,-7.1643606E-2,9.285666E-3,2.974926E-1,-1.0491484E-1,-1.6534603E-1,-2.7356554E-2,3.240896E-2,-2.0014825E-1,-4.2174608E-1,-2.481254E-2,1.8674342E-1,-3.8000503E-1,8.3465196E-2,3.1758824E-1,-5.717592E-1,-1.05071224E-1,2.4785757E-2,-2.3629057E-1,6.339056E-1,5.8086317E-2,-4.1638526E-1,-3.1489E-2],"categories":[],"categories_nodes":[],"categories_segments":[],"categories_sizes":[],"default_left":[1,1,1,1,1,1,1,0,1,1,0,1,1,1,1,0,1,0,0,1,1,1,1,1,1,1,1,1,0,1,1,1,1,1,1,1,1,1,1,1,1,1,1,1,1,0,0,0,0,0,0,0,0,0,0,0,0,0,0,0,0,0,0,0,0,0,0,0,0,0,0,0,0,0,0,0,0,0,0],"id":21,"left_children":[1,3,5,7,9,11,13,-1,15,17,-1,19,21,23,25,-1,27,-1,-1,29,31,33,35,37,39,41,43,45,-1,47,49,51,53,55,57,59,61,63,65,67,69,71,73,75,77,-1,-1,-1,-1,-1,-1,-1,-1,-1,-1,-1,-1,-1,-1,-1,-1,-1,-1,-1,-1,-1,-1,-1,-1,-1,-1,-1,-1,-1,-1,-1,-1,-1,-1],"loss_changes":[3.847477E-1,3.1138796E-1,3.9218628E-1,1.2135871E-1,1.1849469E-1,9.432048E-1,1.5232222E0,0E0,6.104686E-2,1.2556717E-2,0E0,2.0544572E0,9.0379184E-1,9.5342106E-1,7.981154E-1,0E0,4.841341E-3,0E0,0E0,9.836249E-1,1.0911393E0,1.0942733E0,7.2299826E-1,8.58686E-1,7.5061715E-1,4.14284E-1,1.3590312E0,7.915583E-4,0E0,5.885207E-1,2.928424E-1,4.978627E-2,1.1687145E0,1.193445E0,1.2384266E0,1.0108054E0,9.715349E-1,8.785351E-1,4.7200358E-1,9.53425E-1,5.4550993E-1,5.9790635E-1,3.623761E-1,8.319211E-1,1.0310682E0,0E0,0E0,0E0,0E0,0E0,0E0,0E0,0E0,0E0,0E0,0E0,0E0,0E0,0E0,0E0,0E0,0E0,0E0,0E0,0E0,0E0,0E0,0E0,0E0,0E0,0E0,0E0,0E0,0E0,0E0,0E0,0E0,0E0,0E0],"parents":[2147483647,0,0,1,1,2,2,3,3,4,4,5,5,6,6,8,8,9,9,11,11,12,12,13,13,14,14,16,16,19,19,20,20,21,21,22,22,23,23,24,24,25,25,26,26,27,27,29,29,30,30,31,31,32,32,33,33,34,34,35,35,36,36,37,37,38,38,39,39,40,40,41,41,42,42,43,43,44,44],"right_children":[2,4,6,8,10,12,14,-1,16,18,-1,20,22,24,26,-1,28,-1,-1,30,32,34,36,38,40,42,44,46,-1,48,50,52,54,56,58,60,62,64,66,68,70,72,74,76,78,-1,-1,-1,-1,-1,-1,-1,-1,-1,-1,-1,-1,-1,-1,-1,-1,-1,-1,-1,-1,-1,-1,-1,-1,-1,-1,-1,-1,-1,-1,-1,-1,-1,-1],"split_conditions":[1.175E-1,1.065E2,5.75E1,5.95E0,3.85E1,9.05E0,9.9731004E-1,-6.587005E-2,2.85E1,3.3899999E0,1.13303326E-1,4.85E1,4.95E-2,9.75E0,9.9825E-1,5.078216E-2,1.05E1,1.6705656E-2,5.1876392E-2,3.29E0,2.6999998E-1,1.0516666E1,8.45E1,8.45E0,6.05E1,1.8E2,1.815E2,1.05000004E-1,8.31523E-3,6.75E-1,3.15E-1,4.35E-1,8.75E0,1.435E2,3.065E0,5.95E-2,1.035E2,4.85E-1,7.75E1,1.11E1,5.05E-1,2.9500002E-1,2.75E-1,3.75E-2,2.055E2,-1.4865876E-3,-1.0112095E-2,7.3764618E-3,1.0310967E-1,-8.969383E-2,-1.0753889E-2,1.5355718E-2,-2.510974E-2,1.8909622E-2,1.160723E-1,2.4106296E-2,-4.6522316E-4,-2.1493083E-2,2.7857E-3,8.924778E-2,-3.1474452E-2,-4.960381E-2,-8.206966E-3,9.722688E-3,-6.004448E-2,-1.2652382E-1,-7.4437624E-3,5.6023028E-2,-1.1400151E-1,2.503956E-2,9.5276475E-2,-1.7152777E-1,-3.152137E-2,7.4357274E-3,-7.088718E-2,1.9017169E-1,1.7425897E-2,-1.24915585E-1,-9.4467E-3],"split_indices":[1,6,5,0,5,10,7,0,5,8,0,5,4,3,7,0,3,0,0,8,2,10,6,3,5,6,6,1,0,9,2,9,10,6,8,4,6,2,5,3,9,1,1,4,6,0,0,0,0,0,0,0,0,0,0,0,0,0,0,0,0,0,0,0,0,0,0,0,0,0,0,0,0,0,0,0,0,0,0],"split_type":[0,0,0,0,0,0,0,0,0,0,0,0,0,0,0,0,0,0,0,0,0,0,0,0,0,0,0,0,0,0,0,0,0,0,0,0,0,0,0,0,0,0,0,0,0,0,0,0,0,0,0,0,0,0,0,0,0,0,0,0,0,0,0,0,0,0,0,0,0,0,0,0,0,0,0,0,0,0,0],"sum_hessian":[2.94E3,1.9E1,2.921E3,9E0,1E1,2.644E3,2.77E2,1E0,8E0,6E0,4E0,2.52E2,2.392E3,1.92E2,8.5E1,2E0,6E0,3E0,3E0,1.89E2,6.3E1,1.818E3,5.74E2,1.41E2,5.1E1,3.8E1,4.7E1,4E0,2E0,1.71E2,1.8E1,1.2E1,5.1E1,7.13E2,1.105E3,2.4E1,5.5E2,1.29E2,1.2E1,1E1,4.1E1,1.2E1,2.6E1,1.9E1,2.8E1,2E0,2E0,1.66E2,5E0,1.1E1,7E0,3E0,9E0,1.7E1,3.4E1,3.77E2,3.36E2,2.41E2,8.64E2,1.4E1,1E1,5.6E1,4.94E2,1.11E2,1.8E1,7E0,5E0,5E0,5E0,2.3E1,1.8E1,7E0,5E0,7E0,1.9E1,2E0,1.7E1,1.1E1,1.7E1],"tree_param":{"num_deleted":"0","num_feature":"11","num_nodes":"79","size_leaf_vector":"0"}},{"base_weights":[2.5899601E-3,1.9202312E-3,1.9869551E-1,2.4774403E-3,-2.7022505E-1,-6.47761E-2,2.7266043E-1,1.8706308E-3,4.4543588E-1,-3.5757738E-1,-6.3680254E-2,4.5794804E-2,3.4064984E-1,2.4417331E-3,-2.0660138E-1,1.8557565E-1,6.125083E-1,9.836085E-4,2.0347722E-1,4.779291E-2,